<?xml version="1.0"?>
<opencv_storage>
<my_svm type_id="opencv-ml-svm">
  <svm_type>C_SVC</svm_type>
  <kernel><type>RBF</type>
    <gamma>8.9999999999999997e-02</gamma></kernel>
  <C>10.</C>
  <term_criteria><epsilon>1.1920928955078125e-07</epsilon>
    <iterations>2147483647</iterations></term_criteria>
  <var_all>1296</var_all>
  <var_count>1296</var_count>
  <class_count>10</class_count>
  <class_labels type_id="opencv-matrix">
    <rows>1</rows>
    <cols>10</cols>
    <dt>i</dt>
    <data>
      0 1 2 3 4 5 6 7 8 9</data></class_labels>
  <sv_total>57</sv_total>
  <support_vectors>
    <_>
      0. 0. 0. 0. 0. 0. 0. 0. 0. 0. 0. 0. 0. 0. 0. 0. 0. 0. 0. 0. 0. 0.
      0. 0. 0. 0. 0. 0. 0. 0. 0. 0. 0. 0. 0. 0. 0. 0. 0. 0. 0. 0. 0. 0.
      0. 0. 0. 0. 0. 0. 0. 0. 0. 0. 8.69078562e-03 0. 0. 0. 0. 0. 0. 0.
      8.69078562e-03 2.10290030e-02 0. 0. 0. 0. 0. 0. 0. 2.10290030e-02
      0. 0. 0. 0. 0. 0. 0. 0. 0. 0. 2.82812398e-03 8.46282672e-03 0.
      1.99864693e-02 0. 0. 0. 0. 1.61190331e-01 2.56441891e-01
      3.41841131e-01 0. 1.97129577e-01 0. 0. 0. 1.61190331e-01
      3.41841131e-01 1.07826605e-01 3.22657704e-01 0. 5.63533697e-03 0.
      0. 0. 3.41841131e-01 0. 0. 0. 0. 0. 0. 0. 0. 0. 0. 5.46948193e-03
      1.63667761e-02 0. 1.15483843e-01 0. 0. 0. 0. 2.08898392e-02
      2.00940520e-01 3.41841131e-01 0. 3.41841131e-01 0. 0. 0.
      2.08898392e-02 9.78222862e-02 7.83372968e-02 2.34414250e-01 0.
      5.77092320e-02 0. 0. 0. 9.78222862e-02 0. 0. 0. 0. 0. 0. 0. 0. 0.
      0. 0. 0. 0. 0. 0. 0. 0. 0. 0. 0. 0. 0. 0. 0. 0. 0. 0. 0. 0. 0. 0.
      0. 0. 0. 0. 0. 4.45642928e-03 0. 0. 0. 0. 0. 0. 0. 4.45642928e-03
      2.62639057e-02 0. 0. 0. 0. 0. 0. 0. 2.62639057e-02 2.80711465e-02
      0. 0. 0. 0. 0. 0. 0. 2.80711465e-02 5.19120600e-03 0. 0. 0. 0. 0.
      0. 0. 5.19120600e-03 9.11786258e-02 7.02087209e-02 2.10091054e-01
      0. 2.99886093e-02 0. 0. 0. 9.11786258e-02 3.49476904e-01
      5.47739342e-02 1.63904086e-01 0. 1.10912218e-03 0. 2.60074828e-02
      8.69124476e-03 3.49476904e-01 3.49476904e-01 1.80874746e-02
      5.41244075e-02 0. 1.05443606e-02 0. 2.00370550e-01 6.69603869e-02
      3.49476904e-01 1.21101491e-01 0. 0. 0. 5.88349290e-02 0.
      2.39148691e-01 7.99194649e-02 1.21101491e-01 1.33394618e-02
      5.22230864e-02 1.56271026e-01 0. 1.50645837e-01 0. 0. 0.
      1.33394618e-02 1.47192866e-01 4.09938879e-02 1.22668900e-01 0.
      1.38272233e-02 0. 1.85767803e-02 6.20803330e-03 1.47192866e-01
      1.56462625e-01 1.29196281e-02 3.86603028e-02 0. 3.73151340e-02 0.
      1.27517924e-01 4.26142626e-02 1.56462625e-01 3.01687568e-02 0. 0.
      0. 2.31667593e-01 0. 1.55627310e-01 5.20079769e-02 3.01687568e-02
      0. 0. 0. 0. 0. 0. 0. 0. 0. 0. 0. 0. 0. 0. 0. 0. 0. 0. 0. 0. 0. 0.
      0. 0. 0. 0. 0. 0. 0. 0. 0. 0. 0. 0. 0. 0. 1.89851299e-02 0. 0. 0.
      0. 0. 0. 0. 1.89851299e-02 8.23573116e-03 0. 0. 0. 0. 0. 0. 0.
      8.23573116e-03 0. 0. 0. 0. 0. 0. 0. 0. 0. 0. 0. 0. 0. 0. 0. 0. 0.
      0. 3.44065130e-01 1.00398185e-02 3.00428476e-02 0. 2.88138017e-02
      0. 2.85576433e-01 9.54347774e-02 3.44065130e-01 1.81445599e-01 0.
      0. 0. 2.60101199e-01 0. 3.44065130e-01 2.46320322e-01
      1.81445599e-01 0. 0. 0. 0. 2.13192068e-02 0. 8.89441278e-03
      2.97236396e-03 0. 0. 0. 0. 0. 0. 0. 0. 0. 0. 1.03154577e-01
      7.17130071e-03 2.14591827e-02 0. 1.05774321e-01 0. 1.67297944e-01
      5.59080690e-02 1.03154577e-01 4.62921821e-02 0. 0. 0.
      3.44065130e-01 0. 3.44065130e-01 1.80290177e-01 4.62921821e-02 0.
      0. 0. 0. 1.24004021e-01 0. 1.72014460e-02 5.74843632e-03 0. 0. 0.
      0. 0. 0. 0. 0. 0. 0. 0. 0. 0. 0. 0. 0. 0. 0. 0. 0. 1.51902495e-03
      4.54550236e-03 0. 1.12187304e-02 0. 0. 0. 0. 2.71767601e-02
      7.99629837e-02 2.39279538e-01 0. 9.53254923e-02 0. 0. 0.
      2.71767601e-02 1.03795148e-01 3.32702771e-02 9.95570943e-02 0.
      2.97631882e-03 0. 0. 0. 1.03795148e-01 0. 0. 0. 0. 0. 0. 0. 0. 0.
      0. 3.12659657e-03 9.35596973e-03 0. 1.65818080e-01 0. 0. 0. 0.
      7.14625232e-03 1.05734147e-01 3.16396266e-01 0. 4.12343979e-01 0.
      2.62415837e-02 8.76949914e-03 7.14625232e-03 3.04038115e-02
      3.83743756e-02 1.14830352e-01 0. 1.02429390e-01 0. 8.74719396e-03
      2.92316615e-03 3.04038115e-02 0. 0. 0. 0. 0. 0. 0. 0. 0. 0. 0. 0.
      0. 1.51912063e-01 0. 1.49212256e-02 4.98641143e-03 0.
      1.10734766e-02 0. 0. 0. 4.12343979e-01 0. 4.12343979e-01
      1.55823424e-01 1.10734766e-02 5.53181693e-02 0. 0. 0.
      1.14420623e-01 0. 1.78592294e-01 5.96825518e-02 5.53181693e-02 0.
      0. 0. 0. 0. 0. 0. 0. 0. 0. 0. 0. 0. 8.77119508e-03 0.
      2.89769261e-03 9.68357956e-04 0. 4.82658260e-02 0. 0. 0.
      1.34394035e-01 0. 1.98331520e-01 6.62789494e-02 4.82658260e-02
      1.24355204e-01 0. 0. 0. 6.47352589e-03 0. 1.03916995e-01
      3.47272754e-02 1.24355204e-01 2.27464382e-02 3.06240246e-02
      9.16386172e-02 0. 2.05734335e-02 0. 0. 0. 2.27464382e-02
      2.14063451e-01 2.55625173e-02 7.64925554e-02 0. 8.39364424e-04 0.
      1.26693761e-02 4.23388369e-03 2.14063451e-01 2.20349610e-01
      8.81119631e-03 2.63663586e-02 0. 8.50589853e-03 0. 8.81098285e-02
      2.94447728e-02 2.20349610e-01 3.49132046e-02 0. 0. 0.
      4.19693328e-02 0. 9.81466323e-02 3.27989459e-02 3.49132046e-02
      6.60916744e-03 3.90453525e-02 1.16838269e-01 0. 2.37535551e-01 0.
      1.03282239e-02 3.45151988e-03 6.60916744e-03 6.33792728e-02
      2.58844122e-02 7.74557441e-02 0. 3.67757119e-02 0. 1.24922972e-02
      4.17470932e-03 6.33792728e-02 7.29770958e-02 6.29371172e-03
      1.88331138e-02 0. 6.52753636e-02 0. 7.24612549e-02 2.42152810e-02
      7.29770958e-02 1.62528437e-02 0. 0. 0. 2.37535551e-01 0.
      1.13556504e-01 3.79486270e-02 1.62528437e-02 8.80703330e-03 0. 0.
      0. 2.37535551e-01 0. 1.78025961e-01 5.94932660e-02 8.80703330e-03
      1.32467672e-01 7.81683601e-04 2.33908650e-03 0. 4.68930304e-02 0.
      1.12783231e-01 3.76902670e-02 1.32467672e-01 1.61287144e-01
      2.61209682e-02 7.81638250e-02 0. 5.36923185e-02 0. 5.91134094e-03
      1.97546626e-03 1.61287144e-01 2.19347756e-02 5.98343462e-02
      1.79046869e-01 0. 2.37535551e-01 0. 2.59371038e-04 8.66772389e-05
      2.19347756e-02 3.10290977e-02 0. 0. 0. 3.18865478e-02 0.
      8.41733515e-02 2.81292815e-02 3.10290977e-02 2.37535551e-01
      8.59852880e-03 2.57299785e-02 0. 2.03371514e-03 0. 8.34321007e-02
      2.78815795e-02 2.37535551e-01 2.37535551e-01 4.61000055e-02
      1.37948379e-01 0. 6.52400684e-03 0. 6.50248155e-02 2.17301510e-02
      2.37535551e-01 4.41869311e-02 3.40454131e-02 1.01876609e-01 0.
      4.68123034e-02 0. 2.85308412e-03 9.53450624e-04 4.41869311e-02
      9.40592363e-02 3.34504293e-03 1.00096054e-02 0. 1.54713029e-02 0.
      7.88309202e-02 2.63439361e-02 9.40592363e-02 3.59925814e-02 0. 0.
      0. 1.25399336e-01 0. 2.18490779e-01 7.30159432e-02 3.59925814e-02
      0. 0. 0. 0. 1.17757255e-02 0. 4.68181446e-03 1.56458397e-03 0. 0.
      0. 0. 0. 0. 0. 0. 0. 0. 3.54442745e-02 2.38931645e-03
      7.14971870e-03 0. 1.34171247e-01 0. 7.53059015e-02 2.51659155e-02
      3.54442745e-02 1.69361811e-02 0. 0. 0. 4.44892704e-01 0.
      2.73711354e-01 9.14696530e-02 1.69361811e-02 0. 0. 0. 0.
      1.74505919e-01 0. 9.63653997e-03 3.22037051e-03 0. 0. 0. 0. 0. 0.
      0. 0. 0. 0. 6.61472976e-02 3.64983976e-02 1.09217063e-01 0.
      1.19686499e-01 0. 2.67265551e-03 8.93154589e-04 6.61472976e-02
      2.51139663e-02 1.41609684e-01 4.23749268e-01 0. 4.44892704e-01 0.
      1.37421128e-04 4.59237272e-05 2.51139663e-02 0. 5.13595995e-03
      1.53686935e-02 0. 1.57239139e-01 0. 0. 0. 0. 0. 0. 0. 0. 0. 0. 0.
      0. 0. 1.01403616e-01 3.59539874e-02 1.07587777e-01 0.
      1.48420576e-02 0. 2.93992367e-02 9.82470997e-03 1.01403616e-01
      6.00043945e-02 6.33115992e-02 1.89451933e-01 0. 1.33934304e-01 0.
      1.51163398e-03 5.05161530e-04 6.00043945e-02 0. 9.97400261e-04
      2.98459036e-03 0. 5.46140037e-03 0. 0. 0. 0. 0. 0. 0. 0. 0. 0. 0.
      0. 0. 0. 0. 0. 0. 0. 0. 0. 0. 0. 0. 0. 0. 0. 8.95127058e-02 0.
      1.72917340e-02 5.77859441e-03 0. 4.06589694e-02 0. 0. 0.
      3.17830414e-01 0. 3.17830414e-01 2.01438010e-01 4.06589694e-02
      1.43430680e-01 0. 0. 0. 6.93826377e-02 0. 2.51157403e-01
      8.39325711e-02 1.43430680e-01 0. 0. 0. 0. 0. 0. 0. 0. 0. 0. 0. 0.
      0. 1.74834207e-02 0. 3.70508060e-03 1.23817299e-03 0.
      2.24584267e-01 0. 0. 0. 2.66325116e-01 0. 3.17830414e-01
      1.91598967e-01 2.24584267e-01 3.17830414e-01 0. 0. 0.
      9.72992182e-03 0. 3.17830414e-01 1.13584623e-01 3.17830414e-01 0.
      0. 0. 0. 0. 0. 0. 0. 0. 0. 0. 0. 0. 0. 0. 0. 0. 0. 2.01989478e-03
      0. 0. 0. 0. 0. 0. 0. 2.01989478e-03 1.69519410e-02 0. 0. 0. 0. 0.
      0. 0. 1.69519410e-02 0. 0. 0. 0. 0. 0. 0. 0. 0. 0. 0. 0. 0. 0. 0.
      0. 0. 0. 0. 0. 0. 0. 0. 0. 0. 0. 0. 0. 0. 0. 0. 0. 0. 0. 0. 0.
      1.83906127e-02 0. 0. 0. 1.25459090e-01 0. 1.48171499e-01
      4.95163947e-02 1.83906127e-02 2.02855363e-01 2.58820574e-03
      7.74486829e-03 0. 1.80242397e-02 0. 1.10222109e-01 3.68343741e-02
      2.02855363e-01 2.42987007e-01 3.50010879e-02 1.04736455e-01 0.
      2.15842891e-02 0. 1.95728354e-02 6.54089870e-03 2.42987007e-01
      3.86981629e-02 5.86328134e-02 1.75451398e-01 0. 1.79884970e-01 0.
      8.58794374e-04 2.86994007e-04 3.86981629e-02 8.91261548e-02 0. 0.
      0. 3.87304910e-02 0. 1.62086532e-01 5.41664921e-02 8.91261548e-02
      2.95966834e-01 2.84702461e-02 8.51935074e-02 0. 1.86050916e-03 0.
      1.81159094e-01 6.05402291e-02 2.95966834e-01 2.95966834e-01
      1.24860510e-01 2.95966834e-01 0. 1.11263888e-02 0. 2.15301096e-01
      7.19498396e-02 2.95966834e-01 1.05078474e-01 5.80747612e-02
      1.73781335e-01 0. 7.44371489e-02 0. 9.44673363e-03 3.15693254e-03
      1.05078474e-01 1.47759065e-03 0. 0. 0. 0. 0. 0. 0. 1.47759065e-03
      2.29137428e-02 0. 0. 0. 0. 0. 0. 0. 2.29137428e-02 1.64750870e-02
      0. 0. 0. 0. 0. 0. 0. 1.64750870e-02 1.66175351e-03 0. 0. 0. 0. 0.
      0. 0. 1.66175351e-03 0. 0. 0. 0. 0. 0. 0. 0. 0. 0. 0. 0. 0. 0. 0.
      0. 0. 0. 0. 0. 0. 0. 0. 0. 0. 0. 0. 0. 0. 0. 0. 0. 0. 0. 0. 0.
      1.64743483e-01 6.59179240e-02 1.97251365e-01 0. 7.80496970e-02 0.
      1.41200973e-02 4.71868878e-03 1.64743483e-01 7.69032538e-02
      2.08007157e-01 3.05490315e-01 0. 3.05490315e-01 0. 7.26019265e-04
      2.42622918e-04 7.69032538e-02 0. 5.98883629e-03 1.79208145e-02 0.
      8.75485986e-02 0. 0. 0. 0. 0. 0. 0. 0. 0. 0. 0. 0. 0.
      3.05490315e-01 1.29339293e-01 3.05490315e-01 0. 4.04191352e-02 0.
      1.55320987e-01 5.19055463e-02 3.05490315e-01 2.34395027e-01
      1.45956710e-01 3.05490315e-01 0. 3.05490315e-01 0. 7.98620749e-03
      2.66885036e-03 2.34395027e-01 0. 1.28322118e-03 3.83987231e-03 0.
      8.31401534e-03 0. 0. 0. 0. 0. 0. 0. 0. 0. 0. 0. 0. 0.
      9.55470465e-03 0. 0. 0. 0. 0. 0. 0. 9.55470465e-03 1.81128713e-03
      0. 0. 0. 0. 0. 0. 0. 1.81128713e-03 0. 0. 0. 0. 0. 0. 0. 0. 0. 0.
      0. 0. 0. 0. 0. 0. 0. 0. 0. 0. 0. 0. 0. 0. 0. 0. 0. 0. 0. 0. 0. 0.
      0. 0. 0. 0. 0. 0. 0. 0. 0. 0. 0. 0. 0. 0. 0. 0. 0. 0. 0. 0. 0. 0.</_>
    <_>
      0. 0. 0. 0. 0. 0. 0. 0. 0. 0. 0. 0. 0. 0. 0. 0. 0. 0. 0. 0. 0. 0.
      0. 0. 0. 0. 0. 0. 0. 0. 0. 0. 0. 0. 0. 0. 0. 0. 0. 0. 0. 0. 0. 0.
      0. 0. 0. 0. 0. 0. 0. 0. 0. 0. 0. 0. 0. 0. 0. 0. 0. 0. 0. 0. 0. 0.
      0. 0. 0. 0. 0. 0. 0. 0. 0. 0. 0. 0. 0. 0. 0. 0. 0. 0. 0. 0. 0. 0.
      0. 0. 1.52149536e-02 0. 0. 0. 0. 0. 0. 0. 1.52149536e-02
      1.08678266e-02 0. 0. 0. 0. 0. 0. 0. 1.08678266e-02 0. 0. 0. 0. 0.
      0. 0. 0. 0. 0. 0. 0. 0. 1.84566695e-02 0. 0. 0. 0. 2.99531370e-01
      3.50136340e-01 3.50136340e-01 0. 3.50136340e-01 0. 1.71780169e-01
      5.74060678e-02 2.99531370e-01 2.13951036e-01 1.19987972e-01
      3.50136340e-01 0. 3.50136340e-01 0. 2.40492195e-01 8.03684667e-02
      2.13951036e-01 0. 0. 0. 0. 0. 0. 0. 0. 0. 0. 0. 0. 0. 0. 0. 0. 0.
      0. 0. 0. 0. 0. 0. 0. 0. 0. 0. 0. 0. 0. 0. 0. 0. 0. 0. 0. 0. 0. 0.
      0. 0. 0. 0. 0. 0. 0. 0. 0. 0. 0. 0. 0. 0. 0. 0. 0. 0. 0. 0. 0. 0.
      0. 0. 0. 0. 0. 0. 0. 0. 0. 0. 0. 1.59580242e-02 0. 0. 0. 0. 0. 0.
      0. 1.59580242e-02 1.13985892e-02 0. 0. 0. 0. 0. 0. 0.
      1.13985892e-02 0. 0. 0. 0. 0. 0. 0. 0. 0. 0. 0. 0. 0. 0. 0. 0. 0.
      0. 3.14159900e-01 2.95935810e-01 3.20828110e-01 0. 3.20828110e-01
      0. 2.51446813e-01 8.40293318e-02 3.14159900e-01 2.24399939e-01
      1.07538320e-01 3.20828110e-01 0. 3.20828110e-01 0. 3.20828110e-01
      1.17641091e-01 2.24399939e-01 0. 0. 0. 0. 0. 0. 0. 0. 0. 0. 0. 0.
      0. 0. 0. 0. 0. 0. 0. 0. 0. 0. 0. 0. 0. 0. 0. 0. 0. 0. 0. 0. 0. 0.
      0. 0. 0. 0. 0. 0. 0. 0. 0. 0. 0. 0. 0. 0. 0. 0. 0. 0. 0. 0. 0. 0.
      0. 0. 0. 0. 0. 0. 0. 0. 0. 0. 0. 0. 0. 0. 0. 0. 0. 0. 0. 0. 0. 0.
      0. 0. 0. 0. 0. 0. 0. 0. 0. 0. 0. 0. 0. 0. 0. 0. 0. 0. 0. 0. 0. 0.
      0. 0. 0. 0. 0. 0. 0. 0. 0. 0. 0. 0. 0. 0. 0. 0. 0. 0. 0. 0. 0. 0.
      0. 0. 0. 0. 0. 0. 0. 0. 0. 0. 0. 0. 0. 0. 0. 0. 0. 0. 0. 0. 0. 0.
      0. 0. 0. 0. 0. 0. 0. 0. 0. 0. 0. 0. 0. 0. 0. 0. 0. 0. 0. 0. 0. 0.
      0. 0. 0. 0. 0. 0. 0. 0. 0. 0. 0. 0. 0. 0. 2.94959429e-03 0. 0. 0.
      0. 0. 0. 0. 2.94959429e-03 2.10685376e-03 0. 0. 0. 0. 0. 0. 0.
      2.10685376e-03 0. 0. 0. 0. 0. 0. 0. 0. 0. 0. 0. 0. 0.
      2.22715549e-02 0. 0. 0. 0. 9.83817950e-02 1.59279719e-01
      3.18486869e-01 0. 3.18486869e-01 0. 8.49113092e-02 2.83759292e-02
      9.83817950e-02 1.72656864e-01 4.57336418e-02 1.36852294e-01 0.
      1.84717536e-01 0. 9.98978987e-02 3.33842039e-02 1.72656864e-01 0.
      0. 0. 0. 0. 0. 0. 0. 0. 0. 0. 0. 0. 4.39744778e-02 0. 0. 0. 0.
      3.18486869e-01 6.18222281e-02 1.84995607e-01 0. 3.18486869e-01 0.
      1.97205976e-01 6.59027994e-02 3.18486869e-01 3.18486869e-01
      1.93772726e-02 5.79840615e-02 0. 1.20856926e-01 0. 6.73311502e-02
      2.25009322e-02 3.18486869e-01 0. 0. 0. 0. 0. 0. 0. 0. 0. 0. 0. 0.
      0. 0. 0. 0. 0. 0. 1.76277757e-02 0. 0. 0. 0. 0. 0. 0.
      1.76277757e-02 1.79161094e-02 0. 0. 0. 0. 0. 0. 0. 1.79161094e-02
      1.17010041e-03 0. 0. 0. 0. 0. 0. 0. 1.17010041e-03 8.35786050e-04
      0. 0. 0. 0. 0. 0. 0. 8.35786050e-04 0. 0. 0. 0. 0. 0. 0. 0. 0. 0.
      0. 0. 0. 0. 0. 0. 0. 0. 4.54861373e-02 4.18882780e-02
      1.25345632e-01 0. 1.30148470e-01 0. 4.19366360e-02 1.40145207e-02
      4.54861373e-02 2.08242133e-01 1.65869575e-02 4.96344045e-02 0.
      1.01431124e-01 0. 5.48460372e-02 1.83286276e-02 2.08242133e-01
      2.22354308e-01 0. 0. 0. 3.20670108e-04 0. 1.06310286e-03
      3.55271157e-04 2.22354308e-01 6.18580431e-02 0. 0. 0.
      1.50251044e-02 0. 1.16941417e-02 3.90798645e-03 6.18580431e-02
      1.55235723e-01 1.64922196e-02 4.93509583e-02 0. 1.64268360e-01 0.
      5.33725619e-02 1.78361908e-02 1.55235723e-01 3.61808240e-01
      8.19196366e-03 2.45134085e-02 0. 5.39736822e-02 0. 3.22036147e-02
      1.07619083e-02 3.61808240e-01 3.61808240e-01 1.16567232e-03
      3.48812272e-03 0. 3.52737471e-03 0. 1.06304280e-01 3.55250277e-02
      3.61808240e-01 2.18236998e-01 1.28224082e-02 3.83693874e-02 0.
      1.24164082e-01 0. 8.54424611e-02 2.85533983e-02 2.18236998e-01
      6.10116823e-03 0. 0. 0. 0. 0. 0. 0. 6.10116823e-03 2.09325477e-02
      0. 0. 0. 0. 0. 0. 0. 2.09325477e-02 2.77120601e-02 1.05970095e-04
      3.17101745e-04 0. 0. 0. 9.37407836e-03 3.13265249e-03
      2.77120601e-02 2.02201251e-02 1.16567232e-03 3.48812272e-03 0.
      2.59866659e-03 0. 4.57817968e-03 1.52994739e-03 2.02201251e-02 0.
      0. 0. 0. 0. 0. 0. 0. 0. 0. 0. 0. 0. 0. 0. 0. 0. 0. 0. 0. 0. 0. 0.
      0. 0. 0. 0. 0. 0. 0. 0. 0. 0. 0. 0. 0. 2.10494623e-01 0. 0. 0.
      1.71670201e-03 0. 5.69130294e-03 1.90193823e-03 2.10494623e-01
      1.84107065e-01 0. 0. 0. 1.04787573e-01 0. 6.26043007e-02
      2.09213104e-02 1.84107065e-01 0. 0. 0. 0. 7.80944573e-03 0. 0. 0.
      0. 0. 0. 0. 0. 0. 0. 0. 0. 0. 3.56758624e-01 6.24040747e-03
      1.86736081e-02 0. 1.88837443e-02 0. 1.86016127e-01 6.21633381e-02
      3.56758624e-01 3.56758624e-01 6.86444491e-02 2.05409572e-01 0.
      3.56758624e-01 0. 2.75615007e-01 9.21058580e-02 3.56758624e-01 0.
      0. 0. 0. 5.79799004e-02 0. 0. 0. 0. 0. 0. 0. 0. 0. 0. 0. 0. 0.
      3.99451591e-02 5.67309209e-04 1.69759884e-03 0. 0. 0.
      1.53583670e-02 5.13249636e-03 3.99451591e-02 7.06693456e-02
      6.24039769e-03 1.86735783e-02 0. 1.94156151e-02 0. 7.98200071e-03
      2.66744453e-03 7.06693456e-02 0. 0. 0. 0. 1.76505698e-03 0. 0. 0.
      0. 0. 0. 0. 0. 0. 0. 0. 0. 0. 0. 0. 0. 0. 0. 0. 0. 0. 0. 0. 0. 0.
      0. 4.86251339e-02 0. 0. 0. 0. 4.19275373e-01 0. 0. 0.
      4.19275373e-01 0. 2.99500078e-01 1.00087687e-01 4.19275373e-01
      4.19275373e-01 0. 0. 0. 5.42384423e-02 0. 6.54116645e-02
      2.18594670e-02 4.19275373e-01 0. 0. 0. 0. 0. 0. 0. 0. 0. 0. 0. 0.
      0. 0. 0. 0. 0. 0. 4.17049527e-02 0. 0. 0. 0. 0. 0. 0.
      4.17049527e-02 4.23871167e-02 0. 0. 0. 0. 0. 0. 0. 4.23871167e-02
      0. 0. 0. 0. 0. 0. 0. 0. 0. 0. 0. 0. 0. 0. 0. 0. 0. 0. 0. 0. 0. 0.
      0. 0. 0. 0. 0. 0. 0. 0. 0. 0. 0. 0. 0. 0. 0. 0. 0. 0. 0. 0. 0. 0.
      0. 0. 0. 0. 0. 0. 0. 0. 0. 0. 0. 0. 0. 0. 0. 0. 0. 0. 0. 0. 0. 0.
      0. 0. 0. 0. 0. 0. 2.03450099e-01 0. 0. 0. 1.02621995e-01 0.
      5.02053648e-02 1.67777613e-02 2.03450099e-01 4.03228343e-01 0. 0.
      0. 1.21518569e-02 0. 1.94692090e-02 6.50628097e-03 4.03228343e-01
      4.03228343e-01 1.94441515e-03 5.81840891e-03 0. 4.21598554e-03 0.
      1.74733594e-01 5.83929121e-02 4.03228343e-01 2.82732725e-01
      2.13885866e-02 6.40025586e-02 0. 1.53064460e-01 0. 1.14048712e-01
      3.81131023e-02 2.82732725e-01 1.01771392e-02 0. 0. 0. 0. 0. 0. 0.
      1.01771392e-02 3.49168330e-02 0. 0. 0. 0. 0. 0. 0. 3.49168330e-02
      5.27018793e-02 1.76764952e-04 5.28946053e-04 0. 0. 0.
      1.56365652e-02 5.22546517e-03 5.27018793e-02 4.47464176e-02
      1.94441644e-03 5.81841310e-03 0. 4.33474220e-03 0. 7.63669703e-03
      2.55205017e-03 4.47464176e-02 0. 0. 0. 0. 0. 0. 0. 0. 0. 0. 0. 0.
      0. 0. 0. 0. 0. 0. 0. 0. 0. 0. 0. 0. 0. 0. 0. 0. 0. 0. 0. 0. 0. 0.
      0. 0. 0. 0. 0. 0. 0. 0. 0. 0. 0. 0. 0. 0. 0. 0. 0. 0. 0. 0. 0. 0.
      0. 0. 0. 0. 0. 0. 0. 0. 0. 0. 0. 0. 0. 0. 0. 0. 3.77139896e-01
      8.71601142e-03 2.60815285e-02 0. 1.88985337e-02 0. 2.48206094e-01
      8.29461366e-02 3.77139896e-01 3.77139896e-01 9.58760753e-02
      2.86896646e-01 0. 3.77139896e-01 0. 2.57312894e-01 8.59895796e-02
      3.77139896e-01 0. 0. 0. 0. 6.06762134e-02 0. 0. 0. 0. 0. 0. 0. 0.
      0. 0. 0. 0. 0. 7.00775012e-02 7.92364473e-04 2.37104739e-03 0. 0.
      0. 2.14511342e-02 7.16859289e-03 7.00775012e-02 1.31713167e-01
      8.71600490e-03 2.60815080e-02 0. 2.71179173e-02 0. 1.11485133e-02
      3.72563768e-03 1.31713167e-01 0. 0. 0. 0. 2.46526650e-03 0. 0. 0.
      0. 0. 0. 0. 0. 0. 0. 0. 0. 0. 0. 0. 0. 0. 0. 0. 0. 0. 0. 0. 0. 0.
      0. 0. 0. 0. 0. 0. 0. 0. 0. 0. 0. 0. 0. 0. 0. 0. 0. 0. 0. 0. 0. 0.
      0. 0. 0. 0. 0. 0. 0. 0. 0. 0. 0. 0. 0. 0. 0. 0. 0. 0. 0. 0. 0. 0.
      0. 0. 0. 0. 0. 0. 0. 0. 0. 0. 0. 0. 0. 0. 0. 0.</_>
    <_>
      0. 0. 0. 0. 0. 0. 0. 0. 0. 0. 0. 0. 0. 0. 0. 0. 0. 0. 0. 0. 0. 0.
      0. 0. 0. 0. 0. 0. 0. 0. 0. 0. 0. 0. 0. 0. 0. 0. 0. 0. 0. 0. 0. 0.
      0. 0. 0. 0. 0. 0. 0. 0. 0. 0. 0. 0. 0. 0. 0. 0. 0. 0. 0. 0. 0. 0.
      0. 0. 0. 0. 0. 0. 0. 0. 0. 0. 0. 0. 0. 0. 0. 0. 0. 0. 0. 0. 0. 0.
      0. 0. 2.16123816e-02 0. 0. 0. 0. 0. 0. 0. 2.16123816e-02
      2.10700277e-02 0. 0. 0. 0. 0. 0. 0. 2.10700277e-02 0. 0. 0. 0. 0.
      0. 0. 0. 0. 0. 0. 0. 0. 1.62527859e-02 0. 0. 0. 0. 2.37736434e-01
      3.68570745e-01 3.68570745e-01 0. 3.68570745e-01 0. 1.51268139e-01
      5.05512841e-02 2.37736434e-01 2.31770515e-01 1.38715908e-01
      3.68570745e-01 0. 3.68570745e-01 0. 2.11775348e-01 7.07717761e-02
      2.31770515e-01 0. 0. 0. 0. 0. 0. 0. 0. 0. 0. 0. 0. 0. 0. 0. 0. 0.
      0. 0. 0. 0. 0. 0. 0. 0. 0. 0. 0. 0. 0. 0. 0. 0. 0. 0. 0. 0. 0. 0.
      0. 0. 0. 0. 0. 0. 0. 0. 0. 0. 0. 0. 0. 0. 0. 0. 0. 0. 0. 0. 0. 0.
      0. 0. 0. 0. 0. 0. 0. 0. 0. 0. 0. 2.35801153e-02 0. 0. 0. 0. 0. 0.
      0. 2.35801153e-02 2.42985655e-02 0. 0. 0. 0. 0. 0. 0.
      2.42985655e-02 0. 0. 0. 0. 0. 0. 0. 0. 0. 0. 0. 0. 0. 0. 0. 0. 0.
      0. 2.59381562e-01 2.89424390e-01 3.58892918e-01 0. 3.58892918e-01
      0. 2.00226486e-01 6.69123456e-02 2.59381562e-01 2.67284483e-01
      1.07288130e-01 3.21047008e-01 0. 3.58892918e-01 0. 2.80317158e-01
      9.36773196e-02 2.67284483e-01 0. 0. 0. 0. 0. 0. 0. 0. 0. 0. 0. 0.
      0. 0. 0. 0. 0. 0. 0. 0. 0. 0. 0. 0. 0. 0. 0. 0. 0. 0. 0. 0. 0. 0.
      0. 0. 0. 0. 0. 0. 0. 0. 0. 0. 0. 0. 0. 0. 0. 0. 0. 0. 0. 0. 0. 0.
      0. 0. 0. 0. 0. 0. 0. 0. 0. 0. 0. 0. 0. 0. 0. 0. 0. 0. 0. 0. 0. 0.
      0. 0. 0. 0. 0. 0. 0. 0. 0. 0. 0. 0. 0. 0. 0. 0. 0. 0. 0. 0. 0. 0.
      0. 0. 0. 0. 0. 0. 0. 0. 0. 0. 0. 0. 0. 0. 0. 0. 0. 0. 0. 0. 0. 0.
      0. 0. 0. 0. 0. 0. 0. 0. 0. 0. 0. 0. 0. 0. 0. 0. 0. 0. 0. 0. 0. 0.
      0. 0. 0. 0. 0. 0. 0. 0. 0. 0. 0. 0. 0. 0. 0. 0. 0. 0. 0. 0. 0. 0.
      0. 0. 0. 0. 0. 0. 0. 0. 0. 0. 0. 0. 0. 0. 4.86651715e-03 0. 0. 0.
      0. 0. 0. 0. 4.86651715e-03 4.74439375e-03 0. 0. 0. 0. 0. 0. 0.
      4.74439375e-03 0. 0. 0. 0. 0. 0. 0. 0. 0. 0. 0. 0. 0.
      2.27797478e-02 0. 0. 0. 0. 6.16319217e-02 1.77528247e-01
      3.04966331e-01 0. 3.04966331e-01 0. 7.46282041e-02 2.49394849e-02
      6.16319217e-02 1.36085808e-01 4.94691394e-02 1.48030519e-01 0.
      3.04966331e-01 0. 1.04690745e-01 3.49858999e-02 1.36085808e-01 0.
      0. 0. 0. 0. 0. 0. 0. 0. 0. 0. 0. 0. 4.49778885e-02 0. 0. 0. 0.
      1.42043889e-01 8.34303871e-02 2.49655232e-01 0. 3.04966331e-01 0.
      3.04966331e-01 1.58246800e-01 1.42043889e-01 3.04966331e-01
      2.87128743e-02 8.59196484e-02 0. 1.76921025e-01 0. 1.95304543e-01
      6.52673915e-02 3.04966331e-01 0. 0. 0. 0. 0. 0. 0. 0. 0. 0. 0. 0.
      0. 0. 0. 0. 0. 0. 2.80830413e-02 2.35557719e-03 7.04875775e-03 0.
      0. 0. 2.62669846e-02 8.77796579e-03 2.80830413e-02 5.11775017e-02
      1.68255554e-03 5.03482809e-03 0. 0. 0. 1.11743798e-02
      3.73428152e-03 5.11775017e-02 2.16510613e-03 0. 0. 0. 0. 0. 0. 0.
      2.16510613e-03 2.23107357e-03 0. 0. 0. 0. 0. 0. 0. 2.23107357e-03
      0. 0. 0. 0. 0. 0. 0. 0. 0. 0. 0. 0. 0. 0. 0. 0. 0. 0.
      3.01940162e-02 4.56927381e-02 1.36730090e-01 0. 1.53724670e-01 0.
      3.78401726e-02 1.26455519e-02 3.01940162e-02 1.74087346e-01
      1.51610421e-02 4.53676172e-02 0. 2.04780921e-01 0. 6.39030039e-02
      2.13553179e-02 1.74087346e-01 2.02059686e-01 0. 0. 0. 0. 0. 0. 0.
      2.02059686e-01 7.32462183e-02 0. 0. 0. 9.98241547e-03 0.
      9.20854788e-03 3.07734311e-03 7.32462183e-02 7.13500306e-02
      2.30220519e-02 6.88906386e-02 0. 1.68915421e-01 0. 1.27106458e-01
      4.24767621e-02 7.13500306e-02 3.36909115e-01 9.87970829e-03
      2.95637716e-02 0. 1.01035297e-01 0. 1.11998849e-01 3.74280848e-02
      3.36909115e-01 3.36909115e-01 0. 0. 0. 0. 0. 0. 0. 3.36909115e-01
      2.92391628e-01 1.00970026e-02 3.02139651e-02 0. 8.40446576e-02 0.
      2.76256427e-02 9.23202839e-03 2.92391628e-01 1.14295678e-02
      9.11012699e-04 2.72608665e-03 0. 0. 0. 7.22306361e-03
      2.41382117e-03 1.14295678e-02 6.93862513e-02 6.50723348e-04
      1.94720493e-03 0. 0. 0. 6.08988805e-03 2.03513354e-03
      6.93862513e-02 8.33947361e-02 0. 0. 0. 0. 0. 0. 0. 8.33947361e-02
      3.07275299e-02 9.17908386e-04 2.74672150e-03 0. 1.62839377e-03 0.
      0. 0. 3.07275299e-02 0. 0. 0. 0. 0. 0. 0. 0. 0. 0. 0. 0. 0. 0. 0.
      0. 0. 0. 0. 0. 0. 0. 0. 0. 0. 0. 0. 0. 0. 0. 0. 0. 0. 0. 0. 0.
      1.71704099e-01 0. 0. 0. 0. 0. 0. 0. 1.71704099e-01 2.29621395e-01
      0. 0. 0. 8.26998949e-02 0. 5.93440980e-02 1.98318064e-02
      2.29621395e-01 4.30067163e-03 0. 0. 0. 2.32271589e-02 0.
      5.39492071e-03 1.80289242e-03 4.30067163e-03 0. 0. 0. 0. 0. 0. 0.
      0. 0. 3.68943244e-01 0. 0. 0. 0. 0. 0. 0. 3.68943244e-01
      3.68943244e-01 6.50696978e-02 1.94712579e-01 0. 3.68943244e-01 0.
      1.78032309e-01 5.94954267e-02 3.68943244e-01 1.22196134e-02
      5.91543037e-03 1.77011546e-02 0. 1.78264812e-01 0. 1.61847621e-02
      5.40867727e-03 1.22196134e-02 0. 0. 0. 0. 0. 0. 0. 0. 0.
      7.08662495e-02 0. 0. 0. 0. 0. 0. 0. 7.08662495e-02 9.79736969e-02
      5.91542106e-03 1.77011266e-02 0. 1.46457171e-02 0. 0. 0.
      9.79736969e-02 2.06622481e-03 5.37765853e-04 1.60919421e-03 0.
      4.88190632e-03 0. 0. 0. 2.06622481e-03 0. 0. 0. 0. 0. 0. 0. 0. 0.
      0. 0. 0. 0. 0. 0. 0. 0. 0. 0. 0. 0. 0. 4.26004492e-02 0. 0. 0. 0.
      3.20344597e-01 5.25091849e-02 1.57126889e-01 0. 3.56323332e-01 0.
      3.56323332e-01 2.79097736e-01 3.20344597e-01 3.56323332e-01
      3.75065692e-02 1.12233520e-01 0. 5.31821661e-02 0. 3.09023231e-01
      1.03270181e-01 3.56323332e-01 0. 0. 0. 0. 0. 0. 0. 0. 0. 0. 0. 0.
      0. 0. 0. 0. 0. 0. 7.75685832e-02 4.77356138e-03 1.42842596e-02 0.
      0. 0. 5.32298572e-02 1.77884866e-02 7.75685832e-02 1.36178687e-01
      3.40968720e-03 1.02030449e-02 0. 0. 0. 2.26448011e-02
      7.56749557e-03 1.36178687e-01 0. 0. 0. 0. 0. 0. 0. 0. 0. 0. 0. 0.
      0. 0. 0. 0. 0. 0. 0. 0. 0. 0. 0. 0. 0. 0. 0. 0. 0. 0. 0. 0. 0. 0.
      0. 0. 0. 0. 0. 0. 0. 0. 0. 0. 0. 0. 0. 0. 0. 0. 0. 0. 0. 0. 0. 0.
      0. 0. 0. 0. 0. 0. 0. 0. 0. 0. 0. 0. 0. 0. 0. 0. 1.04037255e-01
      1.42926769e-02 4.27689776e-02 0. 8.59508291e-02 0. 1.53204843e-01
      5.11983745e-02 1.04037255e-01 3.83099407e-01 1.02090565e-02
      3.05492729e-02 0. 1.55369397e-02 0. 1.18909843e-01 3.97376008e-02
      3.83099407e-01 3.83099407e-01 0. 0. 0. 0. 0. 0. 0. 3.83099407e-01
      3.44131559e-01 1.44008650e-02 4.30927090e-02 0. 8.83871391e-02 0.
      2.02292092e-02 6.76026382e-03 3.44131559e-01 2.19657551e-02
      1.29933399e-03 3.88808781e-03 0. 0. 0. 1.03019131e-02
      3.44271841e-03 2.19657551e-02 1.28474593e-01 9.28095833e-04
      2.77720578e-03 0. 0. 0. 8.68571829e-03 2.90261442e-03
      1.28474593e-01 1.53354585e-01 0. 0. 0. 0. 0. 0. 0. 1.53354585e-01
      5.70395179e-02 1.30916911e-03 3.91751854e-03 0. 2.32250080e-03 0.
      0. 0. 5.70395179e-02 0. 0. 0. 0. 0. 0. 0. 0. 0. 0. 0. 0. 0. 0. 0.
      0. 0. 0. 0. 0. 0. 0. 0. 0. 0. 0. 0. 0. 0. 0. 0. 0. 0. 0. 0. 0. 0.
      0. 0. 0. 0. 0. 0. 0. 0. 0. 0. 0. 0. 0. 0. 0. 0. 0. 0. 0. 0. 0. 0.
      0. 0. 0. 0. 0. 0. 0. 0. 0. 0. 0. 0. 0. 3.96590292e-01 0. 0. 0. 0.
      0. 0. 0. 3.96590292e-01 3.96590292e-01 8.59189779e-02
      2.57101357e-01 0. 3.96590292e-01 0. 1.20692261e-01 4.03333418e-02
      3.96590292e-01 1.43475290e-02 7.81081943e-03 2.33728606e-02 0.
      1.75591141e-01 0. 1.09720295e-02 3.66666890e-03 1.43475290e-02 0.
      0. 0. 0. 0. 0. 0. 0. 0. 1.20645717e-01 0. 0. 0. 0. 0. 0. 0.
      1.20645717e-01 1.69984385e-01 7.81081337e-03 2.33728439e-02 0.
      1.93384346e-02 0. 0. 0. 1.69984385e-01 3.80761223e-03
      7.10074324e-04 2.12480500e-03 0. 6.44614408e-03 0. 0. 0.
      3.80761223e-03 0. 0. 0. 0. 0. 0. 0. 0. 0. 0. 0. 0. 0. 0. 0. 0. 0.
      0. 0. 0. 0. 0. 0. 0. 0. 0. 0. 0. 0. 0. 0. 0. 0. 0. 0. 0. 0. 0. 0.
      0. 0. 0. 0. 0. 0. 0. 0. 0. 0. 0. 0. 0. 0. 0. 0. 0. 0. 0. 0. 0. 0.
      0. 0. 0. 0. 0. 0. 0. 0. 0. 0. 0. 0. 0. 0. 0. 0. 0. 0. 0. 0.</_>
    <_>
      0. 0. 0. 0. 0. 0. 0. 0. 0. 0. 0. 0. 0. 0. 0. 0. 0. 0. 0. 0. 0. 0.
      0. 0. 0. 0. 0. 0. 0. 0. 0. 0. 0. 0. 0. 0. 0. 0. 0. 0. 0. 0. 0. 0.
      0. 0. 0. 0. 0. 0. 0. 0. 0. 0. 0. 0. 0. 0. 0. 0. 0. 0. 0. 0. 0. 0.
      0. 0. 0. 0. 0. 0. 0. 0. 0. 0. 0. 0. 0. 0. 0. 0. 0. 0. 0. 0. 0. 0.
      0. 0. 2.69067287e-02 0. 0. 0. 0. 0. 0. 0. 2.69067287e-02
      1.31409019e-02 0. 0. 0. 0. 0. 0. 0. 1.31409019e-02 0. 0. 0. 0. 0.
      0. 0. 0. 0. 0. 0. 0. 0. 3.61496918e-02 0. 0. 0. 0. 3.06640655e-01
      3.15615565e-01 3.37028116e-01 0. 3.37028116e-01 0. 2.46820182e-01
      8.24831799e-02 3.06640655e-01 2.78347224e-01 9.25722942e-02
      2.77011633e-01 0. 3.37028116e-01 0. 2.26666376e-01 7.57481232e-02
      2.78347224e-01 0. 0. 0. 0. 0. 0. 0. 0. 0. 0. 0. 0. 0. 0. 0. 0. 0.
      0. 0. 0. 0. 0. 0. 0. 0. 0. 0. 0. 0. 0. 0. 0. 0. 0. 0. 0. 0. 0. 0.
      0. 0. 0. 0. 0. 0. 0. 0. 0. 0. 0. 0. 0. 0. 0. 0. 0. 0. 0. 0. 0. 0.
      0. 0. 0. 0. 0. 0. 0. 0. 0. 0. 0. 1.50201106e-02 0. 0. 0. 0. 0. 0.
      0. 1.50201106e-02 7.80620379e-03 0. 0. 0. 0. 0. 0. 0.
      7.80620379e-03 0. 0. 0. 0. 0. 0. 0. 0. 0. 0. 0. 0. 0. 0. 0. 0. 0.
      0. 1.79161936e-01 1.25142708e-01 2.96943396e-01 0. 2.96943396e-01
      0. 1.77606195e-01 5.93530200e-02 1.79161936e-01 2.96943396e-01
      1.08741663e-01 2.96943396e-01 0. 2.96943396e-01 0. 2.65278012e-01
      8.86514783e-02 2.96943396e-01 2.96943396e-01 4.11132071e-03
      1.23026408e-02 0. 0. 0. 2.13802785e-01 7.14493170e-02
      2.96943396e-01 1.32457793e-01 0. 0. 0. 0. 0. 0. 0. 1.32457793e-01
      0. 0. 0. 0. 0. 0. 0. 0. 0. 0. 0. 0. 0. 0. 0. 0. 0. 0. 0. 0. 0. 0.
      0. 0. 0. 0. 0. 0. 0. 0. 0. 0. 0. 0. 0. 0. 0. 0. 0. 0. 0. 0. 0. 0.
      0. 0. 0. 0. 0. 0. 0. 0. 0. 0. 0. 0. 0. 0. 0. 0. 0. 0. 0. 0. 0. 0.
      0. 0. 0. 0. 0. 0. 0. 0. 0. 0. 0. 0. 0. 0. 0. 0. 0. 0. 0. 0. 0. 0.
      0. 0. 0. 0. 0. 0. 0. 0. 0. 0. 0. 0. 0. 0. 0. 0. 0. 0. 0. 0.
      4.82601732e-01 0. 0. 0. 0. 0. 2.39116237e-01 7.99086541e-02
      4.82601732e-01 4.82601732e-01 0. 0. 0. 0. 0. 0. 0. 4.82601732e-01
      0. 0. 0. 0. 0. 0. 0. 0. 0. 0. 0. 0. 0. 0. 0. 0. 0. 0. 0. 0. 0. 0.
      0. 0. 0. 0. 0. 0. 0. 0. 0. 0. 0. 0. 0. 0. 7.33389519e-03 0. 0. 0.
      0. 0. 0. 0. 7.33389519e-03 3.58177978e-03 0. 0. 0. 0. 0. 0. 0.
      3.58177978e-03 0. 0. 0. 0. 0. 0. 0. 0. 0. 0. 0. 0. 0.
      3.33289392e-02 0. 0. 0. 0. 1.59012556e-01 1.33304894e-01
      2.92715907e-01 0. 2.92715907e-01 0. 1.60634428e-01 5.36812991e-02
      1.59012556e-01 2.25245148e-01 5.20000011e-02 1.55603856e-01 0.
      2.14539573e-01 0. 1.28565118e-01 4.29643020e-02 2.25245148e-01 0.
      0. 0. 0. 0. 0. 0. 0. 0. 0. 0. 0. 0. 3.37125733e-02 0. 0. 0. 0.
      2.92715907e-01 2.37602871e-02 7.10998401e-02 0. 2.92715907e-01 0.
      2.18940184e-01 7.31659830e-02 2.92715907e-01 2.92715907e-01
      3.66603397e-02 1.09701581e-01 0. 8.10510218e-02 0. 1.53476059e-01
      5.12890443e-02 2.92715907e-01 0. 0. 0. 0. 0. 0. 0. 0. 0. 0. 0. 0.
      0. 0. 0. 0. 0. 0. 1.01024599e-03 0. 0. 0. 0. 0. 0. 0.
      1.01024599e-03 5.40582091e-03 0. 0. 0. 0. 0. 0. 0. 5.40582091e-03
      2.26158160e-03 0. 0. 0. 0. 0. 0. 0. 2.26158160e-03 1.17538194e-03
      0. 0. 0. 0. 0. 0. 0. 1.17538194e-03 0. 0. 0. 0. 0. 0. 0. 0. 0. 0.
      0. 0. 0. 0. 0. 0. 0. 0. 6.00323007e-02 2.94205826e-02
      8.80376101e-02 0. 1.68836221e-01 0. 5.68452775e-02 1.89967360e-02
      6.00323007e-02 2.66336411e-01 4.24704514e-02 1.27087757e-01 0.
      9.37698185e-02 0. 1.02745280e-01 3.43357474e-02 2.66336411e-01
      2.81835139e-01 3.21659073e-03 9.62524861e-03 0. 9.48421541e-04 0.
      9.85349864e-02 3.29287425e-02 2.81835139e-01 9.57836211e-02
      1.10932579e-03 3.31951282e-03 0. 3.52283791e-02 0. 1.86885111e-02
      6.24538865e-03 9.57836211e-02 1.22405671e-01 5.66220190e-03
      1.69434696e-02 0. 1.14061594e-01 0. 6.72253445e-02 2.24655420e-02
      1.22405671e-01 2.81835139e-01 5.03212363e-02 1.50580049e-01 0.
      3.06731630e-02 0. 1.92411706e-01 6.43006489e-02 2.81835139e-01
      2.81835139e-01 1.80744305e-02 5.40853962e-02 0. 2.84526474e-03 0.
      1.67495340e-01 5.59740551e-02 2.81835139e-01 2.20603779e-01
      1.22025963e-02 3.65146808e-02 0. 1.04481287e-01 0. 2.61639114e-02
      8.74354132e-03 2.20603779e-01 7.29389198e-04 0. 0. 0. 0. 0. 0. 0.
      7.29389198e-04 8.59183725e-03 0. 0. 0. 0. 0. 0. 0. 8.59183725e-03
      1.80522744e-02 0. 0. 0. 0. 0. 0. 0. 1.80522744e-02 5.36249205e-03
      0. 0. 0. 0. 0. 0. 0. 5.36249205e-03 0. 0. 0. 0. 0. 0. 0. 0. 0. 0.
      0. 0. 0. 0. 0. 0. 0. 0. 0. 0. 0. 0. 0. 0. 0. 0. 0. 0. 0. 0. 0. 0.
      0. 0. 0. 0. 2.82886475e-01 2.13029212e-03 6.37462176e-03 0.
      4.96637868e-03 0. 5.29635623e-02 1.76995397e-02 2.82886475e-01
      2.85901338e-01 2.98240921e-03 8.92447215e-03 0. 2.35838994e-01 0.
      9.78616253e-02 3.27037200e-02 2.85901338e-01 0. 0. 0. 0.
      1.64735410e-02 0. 0. 0. 0. 0. 0. 0. 0. 0. 0. 0. 0. 0.
      3.34031582e-01 2.34332364e-02 7.01209083e-02 0. 1.48991356e-02 0.
      6.44137487e-02 2.15259809e-02 3.34031582e-01 3.34031582e-01
      3.28065380e-02 9.81692895e-02 0. 3.34031582e-01 0. 1.37006238e-01
      4.57851999e-02 3.34031582e-01 0. 0. 0. 0. 4.86208200e-02 0. 0. 0.
      0. 0. 0. 0. 0. 0. 0. 0. 0. 0. 1.85144618e-02 0. 0. 0. 0. 0. 0. 0.
      1.85144618e-02 1.58577729e-02 0. 0. 0. 0. 0. 0. 0. 1.58577729e-02
      0. 0. 0. 0. 0. 0. 0. 0. 0. 0. 0. 0. 0. 0. 0. 0. 0. 0. 0. 0. 0. 0.
      0. 0. 0. 0. 0. 0. 0. 0. 0. 3.61774601e-02 0. 0. 0. 0.
      3.87128800e-01 0. 0. 0. 3.87128800e-01 0. 3.79956633e-01
      1.26974851e-01 3.87128800e-01 3.87128800e-01 3.17822136e-02
      9.51041430e-02 0. 1.21859750e-02 0. 2.58041143e-01 8.62328187e-02
      3.87128800e-01 0. 0. 0. 0. 0. 0. 0. 0. 0. 0. 0. 0. 0. 0. 0. 0. 0.
      0. 3.59407137e-03 0. 0. 0. 0. 0. 0. 0. 3.59407137e-03
      1.92318559e-02 0. 0. 0. 0. 0. 0. 0. 1.92318559e-02 0. 0. 0. 0. 0.
      0. 0. 0. 0. 0. 0. 0. 0. 0. 0. 0. 0. 0. 0. 0. 0. 0. 0. 0. 0. 0. 0.
      0. 0. 0. 0. 0. 0. 0. 0. 0. 0. 0. 0. 0. 0. 0. 0. 0. 0. 0. 0. 0. 0.
      0. 0. 0. 0. 0. 0. 0. 0. 0. 0. 0. 0. 0. 0. 0. 0. 0. 0. 0. 0. 0. 0.
      0. 1.83689147e-01 0. 0. 0. 5.59587441e-02 0. 8.02005008e-02
      2.68015992e-02 1.83689147e-01 3.68759811e-01 4.37515862e-02
      1.30920932e-01 0. 1.62673334e-03 0. 2.51390010e-01 8.40101391e-02
      3.68759811e-01 3.68759811e-01 3.01686730e-02 9.02758166e-02 0.
      3.64531577e-03 0. 1.85656592e-01 6.20431751e-02 3.68759811e-01
      3.21851581e-01 2.18187291e-02 6.52897060e-02 0. 1.41467184e-01 0.
      2.40187515e-02 8.02666508e-03 3.21851581e-01 1.82012748e-03 0. 0.
      0. 0. 0. 0. 0. 1.82012748e-03 2.14401800e-02 0. 0. 0. 0. 0. 0. 0.
      2.14401800e-02 4.50478829e-02 0. 0. 0. 0. 0. 0. 0. 4.50478829e-02
      1.33816330e-02 0. 0. 0. 0. 0. 0. 0. 1.33816330e-02 0. 0. 0. 0. 0.
      0. 0. 0. 0. 0. 0. 0. 0. 0. 0. 0. 0. 0. 0. 0. 0. 0. 0. 0. 0. 0. 0.
      0. 0. 0. 0. 0. 0. 0. 0. 0. 0. 0. 0. 0. 0. 0. 0. 0. 0. 0. 0. 0. 0.
      0. 0. 0. 0. 0. 0. 0. 0. 0. 0. 0. 0. 0. 0. 0. 0. 0. 0. 0. 0. 0. 0.
      0. 4.30166483e-01 3.82770710e-02 1.14539154e-01 0. 1.74382422e-02
      0. 4.62254211e-02 1.54477349e-02 4.30166483e-01 4.30166483e-01
      5.35879061e-02 1.60354838e-01 0. 4.30166483e-01 0. 1.14899255e-01
      3.83974127e-02 4.30166483e-01 0. 0. 0. 0. 6.15237840e-02 0. 0. 0.
      0. 0. 0. 0. 0. 0. 0. 0. 0. 0. 4.22068313e-02 0. 0. 0. 0. 0. 0. 0.
      4.22068313e-02 3.61504592e-02 0. 0. 0. 0. 0. 0. 0. 3.61504592e-02
      0. 0. 0. 0. 0. 0. 0. 0. 0. 0. 0. 0. 0. 0. 0. 0. 0. 0. 0. 0. 0. 0.
      0. 0. 0. 0. 0. 0. 0. 0. 0. 0. 0. 0. 0. 0. 0. 0. 0. 0. 0. 0. 0. 0.
      0. 0. 0. 0. 0. 0. 0. 0. 0. 0. 0. 0. 0. 0. 0. 0. 0. 0. 0. 0. 0. 0.
      0. 0. 0. 0. 0. 0. 0. 0. 0. 0. 0. 0. 0. 0. 0. 0. 0. 0. 0. 0. 0. 0.
      0. 0.</_>
    <_>
      0. 0. 0. 0. 0. 0. 0. 0. 0. 0. 0. 0. 0. 0. 0. 0. 0. 0. 0. 0. 0. 0.
      0. 0. 0. 0. 0. 0. 0. 0. 0. 0. 0. 0. 0. 0. 0. 0. 0. 0. 0. 0. 0. 0.
      0. 0. 0. 0. 0. 0. 0. 0. 0. 0. 0. 0. 0. 0. 0. 0. 0. 0. 0. 0. 0. 0.
      0. 0. 0. 0. 0. 0. 0. 0. 0. 0. 0. 0. 0. 0. 0. 0. 0. 0. 0. 0. 0. 0.
      0. 0. 2.13017371e-02 0. 0. 0. 0. 0. 0. 0. 2.13017371e-02
      2.07671765e-02 0. 0. 0. 0. 0. 0. 0. 2.07671765e-02 0. 0. 0. 0. 0.
      0. 0. 0. 0. 0. 0. 0. 0. 0. 0. 0. 0. 0. 2.37800300e-01
      2.74072975e-01 3.19660157e-01 0. 3.19660157e-01 0. 2.23772570e-01
      7.47810528e-02 2.37800300e-01 3.19660157e-01 1.22317061e-01
      3.19660157e-01 0. 3.19660157e-01 0. 3.19660157e-01 1.44623637e-01
      3.19660157e-01 0. 0. 0. 0. 0. 0. 0. 0. 0. 0. 0. 0. 0. 0. 0. 0. 0.
      0. 0. 0. 0. 0. 0. 0. 0. 0. 0. 0. 0. 0. 0. 0. 0. 0. 0. 0. 0. 0. 0.
      0. 0. 0. 0. 0. 0. 0. 0. 0. 0. 0. 0. 0. 0. 0. 0. 0. 0. 0. 0. 0. 0.
      0. 0. 0. 0. 0. 0. 0. 0. 0. 0. 0. 1.56158954e-02 0. 0. 0. 0. 0. 0.
      0. 1.56158954e-02 1.60916876e-02 0. 0. 0. 0. 0. 0. 0.
      1.60916876e-02 0. 0. 0. 0. 0. 0. 0. 0. 0. 0. 0. 0. 0. 0. 0. 0. 0.
      0. 1.77804962e-01 1.39827326e-01 3.04734588e-01 0. 3.04734588e-01
      0. 2.25292131e-01 7.52888694e-02 1.77804962e-01 3.04734588e-01
      6.63383529e-02 1.98509678e-01 0. 3.04734588e-01 0. 3.04734588e-01
      1.54966459e-01 3.04734588e-01 3.04734588e-01 0. 0. 0. 0. 0. 0. 0.
      3.04734588e-01 1.51685223e-01 0. 0. 0. 0. 0. 0. 0. 1.51685223e-01
      0. 0. 0. 0. 0. 0. 0. 0. 0. 0. 0. 0. 0. 0. 0. 0. 0. 0. 0. 0. 0. 0.
      0. 0. 0. 0. 0. 0. 0. 0. 0. 0. 0. 0. 0. 0. 0. 0. 0. 0. 0. 0. 0. 0.
      0. 0. 0. 0. 0. 0. 0. 0. 0. 0. 0. 0. 0. 0. 0. 0. 0. 0. 0. 0. 0. 0.
      0. 0. 0. 0. 0. 0. 0. 0. 0. 0. 0. 0. 0. 0. 0. 0. 0. 0. 0. 0. 0. 0.
      0. 0. 0. 0. 0. 0. 0. 0. 0. 0. 0. 0. 0. 0. 0. 0. 0. 0. 0. 0.
      4.98753130e-01 0. 0. 0. 0. 0. 0. 0. 4.98753130e-01 4.98753130e-01
      0. 0. 0. 0. 0. 0. 0. 4.98753130e-01 0. 0. 0. 0. 0. 0. 0. 0. 0. 0.
      0. 0. 0. 0. 0. 0. 0. 0. 0. 0. 0. 0. 0. 0. 0. 0. 0. 0. 0. 0. 0. 0.
      0. 0. 0. 0. 5.51974354e-03 0. 0. 0. 0. 0. 0. 0. 5.51974354e-03
      5.38122747e-03 0. 0. 0. 0. 0. 0. 0. 5.38122747e-03 0. 0. 0. 0. 0.
      0. 0. 0. 0. 0. 0. 0. 0. 0. 0. 0. 0. 0. 7.67900795e-02
      1.09758593e-01 3.07804883e-01 0. 3.07804883e-01 0. 9.34089869e-02
      3.12157162e-02 7.67900795e-02 2.05204949e-01 4.77821380e-02
      1.42982364e-01 0. 3.07804883e-01 0. 1.60664797e-01 5.36914915e-02
      2.05204949e-01 0. 0. 0. 0. 0. 0. 0. 0. 0. 0. 0. 0. 0. 0. 0. 0. 0.
      0. 1.91595763e-01 1.90815125e-02 5.70991598e-02 0. 3.07804883e-01
      0. 2.39949971e-01 8.01870823e-02 1.91595763e-01 3.07804883e-01
      7.37831788e-03 2.20787413e-02 0. 2.57798821e-01 0. 2.03225240e-01
      6.79143295e-02 3.07804883e-01 0. 0. 0. 0. 0. 0. 0. 0. 0. 0. 0. 0.
      0. 0. 0. 0. 0. 0. 1.61113665e-02 0. 0. 0. 0. 0. 8.65937397e-03
      2.89381063e-03 1.61113665e-02 4.69410419e-02 0. 0. 0. 0. 0.
      1.30197750e-02 4.35097981e-03 4.69410419e-02 2.13409029e-03 0. 0.
      0. 0. 0. 0. 0. 2.13409029e-03 2.19911290e-03 0. 0. 0. 0. 0. 0. 0.
      2.19911290e-03 0. 0. 0. 0. 0. 0. 0. 0. 0. 0. 0. 0. 0. 0. 0. 0. 0.
      0. 3.38039137e-02 2.92322040e-02 8.74738991e-02 0. 1.63939744e-01
      0. 4.59758490e-02 1.53643601e-02 3.38039137e-02 2.47112244e-01
      1.35069499e-02 4.04179431e-02 0. 1.85248077e-01 0. 8.94451812e-02
      2.98910774e-02 2.47112244e-01 2.97051787e-01 0. 0. 0.
      1.30094483e-03 0. 1.76585116e-03 5.90117939e-04 2.97051787e-01
      8.79979506e-02 0. 0. 0. 4.00824845e-02 0. 1.94243826e-02
      6.49130484e-03 8.79979506e-02 7.97867253e-02 4.84978175e-03
      1.45123973e-02 0. 1.88251957e-01 0. 7.32157603e-02 2.44674217e-02
      7.97867253e-02 3.06556433e-01 1.95867429e-03 5.86110074e-03 0.
      1.07025646e-01 0. 1.13631129e-01 3.79735343e-02 3.06556433e-01
      3.06556433e-01 1.14571000e-03 3.42838792e-03 0. 6.42426638e-03 0.
      2.47219112e-03 8.26164964e-04 3.06556433e-01 2.04828352e-01
      1.26028219e-02 3.77123058e-02 0. 1.74827814e-01 0. 2.71941330e-02
      9.08782426e-03 2.04828352e-01 6.89731212e-03 0. 0. 0. 0. 0.
      3.29409074e-03 1.10082736e-03 6.89731212e-03 6.22348599e-02 0. 0.
      0. 0. 0. 8.59690458e-03 2.87293433e-03 6.22348599e-02
      8.20530653e-02 1.04155341e-04 3.11671291e-04 0. 0. 0. 0. 0.
      8.20530653e-02 2.51938589e-02 1.14571000e-03 3.42838792e-03 0.
      2.55416380e-03 0. 0. 0. 2.51938589e-02 0. 0. 0. 0. 0. 0. 0. 0. 0.
      0. 0. 0. 0. 0. 0. 0. 0. 0. 0. 0. 0. 0. 0. 0. 0. 0. 0. 0. 0. 0. 0.
      0. 0. 0. 0. 0. 2.62928039e-01 0. 0. 0. 6.33604871e-03 0.
      8.60030297e-03 2.87407753e-03 2.62928039e-01 2.38857567e-01 0. 0.
      0. 2.44871959e-01 0. 9.46032777e-02 3.16148363e-02 2.38857567e-01
      0. 0. 0. 0. 1.59250479e-02 0. 0. 0. 0. 0. 0. 0. 0. 0. 0. 0. 0. 0.
      3.43556643e-01 5.58000151e-03 1.66974273e-02 0. 3.12883854e-02 0.
      1.20404195e-02 4.02370701e-03 3.43556643e-01 3.43556643e-01
      6.13799840e-02 1.83671623e-01 0. 3.43556643e-01 0. 1.32444561e-01
      4.42607626e-02 3.43556643e-01 0. 0. 0. 0. 6.43629059e-02 0. 0. 0.
      0. 0. 0. 0. 0. 0. 0. 0. 0. 0. 7.29573518e-02 5.07272372e-04
      1.51794637e-03 0. 0. 0. 0. 0. 7.29573518e-02 7.03495517e-02
      5.57999266e-03 1.66974030e-02 0. 1.73609108e-02 0. 0. 0.
      7.03495517e-02 0. 0. 0. 0. 1.57826557e-03 0. 0. 0. 0. 0. 0. 0. 0.
      0. 0. 0. 0. 0. 0. 0. 0. 0. 0. 0. 0. 0. 0. 0. 0. 0. 0. 0. 0. 0. 0.
      0. 3.58232111e-01 0. 0. 0. 3.58232111e-01 0. 3.58232111e-01
      1.48948386e-01 3.58232111e-01 3.58232111e-01 0. 0. 0.
      1.19324528e-01 0. 3.58232111e-01 1.35380283e-01 3.58232111e-01 0.
      0. 0. 0. 0. 0. 0. 0. 0. 0. 0. 0. 0. 0. 0. 0. 0. 0. 4.35873009e-02
      0. 0. 0. 0. 0. 1.99294519e-02 6.66007306e-03 4.35873009e-02
      1.38053939e-01 0. 0. 0. 0. 0. 2.99648680e-02 1.00137321e-02
      1.38053939e-01 0. 0. 0. 0. 0. 0. 0. 0. 0. 0. 0. 0. 0. 0. 0. 0. 0.
      0. 0. 0. 0. 0. 0. 0. 0. 0. 0. 0. 0. 0. 0. 0. 0. 0. 0. 0. 0. 0. 0.
      0. 0. 0. 0. 0. 0. 0. 0. 0. 0. 0. 0. 0. 0. 0. 0. 0. 0. 0. 0. 0. 0.
      0. 0. 0. 0. 0. 0. 0. 0. 0. 0. 0. 1.23568445e-01 0. 0. 0.
      1.11318655e-01 0. 1.04887828e-01 3.50516699e-02 1.23568445e-01
      3.83233637e-01 0. 0. 0. 1.91934463e-02 0. 1.79320887e-01
      5.99258915e-02 3.83233637e-01 3.83233637e-01 2.00505974e-03
      5.99988038e-03 0. 7.00464146e-03 0. 1.59162318e-03 5.31893864e-04
      3.83233637e-01 2.79732734e-01 2.20556781e-02 6.59987405e-02 0.
      2.00110674e-01 0. 1.75078735e-02 5.85083896e-03 2.79732734e-01
      1.46542201e-02 0. 0. 0. 0. 0. 5.76485554e-03 1.92651351e-03
      1.46542201e-02 1.40646294e-01 0. 0. 0. 0. 0. 1.50450924e-02
      5.02780685e-03 1.40646294e-01 1.85218349e-01 1.82278091e-04
      5.45443443e-04 0. 0. 0. 0. 0. 1.85218349e-01 5.76660782e-02
      2.00506113e-03 5.99988410e-03 0. 4.46993904e-03 0. 0. 0.
      5.76660782e-02 0. 0. 0. 0. 0. 0. 0. 0. 0. 0. 0. 0. 0. 0. 0. 0. 0.
      0. 0. 0. 0. 0. 0. 0. 0. 0. 0. 0. 0. 0. 0. 0. 0. 0. 0. 0. 0. 0. 0.
      0. 0. 0. 0. 0. 0. 0. 0. 0. 0. 0. 0. 0. 0. 0. 0. 0. 0. 0. 0. 0. 0.
      0. 0. 0. 0. 0. 0. 0. 0. 0. 0. 0. 3.97530735e-01 9.04089771e-03
      2.70537063e-02 0. 3.15842256e-02 0. 7.17669399e-03 2.39833118e-03
      3.97530735e-01 3.97530735e-01 9.94498134e-02 2.97590613e-01 0.
      3.97530735e-01 0. 7.89435953e-02 2.63816305e-02 3.97530735e-01 0.
      0. 0. 0. 7.03997687e-02 0. 0. 0. 0. 0. 0. 0. 0. 0. 0. 0. 0. 0.
      1.52743891e-01 8.21899506e-04 2.45942734e-03 0. 0. 0. 0. 0.
      1.52743891e-01 1.50652707e-01 9.04088933e-03 2.70536859e-02 0.
      2.81287245e-02 0. 0. 0. 1.50652707e-01 0. 0. 0. 0. 2.55715824e-03
      0. 0. 0. 0. 0. 0. 0. 0. 0. 0. 0. 0. 0. 0. 0. 0. 0. 0. 0. 0. 0. 0.
      0. 0. 0. 0. 0. 0. 0. 0. 0. 0. 0. 0. 0. 0. 0. 0. 0. 0. 0. 0. 0. 0.
      0. 0. 0. 0. 0. 0. 0. 0. 0. 0. 0. 0. 0. 0. 0. 0. 0. 0. 0. 0. 0. 0.
      0. 0. 0. 0. 0. 0. 0. 0. 0. 0. 0. 0. 0. 0. 0. 0. 0. 0. 0.</_>
    <_>
      0. 0. 0. 0. 0. 0. 0. 0. 0. 0. 0. 0. 0. 0. 0. 0. 0. 0. 0. 0. 0. 0.
      0. 0. 0. 0. 0. 0. 0. 0. 0. 0. 0. 0. 0. 0. 0. 0. 0. 0. 0. 0. 0. 0.
      0. 0. 0. 0. 0. 0. 0. 0. 0. 0. 0. 0. 0. 0. 0. 0. 0. 0. 0. 0. 0. 0.
      0. 0. 0. 0. 0. 0. 0. 0. 0. 0. 0. 0. 0. 0. 0. 0. 0. 0. 0. 0. 0. 0.
      0. 0. 0. 0. 0. 0. 0. 0. 0. 0. 0. 1.04830954e-02 0. 0. 0. 0. 0. 0.
      0. 1.04830954e-02 0. 0. 0. 0. 0. 0. 0. 0. 0. 2.73777395e-01
      1.15963027e-01 3.47005576e-01 0. 9.06720832e-02 0. 0. 0.
      2.73777395e-01 3.92907619e-01 5.73559925e-02 1.71630993e-01 0.
      8.24292097e-03 0. 0. 0. 3.92907619e-01 3.92907619e-01
      7.33418539e-02 2.19466805e-01 0. 0. 0. 0. 0. 3.92907619e-01 0. 0.
      0. 0. 0. 0. 0. 0. 0. 0. 0. 0. 0. 0. 0. 0. 0. 0. 0. 0. 0. 0. 0. 0.
      0. 0. 0. 0. 0. 0. 0. 0. 0. 0. 0. 0. 0. 0. 0. 0. 0. 0. 0. 0. 0. 0.
      0. 0. 0. 0. 0. 0. 0. 0. 0. 0. 0. 0. 0. 0. 0. 0. 0. 0. 0. 0. 0. 0.
      0. 0. 0. 0. 0. 0. 0. 0. 0. 0. 0. 0. 0. 2.66037136e-02 0. 0. 0. 0.
      0. 0. 0. 2.66037136e-02 4.82805595e-02 0. 0. 0. 0. 0. 0. 0.
      4.82805595e-02 2.13133506e-02 0. 0. 0. 0. 0. 0. 0. 2.13133506e-02
      2.39353895e-01 3.85253062e-03 1.15282414e-02 0. 0. 0. 0. 0.
      2.39353895e-01 3.64113867e-01 8.90826210e-02 2.66569167e-01 0. 0.
      0. 0. 0. 3.64113867e-01 3.64113867e-01 4.24589403e-03
      1.27053345e-02 0. 0. 0. 0. 0. 3.64113867e-01 3.64113867e-01 0. 0.
      0. 0. 0. 0. 0. 3.64113867e-01 0. 0. 0. 0. 0. 0. 0. 0. 0. 0. 0. 0.
      0. 0. 0. 0. 0. 0. 0. 0. 0. 0. 0. 0. 0. 0. 0. 0. 0. 0. 0. 0. 0. 0.
      0. 0. 0. 0. 0. 0. 0. 0. 0. 0. 0. 0. 0. 0. 0. 0. 0. 0. 0. 0. 0. 0.
      0. 0. 0. 0. 0. 0. 0. 0. 0. 0. 0. 0. 0. 0. 0. 0. 2.18179170e-02 0.
      0. 0. 0. 0. 0. 0. 2.18179170e-02 5.57745658e-02 0. 0. 0. 0. 0. 0.
      0. 5.57745658e-02 2.41753422e-02 0. 0. 0. 0. 0. 0. 0.
      2.41753422e-02 0. 0. 0. 0. 0. 0. 0. 0. 0. 3.67915928e-01 0. 0. 0.
      0. 0. 0. 0. 3.67915928e-01 3.67915928e-01 6.55252812e-03
      1.96075886e-02 0. 6.41297698e-02 0. 5.37023842e-02 1.79464407e-02
      3.67915928e-01 3.67915928e-01 1.96575858e-02 5.88227734e-02 0.
      3.67915928e-01 0. 1.61107153e-01 5.38393185e-02 3.67915928e-01 0.
      0. 0. 0. 0. 0. 0. 0. 0. 0. 0. 0. 0. 0. 0. 0. 0. 0. 0. 0. 0. 0. 0.
      0. 0. 0. 0. 0. 0. 0. 0. 0. 0. 0. 0. 0. 2.74544652e-03 0. 0. 0. 0.
      0. 0. 0. 2.74544652e-03 0. 0. 0. 0. 0. 0. 0. 0. 0. 1.40875146e-01
      6.70649484e-02 2.00683862e-01 0. 2.13073343e-01 0. 0. 0.
      1.40875146e-01 2.99785286e-01 3.41531523e-02 1.02199219e-01 0.
      3.51918265e-02 0. 0. 0. 2.99785286e-01 2.63464063e-01
      3.59716788e-02 1.07640885e-01 0. 0. 0. 0. 0. 2.63464063e-01 0. 0.
      0. 0. 0. 0. 0. 0. 0. 2.13553593e-01 5.37610874e-02 1.60873398e-01
      0. 2.99785286e-01 0. 0. 0. 2.13553593e-01 2.99785286e-01
      3.57727148e-02 1.07045338e-01 0. 6.99274540e-02 0. 0. 0.
      2.99785286e-01 2.30928883e-01 2.99326070e-02 8.95694643e-02 0. 0.
      0. 0. 0. 2.30928883e-01 0. 0. 0. 0. 0. 0. 0. 0. 0. 3.61840241e-03
      0. 0. 0. 0. 0. 0. 0. 3.61840241e-03 1.20613410e-03 0. 0. 0. 0. 0.
      0. 0. 1.20613410e-03 0. 0. 0. 0. 0. 0. 0. 0. 0. 0. 0. 0. 0. 0. 0.
      0. 0. 0. 9.88582801e-03 0. 0. 0. 0. 0. 0. 0. 9.88582801e-03
      1.79408547e-02 0. 0. 0. 0. 0. 0. 0. 1.79408547e-02 7.91995041e-03
      0. 0. 0. 0. 0. 0. 0. 7.91995041e-03 1.72910675e-01 4.21899185e-03
      1.26248067e-02 0. 0. 0. 0. 0. 1.72910675e-01 2.81709224e-01
      5.77330999e-02 1.72759324e-01 0. 0. 0. 0. 0. 2.81709224e-01
      2.81709224e-01 2.20193318e-03 6.58902433e-03 0. 0. 0. 0. 0.
      2.81709224e-01 2.61851430e-01 0. 0. 0. 0. 0. 0. 0. 2.61851430e-01
      1.74073175e-01 6.84480416e-03 2.04821862e-02 0. 0. 0. 0. 0.
      1.74073175e-01 2.81709224e-01 3.88036445e-02 1.16114907e-01 0. 0.
      0. 0. 0. 2.81709224e-01 2.81709224e-01 2.00175826e-04
      5.99002466e-04 0. 0. 0. 0. 0. 2.81709224e-01 1.65753886e-01 0. 0.
      0. 0. 0. 0. 0. 1.65753886e-01 0. 0. 0. 0. 0. 0. 0. 0. 0. 0. 0. 0.
      0. 0. 0. 0. 0. 0. 0. 0. 0. 0. 0. 0. 0. 0. 0. 0. 0. 0. 0. 0. 0. 0.
      0. 0. 9.63396206e-03 0. 0. 0. 0. 0. 0. 0. 9.63396206e-03
      2.46279277e-02 0. 0. 0. 0. 0. 0. 0. 2.46279277e-02 1.06749125e-02
      0. 0. 0. 0. 0. 0. 0. 1.06749125e-02 0. 0. 0. 0. 0. 0. 0. 0. 0.
      3.05908710e-01 0. 0. 0. 0. 0. 0. 0. 3.05908710e-01 3.05908710e-01
      2.31880341e-02 6.93871751e-02 0. 5.32176122e-02 0. 3.30940150e-02
      1.10594667e-02 3.05908710e-01 2.48686403e-01 5.41613214e-02
      1.62070692e-01 0. 3.05908710e-01 0. 9.92820486e-02 3.31784040e-02
      2.48686403e-01 0. 0. 0. 0. 0. 0. 0. 0. 0. 2.01625824e-01 0. 0. 0.
      0. 0. 0. 0. 2.01625824e-01 3.05908710e-01 2.70701479e-02
      8.10038969e-02 0. 1.80235952e-02 0. 3.00854817e-03 1.00540661e-03
      3.05908710e-01 1.15930922e-01 5.96465580e-02 1.78484559e-01 0.
      1.25242010e-01 0. 9.02564451e-03 3.01621971e-03 1.15930922e-01 0.
      0. 0. 0. 0. 0. 0. 0. 0. 0. 0. 0. 0. 0. 0. 0. 0. 0. 0. 0. 0. 0. 0.
      0. 0. 0. 0. 0. 0. 0. 0. 0. 0. 0. 0. 0. 0. 0. 0. 0. 0. 0. 0. 0. 0.
      0. 0. 0. 0. 0. 0. 0. 0. 0. 3.69782746e-01 5.41367978e-02
      1.61997303e-01 0. 3.69782746e-01 0. 0. 0. 3.69782746e-01
      3.69782746e-01 4.79201786e-02 1.43394917e-01 0. 9.83231887e-02 0.
      0. 0. 3.69782746e-01 3.40427786e-01 4.35168296e-02 1.30218446e-01
      0. 0. 0. 0. 0. 3.40427786e-01 0. 0. 0. 0. 0. 0. 0. 0. 0.
      1.11542391e-02 0. 0. 0. 0. 0. 0. 0. 1.11542391e-02 3.71807930e-03
      0. 0. 0. 0. 0. 0. 0. 3.71807930e-03 0. 0. 0. 0. 0. 0. 0. 0. 0. 0.
      0. 0. 0. 0. 0. 0. 0. 0. 0. 0. 0. 0. 0. 0. 0. 0. 0. 0. 0. 0. 0. 0.
      0. 0. 0. 0. 0. 0. 0. 0. 0. 0. 0. 0. 0. 0. 0. 0. 0. 0. 0. 0. 0. 0.
      0. 0. 0. 0. 0. 0. 0. 0. 0. 0. 0. 0. 0. 0. 0. 0. 0. 0. 0. 0. 0. 0.
      0. 0. 0. 0. 0. 3.44244212e-01 1.59042384e-02 4.75913621e-02 0. 0.
      0. 0. 0. 3.44244212e-01 3.44244212e-01 8.25952888e-02
      2.47155637e-01 0. 0. 0. 0. 0. 3.44244212e-01 3.44244212e-01 0. 0.
      0. 0. 0. 0. 0. 3.44244212e-01 3.27956080e-01 0. 0. 0. 0. 0. 0. 0.
      3.27956080e-01 0. 0. 0. 0. 0. 0. 0. 0. 0. 0. 0. 0. 0. 0. 0. 0. 0.
      0. 0. 0. 0. 0. 0. 0. 0. 0. 0. 0. 0. 0. 0. 0. 0. 0. 0. 0. 0. 0. 0.
      0. 0. 0. 0. 0. 0. 0. 0. 0. 0. 0. 0. 0. 0. 0. 0. 0. 0. 0. 0. 0. 0.
      0. 0. 0. 0. 0. 0. 0. 0. 0. 0. 0. 0. 0. 0. 0. 0. 0. 0. 0. 0. 0. 0.
      0. 0. 0. 0. 0. 0. 0. 0. 0. 0. 0. 0. 0. 0. 0. 0. 0. 0. 0. 0. 0. 0.
      0. 0. 0. 4.17065114e-01 0. 0. 0. 0. 0. 0. 0. 4.17065114e-01
      4.17065114e-01 4.75551672e-02 1.42302647e-01 0. 0. 0. 0. 0.
      4.17065114e-01 3.06569964e-01 9.48630720e-02 2.83865392e-01 0. 0.
      0. 0. 0. 3.06569964e-01 0. 0. 0. 0. 0. 0. 0. 0. 0. 0. 0. 0. 0. 0.
      0. 0. 0. 0. 0. 0. 0. 0. 0. 0. 0. 0. 0. 0. 0. 0. 0. 0. 0. 0. 0. 0.
      0. 0. 0. 0. 0. 0. 0. 0. 0. 0. 0. 0. 0. 0. 0. 0. 0. 0. 0. 0. 0. 0.
      0. 0. 0. 0. 0. 0. 0. 0. 0. 0. 0. 0. 0. 0. 0. 0. 0. 0. 0. 0. 0. 0.
      0. 0. 0. 0. 0. 0. 0. 0. 0. 0. 0. 0. 0. 0. 0. 0. 0. 0. 0. 0. 0. 0.
      0. 0. 0. 0. 0. 0. 0. 0. 0. 0. 0. 0. 0. 0. 0.</_>
    <_>
      0. 0. 0. 0. 0. 0. 0. 0. 0. 0. 0. 0. 0. 0. 0. 0. 0. 0. 0. 0. 0. 0.
      0. 0. 0. 0. 0. 0. 0. 0. 0. 0. 0. 0. 0. 0. 0. 0. 0. 0. 0. 0. 0. 0.
      0. 0. 0. 0. 0. 0. 0. 0. 0. 0. 0. 0. 0. 0. 0. 0. 0. 0. 0. 0. 0. 0.
      0. 0. 0. 0. 0. 0. 0. 0. 0. 0. 0. 0. 0. 0. 0. 0. 0. 0. 0. 0. 0. 0.
      0. 0. 0. 0. 0. 0. 0. 0. 0. 0. 0. 0. 0. 0. 0. 0. 0. 0. 0. 0. 0. 0.
      0. 0. 0. 0. 0. 0. 0. 7.87012875e-02 2.30414327e-02 6.89487606e-02
      0. 2.11590320e-01 0. 0. 0. 7.87012875e-02 4.35434312e-01
      6.91242963e-02 2.06846282e-01 0. 3.56695384e-01 0. 0. 0.
      4.35434312e-01 4.35434312e-01 0. 0. 0. 0. 0. 0. 0. 4.35434312e-01
      0. 0. 0. 0. 0. 0. 0. 0. 0. 0. 0. 0. 0. 0. 0. 0. 0. 0. 0. 0. 0. 0.
      0. 0. 0. 0. 0. 0. 0. 0. 0. 0. 0. 0. 0. 0. 0. 0. 0. 0. 0. 0. 0. 0.
      0. 0. 0. 0. 0. 0. 0. 0. 0. 0. 0. 0. 0. 0. 0. 0. 0. 0. 0. 0. 0. 0.
      0. 0. 0. 0. 0. 0. 0. 0. 0. 0. 0. 0. 0. 0. 0. 0. 0. 0. 0. 0. 0. 0.
      0. 0. 0. 0. 0. 0. 0. 0. 0. 0. 0. 0. 0. 0. 0. 0. 0. 0. 0. 0.
      3.28455925e-01 7.32875289e-03 2.19304245e-02 0. 3.05051990e-02 0.
      0. 0. 3.28455925e-01 3.94332260e-01 0. 0. 0. 0. 0. 0. 0.
      3.94332260e-01 3.94332260e-01 0. 0. 0. 0. 0. 1.04380399e-01
      3.48821804e-02 3.94332260e-01 2.55794764e-01 0. 0. 0. 0. 0.
      1.11671336e-01 3.73186953e-02 2.55794764e-01 0. 0. 0. 0. 0. 0. 0.
      0. 0. 0. 0. 0. 0. 0. 0. 0. 0. 0. 0. 0. 0. 0. 0. 0. 0. 0. 0. 0. 0.
      0. 0. 0. 0. 0. 0. 0. 0. 0. 0. 0. 0. 0. 0. 0. 0. 0. 0. 0. 0. 0. 0.
      0. 0. 0. 0. 0. 0. 0. 0. 0. 0. 0. 0. 0. 0. 0. 0. 0. 0. 0. 0. 0. 0.
      0. 0. 0. 0. 0. 0. 0. 0. 0. 0. 0. 0. 0. 0. 0. 0. 0. 0. 0. 0. 0. 0.
      0. 0. 0. 0. 0. 0. 0. 0. 0. 0. 0. 0. 0. 4.16632235e-01 0. 0. 0. 0.
      0. 2.23599032e-01 7.47230500e-02 4.16632235e-01 4.16632235e-01 0.
      0. 0. 9.31748599e-02 0. 3.66774052e-01 1.22569755e-01
      4.16632235e-01 1.73403814e-01 0. 0. 0. 1.30444750e-01 0.
      9.74016264e-02 3.25500034e-02 1.73403814e-01 0. 0. 0. 0. 0. 0. 0.
      0. 0. 0. 0. 0. 0. 0. 0. 0. 0. 0. 0. 0. 0. 0. 0. 0. 0. 0. 0. 0. 0.
      0. 0. 0. 0. 0. 0. 0. 0. 0. 0. 0. 0. 0. 0. 0. 0. 0. 0. 0. 0. 0. 0.
      0. 0. 0. 4.11836952e-02 1.18080834e-02 3.53342928e-02 0.
      1.62130266e-01 0. 2.07515880e-02 6.93481555e-03 4.11836952e-02
      3.18381876e-01 3.54242511e-02 1.06002882e-01 0. 2.70230442e-01 0.
      6.22547567e-02 2.08044481e-02 3.18381876e-01 3.18381876e-01 0. 0.
      0. 0. 0. 0. 0. 3.18381876e-01 0. 0. 0. 0. 0. 0. 0. 0. 0.
      3.13702896e-02 3.93602764e-03 1.17780967e-02 0. 1.17033333e-01 0.
      2.90522091e-02 9.70873889e-03 3.13702896e-02 3.18381876e-01
      1.18080834e-02 3.53342928e-02 0. 1.94738150e-01 0. 8.71566385e-02
      2.91262176e-02 3.18381876e-01 3.18381876e-01 0. 0. 0. 0. 0. 0. 0.
      3.18381876e-01 0. 0. 0. 0. 0. 0. 0. 0. 0. 0. 0. 0. 0. 0. 0. 0. 0.
      0. 0. 0. 0. 0. 0. 0. 0. 0. 0. 0. 0. 0. 0. 0. 0. 0. 0. 0. 0. 0. 0.
      0. 0. 0. 0. 0. 0. 0. 0. 0. 0. 0. 0. 0. 0. 0. 0. 0. 0. 0. 0. 0. 0.
      0. 0. 0. 0. 0. 0. 0. 0. 0. 0. 0. 1.94138005e-01 3.68957128e-03
      1.10406056e-02 0. 2.25613043e-02 0. 6.48407172e-03 2.16686307e-03
      1.94138005e-01 2.94695556e-01 0. 0. 0. 0. 0. 0. 0. 2.94695556e-01
      2.94695556e-01 0. 0. 0. 0. 0. 8.03634822e-02 2.68561114e-02
      2.94695556e-01 1.68775022e-01 9.97256837e-04 2.98416126e-03 0.
      4.75777080e-03 0. 7.17775971e-02 2.39868648e-02 1.68775022e-01
      1.45487353e-01 1.22985709e-03 3.68020148e-03 0. 1.62433106e-02 0.
      9.07769799e-03 3.03360703e-03 1.45487353e-01 2.94695556e-01 0. 0.
      0. 0. 0. 0. 0. 2.94695556e-01 2.94695556e-01 0. 0. 0. 0. 0.
      1.00959681e-01 3.37389633e-02 2.94695556e-01 2.21086860e-01
      2.99177063e-03 8.95248447e-03 0. 6.66087680e-03 0. 6.28030300e-02
      2.09876895e-02 2.21086860e-01 0. 0. 0. 0. 0. 0. 0. 0. 0. 0. 0. 0.
      0. 0. 0. 0. 0. 0. 0. 0. 0. 0. 0. 0. 0. 0. 0. 0. 0. 0. 0. 0. 0. 0.
      0. 0. 0. 0. 0. 0. 0. 0. 0. 0. 0. 0. 0. 0. 0. 0. 0. 0. 0. 0. 0. 0.
      0. 0. 0. 0. 0. 0. 0. 0. 0. 0. 0. 0. 0. 0. 0. 0. 2.99081087e-01 0.
      0. 0. 0. 0. 1.09856479e-01 3.67121734e-02 2.99081087e-01
      3.11242998e-01 9.68435220e-03 2.89791636e-02 0. 1.45669952e-01 0.
      1.65289581e-01 5.52369989e-02 3.11242998e-01 7.93280900e-02
      6.91739284e-03 2.06993986e-02 0. 1.72256052e-01 0. 4.82986011e-02
      1.61405839e-02 7.93280900e-02 0. 0. 0. 0. 0. 0. 0. 0. 0.
      2.72563607e-01 0. 0. 0. 0. 0. 1.17712818e-01 3.93375792e-02
      2.72563607e-01 3.11242998e-01 2.90530566e-02 8.69374871e-02 0.
      2.03937888e-01 0. 1.23001680e-01 4.11050618e-02 3.11242998e-01
      1.11059338e-01 2.07521785e-02 6.20981939e-02 0. 2.41158426e-01 0.
      3.44989933e-02 1.15289874e-02 1.11059338e-01 0. 0. 0. 0. 0. 0. 0.
      0. 0. 0. 0. 0. 0. 0. 0. 0. 0. 0. 0. 0. 0. 0. 0. 0. 0. 0. 0. 0. 0.
      0. 0. 0. 0. 0. 0. 0. 0. 0. 0. 0. 0. 0. 0. 0. 0. 0. 0. 0. 0. 0. 0.
      0. 0. 0. 8.50619897e-02 0. 0. 0. 1.08282827e-01 0. 6.79170340e-02
      2.26966795e-02 8.50619897e-02 4.72974509e-01 0. 0. 0.
      1.51595905e-01 0. 2.03751102e-01 6.80900440e-02 4.72974509e-01
      4.72974509e-01 0. 0. 0. 0. 0. 0. 0. 4.72974509e-01 0. 0. 0. 0. 0.
      0. 0. 0. 0. 0. 0. 0. 0. 0. 0. 0. 0. 0. 0. 0. 0. 0. 0. 0. 0. 0. 0.
      0. 0. 0. 0. 0. 0. 0. 0. 0. 0. 0. 0. 0. 0. 0. 0. 0. 0. 0. 0. 0. 0.
      0. 0. 0. 0. 0. 0. 0. 0. 0. 0. 0. 0. 0. 0. 0. 0. 0. 0. 0. 0. 0. 0.
      0. 0. 0. 0. 0. 0. 0. 0. 0. 0. 0. 0. 0. 0. 0. 0. 0. 0. 0. 0. 0. 0.
      0. 0. 0. 0. 0. 0. 0. 0. 0. 0. 0. 0. 0. 0. 0. 2.64658481e-01 0. 0.
      0. 8.79630446e-03 0. 1.64997522e-02 5.51392697e-03 2.64658481e-01
      3.63659829e-01 0. 0. 0. 0. 0. 0. 0. 3.63659829e-01 3.63659829e-01
      0. 0. 0. 0. 0. 2.11669356e-01 7.07361847e-02 3.63659829e-01
      3.63659829e-01 7.58917723e-03 2.27096248e-02 0. 1.21069038e-02 0.
      1.03376597e-01 3.45466398e-02 3.63659829e-01 0. 0. 0. 0. 0. 0. 0.
      0. 0. 0. 0. 0. 0. 0. 0. 0. 0. 0. 0. 0. 0. 0. 0. 0. 0. 0. 0. 0. 0.
      0. 0. 0. 0. 0. 0. 0. 0. 0. 0. 0. 0. 0. 0. 0. 0. 0. 0. 0. 0. 0. 0.
      0. 0. 0. 0. 0. 0. 0. 0. 0. 0. 0. 0. 0. 0. 0. 0. 0. 0. 0. 0. 0. 0.
      0. 0. 0. 0. 0. 0. 0. 0. 0. 0. 0. 0. 0. 0. 0. 0. 0. 0. 0. 0. 0. 0.
      0. 0. 0. 0. 0. 0. 0. 0. 0. 0. 0. 0. 0. 4.10781354e-01 0. 0. 0. 0.
      0. 1.67908669e-01 5.61121255e-02 4.10781354e-01 4.14221585e-01
      5.34716696e-02 1.60007015e-01 0. 2.56416142e-01 0. 8.72649327e-02
      2.91624106e-02 4.14221585e-01 1.95431992e-01 3.81940417e-02
      1.14290692e-01 0. 3.00489396e-01 0. 0. 0. 1.95431992e-01 0. 0. 0.
      0. 0. 0. 0. 0. 0. 0. 0. 0. 0. 0. 0. 0. 0. 0. 0. 0. 0. 0. 0. 0. 0.
      0. 0. 0. 0. 0. 0. 0. 0. 0. 0. 0. 0. 0. 0. 0. 0. 0. 0. 0. 0. 0. 0.
      0. 0. 0. 0. 0. 0. 0. 0. 0. 0. 0. 0. 0. 0. 0. 0. 0. 0. 0. 0. 0. 0.
      0. 0. 0. 0. 0. 0. 0. 0. 0. 0. 0. 0. 0. 0. 0. 0. 0. 0. 0. 0. 0. 0.
      0. 0. 0. 0. 0. 0. 0. 0. 0. 0. 0. 0. 0. 0. 0. 0. 0. 0. 0. 0. 0. 0.
      0. 0. 0. 0.</_>
    <_>
      0. 0. 0. 0. 0. 0. 0. 0. 0. 0. 0. 0. 0. 0. 0. 0. 0. 0. 0. 0. 0. 0.
      0. 0. 0. 0. 0. 0. 0. 0. 0. 0. 0. 0. 0. 0. 0. 0. 0. 0. 0. 0. 0. 0.
      0. 0. 0. 0. 0. 0. 0. 0. 0. 0. 0. 0. 0. 0. 0. 0. 0. 0. 0. 0. 0. 0.
      0. 0. 0. 0. 0. 0. 0. 0. 0. 0. 0. 0. 0. 0. 0. 0. 0. 0. 0. 0. 0. 0.
      0. 0. 0. 0. 0. 0. 0. 0. 0. 0. 0. 0. 0. 0. 0. 0. 0. 0. 0. 0. 0. 0.
      0. 0. 0. 0. 0. 0. 0. 1.77788734e-01 3.48433256e-02 1.04264520e-01
      0. 2.71868825e-01 0. 0. 0. 1.77788734e-01 4.38250273e-01
      4.87806387e-02 1.45970270e-01 0. 2.33381152e-01 0. 0. 0.
      4.38250273e-01 4.38250273e-01 0. 0. 0. 0. 0. 0. 0. 4.38250273e-01
      0. 0. 0. 0. 0. 0. 0. 0. 0. 0. 0. 0. 0. 0. 0. 0. 0. 0. 0. 0. 0. 0.
      0. 0. 0. 0. 0. 0. 0. 0. 0. 0. 0. 0. 0. 0. 0. 0. 0. 0. 0. 0. 0. 0.
      0. 0. 0. 0. 0. 0. 0. 0. 0. 0. 0. 0. 0. 0. 0. 0. 0. 0. 0. 0. 0. 0.
      0. 0. 0. 0. 0. 0. 0. 0. 0. 0. 0. 0. 0. 0. 0. 0. 0. 0. 0. 0. 0. 0.
      0. 0. 0. 0. 0. 0. 0. 0. 0. 0. 0. 0. 0. 0. 0. 0. 0. 0. 0. 0.
      3.27945977e-01 3.90163995e-03 1.16751948e-02 0. 6.39956445e-03 0.
      0. 0. 3.27945977e-01 3.86860788e-01 0. 0. 0. 0. 0. 0. 0.
      3.86860788e-01 3.86860788e-01 0. 0. 0. 0. 0. 2.37869434e-02
      7.94919953e-03 3.86860788e-01 2.89528072e-01 0. 0. 0. 0. 0.
      1.11893490e-01 3.73929366e-02 2.89528072e-01 0. 0. 0. 0. 0. 0. 0.
      0. 0. 0. 0. 0. 0. 0. 0. 0. 0. 0. 0. 0. 0. 0. 0. 0. 0. 0. 0. 0. 0.
      0. 0. 0. 0. 0. 0. 0. 0. 0. 0. 0. 0. 0. 0. 0. 0. 0. 0. 0. 0. 0. 0.
      0. 0. 0. 0. 0. 0. 0. 0. 0. 0. 0. 0. 0. 0. 0. 0. 0. 0. 0. 0. 0. 0.
      0. 0. 0. 0. 0. 0. 0. 0. 0. 0. 0. 0. 0. 0. 0. 0. 0. 0. 0. 0. 0. 0.
      0. 0. 0. 0. 0. 0. 0. 0. 0. 0. 0. 0. 0. 3.97104353e-01 0. 0. 0. 0.
      0. 7.93913975e-02 2.65312772e-02 3.97104353e-01 3.97104353e-01 0.
      0. 0. 4.40824069e-02 0. 3.97104353e-01 1.64174020e-01
      3.97104353e-01 2.65135646e-01 0. 0. 0. 1.32247224e-01 0.
      1.10553697e-01 3.69452015e-02 2.65135646e-01 0. 0. 0. 0. 0. 0. 0.
      0. 0. 0. 0. 0. 0. 0. 0. 0. 0. 0. 0. 0. 0. 0. 0. 0. 0. 0. 0. 0. 0.
      0. 0. 0. 0. 0. 0. 0. 0. 0. 0. 0. 0. 0. 0. 0. 0. 0. 0. 0. 0. 0. 0.
      0. 0. 0. 8.82544667e-02 1.98656823e-02 5.94456606e-02 0.
      2.41377383e-01 0. 0. 0. 8.82544667e-02 3.03586811e-01
      3.32332402e-02 9.94464159e-02 0. 2.17009395e-01 0. 0. 0.
      3.03586811e-01 3.03586811e-01 0. 0. 0. 0. 0. 0. 0. 3.03586811e-01
      0. 0. 0. 0. 0. 0. 0. 0. 0. 8.25430751e-02 1.56573821e-02
      4.68527414e-02 0. 2.43557855e-01 0. 0. 0. 8.25430751e-02
      3.03586811e-01 3.81842107e-02 1.14261374e-01 0. 2.18670234e-01 0.
      0. 0. 3.03586811e-01 2.91892499e-01 0. 0. 0. 0. 0. 0. 0.
      2.91892499e-01 0. 0. 0. 0. 0. 0. 0. 0. 0. 0. 0. 0. 0. 0. 0. 0. 0.
      0. 0. 0. 0. 0. 0. 0. 0. 0. 0. 0. 0. 0. 0. 0. 0. 0. 0. 0. 0. 0. 0.
      0. 0. 0. 0. 0. 0. 0. 0. 0. 0. 0. 0. 0. 0. 0. 0. 0. 0. 0. 0. 0. 0.
      0. 0. 0. 0. 0. 0. 0. 0. 0. 0. 0. 2.04364881e-01 3.35181388e-03
      1.00298915e-02 0. 8.19201488e-03 0. 0. 0. 2.04364881e-01
      2.89735943e-01 0. 0. 0. 0. 0. 1.81315858e-02 6.05925685e-03
      2.89735943e-01 2.89735943e-01 0. 0. 0. 0. 0. 4.88222912e-02
      1.63155645e-02 2.89735943e-01 1.77762002e-01 9.92714311e-04
      2.97056837e-03 0. 0. 0. 5.95214441e-02 1.98910721e-02
      1.77762002e-01 1.52348906e-01 4.52086376e-03 1.35281049e-02 0.
      8.21099710e-03 0. 0. 0. 1.52348906e-01 2.89735943e-01 0. 0. 0. 0.
      0. 5.43947518e-02 1.81777738e-02 2.89735943e-01 2.89735943e-01 0.
      0. 0. 0. 0. 1.12724468e-01 3.76705453e-02 2.89735943e-01
      2.31328875e-01 2.97814305e-03 8.91170558e-03 0. 0. 0.
      1.98404826e-02 6.63035735e-03 2.31328875e-01 0. 0. 0. 0. 0. 0. 0.
      0. 0. 0. 0. 0. 0. 0. 0. 0. 0. 0. 0. 0. 0. 0. 0. 0. 0. 0. 0. 0. 0.
      0. 0. 0. 0. 0. 0. 0. 0. 0. 0. 0. 0. 0. 0. 0. 0. 0. 0. 0. 0. 0. 0.
      0. 0. 0. 0. 0. 0. 0. 0. 0. 0. 0. 0. 0. 0. 0. 0. 0. 0. 0. 0. 0.
      2.86887348e-01 0. 0. 0. 0. 0. 4.32592593e-02 1.44565124e-02
      2.86887348e-01 3.04458052e-01 2.66804397e-02 7.98377395e-02 0.
      4.40500118e-02 0. 2.16971934e-01 7.25083798e-02 3.04458052e-01
      1.32687375e-01 3.11472472e-02 9.32040811e-02 0. 1.32150039e-01 0.
      6.40689209e-02 2.14107614e-02 1.32687375e-01 0. 0. 0. 0. 0. 0. 0.
      0. 0. 2.98685402e-01 0. 0. 0. 0. 0. 4.18651365e-02 1.39906025e-02
      2.98685402e-01 3.04458052e-01 6.23186789e-02 1.86480522e-01 0.
      4.41520847e-02 0. 8.97576809e-02 2.99955197e-02 3.04458052e-01
      1.31408721e-01 6.86300620e-02 2.05366537e-01 0. 1.32456258e-01 0.
      4.57635075e-02 1.52933979e-02 1.31408721e-01 0. 0. 0. 0. 0. 0. 0.
      0. 0. 0. 0. 0. 0. 0. 0. 0. 0. 0. 0. 0. 0. 0. 0. 0. 0. 0. 0. 0. 0.
      0. 0. 0. 0. 0. 0. 0. 0. 0. 0. 0. 0. 0. 0. 0. 0. 0. 0. 0. 0. 0. 0.
      0. 0. 0. 2.14290306e-01 2.75002960e-02 8.22910443e-02 0.
      3.57652396e-01 0. 0. 0. 2.14290306e-01 3.89630586e-01
      8.25008824e-02 2.46873155e-01 0. 3.06305259e-01 0. 0. 0.
      3.89630586e-01 3.89630586e-01 0. 0. 0. 0. 0. 0. 0. 3.89630586e-01
      0. 0. 0. 0. 0. 0. 0. 0. 0. 0. 0. 0. 0. 0. 0. 0. 0. 0. 0. 0. 0. 0.
      0. 0. 0. 0. 0. 0. 0. 0. 0. 0. 0. 0. 0. 0. 0. 0. 0. 0. 0. 0. 0. 0.
      0. 0. 0. 0. 0. 0. 0. 0. 0. 0. 0. 0. 0. 0. 0. 0. 0. 0. 0. 0. 0. 0.
      0. 0. 0. 0. 0. 0. 0. 0. 0. 0. 0. 0. 0. 0. 0. 0. 0. 0. 0. 0. 0. 0.
      0. 0. 0. 0. 0. 0. 0. 0. 0. 0. 0. 0. 0. 0. 0. 0. 0. 0. 0. 0.
      2.39082173e-01 8.35590065e-03 2.50039436e-02 0. 7.53276236e-03 0.
      0. 0. 2.39082173e-01 3.65800172e-01 0. 0. 0. 0. 0. 1.18702598e-01
      3.96683253e-02 3.65800172e-01 3.65800172e-01 0. 0. 0. 0. 0.
      2.36788020e-01 7.91303888e-02 3.65800172e-01 3.65800172e-01
      6.49903342e-03 1.94475092e-02 0. 0. 0. 0. 0. 3.65800172e-01 0. 0.
      0. 0. 0. 0. 0. 0. 0. 0. 0. 0. 0. 0. 0. 0. 0. 0. 0. 0. 0. 0. 0. 0.
      0. 0. 0. 0. 0. 0. 0. 0. 0. 0. 0. 0. 0. 0. 0. 0. 0. 0. 0. 0. 0. 0.
      0. 0. 0. 0. 0. 0. 0. 0. 0. 0. 0. 0. 0. 0. 0. 0. 0. 0. 0. 0. 0. 0.
      0. 0. 0. 0. 0. 0. 0. 0. 0. 0. 0. 0. 0. 0. 0. 0. 0. 0. 0. 0. 0. 0.
      0. 0. 0. 0. 0. 0. 0. 0. 0. 0. 0. 0. 0. 0. 0. 0. 0. 0.
      4.12814617e-01 0. 0. 0. 0. 0. 5.57300374e-02 1.86240003e-02
      4.12814617e-01 4.12814617e-01 1.04548417e-01 3.12847555e-01 0.
      3.35022472e-02 0. 0. 0. 4.12814617e-01 1.79095343e-01
      1.12766497e-01 3.37439090e-01 0. 1.00506745e-01 0. 0. 0.
      1.79095343e-01 0. 0. 0. 0. 0. 0. 0. 0. 0. 0. 0. 0. 0. 0. 0. 0. 0.
      0. 0. 0. 0. 0. 0. 0. 0. 0. 0. 0. 0. 0. 0. 0. 0. 0. 0. 0. 0. 0. 0.
      0. 0. 0. 0. 0. 0. 0. 0. 0. 0. 0. 0. 0. 0. 0. 0. 0. 0. 0. 0. 0. 0.
      0. 0. 0. 0. 0. 0. 0. 0. 0. 0. 0. 0. 0. 0. 0. 0. 0. 0. 0. 0. 0. 0.
      0. 0. 0. 0. 0. 0. 0. 0. 0. 0. 0. 0. 0. 0. 0. 0. 0. 0. 0. 0. 0. 0.
      0. 0. 0. 0. 0. 0. 0. 0. 0. 0. 0. 0.</_>
    <_>
      0. 0. 0. 0. 0. 0. 0. 0. 0. 0. 0. 0. 0. 0. 0. 0. 0. 0. 0. 0. 0. 0.
      0. 0. 0. 0. 0. 0. 0. 0. 0. 0. 0. 0. 0. 0. 0. 0. 0. 0. 0. 0. 0. 0.
      0. 0. 0. 0. 0. 0. 0. 0. 0. 0. 0. 0. 0. 0. 0. 0. 0. 0. 0. 0. 0. 0.
      0. 0. 0. 0. 0. 0. 0. 0. 0. 0. 0. 0. 0. 0. 0. 0. 0. 0. 0. 0. 0. 0.
      0. 0. 0. 0. 0. 0. 0. 0. 0. 0. 0. 0. 0. 0. 0. 0. 0. 0. 0. 0. 0. 0.
      0. 0. 0. 0. 0. 0. 0. 1.59529243e-02 6.56658411e-03 1.96497235e-02
      0. 5.79794198e-02 0. 0. 0. 1.59529243e-02 4.03985023e-01
      2.17433900e-01 4.03985023e-01 0. 1.73938259e-01 0. 0. 0.
      4.03985023e-01 4.03985023e-01 7.09144995e-02 2.12203264e-01 0. 0.
      0. 2.07909018e-01 6.94797263e-02 4.03985023e-01 0. 0. 0. 0. 0. 0.
      0. 0. 0. 0. 0. 0. 0. 0. 0. 0. 0. 0. 0. 0. 0. 0. 0. 0. 0. 0. 0. 0.
      0. 0. 0. 0. 0. 0. 0. 0. 0. 0. 0. 0. 0. 0. 0. 0. 0. 0. 0. 0. 0. 0.
      0. 0. 0. 0. 0. 0. 0. 0. 0. 0. 0. 0. 0. 0. 0. 0. 0. 0. 0. 0. 0. 0.
      0. 0. 0. 0. 0. 0. 0. 0. 0. 0. 0. 0. 0. 0. 0. 0. 0. 0. 0. 0. 0. 0.
      0. 0. 0. 0. 0. 0. 0. 0. 0. 0. 0. 0. 0. 0. 2.95216918e-01
      5.84845617e-02 1.75008118e-01 0. 1.81960296e-02 0. 0. 0.
      2.95216918e-01 3.62911463e-01 2.49145795e-02 7.45539367e-02 0. 0.
      0. 3.60809505e-01 1.20576523e-01 3.62911463e-01 3.62911463e-01 0.
      0. 0. 0. 0. 2.68268019e-01 8.96506906e-02 3.62911463e-01
      1.19113401e-01 0. 0. 0. 0. 0. 3.77908275e-02 1.26290638e-02
      1.19113401e-01 0. 0. 0. 0. 0. 0. 0. 0. 0. 0. 0. 0. 0. 0. 0. 0. 0.
      0. 0. 0. 0. 0. 0. 0. 0. 0. 0. 0. 0. 0. 0. 0. 0. 0. 0. 0. 0. 0. 0.
      0. 0. 0. 0. 0. 0. 0. 0. 0. 0. 0. 0. 0. 0. 0. 0. 0. 0. 0. 0. 0. 0.
      0. 0. 0. 0. 0. 0. 0. 0. 0. 0. 0. 0. 0. 0. 0. 0. 0. 0. 0. 0. 0. 0.
      0. 0. 0. 0. 0. 0. 0. 0. 0. 0. 0. 0. 0. 0. 0. 0. 0. 0. 0. 0. 0. 0.
      0. 0. 0. 4.38960791e-01 0. 0. 0. 0. 0. 4.38537508e-01
      1.46551922e-01 4.38960791e-01 4.38960791e-01 0. 0. 0. 0. 0.
      9.39649493e-02 3.14015113e-02 4.38960791e-01 2.51064468e-02 0. 0.
      0. 0. 0. 0. 0. 2.51064468e-02 0. 0. 0. 0. 0. 0. 0. 0. 0. 0. 0. 0.
      0. 0. 0. 0. 0. 0. 0. 0. 0. 0. 0. 0. 0. 0. 0. 0. 0. 0. 0. 0. 0. 0.
      0. 0. 0. 0. 0. 0. 0. 0. 0. 0. 0. 0. 0. 0. 0. 0. 0. 0. 0. 0.
      8.89751036e-03 3.79313971e-03 1.13505200e-02 0. 5.77483885e-02 0.
      8.22090264e-03 2.74728145e-03 8.89751036e-03 3.07367980e-01
      1.01823308e-01 3.04694176e-01 0. 1.73245162e-01 0. 9.04300287e-02
      3.02201249e-02 3.07367980e-01 3.07367980e-01 2.93514468e-02
      8.78307223e-02 0. 0. 0. 8.60533491e-02 2.87575889e-02
      3.07367980e-01 0. 0. 0. 0. 0. 0. 0. 0. 0. 9.08479933e-03
      2.70938524e-03 8.10751412e-03 0. 5.78822009e-02 0. 1.15092620e-02
      3.84619343e-03 9.08479933e-03 3.07367980e-01 4.98361737e-02
      1.49128839e-01 0. 1.73646614e-01 0. 1.26601994e-01 4.23081666e-02
      3.07367980e-01 3.07367980e-01 9.78381559e-03 2.92769074e-02 0. 0.
      0. 2.86844466e-02 9.58586298e-03 3.07367980e-01 0. 0. 0. 0. 0. 0.
      0. 0. 0. 0. 0. 0. 0. 0. 0. 0. 0. 0. 0. 0. 0. 0. 0. 0. 0. 0. 0. 0.
      0. 0. 0. 0. 0. 0. 0. 0. 0. 0. 0. 0. 0. 0. 0. 0. 0. 0. 0. 0. 0. 0.
      0. 0. 0. 0. 0. 0. 0. 0. 0. 0. 0. 0. 0. 0. 0. 0. 0. 0. 0. 0. 0. 0.
      1.66718006e-01 2.45133918e-02 7.33534172e-02 0. 1.71310827e-02 0.
      1.24796135e-02 4.17046761e-03 1.66718006e-01 3.02716285e-01
      9.74742882e-03 2.91680265e-02 0. 0. 0. 1.41160935e-01
      4.71736267e-02 3.02716285e-01 3.02716285e-01 0. 0. 0. 0. 0.
      1.40625119e-01 4.69945669e-02 3.02716285e-01 9.08611938e-02 0. 0.
      0. 2.62255501e-02 0. 6.52187318e-02 2.17949860e-02 9.08611938e-02
      1.58651903e-01 1.03646964e-02 3.10151298e-02 0. 1.71707794e-02 0.
      1.74714513e-02 5.83865261e-03 1.58651903e-01 3.02716285e-01
      3.24914348e-03 9.72267706e-03 0. 0. 0. 4.70536463e-02
      1.57245416e-02 3.02716285e-01 3.02716285e-01 0. 0. 0. 0. 0.
      1.04983948e-01 3.50838564e-02 3.02716285e-01 1.33536100e-01 0. 0.
      0. 7.78437480e-02 0. 1.53636679e-01 5.13427183e-02 1.33536100e-01
      0. 0. 0. 0. 0. 0. 0. 0. 0. 0. 0. 0. 0. 0. 0. 0. 0. 0. 0. 0. 0. 0.
      0. 0. 0. 0. 0. 1.35275640e-03 0. 0. 0. 0. 0. 0. 0. 1.35275640e-03
      0. 0. 0. 0. 0. 0. 0. 0. 0. 0. 0. 0. 0. 0. 0. 0. 0. 0. 0. 0. 0. 0.
      0. 0. 0. 0. 0. 0. 0. 0. 0. 0. 0. 0. 0. 0. 2.74887890e-01 0. 0. 0.
      0. 0. 1.22177854e-01 4.08297814e-02 2.74887890e-01 2.81507432e-01
      0. 0. 0. 2.02175707e-01 0. 2.30642945e-01 7.70769194e-02
      2.81507432e-01 6.69890642e-03 0. 0. 0. 5.39253987e-02 0.
      9.04620718e-03 3.02309124e-03 6.69890642e-03 0. 0. 0. 0. 0. 0. 0.
      0. 0. 2.81507432e-01 0. 0. 0. 0. 0. 1.43735588e-01 4.80339713e-02
      2.81507432e-01 2.81507432e-01 0. 0. 0. 2.81507432e-01 0.
      2.81507432e-01 2.06849396e-01 2.81507432e-01 2.13733036e-02 0. 0.
      0. 1.59403265e-01 0. 1.26646850e-02 4.23232606e-03 2.13733036e-02
      0. 0. 0. 0. 0. 0. 0. 0. 0. 0. 0. 0. 0. 0. 0. 0. 0. 0.
      8.28461256e-03 0. 0. 0. 0. 0. 0. 0. 8.28461256e-03 7.53147062e-04
      0. 0. 0. 0. 0. 0. 0. 7.53147062e-04 0. 0. 0. 0. 0. 0. 0. 0. 0. 0.
      0. 0. 0. 0. 0. 0. 0. 0. 2.05413178e-02 0. 0. 0. 7.26103038e-02 0.
      2.46082470e-02 8.22364446e-03 2.05413178e-02 4.63592768e-01 0. 0.
      0. 2.17830911e-01 0. 2.70691037e-01 9.04601887e-02 4.63592768e-01
      4.63592768e-01 0. 0. 0. 0. 0. 0. 0. 4.63592768e-01 0. 0. 0. 0. 0.
      0. 0. 0. 0. 0. 0. 0. 0. 0. 0. 0. 0. 0. 0. 0. 0. 0. 0. 0. 0. 0. 0.
      0. 0. 0. 0. 0. 0. 0. 0. 0. 0. 0. 0. 0. 0. 0. 0. 0. 0. 0. 0. 0. 0.
      0. 0. 0. 0. 0. 0. 0. 0. 0. 0. 0. 0. 0. 0. 0. 0. 0. 0. 0. 0. 0. 0.
      0. 0. 0. 0. 0. 0. 0. 0. 0. 0. 0. 0. 0. 0. 0. 0. 0. 0. 0. 0. 0. 0.
      0. 0. 0. 0. 0. 0. 0. 0. 0. 0. 0. 0. 0. 0. 0. 2.66158491e-01 0. 0.
      0. 1.73966046e-02 0. 3.01705785e-02 1.00824796e-02 2.66158491e-01
      3.67135018e-01 0. 0. 0. 0. 0. 0. 0. 3.67135018e-01 3.67135018e-01
      0. 0. 0. 0. 0. 5.06626852e-02 1.69305801e-02 3.67135018e-01
      2.53124237e-01 0. 0. 0. 1.97504669e-01 0. 3.60031188e-01
      1.20316148e-01 2.53124237e-01 0. 0. 0. 0. 0. 0. 0. 0. 0. 0. 0. 0.
      0. 0. 0. 0. 0. 0. 0. 0. 0. 0. 0. 0. 0. 0. 0. 6.34992961e-03 0. 0.
      0. 0. 0. 0. 0. 6.34992961e-03 0. 0. 0. 0. 0. 0. 0. 0. 0. 0. 0. 0.
      0. 0. 0. 0. 0. 0. 0. 0. 0. 0. 0. 0. 0. 0. 0. 0. 0. 0. 0. 0. 0. 0.
      0. 0. 0. 0. 0. 0. 0. 0. 0. 0. 0. 0. 0. 0. 0. 0. 0. 0. 0. 0. 0. 0.
      0. 0. 0. 0. 0. 0. 0. 0. 0. 0. 0. 0. 0. 0. 0. 0. 3.25932264e-01 0.
      0. 0. 0. 0. 1.18267313e-01 3.95228602e-02 3.25932264e-01
      3.82907629e-01 0. 0. 0. 3.82907629e-01 0. 3.82907629e-01
      3.27565640e-01 3.82907629e-01 4.38275971e-02 0. 0. 0.
      2.62854904e-01 0. 1.39404936e-02 4.65867994e-03 4.38275971e-02 0.
      0. 0. 0. 0. 0. 0. 0. 0. 0. 0. 0. 0. 0. 0. 0. 0. 0. 2.47885212e-02
      0. 0. 0. 0. 0. 0. 0. 2.47885212e-02 2.25350307e-03 0. 0. 0. 0. 0.
      0. 0. 2.25350307e-03 0. 0. 0. 0. 0. 0. 0. 0. 0. 0. 0. 0. 0. 0. 0.
      0. 0. 0. 0. 0. 0. 0. 0. 0. 0. 0. 0. 0. 0. 0. 0. 0. 0. 0. 0. 0. 0.
      0. 0. 0. 0. 0. 0. 0. 0. 0. 0. 0. 0. 0. 0. 0. 0. 0. 0. 0. 0. 0. 0.
      0. 0. 0. 0. 0. 0. 0. 0. 0. 0. 0. 0. 0. 0. 0. 0. 0. 0. 0. 0. 0. 0.</_>
    <_>
      0. 0. 0. 0. 0. 0. 0. 0. 0. 0. 0. 0. 0. 0. 0. 0. 0. 0. 0. 0. 0. 0.
      0. 0. 0. 0. 0. 0. 0. 0. 0. 0. 0. 0. 0. 0. 0. 0. 0. 0. 0. 0. 0. 0.
      0. 0. 0. 0. 0. 0. 0. 0. 0. 0. 0. 0. 0. 0. 0. 0. 0. 0. 0. 0. 0. 0.
      0. 0. 0. 0. 0. 0. 0. 0. 0. 0. 0. 0. 0. 0. 0. 0. 0. 0. 0. 0. 0. 0.
      0. 0. 0. 0. 0. 0. 0. 0. 0. 0. 0. 0. 0. 0. 0. 0. 0. 0. 0. 0. 0. 0.
      0. 0. 0. 0. 0. 0. 0. 1.77788734e-01 3.48433256e-02 1.04264520e-01
      0. 2.71868825e-01 0. 0. 0. 1.77788734e-01 4.38250273e-01
      4.87806387e-02 1.45970270e-01 0. 2.33381152e-01 0. 0. 0.
      4.38250273e-01 4.38250273e-01 0. 0. 0. 0. 0. 0. 0. 4.38250273e-01
      0. 0. 0. 0. 0. 0. 0. 0. 0. 0. 0. 0. 0. 0. 0. 0. 0. 0. 0. 0. 0. 0.
      0. 0. 0. 0. 0. 0. 0. 0. 0. 0. 0. 0. 0. 0. 0. 0. 0. 0. 0. 0. 0. 0.
      0. 0. 0. 0. 0. 0. 0. 0. 0. 0. 0. 0. 0. 0. 0. 0. 0. 0. 0. 0. 0. 0.
      0. 0. 0. 0. 0. 0. 0. 0. 0. 0. 0. 0. 0. 0. 0. 0. 0. 0. 0. 0. 0. 0.
      0. 0. 0. 0. 0. 0. 0. 0. 0. 0. 0. 0. 0. 0. 0. 0. 0. 0. 0. 0.
      3.27945977e-01 3.90163995e-03 1.16751948e-02 0. 6.39956445e-03 0.
      0. 0. 3.27945977e-01 3.86860788e-01 0. 0. 0. 0. 0. 0. 0.
      3.86860788e-01 3.86860788e-01 0. 0. 0. 0. 0. 2.37869434e-02
      7.94919953e-03 3.86860788e-01 2.89528072e-01 0. 0. 0. 0. 0.
      1.11893490e-01 3.73929366e-02 2.89528072e-01 0. 0. 0. 0. 0. 0. 0.
      0. 0. 0. 0. 0. 0. 0. 0. 0. 0. 0. 0. 0. 0. 0. 0. 0. 0. 0. 0. 0. 0.
      0. 0. 0. 0. 0. 0. 0. 0. 0. 0. 0. 0. 0. 0. 0. 0. 0. 0. 0. 0. 0. 0.
      0. 0. 0. 0. 0. 0. 0. 0. 0. 0. 0. 0. 0. 0. 0. 0. 0. 0. 0. 0. 0. 0.
      0. 0. 0. 0. 0. 0. 0. 0. 0. 0. 0. 0. 0. 0. 0. 0. 0. 0. 0. 0. 0. 0.
      0. 0. 0. 0. 0. 0. 0. 0. 0. 0. 0. 0. 0. 3.97104353e-01 0. 0. 0. 0.
      0. 7.93913975e-02 2.65312772e-02 3.97104353e-01 3.97104353e-01 0.
      0. 0. 4.40824069e-02 0. 3.97104353e-01 1.64174020e-01
      3.97104353e-01 2.65135646e-01 0. 0. 0. 1.32247224e-01 0.
      1.10553697e-01 3.69452015e-02 2.65135646e-01 0. 0. 0. 0. 0. 0. 0.
      0. 0. 0. 0. 0. 0. 0. 0. 0. 0. 0. 0. 0. 0. 0. 0. 0. 0. 0. 0. 0. 0.
      0. 0. 0. 0. 0. 0. 0. 0. 0. 0. 0. 0. 0. 0. 0. 0. 0. 0. 0. 0. 0. 0.
      0. 0. 0. 7.25571364e-02 2.10849680e-02 6.30942136e-02 0.
      2.42943734e-01 0. 1.72459967e-02 5.76330908e-03 7.25571364e-02
      2.90190756e-01 4.54430021e-02 1.35982543e-01 0. 2.18417630e-01 0.
      2.41443869e-02 8.06863047e-03 2.90190756e-01 2.90190756e-01 0. 0.
      0. 0. 0. 4.49738652e-03 1.50294765e-03 2.90190756e-01 0. 0. 0. 0.
      0. 0. 0. 0. 0. 5.95972836e-02 1.90301035e-02 5.69451675e-02 0.
      2.45138362e-01 0. 5.17379902e-02 1.72899291e-02 5.95972836e-02
      2.90190756e-01 7.44143128e-02 2.22675249e-01 0. 2.20089227e-01 0.
      7.24331662e-02 2.42058914e-02 2.90190756e-01 2.87422359e-01 0. 0.
      0. 0. 0. 1.34921586e-02 4.50884271e-03 2.87422359e-01 0. 0. 0. 0.
      0. 0. 0. 0. 0. 0. 0. 0. 0. 0. 0. 0. 0. 0. 0. 0. 0. 0. 0. 0. 0. 0.
      0. 0. 0. 0. 0. 0. 0. 0. 0. 0. 0. 0. 0. 0. 0. 0. 0. 0. 0. 0. 0. 0.
      0. 0. 0. 0. 0. 0. 0. 0. 0. 0. 0. 0. 0. 0. 0. 0. 0. 0. 0. 0. 0. 0.
      0. 0. 1.99783832e-01 5.49102854e-03 1.64312124e-02 0.
      8.26871861e-03 0. 2.17848481e-03 7.28011364e-04 1.99783832e-01
      2.91067034e-01 0. 0. 0. 0. 0. 2.73727402e-02 9.14748944e-03
      2.91067034e-01 2.91067034e-01 0. 0. 0. 0. 0. 4.02080491e-02
      1.34368353e-02 2.91067034e-01 1.79426432e-01 1.00200938e-03
      2.99838278e-03 0. 0. 0. 6.00787625e-02 2.00773180e-02
      1.79426432e-01 1.43860042e-01 1.08866859e-02 3.25770006e-02 0.
      8.28787964e-03 0. 6.53545419e-03 2.18403409e-03 1.43860042e-01
      2.91067034e-01 0. 0. 0. 0. 0. 8.21182206e-02 2.74424683e-02
      2.91067034e-01 2.91067034e-01 0. 0. 0. 0. 0. 8.65657926e-02
      2.89287772e-02 2.91067034e-01 2.33494878e-01 3.00602824e-03
      8.99514928e-03 0. 0. 0. 2.00262554e-02 6.69243978e-03
      2.33494878e-01 0. 0. 0. 0. 0. 0. 0. 0. 0. 0. 0. 0. 0. 0. 0. 0. 0.
      0. 0. 0. 0. 0. 0. 0. 0. 0. 0. 0. 0. 0. 0. 0. 0. 0. 0. 0. 0. 0. 0.
      0. 0. 0. 0. 0. 0. 0. 0. 0. 0. 0. 0. 0. 0. 0. 0. 0. 0. 0. 0. 0. 0.
      0. 0. 0. 0. 0. 0. 0. 0. 0. 0. 0. 2.86323726e-01 0. 0. 0. 0. 0.
      3.65221128e-02 1.22050764e-02 2.86323726e-01 3.03948820e-01
      2.65632086e-02 7.94869363e-02 0. 4.38564643e-02 0. 2.16018572e-01
      7.21897855e-02 3.03948820e-01 1.32104367e-01 3.10103893e-02
      9.27945524e-02 0. 1.31569386e-01 0. 6.37874082e-02 2.13166866e-02
      1.32104367e-01 0. 0. 0. 0. 0. 0. 0. 0. 0. 3.03948820e-01 0. 0. 0.
      0. 0. 2.20399741e-02 7.36538181e-03 3.03948820e-01 3.03948820e-01
      6.20448627e-02 1.85661137e-01 0. 4.39580865e-02 0. 8.93632993e-02
      2.98637226e-02 3.03948820e-01 1.30831331e-01 6.83285072e-02
      2.04464182e-01 0. 1.31874263e-01 0. 4.55624275e-02 1.52262002e-02
      1.30831331e-01 0. 0. 0. 0. 0. 0. 0. 0. 0. 0. 0. 0. 0. 0. 0. 0. 0.
      0. 0. 0. 0. 0. 0. 0. 0. 0. 0. 0. 0. 0. 0. 0. 0. 0. 0. 0. 0. 0. 0.
      0. 0. 0. 0. 0. 0. 0. 0. 0. 0. 0. 0. 0. 0. 0. 1.67852312e-01
      3.42520103e-02 1.02494672e-01 0. 3.37539732e-01 0. 1.31249413e-01
      4.38612550e-02 1.67852312e-01 3.58968019e-01 1.69141710e-01
      3.58968019e-01 0. 2.89080113e-01 0. 1.83749124e-01 6.14057332e-02
      3.58968019e-01 3.58968019e-01 0. 0. 0. 0. 0. 3.42270359e-02
      1.14380736e-02 3.58968019e-01 0. 0. 0. 0. 0. 0. 0. 0. 0. 0. 0. 0.
      0. 0. 0. 0. 0. 0. 0. 0. 0. 0. 0. 0. 0. 0. 0. 0. 0. 0. 0. 0. 0. 0.
      0. 0. 0. 0. 0. 0. 0. 0. 0. 0. 0. 0. 0. 0. 0. 0. 0. 0. 0. 0. 0. 0.
      0. 0. 0. 0. 0. 0. 0. 0. 0. 0. 0. 0. 0. 0. 0. 0. 0. 0. 0. 0. 0. 0.
      0. 0. 0. 0. 0. 0. 0. 0. 0. 0. 0. 0. 0. 0. 0. 0. 0. 0. 0. 0. 0. 0.
      0. 0. 0. 0. 0. 0. 0. 0. 2.18929574e-01 2.13615969e-02
      6.39217943e-02 0. 7.30511220e-03 0. 1.37026319e-02 4.57917899e-03
      2.18929574e-01 3.71744514e-01 0. 0. 0. 0. 0. 1.72174096e-01
      5.75375631e-02 3.71744514e-01 3.71744514e-01 0. 0. 0. 0. 0.
      1.72573060e-01 5.76708876e-02 3.71744514e-01 3.71744514e-01
      6.30262308e-03 1.88597795e-02 0. 0. 0. 0. 0. 3.71744514e-01 0. 0.
      0. 0. 0. 0. 0. 0. 0. 0. 0. 0. 0. 0. 0. 0. 0. 0. 0. 0. 0. 0. 0. 0.
      0. 0. 0. 0. 0. 0. 0. 0. 0. 0. 0. 0. 0. 0. 0. 0. 0. 0. 0. 0. 0. 0.
      0. 0. 0. 0. 0. 0. 0. 0. 0. 0. 0. 0. 0. 0. 0. 0. 0. 0. 0. 0. 0. 0.
      0. 0. 0. 0. 0. 0. 0. 0. 0. 0. 0. 0. 0. 0. 0. 0. 0. 0. 0. 0. 0. 0.
      0. 0. 0. 0. 0. 0. 0. 0. 0. 0. 0. 0. 0. 0. 0. 0. 0. 0.
      4.14344043e-01 0. 0. 0. 0. 0. 2.00548545e-02 6.70198072e-03
      4.14344043e-01 4.14344043e-01 1.04199640e-01 3.11803848e-01 0.
      3.33904810e-02 0. 0. 0. 4.14344043e-01 1.78497866e-01
      1.12390295e-01 3.36313337e-01 0. 1.00171447e-01 0. 0. 0.
      1.78497866e-01 0. 0. 0. 0. 0. 0. 0. 0. 0. 0. 0. 0. 0. 0. 0. 0. 0.
      0. 0. 0. 0. 0. 0. 0. 0. 0. 0. 0. 0. 0. 0. 0. 0. 0. 0. 0. 0. 0. 0.
      0. 0. 0. 0. 0. 0. 0. 0. 0. 0. 0. 0. 0. 0. 0. 0. 0. 0. 0. 0. 0. 0.
      0. 0. 0. 0. 0. 0. 0. 0. 0. 0. 0. 0. 0. 0. 0. 0. 0. 0. 0. 0. 0. 0.
      0. 0. 0. 0. 0. 0. 0. 0. 0. 0. 0. 0. 0. 0. 0. 0. 0. 0. 0. 0. 0. 0.
      0. 0. 0. 0. 0. 0. 0. 0. 0. 0. 0. 0.</_>
    <_>
      0. 0. 0. 0. 0. 0. 0. 0. 0. 0. 0. 0. 0. 0. 0. 0. 0. 0. 0. 0. 0. 0.
      0. 0. 0. 0. 0. 0. 0. 0. 0. 0. 0. 0. 0. 0. 0. 0. 0. 0. 0. 0. 0. 0.
      0. 0. 0. 0. 0. 0. 0. 0. 0. 0. 0. 0. 0. 0. 0. 0. 0. 0. 0. 0. 0. 0.
      0. 0. 0. 0. 0. 0. 0. 0. 0. 0. 0. 0. 0. 0. 0. 0. 0. 0. 0. 0. 0. 0.
      0. 0. 0. 0. 0. 0. 0. 0. 0. 0. 0. 0. 0. 0. 0. 0. 0. 0. 0. 0. 0. 0.
      0. 0. 0. 0. 0. 0. 0. 0. 1.49686616e-02 4.47919481e-02 0.
      4.85699885e-02 0. 0. 0. 0. 4.24409360e-01 2.61814058e-01
      4.24409360e-01 0. 1.45709947e-01 0. 0. 0. 4.24409360e-01
      4.24409360e-01 8.83258972e-03 2.64304765e-02 0. 0. 0. 0. 0.
      4.24409360e-01 0. 0. 0. 0. 0. 0. 0. 0. 0. 0. 0. 0. 0. 0. 0. 0. 0.
      0. 0. 0. 0. 0. 0. 0. 0. 0. 0. 0. 0. 0. 0. 0. 0. 0. 0. 0. 0. 0. 0.
      0. 0. 0. 0. 0. 0. 0. 0. 0. 0. 0. 0. 0. 0. 0. 0. 0. 0. 0. 0. 0. 0.
      0. 0. 0. 0. 0. 0. 0. 0. 0. 0. 0. 0. 0. 0. 0. 0. 0. 0. 0. 0. 0. 0.
      0. 0. 0. 0. 0. 0. 0. 0. 0. 0. 0. 0. 0. 0. 0. 0. 0. 0. 0. 0. 0. 0.
      0. 0. 0. 2.61892051e-01 3.67879830e-02 1.10083684e-01 0.
      1.27922120e-02 0. 0. 0. 2.61892051e-01 4.20533568e-01
      1.51033921e-03 4.51951101e-03 0. 0. 0. 0. 0. 4.20533568e-01
      4.20533568e-01 0. 0. 0. 0. 0. 6.66891634e-02 2.22864021e-02
      4.20533568e-01 2.16026098e-01 0. 0. 0. 0. 0. 1.88005596e-01
      6.28283247e-02 2.16026098e-01 0. 0. 0. 0. 0. 0. 0. 0. 0. 0. 0. 0.
      0. 0. 0. 0. 0. 0. 0. 0. 0. 0. 0. 0. 0. 0. 0. 0. 0. 0. 0. 0. 0. 0.
      0. 0. 0. 0. 0. 0. 0. 0. 0. 0. 0. 0. 0. 0. 0. 0. 0. 0. 0. 0. 0. 0.
      0. 0. 0. 0. 0. 0. 0. 0. 0. 0. 0. 0. 0. 0. 0. 0. 0. 0. 0. 0. 0. 0.
      0. 0. 0. 0. 0. 0. 0. 0. 0. 0. 0. 0. 0. 0. 0. 0. 0. 0. 0. 0. 0. 0.
      0. 0. 0. 0. 0. 0. 0. 0. 4.11334842e-01 0. 0. 0. 0. 0.
      2.32455596e-01 7.76827857e-02 4.11334842e-01 4.11334842e-01 0. 0.
      0. 0. 0. 4.11334842e-01 2.95409828e-01 4.11334842e-01
      3.21826227e-02 0. 0. 0. 0. 0. 2.12163422e-02 7.09014665e-03
      3.21826227e-02 0. 0. 0. 0. 0. 0. 0. 0. 0. 0. 0. 0. 0. 0. 0. 0. 0.
      0. 0. 0. 0. 0. 0. 0. 0. 0. 0. 0. 0. 0. 0. 0. 0. 0. 0. 0. 0. 0. 0.
      0. 0. 0. 0. 0. 0. 0. 0. 0. 0. 0. 0. 0. 0. 0. 2.24535819e-03
      8.28917883e-03 2.48043854e-02 0. 5.65088503e-02 0. 8.04444496e-03
      2.68831244e-03 2.24535819e-03 3.07121545e-01 1.38155118e-01
      3.07121545e-01 0. 1.69526547e-01 0. 8.84889886e-02 2.95714661e-02
      3.07121545e-01 3.07121545e-01 4.27036500e-03 1.27785597e-02 0. 0.
      0. 0. 0. 3.07121545e-01 0. 0. 0. 0. 0. 0. 0. 0. 0. 6.73607457e-03
      4.17704834e-03 1.24993222e-02 0. 5.66397943e-02 0. 1.12622213e-02
      3.76363681e-03 6.73607457e-03 3.07121545e-01 6.16055988e-02
      1.84347451e-01 0. 1.69919372e-01 0. 1.23884551e-01 4.14000452e-02
      3.07121545e-01 3.07121545e-01 1.42345484e-03 4.25952021e-03 0. 0.
      0. 0. 0. 3.07121545e-01 0. 0. 0. 0. 0. 0. 0. 0. 0. 0. 0. 0. 0. 0.
      0. 0. 0. 0. 0. 0. 0. 0. 0. 0. 0. 0. 0. 0. 0. 0. 0. 0. 0. 0. 0. 0.
      0. 0. 0. 0. 0. 0. 0. 0. 0. 0. 0. 0. 0. 0. 0. 0. 0. 0. 0. 0. 0. 0.
      0. 0. 0. 0. 0. 0. 0. 0. 0. 0. 0. 0. 0. 0. 1.58992767e-01
      1.96485259e-02 5.87958880e-02 0. 1.52274380e-02 0. 1.10928491e-02
      3.70703544e-03 1.58992767e-01 3.10544372e-01 7.47109123e-04
      2.23563542e-03 0. 0. 0. 0. 0. 3.10544372e-01 3.10544372e-01 0. 0.
      0. 0. 0. 3.36393975e-02 1.12417238e-02 3.10544372e-01
      1.60234556e-01 0. 0. 0. 7.91857857e-03 0. 1.23432107e-01
      4.12489399e-02 1.60234556e-01 1.30797833e-01 8.49932153e-03
      2.54332125e-02 0. 1.52627202e-02 0. 1.55299827e-02 5.18984813e-03
      1.30797833e-01 3.10544372e-01 2.49036326e-04 7.45211728e-04 0. 0.
      0. 0. 0. 3.10544372e-01 3.10544372e-01 0. 0. 0. 0. 0.
      1.20876394e-02 4.03948640e-03 3.10544372e-01 1.67319387e-01 0. 0.
      0. 1.57959852e-02 0. 9.08307657e-02 3.03541068e-02 1.67319387e-01
      0. 0. 0. 0. 0. 0. 0. 0. 0. 0. 0. 0. 0. 0. 0. 0. 0. 0. 0. 0. 0. 0.
      0. 0. 0. 0. 0. 0. 0. 0. 0. 0. 0. 0. 0. 0. 0. 0. 0. 0. 0. 0. 0. 0.
      0. 0. 0. 0. 0. 0. 0. 0. 0. 0. 0. 0. 0. 0. 0. 0. 0. 0. 0. 0. 0. 0.
      0. 0. 0. 0. 0. 0. 2.93807536e-01 0. 0. 0. 0. 0. 8.53116512e-02
      2.85097267e-02 2.93807536e-01 2.93807536e-01 0. 0. 0.
      8.95216987e-02 0. 2.93807536e-01 1.67035922e-01 2.93807536e-01
      2.49881744e-02 0. 0. 0. 6.39440566e-02 0. 3.95384505e-02
      1.32130887e-02 2.49881744e-02 0. 0. 0. 0. 0. 0. 0. 0. 0.
      2.93807536e-01 0. 0. 0. 0. 0. 3.20742764e-02 1.07186884e-02
      2.93807536e-01 2.93807536e-01 0. 0. 0. 1.78577900e-01 0.
      2.93807536e-01 1.54195875e-01 2.93807536e-01 5.59792109e-02 0. 0.
      0. 1.27555624e-01 0. 5.53538315e-02 1.84983127e-02 5.59792109e-02
      0. 0. 0. 0. 0. 0. 0. 0. 0. 0. 0. 0. 0. 0. 0. 0. 0. 0. 0. 0. 0. 0.
      0. 0. 0. 0. 0. 0. 0. 0. 0. 0. 0. 0. 0. 0. 0. 0. 0. 0. 0. 0. 0. 0.
      0. 0. 0. 0. 0. 0. 0. 0. 0. 0. 2.05413178e-02 0. 0. 0.
      7.26103038e-02 0. 2.46082470e-02 8.22364446e-03 2.05413178e-02
      4.63592768e-01 0. 0. 0. 2.17830911e-01 0. 2.70691037e-01
      9.04601887e-02 4.63592768e-01 4.63592768e-01 0. 0. 0. 0. 0. 0. 0.
      4.63592768e-01 0. 0. 0. 0. 0. 0. 0. 0. 0. 0. 0. 0. 0. 0. 0. 0. 0.
      0. 0. 0. 0. 0. 0. 0. 0. 0. 0. 0. 0. 0. 0. 0. 0. 0. 0. 0. 0. 0. 0.
      0. 0. 0. 0. 0. 0. 0. 0. 0. 0. 0. 0. 0. 0. 0. 0. 0. 0. 0. 0. 0. 0.
      0. 0. 0. 0. 0. 0. 0. 0. 0. 0. 0. 0. 0. 0. 0. 0. 0. 0. 0. 0. 0. 0.
      0. 0. 0. 0. 0. 0. 0. 0. 0. 0. 0. 0. 0. 0. 0. 0. 0. 0. 0. 0. 0. 0.
      0. 0. 0. 2.68725753e-01 0. 0. 0. 1.75644066e-02 0. 3.04615982e-02
      1.01797320e-02 2.68725753e-01 3.86630833e-01 0. 0. 0. 0. 0. 0. 0.
      3.86630833e-01 3.86630833e-01 0. 0. 0. 0. 0. 0. 0. 3.86630833e-01
      3.47094893e-01 0. 0. 0. 3.78361978e-02 0. 9.51066986e-02
      3.17830108e-02 3.47094893e-01 0. 0. 0. 0. 0. 0. 0. 0. 0. 0. 0. 0.
      0. 0. 0. 0. 0. 0. 0. 0. 0. 0. 0. 0. 0. 0. 0. 0. 0. 0. 0. 0. 0. 0.
      0. 0. 0. 0. 0. 0. 0. 0. 0. 0. 0. 0. 0. 0. 0. 0. 0. 0. 0. 0. 0. 0.
      0. 0. 0. 0. 0. 0. 0. 0. 0. 0. 0. 0. 0. 0. 0. 0. 0. 0. 0. 0. 0. 0.
      0. 0. 0. 0. 0. 0. 0. 0. 0. 0. 0. 0. 0. 0. 0. 0. 0. 0. 0. 0. 0. 0.
      0. 0. 0. 0. 0. 0. 0. 0. 3.83608550e-01 0. 0. 0. 0. 0. 0. 0.
      3.83608550e-01 3.83608550e-01 0. 0. 0. 3.57041985e-01 0.
      3.83608550e-01 1.69948399e-01 3.83608550e-01 1.23607129e-01 0. 0.
      0. 2.55029917e-01 0. 8.70848745e-02 2.91022826e-02 1.23607129e-01
      0. 0. 0. 0. 0. 0. 0. 0. 0. 0. 0. 0. 0. 0. 0. 0. 0. 0. 0. 0. 0. 0.
      0. 0. 0. 0. 0. 0. 0. 0. 0. 0. 0. 0. 0. 0. 0. 0. 0. 0. 0. 0. 0. 0.
      0. 0. 0. 0. 0. 0. 0. 0. 0. 0. 0. 0. 0. 0. 0. 0. 0. 0. 0. 0. 0. 0.
      0. 0. 0. 0. 0. 0. 0. 0. 0. 0. 0. 0. 0. 0. 0. 0. 0. 0. 0. 0. 0. 0.
      0. 0. 0. 0. 0. 0. 0. 0. 0. 0. 0. 0. 0. 0. 0. 0. 0. 0. 0. 0. 0. 0.
      0. 0. 0. 0. 0. 0. 0.</_>
    <_>
      0. 0. 0. 0. 0. 0. 0. 0. 0. 0. 0. 0. 0. 0. 0. 0. 0. 0. 0. 0. 0. 0.
      0. 0. 0. 0. 0. 0. 0. 0. 0. 0. 0. 0. 0. 0. 0. 0. 0. 0. 0. 0. 0. 0.
      0. 0. 0. 0. 0. 0. 0. 0. 0. 0. 0. 0. 0. 0. 0. 0. 0. 0. 0. 0. 0. 0.
      0. 0. 0. 0. 0. 0. 0. 0. 0. 0. 0. 0. 0. 0. 0. 0. 0. 0. 0. 0. 0. 0.
      0. 0. 0. 0. 0. 0. 0. 0. 0. 0. 0. 0. 0. 0. 0. 0. 0. 0. 0. 0. 0. 0.
      0. 0. 0. 0. 0. 0. 0. 1.67068630e-01 7.32638389e-02 2.19233349e-01
      0. 0. 0. 0. 0. 1.67068630e-01 4.20336932e-01 9.38798860e-02
      2.80924439e-01 0. 0. 0. 0. 0. 4.20336932e-01 4.20336932e-01
      9.61791128e-02 2.87804604e-01 0. 0. 0. 0. 0. 4.20336932e-01 0. 0.
      0. 0. 0. 0. 0. 0. 0. 0. 0. 0. 0. 0. 0. 0. 0. 0. 0. 0. 0. 0. 0. 0.
      0. 0. 0. 0. 0. 0. 0. 0. 0. 0. 0. 0. 0. 0. 0. 0. 0. 0. 0. 0. 0. 0.
      0. 0. 0. 0. 0. 0. 0. 0. 0. 0. 0. 0. 0. 0. 0. 0. 0. 0. 0. 0. 0. 0.
      0. 0. 0. 0. 0. 0. 0. 0. 0. 0. 0. 0. 0. 0. 0. 0. 0. 0. 0. 0. 0. 0.
      0. 0. 0. 0. 0. 0. 0. 0. 0. 0. 0. 0. 0. 0. 0. 0. 0. 0.
      1.97658613e-01 1.50324851e-02 4.49829325e-02 0. 0. 0. 0. 0.
      1.97658613e-01 3.81411731e-01 6.56885952e-02 1.96565345e-01 0. 0.
      0. 0. 0. 3.81411731e-01 3.81411731e-01 0. 0. 0. 0. 0. 0. 0.
      3.81411731e-01 3.81411731e-01 0. 0. 0. 0. 0. 0. 0. 3.81411731e-01
      0. 0. 0. 0. 0. 0. 0. 0. 0. 0. 0. 0. 0. 0. 0. 0. 0. 0. 0. 0. 0. 0.
      0. 0. 0. 0. 0. 0. 0. 0. 0. 0. 0. 0. 0. 0. 0. 0. 0. 0. 0. 0. 0. 0.
      0. 0. 0. 0. 0. 0. 0. 0. 0. 0. 0. 0. 0. 0. 0. 0. 0. 0. 0. 0. 0. 0.
      0. 0. 0. 0. 0. 0. 0. 0. 0. 0. 0. 0. 0. 0. 0. 0. 0. 0. 0. 0. 0. 0.
      0. 0. 0. 0. 0. 0. 0. 0. 0. 0. 0. 0. 0. 0. 0. 0. 0. 0. 0. 0.
      4.04443085e-01 0. 0. 0. 0. 0. 0. 0. 4.04443085e-01 4.04443085e-01
      0. 0. 0. 1.37398273e-01 0. 9.60345641e-02 3.20931487e-02
      4.04443085e-01 3.04032743e-01 0. 0. 0. 3.27971071e-01 0.
      1.34448335e-01 4.49303873e-02 3.04032743e-01 0. 0. 0. 0. 0. 0. 0.
      0. 0. 0. 0. 0. 0. 0. 0. 0. 0. 0. 0. 0. 0. 0. 0. 0. 0. 0. 0. 0. 0.
      0. 0. 0. 0. 0. 0. 0. 0. 0. 0. 0. 0. 0. 0. 0. 0. 0. 0. 0. 0. 0. 0.
      0. 0. 0. 5.89066185e-02 4.44922745e-02 1.33137852e-01 0.
      1.02795877e-01 0. 7.39401719e-03 2.47095083e-03 5.89066185e-02
      2.91717738e-01 5.39108403e-02 1.61321715e-01 0. 4.25765812e-02 0.
      5.28144045e-03 1.76496489e-03 2.91717738e-01 2.57035464e-01
      2.95635015e-02 8.84652585e-02 0. 0. 0. 0. 0. 2.57035464e-01 0. 0.
      0. 0. 0. 0. 0. 0. 0. 1.49968341e-01 4.42186110e-02 1.32318914e-01
      0. 2.91717738e-01 0. 8.13342780e-02 2.71804873e-02 1.49968341e-01
      2.91717738e-01 1.16583712e-01 2.91717738e-01 0. 1.26419231e-01 0.
      5.80959022e-02 1.94146316e-02 2.91717738e-01 2.91717738e-01
      1.32238083e-02 3.95706370e-02 0. 0. 0. 0. 0. 2.91717738e-01 0. 0.
      0. 0. 0. 0. 0. 0. 0. 7.45080085e-03 0. 0. 0. 0. 0. 0. 0.
      7.45080085e-03 1.47113698e-02 0. 0. 0. 0. 0. 0. 0. 1.47113698e-02
      0. 0. 0. 0. 0. 0. 0. 0. 0. 0. 0. 0. 0. 0. 0. 0. 0. 0. 0. 0. 0. 0.
      0. 0. 0. 0. 0. 0. 0. 0. 0. 0. 0. 0. 0. 0. 0. 0. 0. 0. 0. 0. 0. 0.
      0. 1.35988474e-01 9.56001878e-03 2.86072064e-02 0. 0. 0. 0. 0.
      1.35988474e-01 2.83704013e-01 3.38221453e-02 1.01208746e-01 0. 0.
      0. 0. 0. 2.83704013e-01 2.83704013e-01 1.52196828e-02
      4.55429181e-02 0. 0. 0. 0. 0. 2.83704013e-01 2.56719172e-01
      6.67791697e-04 1.99827994e-03 0. 0. 0. 0. 0. 2.56719172e-01
      1.88208908e-01 2.01186556e-02 6.02025017e-02 0. 0. 0. 0. 0.
      1.88208908e-01 2.83704013e-01 1.40207214e-02 4.19553109e-02 0. 0.
      0. 0. 0. 2.83704013e-01 2.83704013e-01 4.56590466e-02
      1.36628747e-01 0. 0. 0. 0. 0. 2.83704013e-01 1.90039098e-01
      2.00337521e-03 5.99483913e-03 0. 0. 0. 0. 0. 1.90039098e-01
      1.70978357e-03 0. 0. 0. 0. 0. 0. 0. 1.70978357e-03 0. 0. 0. 0. 0.
      0. 0. 0. 0. 0. 0. 0. 0. 0. 0. 0. 0. 0. 0. 0. 0. 0. 0. 0. 0. 0. 0.
      0. 0. 0. 0. 0. 0. 0. 0. 0. 0. 0. 0. 0. 0. 0. 0. 0. 0. 0. 0. 0. 0.
      0. 0. 0. 0. 0. 0. 0. 0. 0. 0. 0. 0. 0. 0. 3.20104450e-01
      7.85891712e-03 2.35167854e-02 0. 0. 0. 0. 0. 3.20104450e-01
      3.21043104e-01 1.09214140e-02 3.26809064e-02 0. 1.12734184e-01 0.
      5.35877645e-02 1.79081373e-02 3.21043104e-01 1.87143192e-01
      1.47242546e-02 4.40604128e-02 0. 2.72612572e-01 0. 7.50228390e-02
      2.50713807e-02 1.87143192e-01 0. 0. 0. 0. 0. 0. 0. 0. 0.
      2.35154763e-01 2.35767532e-02 7.05503598e-02 0. 0. 0. 0. 0.
      2.35154763e-01 3.21043104e-01 1.59365106e-02 4.76879328e-02 0.
      8.11754465e-02 0. 1.78625882e-02 5.96937863e-03 3.21043104e-01
      1.41235068e-01 2.06139479e-02 6.16845563e-02 0. 1.96676344e-01 0.
      2.50076149e-02 8.35712720e-03 1.41235068e-01 0. 0. 0. 0. 0. 0. 0.
      0. 0. 0. 0. 0. 0. 0. 0. 0. 0. 0. 0. 0. 0. 0. 0. 0. 0. 0. 0. 0. 0.
      0. 0. 0. 0. 0. 0. 0. 0. 0. 0. 0. 0. 0. 0. 0. 0. 0. 0. 0. 0. 0. 0.
      0. 0. 0. 2.93482095e-01 2.42615566e-02 7.25997537e-02 0.
      3.46423864e-01 0. 1.50493309e-01 5.02922237e-02 2.93482095e-01
      3.46423864e-01 1.58932596e-01 3.46423864e-01 0. 1.76176533e-01 0.
      1.07495211e-01 3.59230153e-02 3.46423864e-01 3.46423864e-01
      6.42907154e-03 1.92381591e-02 0. 0. 0. 0. 0. 3.46423864e-01 0. 0.
      0. 0. 0. 0. 0. 0. 0. 1.92402955e-02 0. 0. 0. 0. 0. 0. 0.
      1.92402955e-02 3.79893519e-02 0. 0. 0. 0. 0. 0. 0. 3.79893519e-02
      0. 0. 0. 0. 0. 0. 0. 0. 0. 0. 0. 0. 0. 0. 0. 0. 0. 0. 0. 0. 0. 0.
      0. 0. 0. 0. 0. 0. 0. 0. 0. 0. 0. 0. 0. 0. 0. 0. 0. 0. 0. 0. 0. 0.
      0. 0. 0. 0. 0. 0. 0. 0. 0. 0. 0. 0. 0. 0. 0. 0. 0. 0. 0. 0. 0. 0.
      0. 0. 0. 0. 0. 0. 0. 0. 0. 0. 0. 0. 0. 0. 0. 3.34154308e-01
      4.52162810e-02 1.35303825e-01 0. 0. 0. 0. 0. 3.34154308e-01
      3.67959619e-01 6.46527857e-03 1.93465054e-02 0. 0. 0. 0. 0.
      3.67959619e-01 3.67959619e-01 8.80328193e-02 2.63426781e-01 0. 0.
      0. 0. 0. 3.67959619e-01 2.58153409e-01 3.86260310e-03
      1.15583371e-02 0. 0. 0. 0. 0. 2.58153409e-01 6.42079720e-03 0. 0.
      0. 0. 0. 0. 0. 6.42079720e-03 0. 0. 0. 0. 0. 0. 0. 0. 0. 0. 0. 0.
      0. 0. 0. 0. 0. 0. 0. 0. 0. 0. 0. 0. 0. 0. 0. 0. 0. 0. 0. 0. 0. 0.
      0. 0. 0. 0. 0. 0. 0. 0. 0. 0. 0. 0. 0. 0. 0. 0. 0. 0. 0. 0. 0. 0.
      0. 0. 0. 0. 0. 0. 0. 0. 0. 0. 0. 0. 0. 0. 0. 0. 0. 0. 0. 0. 0. 0.
      0. 0. 0. 0. 0. 0. 0. 0. 0. 0. 0. 0. 0. 0. 0. 0. 0. 0. 0. 0. 0.
      4.19256985e-01 6.75771236e-02 2.02215731e-01 0. 0. 0. 0. 0.
      4.19256985e-01 4.19256985e-01 3.37148160e-02 1.00887194e-01 0.
      5.05148880e-02 0. 0. 0. 4.19256985e-01 3.10301572e-01
      4.23362330e-02 1.26685664e-01 0. 1.51544675e-01 0. 0. 0.
      3.10301572e-01 0. 0. 0. 0. 0. 0. 0. 0. 0. 0. 0. 0. 0. 0. 0. 0. 0.
      0. 0. 0. 0. 0. 0. 0. 0. 0. 0. 0. 0. 0. 0. 0. 0. 0. 0. 0. 0. 0. 0.
      0. 0. 0. 0. 0. 0. 0. 0. 0. 0. 0. 0. 0. 0. 0. 0. 0. 0. 0. 0. 0. 0.
      0. 0. 0. 0. 0. 0. 0. 0. 0. 0. 0. 0. 0. 0. 0. 0. 0. 0. 0. 0. 0. 0.
      0. 0. 0. 0. 0. 0. 0. 0. 0. 0. 0. 0. 0. 0. 0. 0. 0. 0. 0. 0. 0. 0.
      0. 0. 0. 0. 0. 0. 0. 0. 0. 0. 0. 0.</_>
    <_>
      0. 0. 0. 0. 0. 0. 0. 0. 0. 0. 0. 0. 0. 0. 0. 0. 0. 0. 0. 0. 0. 0.
      0. 0. 0. 0. 0. 0. 0. 0. 0. 0. 0. 0. 0. 0. 0. 0. 0. 0. 0. 0. 0. 0.
      0. 0. 0. 0. 0. 0. 0. 0. 0. 0. 0. 0. 0. 0. 0. 0. 0. 0. 0. 0. 0. 0.
      0. 0. 0. 0. 0. 0. 0. 0. 0. 0. 0. 0. 0. 0. 0. 0. 0. 0. 0.
      6.20182976e-03 0. 0. 0. 0. 1.88449338e-01 8.85021612e-02
      2.64832228e-01 0. 8.17761421e-02 0. 0. 0. 1.88449338e-01
      2.51715958e-01 4.24876995e-02 1.27139390e-01 0. 5.74891604e-02 0.
      1.02596730e-01 3.42861079e-02 2.51715958e-01 0. 0. 0. 0. 0. 0. 0.
      0. 0. 0. 6.61903154e-03 1.98066682e-02 0. 6.90199509e-02 0. 0. 0.
      0. 2.13583604e-01 2.31931984e-01 3.02853763e-01 0. 3.02853763e-01
      0. 0. 0. 2.13583604e-01 3.02853763e-01 7.86674544e-02
      2.35402629e-01 0. 3.02853763e-01 0. 1.00022092e-01 3.34257111e-02
      3.02853763e-01 0. 0. 0. 0. 0. 0. 0. 0. 0. 0. 0. 0. 0. 0. 0. 0. 0.
      0. 0. 0. 0. 0. 0. 0. 0. 0. 0. 0. 0. 0. 0. 0. 0. 0. 0. 0. 0. 0. 0.
      0. 0. 0. 0. 0. 0. 0. 0. 0. 0. 0. 0. 0. 0. 0. 0. 0. 0. 0. 0. 0. 0.
      0. 0. 0. 0. 0. 0. 0. 0. 0. 0. 0. 8.08939114e-02 2.43383907e-02
      7.28297457e-02 0. 1.22390939e-02 0. 0. 0. 8.08939114e-02
      1.78605258e-01 3.06556467e-02 9.17333513e-02 0. 1.07121922e-01 0.
      1.48601711e-01 4.96602058e-02 1.78605258e-01 1.35505334e-01
      4.49792333e-02 1.34595022e-01 0. 3.31252515e-02 0. 2.47388929e-02
      8.26732442e-03 1.35505334e-01 9.36154425e-02 1.24816317e-02
      3.73497903e-02 0. 7.83969741e-03 0. 6.32312149e-02 2.11308133e-02
      9.36154425e-02 1.04379334e-01 5.21981493e-02 1.56196699e-01 0.
      1.79768384e-01 0. 0. 0. 1.04379334e-01 2.52445430e-01
      8.88214335e-02 2.52445430e-01 0. 2.52445430e-01 0. 1.44872591e-01
      4.84139994e-02 2.52445430e-01 2.52445430e-01 1.72212407e-01
      2.52445430e-01 0. 2.52445430e-01 0. 4.96692508e-02 1.65986177e-02
      2.52445430e-01 1.58148155e-01 4.21945006e-02 1.26261726e-01 0.
      1.91216335e-01 0. 1.58572257e-01 5.29921800e-02 1.58148155e-01 0.
      0. 0. 0. 0. 0. 0. 0. 0. 0. 0. 0. 0. 0. 0. 0. 0. 0. 0. 0. 0. 0. 0.
      0. 0. 0. 0. 0. 0. 0. 0. 0. 0. 0. 0. 0. 0. 0. 0. 0. 0. 0. 0. 0. 0.
      0. 0. 0. 0. 0. 0. 0. 0. 0. 0. 0. 0. 0. 0. 0. 0. 0. 0. 0. 0. 0. 0.
      0. 0. 0. 0. 0. 1.53175846e-01 3.62814777e-02 1.08568020e-01 0.
      1.35812804e-03 0. 3.27399634e-02 1.09411506e-02 1.53175846e-01
      2.21997678e-01 1.90337691e-02 5.69562428e-02 0. 5.73021099e-02 0.
      2.24533096e-01 7.50352144e-02 2.21997678e-01 4.66635497e-03
      4.48155944e-04 1.34104840e-03 0. 1.91007014e-02 0. 4.95500537e-03
      1.65587990e-03 4.66635497e-03 0. 0. 0. 0. 0. 0. 0. 0. 0.
      2.79372871e-01 1.08359821e-01 2.79372871e-01 0. 2.53022909e-01 0.
      8.58677626e-02 2.86955405e-02 2.79372871e-01 2.79372871e-01
      1.23658665e-01 2.79372871e-01 0. 2.79372871e-01 0. 2.79372871e-01
      1.95467278e-01 2.79372871e-01 6.53289491e-03 8.82268604e-03
      2.64007393e-02 0. 1.02752976e-01 0. 2.64388081e-02 8.83540791e-03
      6.53289491e-03 0. 0. 0. 0. 0. 0. 0. 0. 0. 0. 0. 0. 0. 0. 0. 0. 0.
      0. 0. 0. 0. 0. 2.74711661e-03 0. 0. 0. 0. 4.45353948e-02
      2.72110887e-02 8.14259574e-02 0. 3.79472002e-02 0. 0. 0.
      4.45353948e-02 5.81306256e-02 1.08634299e-02 3.25075127e-02 0.
      2.15144642e-02 0. 2.47548074e-02 8.27264227e-03 5.81306256e-02 0.
      0. 0. 0. 0. 0. 0. 0. 0. 0. 6.07086159e-03 1.81663353e-02 0.
      1.00684144e-01 0. 0. 0. 0. 7.09782913e-02 1.25540927e-01
      3.69673103e-01 0. 3.69673103e-01 0. 0. 0. 7.09782913e-02
      1.66719586e-01 3.65475975e-02 1.09364048e-01 0. 3.24867636e-01 0.
      2.55090464e-02 8.52469914e-03 1.66719586e-01 0. 0. 0. 0. 0. 0. 0.
      0. 0. 1.42621691e-03 1.23954553e-03 3.70919332e-03 0.
      2.09744304e-01 0. 4.93166782e-03 1.64807681e-03 1.42621691e-03
      7.44930208e-02 1.45776458e-02 4.36218716e-02 0. 3.69673103e-01 0.
      1.73909917e-01 5.81177063e-02 7.44930208e-02 1.27452433e-01
      1.61764454e-02 4.84060645e-02 0. 3.41812491e-01 0. 1.20798141e-01
      4.03687097e-02 1.27452433e-01 0. 0. 0. 0. 0. 0. 0. 0. 0.
      1.99670321e-03 0. 0. 0. 2.31464151e-02 0. 3.52262077e-03
      1.17719802e-03 1.99670321e-03 1.02590054e-01 0. 0. 0.
      9.84958038e-02 0. 1.28780320e-01 4.30361331e-02 1.02590054e-01
      1.45002112e-01 5.35708619e-03 1.60304215e-02 0. 3.10032209e-03 0.
      4.09341678e-02 1.36795025e-02 1.45002112e-01 1.84907131e-02
      6.63054362e-03 1.98411159e-02 0. 5.47938561e-03 0. 0. 0.
      1.84907131e-02 3.79191041e-02 8.28012731e-03 2.47772820e-02 0.
      3.80698964e-02 0. 3.41122262e-02 1.13997366e-02 3.79191041e-02
      3.84961143e-02 1.52741959e-02 4.57062162e-02 0. 1.22842146e-02 0.
      6.22850889e-03 2.08146381e-03 3.84961143e-02 2.38941461e-02
      3.72450822e-03 1.11451438e-02 0. 3.30382329e-03 0. 1.87561791e-02
      6.26800116e-03 2.38941461e-02 3.69843543e-02 2.47056242e-02
      7.39285871e-02 0. 1.94680423e-01 0. 0. 0. 3.69843543e-02
      1.32493362e-01 5.00606000e-02 1.49800166e-01 0. 2.76606172e-01 0.
      3.51515710e-02 1.17470678e-02 1.32493362e-01 1.06568381e-01
      1.06694445e-01 2.76606172e-01 0. 2.76606172e-01 0. 2.33031027e-02
      7.78749445e-03 1.06568381e-01 6.09381571e-02 2.53883470e-02
      7.59713799e-02 0. 2.35462189e-01 0. 8.41677859e-02 2.81274468e-02
      6.09381571e-02 2.46051550e-02 2.29987293e-03 6.88209198e-03 0.
      2.47173443e-01 0. 5.45995347e-02 1.82462372e-02 2.46051550e-02
      1.30382910e-01 6.00867942e-02 1.79802343e-01 0. 2.76606172e-01 0.
      6.53811097e-02 2.18492746e-02 1.30382910e-01 1.38928704e-02
      1.12237498e-01 2.76606172e-01 0. 2.76606172e-01 0. 2.66273273e-03
      8.89838557e-04 1.38928704e-02 1.72655156e-03 1.66549794e-02
      4.98378649e-02 0. 2.76606172e-01 0. 2.99619157e-02 1.00127663e-02
      1.72655156e-03 3.45208533e-02 0. 0. 0. 1.18791619e-02 0.
      2.97153294e-02 9.93034802e-03 3.45208533e-02 1.39686108e-01
      2.31629368e-02 6.93121627e-02 0. 5.81175927e-03 0. 1.91480555e-02
      6.39895676e-03 1.39686108e-01 1.99639760e-02 2.89503783e-02
      8.66302773e-02 0. 5.34234196e-02 0. 3.69842793e-03 1.23594957e-03
      1.99639760e-02 1.03478516e-02 6.58526970e-03 1.97055619e-02 0.
      9.27414596e-02 0. 1.78368539e-02 5.96076902e-03 1.03478516e-02
      3.93397696e-02 1.07775498e-02 3.22505385e-02 0. 7.06228253e-04 0.
      8.74082278e-03 2.92103691e-03 3.93397696e-02 5.50461262e-02
      6.32891851e-03 1.89385060e-02 0. 2.31496878e-02 0. 6.57019988e-02
      2.19565127e-02 5.50461262e-02 1.24581007e-03 2.33041719e-04
      6.97346986e-04 0. 7.71656260e-03 0. 1.84621871e-03 6.16975420e-04
      1.24581007e-03 0. 0. 0. 0. 0. 0. 0. 0. 0. 1.10771775e-01
      5.99562190e-02 1.79411501e-01 0. 3.31900269e-01 0. 4.12890203e-02
      1.37980767e-02 1.10771775e-01 1.18674003e-01 8.26458409e-02
      2.47307017e-01 0. 3.61477673e-01 0. 3.12839627e-01 1.04545750e-01
      1.18674003e-01 1.74413458e-03 6.52502244e-03 1.95252802e-02 0.
      8.34485218e-02 0. 1.89650953e-02 6.33781822e-03 1.74413458e-03 0.
      0. 0. 0. 0. 0. 0. 0. 0. 2.01494782e-03 4.04599532e-02
      1.21071175e-01 0. 3.61477673e-01 0. 5.81890391e-03 1.94457546e-03
      2.01494782e-03 3.94271268e-03 7.50181451e-02 2.24482045e-01 0.
      3.61477673e-01 0. 1.35040954e-01 4.51284163e-02 3.94271268e-03 0.
      6.31046249e-03 1.88832358e-02 0. 8.51244628e-02 0. 1.10736378e-02
      3.70062515e-03 0. 0. 0. 0. 0. 0. 0. 0. 0. 0. 6.14827452e-03
      7.71343056e-03 2.30814368e-02 0. 7.93114528e-02 0. 9.53347143e-03
      3.18591855e-03 6.14827452e-03 3.19297612e-02 2.78258305e-02
      8.32651854e-02 0. 2.84869492e-01 0. 6.24477454e-02 2.08689682e-02
      3.19297612e-02 0. 1.32624665e-03 3.96862021e-03 0. 1.74043272e-02
      0. 3.07703158e-03 1.02829258e-03 0. 0. 0. 0. 0. 0. 0. 0. 0. 0. 0.
      0. 0. 0. 0. 0. 0. 0. 0. 4.00347356e-03 0. 0. 0. 1.66995406e-01 0.
      9.91928671e-03 3.31485155e-03 4.00347356e-03 1.96298778e-01 0. 0.
      0. 2.92447865e-01 0. 2.92447865e-01 1.14535466e-01 1.96298778e-01
      2.92447865e-01 2.14924533e-02 6.43135756e-02 0. 1.71267152e-01 0.
      1.70687094e-01 5.70407510e-02 2.92447865e-01 0. 0. 0. 0. 0. 0. 0.
      0. 0. 5.60486317e-03 0. 0. 0. 3.78849022e-02 0. 7.08520552e-03
      2.36775121e-03 5.60486317e-03 2.92447865e-01 0. 0. 0.
      1.51044741e-01 0. 2.92447865e-01 1.03568405e-01 2.92447865e-01
      2.92447865e-01 1.02182310e-02 3.05767823e-02 0. 3.20157758e-03 0.
      7.74566680e-02 2.58846898e-02 2.92447865e-01 0. 0. 0. 0. 0. 0. 0.
      0. 0. 0. 0. 0. 0. 0. 0. 0. 0. 0. 0. 0. 0. 0. 0. 0. 0. 0. 0. 0. 0.
      0. 0. 0. 0. 0. 0. 0. 0. 0. 0. 0. 0. 0. 0. 0. 0. 0. 0. 0. 0. 0. 0.
      0. 0. 0. 0. 0. 0. 0. 0. 0. 0. 0. 0. 0. 0. 0. 0. 0. 0. 0. 0. 0.
      7.44690672e-02 0. 0. 0. 1.79478228e-01 0. 1.06899947e-01
      3.57241295e-02 7.44690672e-02 2.75905699e-01 9.43820700e-02
      2.75905699e-01 0. 2.35003039e-01 0. 1.02497160e-01 3.42528298e-02
      2.75905699e-01 3.89388129e-02 1.38001710e-01 2.75905699e-01 0.
      2.75905699e-01 0. 5.58220176e-03 1.86547381e-03 3.89388129e-02
      5.94472885e-03 1.90820768e-02 5.71006313e-02 0. 2.75905699e-01 0.
      3.86882387e-02 1.29289478e-02 5.94472885e-03 1.25375539e-01 0. 0.
      0. 2.00827699e-02 0. 7.82755613e-02 2.61583291e-02 1.25375539e-01
      2.75905699e-01 5.55545874e-02 1.66240022e-01 0. 7.47763738e-03 0.
      3.65304612e-02 1.22078601e-02 2.75905699e-01 8.03999752e-02
