<?xml version="1.0"?>
<opencv_storage>
<my_svm type_id="opencv-ml-svm">
  <svm_type>C_SVC</svm_type>
  <kernel><type>RBF</type>
    <gamma>3.3750000000000002e-02</gamma></kernel>
  <C>1.2500000000000000e+01</C>
  <term_criteria><epsilon>1.1920928955078125e-07</epsilon>
    <iterations>2147483647</iterations></term_criteria>
  <var_all>1296</var_all>
  <var_count>1296</var_count>
  <class_count>10</class_count>
  <class_labels type_id="opencv-matrix">
    <rows>1</rows>
    <cols>10</cols>
    <dt>i</dt>
    <data>
      0 1 2 3 4 5 6 7 8 9</data></class_labels>
  <sv_total>156</sv_total>
  <support_vectors>
    <_>
      0. 0. 0. 0. 0. 0. 0. 0. 0. 0. 0. 0. 0. 0. 0. 0. 0. 0. 0. 0. 0. 0.
      0. 0. 0. 0. 0. 0. 0. 0. 0. 0. 0. 0. 0. 0. 0. 0. 0. 0. 0. 0. 0. 0.
      0. 0. 0. 0. 0. 0. 0. 0. 0. 0. 0. 0. 0. 0. 0. 0. 0. 0. 0. 0. 0. 0.
      0. 0. 0. 0. 0. 0. 0. 0. 0. 0. 0. 0. 0. 0. 0. 0. 0. 0. 0. 0. 0. 0.
      0. 0. 5.86393289e-02 3.33774276e-02 9.98779684e-02 0.
      1.86764039e-02 0. 0. 0. 5.86393289e-02 2.31961951e-01
      3.79637778e-02 1.13602005e-01 0. 6.22546766e-03 0. 0. 0.
      2.31961951e-01 0. 0. 0. 0. 0. 0. 0. 0. 0. 0. 0. 0. 0. 0. 0. 0. 0.
      0. 1.48553714e-01 2.68400073e-01 3.42591196e-01 0. 3.42591196e-01
      0. 0. 0. 1.48553714e-01 3.42591196e-01 2.71568894e-01
      3.42591196e-01 0. 2.81948715e-01 0. 0. 0. 3.42591196e-01 0. 0. 0.
      0. 0. 0. 0. 0. 0. 0. 0. 0. 0. 0. 0. 0. 0. 0. 0. 0. 0. 0. 0. 0. 0.
      0. 0. 0. 0. 0. 0. 0. 0. 0. 0. 0. 0. 0. 0. 0. 0. 0. 0. 0. 0. 0. 0.
      0. 0. 0. 0. 0. 0. 0. 0. 0. 0. 0. 0. 0. 0. 0. 0. 0. 0. 0. 0. 0. 0.
      0. 0. 0. 2.74886712e-02 1.09371999e-02 3.27282622e-02 0.
      3.71322921e-03 0. 0. 0. 2.74886712e-02 2.28817433e-01
      1.51942521e-02 4.54669371e-02 0. 1.23774318e-03 0. 0. 0.
      2.28817433e-01 2.32622817e-01 0. 0. 0. 0. 0. 4.91323546e-02
      1.64192040e-02 2.32622817e-01 2.56796964e-02 0. 0. 0. 0. 0.
      4.62532714e-02 1.54570630e-02 2.56796964e-02 6.86221123e-02
      7.91687518e-02 2.36902848e-01 0. 1.40518367e-01 0. 0. 0.
      6.86221123e-02 2.85140991e-01 1.15232714e-01 2.85140991e-01 0.
      7.90533721e-02 0. 0. 0. 2.85140991e-01 2.85140991e-01 0. 0. 0.
      1.15848511e-01 0. 2.85140991e-01 1.16731331e-01 2.85140991e-01
      4.02026810e-02 0. 0. 0. 2.22449064e-01 0. 2.85140991e-01
      1.13269120e-01 4.02026810e-02 0. 0. 0. 0. 0. 0. 0. 0. 0. 0. 0. 0.
      0. 0. 0. 0. 0. 0. 0. 0. 0. 0. 0. 0. 0. 0. 0. 0. 0. 0. 0. 0. 0. 0.
      0. 0. 0. 0. 0. 0. 0. 0. 0. 0. 0. 0. 0. 0. 0. 0. 0. 0. 0. 0. 0. 0.
      0. 0. 0. 0. 0. 0. 0. 0. 0. 0. 0. 0. 0. 0. 0. 0. 1.82297155e-01 0.
      0. 0. 0. 0. 1.10533990e-01 3.69385965e-02 1.82297155e-01
      4.33233008e-02 0. 0. 0. 0. 0. 1.18708566e-01 3.96704115e-02
      4.33233008e-02 0. 0. 0. 0. 0. 0. 0. 0. 0. 0. 0. 0. 0. 0. 0. 0. 0.
      0. 3.50984067e-01 0. 0. 0. 3.27537745e-01 0. 3.50984067e-01
      2.60167271e-01 3.50984067e-01 6.50806502e-02 0. 0. 0.
      3.50984067e-01 0. 3.50984067e-01 3.12472463e-01 6.50806502e-02 0.
      0. 0. 0. 0. 0. 0. 0. 0. 0. 0. 0. 0. 0. 0. 0. 0. 0. 0. 0. 0. 0. 0.
      0. 0. 0. 0. 0. 0. 0. 0. 0. 0. 0. 0. 0. 1.30745564e-02
      1.00337481e-02 3.00247967e-02 0. 7.29007274e-03 0. 0. 0.
      1.30745564e-02 5.10130785e-02 1.18991183e-02 3.56066599e-02 0.
      2.43002432e-03 0. 0. 0. 5.10130785e-02 0. 0. 0. 0. 0. 0. 0. 0. 0.
      0. 0. 0. 0. 0. 0. 0. 0. 0. 4.65059467e-02 1.21750578e-01
      3.12274754e-01 0. 3.12274754e-01 0. 1.29703153e-02 4.33445489e-03
      4.65059467e-02 1.67030543e-01 1.09884031e-01 3.12274754e-01 0.
      3.12274754e-01 0. 8.42106063e-03 2.81417533e-03 1.67030543e-01 0.
      0. 0. 0. 0. 0. 0. 0. 0. 0. 0. 0. 0. 0. 0. 0. 0. 0. 5.18470518e-02
      1.31957140e-02 3.94865982e-02 0. 3.12274754e-01 0. 3.12274754e-01
      1.34590670e-01 5.18470518e-02 1.86801165e-01 5.67606231e-03
      1.69849247e-02 0. 3.12274754e-01 0. 3.12274754e-01 1.21268049e-01
      1.86801165e-01 0. 0. 0. 0. 0. 0. 0. 0. 0. 0. 0. 0. 0. 0. 0. 0. 0.
      0. 1.50712263e-02 0. 0. 0. 0. 0. 4.23099920e-02 1.41392592e-02
      1.50712263e-02 5.88769242e-02 0. 0. 0. 0. 0. 4.27665673e-02
      1.42918453e-02 5.88769242e-02 8.25709850e-03 4.47797915e-03
      1.33998170e-02 0. 1.95889734e-03 0. 0. 0. 8.25709850e-03
      6.81688115e-02 6.68440666e-03 2.00022589e-02 0. 6.52965799e-04 0.
      0. 0. 6.81688115e-02 6.87559173e-02 0. 0. 0. 0. 0. 2.12295484e-02
      7.09455414e-03 6.87559173e-02 7.06902705e-03 0. 0. 0. 0. 0.
      1.98283903e-02 6.62631448e-03 7.06902705e-03 2.91101094e-02
      4.58183512e-02 1.37105823e-01 0. 2.19201535e-01 0. 4.46351571e-03
      1.49163033e-03 2.91101094e-02 2.22233012e-01 6.15244657e-02
      1.84104174e-01 0. 1.30854160e-01 0. 3.63241532e-03 1.21389166e-03
      2.22233012e-01 2.09701076e-01 1.09590974e-03 3.27937980e-03 0.
      1.78360671e-01 0. 1.82672486e-01 6.10460043e-02 2.09701076e-01
      1.21392952e-02 7.82792864e-04 2.34241481e-03 0. 2.22617984e-01 0.
      1.80693313e-01 6.03846274e-02 1.21392952e-02 3.24292928e-02
      3.85078508e-03 1.15230111e-02 0. 2.22617984e-01 0. 1.51473671e-01
      5.06198779e-02 3.24292928e-02 2.22617984e-01 1.95219694e-03
      5.84170781e-03 0. 1.47647619e-01 0. 2.02994972e-01 6.78374767e-02
      2.22617984e-01 2.22617984e-01 5.08221611e-02 1.52079165e-01 0.
      1.93707824e-01 0. 3.99886351e-03 1.33635080e-03 2.22617984e-01
      2.93418970e-02 4.73238230e-02 1.41610637e-01 0. 2.22617984e-01 0.
      5.00373216e-03 1.67216163e-03 2.93418970e-02 9.52209998e-03 0. 0.
      0. 0. 0. 1.73597541e-02 5.80132613e-03 9.52209998e-03
      7.86409825e-02 0. 0. 0. 0. 0. 2.31199693e-02 7.72629492e-03
      7.86409825e-02 8.68317559e-02 5.38671762e-03 1.61190815e-02 0.
      2.39878442e-04 0. 0. 0. 8.68317559e-02 1.59862936e-02
      7.12124677e-03 2.13094186e-02 0. 2.63866573e-03 0. 0. 0.
      1.59862936e-02 3.97430249e-02 0. 0. 0. 0. 0. 3.57645899e-02
      1.19519196e-02 3.97430249e-02 8.94948933e-03 0. 0. 0. 0. 0.
      3.87689844e-02 1.29559413e-02 8.94948933e-03 0. 0. 0. 0. 0. 0. 0.
      0. 0. 0. 0. 0. 0. 0. 0. 0. 0. 0. 1.04199514e-01 1.67880487e-03
      5.02362475e-03 0. 3.51336330e-01 0. 3.08669120e-01 1.03151925e-01
      1.04199514e-01 1.42931240e-02 1.19914650e-03 3.58830346e-03 0.
      3.51336330e-01 0. 3.51336330e-01 1.28180996e-01 1.42931240e-02 0.
      0. 0. 0. 0. 0. 0. 0. 0. 0. 0. 0. 0. 0. 0. 0. 0. 0. 1.46551415e-01
      8.25769454e-02 2.47101367e-01 0. 3.51336330e-01 0. 7.48975342e-03
      2.50294618e-03 1.46551415e-01 4.42634486e-02 1.00674435e-01
      3.01255524e-01 0. 3.51336330e-01 0. 1.17570208e-02 3.92899662e-03
      4.42634486e-02 0. 0. 0. 0. 0. 0. 0. 0. 0. 0. 0. 0. 0. 0. 0. 0. 0.
      0. 5.95755465e-02 1.03356009e-02 3.09279803e-02 0. 9.98876407e-04
      0. 0. 0. 5.95755465e-02 2.53158677e-02 1.72306504e-02
      5.15604950e-02 0. 1.09876348e-02 0. 0. 0. 2.53158677e-02 0. 0. 0.
      0. 0. 0. 0. 0. 0. 0. 0. 0. 0. 0. 0. 0. 0. 0. 0. 0. 0. 0. 0. 0. 0.
      0. 0. 0. 0. 0. 0. 0. 0. 0. 0. 0. 1.37981758e-01 0. 0. 0.
      3.45540643e-01 0. 3.45540643e-01 2.76073843e-01 1.37981758e-01
      3.45540643e-01 0. 0. 0. 2.97153443e-01 0. 3.45540643e-01
      2.57485330e-01 3.45540643e-01 0. 0. 0. 0. 0. 0. 0. 0. 0. 0. 0. 0.
      0. 0. 0. 0. 0. 0. 5.56963421e-02 0. 0. 0. 0. 0. 1.10349931e-01
      3.68770137e-02 5.56963421e-02 2.20544696e-01 0. 0. 0. 0. 0.
      1.10774294e-01 3.70188467e-02 2.20544696e-01 0. 0. 0. 0. 0. 0. 0.
      0. 0. 0. 0. 0. 0. 0. 0. 0. 0. 0. 0. 0. 0. 0. 0. 0. 0. 0. 0. 0. 0.
      0. 0. 0. 0. 0. 0. 0. 0. 0. 0. 0. 0. 0. 0. 0. 0. 0. 0. 0. 0. 0. 0.
      0. 0. 0. 0. 0. 0. 0. 0. 0. 0. 0. 0. 0. 0. 0. 0. 0. 0. 0. 0. 0.
      6.62091374e-02 0. 0. 0. 1.62225738e-01 0. 2.43543535e-01
      8.13880414e-02 6.62091374e-02 2.81804860e-01 0. 0. 0.
      8.62800255e-02 0. 2.81804860e-01 1.10829435e-01 2.81804860e-01
      2.81804860e-01 8.15234929e-02 2.43949100e-01 0. 1.19321123e-01 0.
      0. 0. 2.81804860e-01 8.05122852e-02 8.20351616e-02 2.45479897e-01
      0. 2.81543344e-01 0. 0. 0. 8.05122852e-02 2.71158852e-02 0. 0. 0.
      0. 0. 3.51347290e-02 1.17414109e-02 2.71158852e-02 2.25932792e-01
      0. 0. 0. 0. 0. 4.46595699e-02 1.49244592e-02 2.25932792e-01
      2.49872431e-01 1.03428233e-02 3.09495982e-02 0. 3.87670414e-04 0.
      0. 0. 2.49872431e-01 4.74228859e-02 1.46751767e-02 4.39135768e-02
      0. 4.26437939e-03 0. 0. 0. 4.74228859e-02 0. 0. 0. 0. 0. 0. 0. 0.
      0. 0. 0. 0. 0. 0. 0. 0. 0. 0. 0. 0. 0. 0. 0. 0. 0. 0. 0. 0. 0. 0.
      0. 0. 0. 0. 0. 0. 0. 0. 0. 0. 0. 0. 0. 0. 0. 0. 0. 0. 0. 0. 0. 0.
      0. 0. 0. 0. 0. 0. 0. 0. 0. 0. 0. 0. 0. 0. 0. 0. 0. 0. 0. 0.
      3.46638530e-01 1.73428446e-01 3.46638530e-01 0. 3.46638530e-01 0.
      0. 0. 3.46638530e-01 1.57631129e-01 2.29487151e-01 3.46638530e-01
      0. 3.46638530e-01 0. 0. 0. 1.57631129e-01 0. 0. 0. 0. 0. 0. 0. 0.
      0. 0. 0. 0. 0. 0. 0. 0. 0. 0. 2.19978198e-01 2.61838436e-02
      7.83518180e-02 0. 2.04531476e-03 0. 0. 0. 2.19978198e-01
      9.57125723e-02 4.56154123e-02 1.36498228e-01 0. 2.24984474e-02 0.
      0. 0. 9.57125723e-02 0. 0. 0. 0. 0. 0. 0. 0. 0. 0. 0. 0. 0. 0. 0.
      0. 0. 0. 0. 0. 0. 0. 0. 0. 0. 0. 0. 0. 0. 0. 0. 0. 0. 0. 0. 0. 0.
      0. 0. 0. 0. 0. 0. 0. 0. 0. 0. 0. 0. 0. 0. 0. 0. 0. 0. 0. 0. 0. 0.
      0. 0. 0. 0. 0. 0. 0. 0. 0. 0. 0. 0. 0. 0. 0. 0. 0. 0. 0. 0. 0. 0.
      0. 0. 0. 0. 0. 0. 0. 0. 0.</_>
    <_>
      0. 0. 0. 0. 0. 0. 0. 0. 0. 0. 0. 0. 0. 0. 0. 0. 0. 0. 0. 0. 0. 0.
      0. 0. 0. 0. 0. 0. 0. 0. 0. 0. 0. 0. 0. 0. 0. 0. 0. 0. 0. 0. 0. 0.
      0. 0. 0. 0. 0. 0. 0. 0. 0. 0. 0. 0. 0. 0. 0. 0. 0. 0. 0. 0. 0. 0.
      0. 0. 0. 0. 0. 0. 0. 0. 0. 0. 0. 0. 0. 0. 0. 0. 6.27127418e-04
      1.87660428e-03 0. 0. 0. 0. 0. 0. 1.25870377e-01 4.31036241e-02
      1.28982484e-01 0. 0. 0. 0. 0. 1.25870377e-01 2.29039297e-01
      4.35636602e-02 1.30359083e-01 0. 0. 0. 0. 0. 2.29039297e-01 0. 0.
      0. 0. 0. 0. 0. 0. 0. 0. 1.23460330e-02 3.69440429e-02 0.
      1.11167215e-01 0. 0. 0. 0. 3.15556020e-01 3.12684536e-01
      3.15556020e-01 0. 3.15556020e-01 0. 0. 0. 3.15556020e-01
      3.15556020e-01 1.19064830e-01 3.15556020e-01 0. 0. 0. 0. 0.
      3.15556020e-01 0. 0. 0. 0. 0. 0. 0. 0. 0. 0. 0. 0. 0. 0. 0. 0. 0.
      0. 0. 0. 0. 0. 0. 0. 0. 0. 0. 0. 0. 0. 0. 0. 0. 0. 0. 0. 0. 0. 0.
      0. 0. 0. 0. 0. 0. 0. 0. 0. 0. 0. 0. 0. 0. 0. 0. 0. 0. 0. 0. 0. 0.
      0. 0. 0. 0. 0. 0. 0. 0. 0. 0. 0. 4.13848087e-02 8.90208595e-03
      2.66384371e-02 0. 0. 0. 0. 0. 4.13848087e-02 2.58734196e-01
      4.00009863e-02 1.19698226e-01 0. 0. 0. 0. 0. 2.58734196e-01
      3.01102400e-01 7.38519710e-03 2.20993254e-02 0. 0. 0.
      5.34706786e-02 1.78690087e-02 3.01102400e-01 5.90906963e-02 0. 0.
      0. 0. 0. 7.97381401e-02 2.66471561e-02 5.90906963e-02
      1.08680815e-01 5.23241423e-02 1.56573728e-01 0. 4.00373004e-02 0.
      0. 0. 1.08680815e-01 3.01102400e-01 9.12611261e-02 2.73087740e-01
      0. 0. 0. 0. 0. 3.01102400e-01 3.01102400e-01 2.17514820e-02
      6.50885999e-02 0. 3.65991634e-03 0. 1.30044311e-01 4.34586108e-02
      3.01102400e-01 1.00200824e-01 0. 0. 0. 2.49356348e-02 0.
      3.01102400e-01 1.04599081e-01 1.00200824e-01 0. 0. 0. 0. 0. 0. 0.
      0. 0. 0. 0. 0. 0. 0. 0. 0. 0. 0. 0. 0. 0. 0. 0. 0. 0. 0. 0. 0. 0.
      0. 0. 0. 0. 0. 0. 0. 0. 0. 0. 0. 0. 0. 0. 0. 0. 0. 0. 0. 0. 0. 0.
      0. 0. 0. 0. 0. 0. 0. 0. 0. 0. 0. 0. 0. 0. 0. 0. 0. 0. 0. 0. 0.
      2.86405802e-01 0. 0. 0. 0. 0. 1.15944527e-01 3.87467295e-02
      2.86405802e-01 1.12189546e-01 0. 0. 0. 0. 0. 2.40253240e-01
      8.02886188e-02 1.12189546e-01 0. 0. 0. 0. 0. 0. 1.70225499e-03
      5.68865158e-04 0. 0. 0. 0. 0. 0. 0. 0. 0. 0. 3.52570176e-01 0. 0.
      0. 1.22353993e-02 0. 2.98260957e-01 9.96737629e-02 3.52570176e-01
      1.89263850e-01 0. 0. 0. 1.94263145e-01 0. 3.52570176e-01
      3.52570176e-01 1.89263850e-01 0. 0. 0. 0. 9.38218236e-02 0.
      1.10943697e-01 3.70755345e-02 0. 0. 0. 0. 0. 0. 0. 0. 0. 0. 0. 0.
      0. 0. 0. 0. 0. 0. 0. 0. 2.80719658e-04 8.40020250e-04 0. 0. 0. 0.
      0. 0. 3.50080431e-02 1.55169461e-02 4.64326218e-02 0. 0. 0. 0. 0.
      3.50080431e-02 5.61136566e-02 1.14610903e-02 3.42959575e-02 0. 0.
      0. 0. 0. 5.61136566e-02 0. 0. 0. 0. 0. 0. 0. 0. 0. 0.
      6.49112137e-03 1.94239113e-02 0. 1.29404724e-01 0. 0. 0. 0.
      1.38536662e-01 1.52149931e-01 3.00683498e-01 0. 3.00683498e-01 0.
      2.61803363e-02 8.74903053e-03 1.38536662e-01 2.86099970e-01
      5.71177974e-02 1.70917884e-01 0. 3.10492776e-02 0. 2.55233459e-02
      8.52947682e-03 2.86099970e-01 0. 0. 0. 0. 0. 0. 0. 0. 0.
      3.56617128e-03 3.09382624e-04 9.25790868e-04 0. 1.71878889e-01 0.
      1.01836910e-02 3.40321101e-03 3.56617128e-03 1.65407553e-01
      1.79849286e-02 5.38175963e-02 0. 3.00683498e-01 0. 3.00683498e-01
      1.31136164e-01 1.65407553e-01 3.00683498e-01 1.79474074e-02
      5.37052788e-02 0. 4.34689783e-02 0. 1.35381550e-01 4.52421978e-02
      3.00683498e-01 0. 0. 0. 0. 0. 0. 0. 0. 0. 1.18872372e-03 0. 0. 0.
      2.73167877e-03 0. 9.25789122e-04 3.09382507e-04 1.18872372e-03
      4.87386137e-02 0. 0. 0. 8.19503516e-03 0. 1.02863424e-01
      3.43751498e-02 4.87386137e-02 9.14481804e-02 0. 0. 0. 0. 0.
      3.20075974e-02 1.06963767e-02 9.14481804e-02 1.49274161e-02
      4.15497972e-03 1.24332858e-02 0. 0. 0. 0. 0. 1.49274161e-02
      7.58786798e-02 1.29247820e-02 3.86758856e-02 0. 0. 0. 0. 0.
      7.58786798e-02 1.02573924e-01 2.29646615e-03 6.87190285e-03 0. 0.
      0. 1.74310021e-02 5.82515076e-03 1.02573924e-01 1.63609814e-02 0.
      0. 0. 0. 0. 3.00387703e-02 1.00384569e-02 1.63609814e-02
      6.28066584e-02 3.53586823e-02 1.05806567e-01 0. 9.19253081e-02 0.
      1.18518025e-02 3.96067416e-03 6.28066584e-02 2.82551765e-01
      5.74410036e-02 1.71884954e-01 0. 1.08169392e-02 0. 1.22129088e-02
      4.08134982e-03 2.82551765e-01 2.82551765e-01 2.45689936e-02
      7.35196471e-02 0. 1.03896325e-02 0. 8.44423324e-02 2.82191727e-02
      2.82551765e-01 5.39764911e-02 1.14764851e-02 3.43419909e-02 0.
      6.40320256e-02 0. 2.02913493e-01 6.78102523e-02 5.39764911e-02
      6.66118860e-02 7.09380861e-03 2.12273039e-02 0. 1.25805095e-01 0.
      1.05514199e-01 3.52610275e-02 6.66118860e-02 2.82551765e-01
      1.57075338e-02 4.70027551e-02 0. 1.51437102e-02 0. 5.48204705e-02
      1.83200706e-02 2.82551765e-01 2.82551765e-01 3.49006876e-02
      1.04435973e-01 0. 1.04137082e-02 0. 2.28998791e-02 7.65273767e-03
      2.82551765e-01 5.90406507e-02 7.36150295e-02 2.20283628e-01 0.
      6.43414035e-02 0. 3.32017541e-02 1.10954484e-02 5.90406507e-02
      2.04269923e-02 0. 0. 0. 8.50093726e-04 0. 2.77026985e-02
      9.25775524e-03 2.04269923e-02 1.22609973e-01 0. 0. 0. 0. 0.
      1.03818029e-02 3.46941617e-03 1.22609973e-01 1.25541657e-01
      6.75588474e-03 2.02161036e-02 0. 0. 0. 0. 0. 1.25541657e-01
      1.92069244e-02 1.14873704e-02 3.43744569e-02 0. 0. 0. 0. 0.
      1.92069244e-02 6.19989820e-02 0. 0. 0. 0. 0. 3.24275419e-02
      1.08367428e-02 6.19989820e-02 2.71370132e-02 0. 0. 0. 0. 0.
      8.17811713e-02 2.73299012e-02 2.71370132e-02 0. 0. 0. 0. 0. 0.
      8.55715421e-04 2.85965798e-04 0. 0. 0. 0. 0. 0. 0. 0. 0. 0.
      2.51499951e-01 1.40107982e-02 4.19256538e-02 0. 2.88286060e-02 0.
      1.58007145e-01 5.28032631e-02 2.51499951e-01 7.56369457e-02
      3.38737257e-02 1.01362899e-01 0. 2.97757804e-01 0. 2.97757804e-01
      2.52803057e-01 7.56369457e-02 0. 4.82196081e-03 1.44290896e-02 0.
      1.70274407e-01 0. 8.24040920e-02 2.75380705e-02 0. 0. 0. 0. 0. 0.
      0. 0. 0. 0. 2.71114796e-01 5.70434071e-02 1.70695350e-01 0.
      2.88954079e-02 0. 4.07107212e-02 1.36048077e-02 2.71114796e-01
      8.37279931e-02 2.74216503e-01 2.97757804e-01 0. 2.97757804e-01 0.
      9.73723084e-02 3.25401537e-02 8.37279931e-02 0. 2.93262620e-02
      8.77550170e-02 0. 1.71879560e-01 0. 1.37282498e-02 4.58775135e-03
      0. 0. 0. 0. 0. 0. 0. 0. 0. 0. 7.31908455e-02 1.25292139e-02
      3.74920405e-02 0. 0. 0. 0. 0. 7.31908455e-02 3.17240283e-02
      3.10480539e-02 9.29072425e-02 0. 0. 0. 0. 0. 3.17240283e-02 0.
      3.15163954e-04 9.43087158e-04 0. 0. 0. 0. 0. 0. 0. 0. 0. 0. 0. 0.
      0. 0. 0. 0. 0. 0. 0. 0. 0. 0. 0. 0. 7.76458532e-03 0. 0. 0.
      1.39850333e-01 0. 1.58875342e-02 5.30933542e-03 7.76458532e-03
      3.02272350e-01 0. 0. 0. 3.02272350e-01 0. 3.02272350e-01
      2.45482966e-01 3.02272350e-01 3.02272350e-01 0. 0. 0.
      2.49480251e-02 0. 2.17426568e-01 7.26601928e-02 3.02272350e-01 0.
      0. 0. 0. 0. 0. 0. 0. 0. 2.58819526e-03 0. 0. 0. 4.26168274e-03 0.
      1.44432078e-03 4.82666685e-04 2.58819526e-03 1.56667620e-01 0. 0.
      0. 1.27850482e-02 0. 2.58696228e-01 8.64517391e-02 1.56667620e-01
      3.02272350e-01 0. 0. 0. 0. 0. 8.97225291e-02 2.99836937e-02
      3.02272350e-01 0. 0. 0. 0. 0. 0. 0. 0. 0. 0. 0. 0. 0. 0. 0. 0. 0.
      0. 0. 0. 0. 0. 0. 0. 0. 0. 0. 0. 0. 0. 0. 0. 0. 0. 0. 0. 0. 0. 0.
      0. 0. 0. 0. 0. 0. 0. 0. 0. 0. 0. 0. 0. 0. 0. 0. 0. 0. 0. 0. 0. 0.
      0. 0. 0. 0. 0. 0. 0. 0. 0. 0. 0. 9.82132852e-02 0. 0. 0.
      7.63857961e-02 0. 1.62528723e-01 5.43142743e-02 9.82132852e-02
      3.13945621e-01 0. 0. 0. 7.45080225e-03 0. 6.74703494e-02
      2.25474257e-02 3.13945621e-01 3.13945621e-01 3.93218882e-02
      1.17665760e-01 0. 3.00604897e-03 0. 0. 0. 3.13945621e-01
      9.23176855e-02 9.38599482e-02 2.80863792e-01 0. 2.06058174e-02 0.
      0. 0. 9.23176855e-02 6.26043230e-02 0. 0. 0. 1.13692624e-03 0.
      6.24389946e-02 2.08660178e-02 6.26043230e-02 3.13945621e-01 0. 0.
      0. 0. 0. 2.53605563e-02 8.47505312e-03 3.13945621e-01
      3.13945621e-01 1.68080907e-02 5.02960272e-02 0. 0. 0. 0. 0.
      3.13945621e-01 5.64393513e-02 2.48030052e-02 7.42197633e-02 0. 0.
      0. 0. 0. 5.64393513e-02 0. 0. 0. 0. 0. 0. 0. 0. 0. 0. 0. 0. 0. 0.
      0. 0. 0. 0. 0. 0. 0. 0. 0. 0. 0. 0. 0. 0. 0. 0. 0. 0. 0. 0. 0. 0.
      0. 0. 0. 0. 0. 0. 0. 0. 0. 0. 0. 0. 0. 0. 0. 0. 0. 0. 0. 0. 0. 0.
      0. 0. 0. 0. 0. 0. 0. 0. 0. 0. 0. 0. 0. 0. 3.48942459e-01
      9.85638052e-02 2.94939667e-01 0. 1.09837959e-02 0. 0. 0.
      3.48942459e-01 1.91432312e-01 3.48942459e-01 3.48942459e-01 0.
      1.76125273e-01 0. 0. 0. 1.91432312e-01 0. 3.50919589e-02
      1.05008118e-01 0. 8.54630023e-02 0. 0. 0. 0. 0. 0. 0. 0. 0. 0. 0.
      0. 0. 3.00275415e-01 3.97403948e-02 1.18917957e-01 0. 0. 0. 0. 0.
      3.00275415e-01 1.16616622e-01 8.11284781e-02 2.42766395e-01 0. 0.
      0. 0. 0. 1.16616622e-01 0. 5.55053761e-04 1.66092603e-03 0. 0. 0.
      0. 0. 0. 0. 0. 0. 0. 0. 0. 0. 0. 0. 0. 0. 0. 0. 0. 0. 0. 0. 0. 0.
      0. 0. 0. 0. 0. 0. 0. 0. 0. 0. 0. 0. 0. 0. 0. 0. 0. 0. 0. 0. 0. 0.
      0. 0. 0. 0. 0. 0. 0. 0. 0. 0. 0. 0. 0. 0. 0. 0. 0. 0. 0. 0. 0. 0.
      0. 0. 0. 0. 0. 0. 0. 0. 0. 0. 0. 0. 0. 0. 0. 0. 0. 0.</_>
    <_>
      0. 0. 0. 0. 0. 0. 0. 0. 0. 0. 0. 0. 0. 0. 0. 0. 0. 0. 0. 0. 0. 0.
      0. 0. 0. 0. 0. 0. 0. 0. 0. 0. 0. 0. 0. 0. 0. 0. 0. 0. 0. 0. 0. 0.
      0. 0. 0. 0. 0. 0. 0. 0. 0. 0. 0. 0. 0. 0. 0. 0. 0. 0. 0. 0. 0. 0.
      0. 0. 0. 0. 0. 0. 0. 0. 0. 0. 0. 0. 0. 0. 0. 0. 0. 0. 0. 0. 0. 0.
      0. 0. 1.06328530e-02 3.19430931e-03 9.55859106e-03 0. 0. 0. 0. 0.
      1.06328530e-02 1.27030835e-01 1.50259919e-02 4.49635014e-02 0. 0.
      0. 0. 0. 1.27030835e-01 0. 0. 0. 0. 0. 0. 0. 0. 0. 0. 0. 0. 0. 0.
      0. 0. 0. 0. 1.24640390e-01 1.96693748e-01 3.83105099e-01 0.
      3.83105099e-01 0. 0. 0. 1.24640390e-01 3.83105099e-01
      3.32775086e-01 3.83105099e-01 0. 2.16743946e-01 0. 0. 0.
      3.83105099e-01 0. 0. 0. 0. 0. 0. 0. 0. 0. 0. 0. 0. 0. 0. 0. 0. 0.
      0. 0. 0. 0. 0. 0. 0. 0. 0. 0. 0. 0. 0. 0. 0. 0. 0. 0. 0. 0. 0. 0.
      0. 0. 0. 0. 0. 0. 0. 0. 0. 0. 0. 0. 0. 0. 0. 0. 0. 0. 0. 0. 0. 0.
      0. 0. 0. 0. 0. 0. 0. 0. 0. 0. 0. 3.74448020e-03 1.29321089e-03
      3.86978011e-03 0. 0. 0. 0. 0. 3.74448020e-03 1.22843444e-01
      6.71601668e-03 2.00968832e-02 0. 0. 0. 0. 0. 1.22843444e-01
      1.29905298e-01 0. 0. 0. 0. 0. 2.24104431e-02 7.48919649e-03
      1.29905298e-01 6.89966604e-03 0. 0. 0. 0. 0. 4.35209414e-03
      1.45439722e-03 6.89966604e-03 4.06375863e-02 4.92133275e-02
      1.47265032e-01 0. 6.23708740e-02 0. 0. 0. 4.06375863e-02
      3.78094286e-01 1.18432336e-01 3.54394555e-01 0. 4.85550389e-02 0.
      0. 0. 3.78094286e-01 3.78094286e-01 0. 0. 0. 5.84265552e-02 0.
      3.29073131e-01 1.09970711e-01 3.78094286e-01 1.04772627e-01 0. 0.
      0. 1.10386141e-01 0. 1.58942610e-01 5.31159565e-02 1.04772627e-01
      0. 0. 0. 0. 0. 0. 0. 0. 0. 0. 0. 0. 0. 0. 0. 0. 0. 0. 0. 0. 0. 0.
      0. 0. 0. 0. 0. 0. 0. 0. 0. 0. 0. 0. 0. 0. 0. 0. 0. 0. 0. 0. 0. 0.
      0. 0. 0. 0. 0. 0. 0. 0. 0. 0. 0. 0. 0. 0. 0. 0. 0. 0. 0. 0. 0. 0.
      0. 0. 0. 0. 0. 0. 1.05153784e-01 0. 0. 0. 0. 0. 3.60460617e-02
      1.20459935e-02 1.05153784e-01 1.86534636e-02 0. 0. 0. 0. 0.
      7.72354938e-03 2.58108135e-03 1.86534636e-02 0. 0. 0. 0. 0. 0. 0.
      0. 0. 0. 0. 0. 0. 0. 0. 0. 0. 0. 3.67572904e-01 0. 0. 0.
      2.27999747e-01 0. 3.67572904e-01 2.25900322e-01 3.67572904e-01
      2.81522125e-01 0. 0. 0. 3.67572904e-01 0. 3.67572904e-01
      1.86903521e-01 2.81522125e-01 0. 0. 0. 0. 0. 0. 0. 0. 0. 0. 0. 0.
      0. 0. 0. 0. 0. 0. 0. 0. 0. 0. 0. 0. 0. 0. 0. 0. 0. 0. 0. 0. 0. 0.
      0. 0. 2.89396732e-03 9.60242178e-04 2.87341094e-03 0. 0. 0. 0. 0.
      2.89396732e-03 2.96243206e-02 4.51696804e-03 1.35164913e-02 0. 0.
      0. 0. 0. 2.96243206e-02 0. 0. 0. 0. 0. 0. 0. 0. 0. 0. 0. 0. 0. 0.
      0. 0. 0. 0. 4.53029089e-02 8.66161659e-02 2.59188563e-01 0.
      2.86369085e-01 0. 1.25212157e-02 4.18437412e-03 4.53029089e-02
      2.86369085e-01 1.34690046e-01 2.86369085e-01 0. 2.86369085e-01 0.
      4.82523665e-02 1.61251295e-02 2.86369085e-01 0. 0. 0. 0. 0. 0. 0.
      0. 0. 0. 0. 0. 0. 0. 0. 0. 0. 0. 9.08835456e-02 1.43562360e-02
      4.29593176e-02 0. 2.86369085e-01 0. 1.83193818e-01 6.12201691e-02
      9.08835456e-02 2.86369085e-01 2.43497696e-02 7.28636384e-02 0.
      2.86369085e-01 0. 2.86079198e-01 9.56026986e-02 2.86369085e-01 0.
      0. 0. 0. 0. 0. 0. 0. 0. 0. 0. 0. 0. 0. 0. 0. 0. 0. 8.21269024e-03
      0. 0. 0. 0. 0. 7.46802706e-03 2.49568373e-03 8.21269024e-03
      4.58698347e-02 0. 0. 0. 0. 0. 1.44428741e-02 4.82655549e-03
      4.58698347e-02 1.16927095e-03 4.69554769e-04 1.40508695e-03 0. 0.
      0. 0. 0. 1.16927095e-03 3.44218723e-02 2.43853312e-03
      7.29702134e-03 0. 0. 0. 0. 0. 3.44218723e-02 3.65574285e-02 0. 0.
      0. 0. 0. 8.13705754e-03 2.71926867e-03 3.65574285e-02
      2.29546195e-03 0. 0. 0. 0. 0. 1.58021133e-03 5.28080272e-04
      2.29546195e-03 1.82619113e-02 2.51521785e-02 7.52648935e-02 0.
      9.51662734e-02 0. 4.41976637e-03 1.47701020e-03 1.82619113e-02
      3.09875011e-01 5.65691218e-02 1.69276267e-01 0. 8.12373832e-02 0.
      2.78982855e-02 9.32313967e-03 3.09875011e-01 3.09875011e-01
      1.02378037e-02 3.06353811e-02 0. 6.50392845e-02 0. 1.51154652e-01
      5.05133346e-02 3.09875011e-01 5.09938374e-02 1.04995873e-02
      3.14186774e-02 0. 1.09473594e-01 0. 9.43172276e-02 3.15192379e-02
      5.09938374e-02 3.00502349e-02 3.97759024e-03 1.19024580e-02 0.
      1.27544731e-01 0. 5.55766635e-02 1.85727458e-02 3.00502349e-02
      3.09875011e-01 1.13636851e-02 3.40043791e-02 0. 9.66681913e-02 0.
      1.14724308e-01 3.83388810e-02 3.09875011e-01 3.09875011e-01
      3.68577465e-02 1.10292122e-01 0. 6.60845265e-02 0. 3.00480071e-02
      1.00415256e-02 3.09875011e-01 3.83337140e-02 4.19331789e-02
      1.25479609e-01 0. 1.11819834e-01 0. 3.06378659e-02 1.02386568e-02
      3.83337140e-02 3.07505718e-03 0. 0. 0. 0. 0. 2.73191626e-03
      9.12958523e-04 3.07505718e-03 4.48393337e-02 0. 0. 0. 0. 0.
      5.62308030e-03 1.87913480e-03 4.48393337e-02 5.16309999e-02
      1.41378865e-03 4.23057796e-03 0. 0. 0. 0. 0. 5.16309999e-02
      5.46305999e-03 1.37831015e-03 4.12441324e-03 0. 0. 0. 0. 0.
      5.46305999e-03 2.61184219e-02 0. 0. 0. 0. 0. 1.13071389e-02
      3.77865764e-03 2.61184219e-02 5.60190110e-03 0. 0. 0. 0. 0.
      2.42276816e-03 8.09648656e-04 5.60190110e-03 0. 0. 0. 0. 0. 0. 0.
      0. 0. 0. 0. 0. 0. 0. 0. 0. 0. 0. 2.79940724e-01 2.48179939e-02
      7.42647499e-02 0. 1.99881569e-01 0. 2.79940724e-01 9.84597728e-02
      2.79940724e-01 1.09971792e-01 3.94579433e-02 1.18072800e-01 0.
      2.79940724e-01 0. 2.79940724e-01 1.04814410e-01 1.09971792e-01 0.
      0. 0. 0. 0. 0. 0. 0. 0. 0. 0. 0. 0. 0. 0. 0. 0. 0. 2.79940724e-01
      1.00567356e-01 2.79940724e-01 0. 2.03907818e-01 0. 7.26143867e-02
      2.42664851e-02 2.79940724e-01 6.41639680e-02 1.42500982e-01
      2.79940724e-01 0. 2.79940724e-01 0. 1.15041256e-01 3.84448543e-02
      6.41639680e-02 0. 0. 0. 0. 0. 0. 0. 0. 0. 0. 0. 0. 0. 0. 0. 0. 0.
      0. 4.58271205e-02 3.76688736e-03 1.12719191e-02 0. 0. 0. 0. 0.
      4.58271205e-02 1.02591971e-02 3.88165819e-03 1.16153574e-02 0. 0.
      0. 0. 0. 1.02591971e-02 0. 0. 0. 0. 0. 0. 0. 0. 0. 0. 0. 0. 0. 0.
      0. 0. 0. 0. 0. 0. 0. 0. 0. 0. 0. 0. 0. 0. 0. 0. 0. 0. 0. 0. 0. 0.
      2.19283104e-01 0. 0. 0. 3.69565785e-01 0. 3.69565785e-01
      1.33028612e-01 2.19283104e-01 3.69565785e-01 0. 0. 0.
      3.29147190e-01 0. 3.69565785e-01 1.99954703e-01 3.69565785e-01 0.
      0. 0. 0. 0. 0. 0. 0. 0. 0. 0. 0. 0. 0. 0. 0. 0. 0. 2.56055966e-02
      0. 0. 0. 0. 0. 1.94702111e-02 6.50660181e-03 2.56055966e-02
      1.54786780e-01 0. 0. 0. 0. 0. 3.76546271e-02 1.25835156e-02
      1.54786780e-01 0. 0. 0. 0. 0. 0. 0. 0. 0. 0. 0. 0. 0. 0. 0. 0. 0.
      0. 0. 0. 0. 0. 0. 0. 0. 0. 0. 0. 0. 0. 0. 0. 0. 0. 0. 0. 0. 0. 0.
      0. 0. 0. 0. 0. 0. 0. 0. 0. 0. 0. 0. 0. 0. 0. 0. 0. 0. 0. 0. 0. 0.
      0. 0. 0. 0. 0. 0. 0. 0. 0. 0. 0. 7.02611357e-02 0. 0. 0.
      1.21701203e-01 0. 1.19549312e-01 3.99512872e-02 7.02611357e-02
      4.08269554e-01 0. 0. 0. 7.53156468e-02 0. 2.20059484e-01
      7.35400468e-02 4.08269554e-01 4.08269554e-01 6.58812150e-02
      1.97141051e-01 0. 5.59447818e-02 0. 0. 0. 4.08269554e-01
      8.45444426e-02 7.42250755e-02 2.22108915e-01 0. 1.06407724e-01 0.
      0. 0. 8.45444426e-02 9.78782307e-03 0. 0. 0. 0. 0. 6.92433212e-03
      2.31399038e-03 9.78782307e-03 1.47233784e-01 0. 0. 0. 0. 0.
      1.42522966e-02 4.76286700e-03 1.47233784e-01 1.69633493e-01
      3.58339772e-03 1.07228504e-02 0. 0. 0. 0. 0. 1.69633493e-01
      1.85008850e-02 3.49347317e-03 1.04537616e-02 0. 0. 0. 0. 0.
      1.85008850e-02 0. 0. 0. 0. 0. 0. 0. 0. 0. 0. 0. 0. 0. 0. 0. 0. 0.
      0. 0. 0. 0. 0. 0. 0. 0. 0. 0. 0. 0. 0. 0. 0. 0. 0. 0. 0. 0. 0. 0.
      0. 0. 0. 0. 0. 0. 0. 0. 0. 0. 0. 0. 0. 0. 0. 0. 0. 0. 0. 0. 0. 0.
      0. 0. 0. 0. 0. 0. 0. 0. 0. 0. 0. 3.81845623e-01 2.00549051e-01
      3.81845623e-01 0. 2.07981542e-01 0. 0. 0. 3.81845623e-01
      1.63552269e-01 2.63504028e-01 3.81845623e-01 0. 3.81845623e-01 0.
      0. 0. 1.63552269e-01 0. 0. 0. 0. 0. 0. 0. 0. 0. 0. 0. 0. 0. 0. 0.
      0. 0. 0. 1.66640505e-01 1.04767764e-02 3.13503891e-02 0. 0. 0. 0.
      0. 1.66640505e-01 3.84361371e-02 1.07959891e-02 3.23055908e-02 0.
      0. 0. 0. 0. 3.84361371e-02 0. 0. 0. 0. 0. 0. 0. 0. 0. 0. 0. 0. 0.
      0. 0. 0. 0. 0. 0. 0. 0. 0. 0. 0. 0. 0. 0. 0. 0. 0. 0. 0. 0. 0. 0.
      0. 0. 0. 0. 0. 0. 0. 0. 0. 0. 0. 0. 0. 0. 0. 0. 0. 0. 0. 0. 0. 0.
      0. 0. 0. 0. 0. 0. 0. 0. 0. 0. 0. 0. 0. 0. 0. 0. 0. 0. 0. 0. 0. 0.
      0. 0. 0. 0. 0. 0. 0. 0. 0. 0. 0.</_>
    <_>
      0. 0. 0. 0. 0. 0. 0. 0. 0. 0. 0. 0. 0. 0. 0. 0. 0. 0. 0. 0. 0. 0.
      0. 0. 0. 0. 0. 0. 0. 0. 0. 0. 0. 0. 0. 0. 0. 0. 0. 0. 0. 0. 0. 0.
      0. 0. 0. 0. 0. 0. 0. 0. 0. 0. 0. 0. 0. 0. 0. 0. 0. 0. 0. 0. 0. 0.
      0. 0. 0. 0. 0. 0. 0. 0. 0. 0. 0. 0. 0. 0. 0. 0. 0. 0. 0. 0. 0. 0.
      0. 0. 3.61278318e-02 1.00768656e-02 3.01538296e-02 0. 0. 0. 0. 0.
      3.61278318e-02 1.63530797e-01 9.82399099e-03 2.93971281e-02 0. 0.
      0. 0. 0. 1.63530797e-01 0. 0. 0. 0. 0. 0. 0. 0. 0. 0. 0. 0. 0. 0.
      0. 0. 0. 0. 1.42274529e-01 1.84500873e-01 3.79141927e-01 0.
      3.79141927e-01 0. 0. 0. 1.42274529e-01 3.79141927e-01
      2.27668822e-01 3.79141927e-01 0. 3.05032372e-01 0. 0. 0.
      3.79141927e-01 0. 0. 0. 0. 0. 0. 0. 0. 0. 0. 0. 0. 0. 0. 0. 0. 0.
      0. 0. 0. 0. 0. 0. 0. 0. 0. 0. 0. 0. 0. 0. 0. 0. 0. 0. 0. 0. 0. 0.
      0. 0. 0. 0. 0. 0. 0. 0. 0. 0. 0. 0. 0. 0. 0. 0. 0. 0. 0. 0. 0. 0.
      0. 0. 0. 0. 0. 0. 0. 0. 0. 0. 0. 1.36752389e-02 2.55723856e-03
      7.65223289e-03 0. 0. 0. 0. 0. 1.36752389e-02 1.35372877e-01
      2.63515348e-03 7.88538437e-03 0. 0. 0. 0. 0. 1.35372877e-01
      1.29635870e-01 0. 0. 0. 0. 0. 1.41400006e-02 4.72535193e-03
      1.29635870e-01 7.14513753e-03 0. 0. 0. 0. 0. 6.90579554e-03
      2.30780127e-03 7.14513753e-03 5.76666147e-02 4.89139855e-02
      1.46369204e-01 0. 1.14462920e-01 0. 0. 0. 5.76666147e-02
      3.90954792e-01 7.75736719e-02 2.32129544e-01 0. 6.22065775e-02 0.
      0. 0. 3.90954792e-01 3.90954792e-01 0. 0. 0. 8.10628608e-02 0.
      3.70003700e-01 1.23648942e-01 3.90954792e-01 2.95172837e-02 0. 0.
      0. 8.98171440e-02 0. 1.84032306e-01 6.15004972e-02 2.95172837e-02
      0. 0. 0. 0. 0. 0. 0. 0. 0. 0. 0. 0. 0. 0. 0. 0. 0. 0. 0. 0. 0. 0.
      0. 0. 0. 0. 0. 0. 0. 0. 0. 0. 0. 0. 0. 0. 0. 0. 0. 0. 0. 0. 0. 0.
      0. 0. 0. 0. 0. 0. 0. 0. 0. 0. 0. 0. 0. 0. 0. 0. 0. 0. 0. 0. 0. 0.
      0. 0. 0. 0. 0. 0. 1.36584193e-01 0. 0. 0. 0. 0. 3.77048142e-02
      1.26003195e-02 1.36584193e-01 1.49299596e-02 0. 0. 0. 0. 0.
      1.95958242e-02 6.54859701e-03 1.49299596e-02 0. 0. 0. 0. 0. 0. 0.
      0. 0. 0. 0. 0. 0. 0. 0. 0. 0. 0. 3.75967592e-01 0. 0. 0.
      3.12564284e-01 0. 3.75967592e-01 3.27126414e-01 3.75967592e-01
      5.80899715e-02 0. 0. 0. 3.75967592e-01 0. 3.75967592e-01
      1.95614606e-01 5.80899715e-02 0. 0. 0. 0. 0. 0. 0. 0. 0. 0. 0. 0.
      0. 0. 0. 0. 0. 0. 0. 0. 0. 0. 0. 0. 0. 0. 0. 0. 0. 0. 0. 0. 0. 0.
      0. 0. 9.38456506e-03 3.52047547e-03 1.05346050e-02 0. 0. 0. 0. 0.
      9.38456506e-03 4.37960625e-02 3.43213067e-03 1.02702426e-02 0. 0.
      0. 0. 0. 4.37960625e-02 0. 0. 0. 0. 0. 0. 0. 0. 0. 0. 0. 0. 0. 0.
      0. 0. 0. 0. 4.91449833e-02 8.00156370e-02 2.39437103e-01 0.
      2.93048292e-01 0. 2.02378277e-02 6.76313788e-03 4.91449833e-02
      2.93048292e-01 1.16577245e-01 2.93048292e-01 0. 2.93048292e-01 0.
      4.30789404e-02 1.43962568e-02 2.93048292e-01 0. 0. 0. 0. 0. 0. 0.
      0. 0. 0. 0. 0. 0. 0. 0. 0. 0. 0. 9.16556269e-02 9.55052767e-03
      2.85787415e-02 0. 2.93048292e-01 0. 1.75250664e-01 5.85657209e-02
      9.16556269e-02 2.93048292e-01 2.82965656e-02 8.46738070e-02 0.
      2.93048292e-01 0. 2.54108161e-01 8.49185437e-02 2.93048292e-01 0.
      0. 0. 0. 0. 0. 0. 0. 0. 0. 0. 0. 0. 0. 0. 0. 0. 0. 7.28334952e-03
      0. 0. 0. 0. 0. 6.62295194e-03 2.21327436e-03 7.28334952e-03
      4.06792462e-02 0. 0. 0. 0. 0. 1.28085315e-02 4.28038649e-03
      4.06792462e-02 4.14169813e-03 1.03298551e-03 3.09108640e-03 0. 0.
      0. 0. 0. 4.14169813e-03 4.22739498e-02 1.06445886e-03
      3.18526709e-03 0. 0. 0. 0. 0. 4.22739498e-02 4.03270759e-02 0. 0.
      0. 0. 0. 5.71179343e-03 1.90878590e-03 4.03270759e-02
      2.12354306e-03 0. 0. 0. 0. 0. 2.78956653e-03 9.32226598e-04
      2.12354306e-03 2.40522884e-02 2.58593410e-02 7.73809329e-02 0.
      1.35584116e-01 0. 8.18927679e-03 2.73671793e-03 2.40522884e-02
      2.98752248e-01 5.04702851e-02 1.51025936e-01 0. 8.39931071e-02 0.
      2.00697947e-02 6.70698890e-03 2.98752248e-01 2.98752248e-01
      1.27196191e-02 3.80618870e-02 0. 9.19282809e-02 0. 2.32175663e-01
      7.75891319e-02 2.98752248e-01 1.42198438e-02 9.63922311e-03
      2.88441498e-02 0. 1.00815162e-01 0. 1.15382604e-01 3.85589190e-02
      1.42198438e-02 3.51669565e-02 4.28967737e-03 1.28363091e-02 0.
      1.38009951e-01 0. 5.97146712e-02 1.99556015e-02 3.51669565e-02
      2.98752248e-01 1.50324600e-02 4.49826904e-02 0. 8.50523114e-02 0.
      1.02018952e-01 3.40929665e-02 2.98752248e-01 2.98752248e-01
      5.25747575e-02 1.57323226e-01 0. 9.37541649e-02 0. 6.54213950e-02
      2.18626950e-02 2.98752248e-01 1.89233348e-02 3.50321531e-02
      1.04829185e-01 0. 1.02903157e-01 0. 3.36137637e-02 1.12331463e-02
      1.89233348e-02 3.00412206e-03 0. 0. 0. 0. 0. 2.66889646e-03
      8.91898351e-04 3.00412206e-03 4.38049845e-02 0. 0. 0. 0. 0.
      5.49336756e-03 1.83578697e-03 4.38049845e-02 4.53893319e-02
      2.10368005e-03 6.29498856e-03 0. 0. 0. 0. 0. 4.53893319e-02
      2.40021572e-03 1.02741038e-03 3.07439128e-03 0. 0. 0. 0. 0.
      2.40021572e-03 3.47463824e-02 0. 0. 0. 0. 0. 1.25866495e-02
      4.20624809e-03 3.47463824e-02 3.64656048e-03 0. 0. 0. 0. 0.
      6.54149288e-03 2.18605762e-03 3.64656048e-03 0. 0. 0. 0. 0. 0. 0.
      0. 0. 0. 0. 0. 0. 0. 0. 0. 0. 0. 2.68870056e-01 3.33468132e-02
      9.97861400e-02 0. 2.68870056e-01 0. 2.68870056e-01 1.68528423e-01
      2.68870056e-01 2.26731580e-02 3.07095982e-02 9.18945223e-02 0.
      2.68870056e-01 0. 2.68870056e-01 1.05122112e-01 2.26731580e-02 0.
      0. 0. 0. 0. 0. 0. 0. 0. 0. 0. 0. 0. 0. 0. 0. 0. 0. 2.68870056e-01
      1.31427318e-01 2.68870056e-01 0. 2.68870056e-01 0. 1.42269373e-01
      4.75439765e-02 2.68870056e-01 3.14901955e-02 1.00739680e-01
      2.68870056e-01 0. 2.68870056e-01 0. 9.92072225e-02 3.31533737e-02
      3.14901955e-02 0. 0. 0. 0. 0. 0. 0. 0. 0. 0. 0. 0. 0. 0. 0. 0. 0.
      0. 3.91453989e-02 4.63572191e-03 1.38717946e-02 0. 0. 0. 0. 0.
      3.91453989e-02 4.12383350e-03 2.40926212e-03 7.20940344e-03 0. 0.
      0. 0. 0. 4.12383350e-03 0. 0. 0. 0. 0. 0. 0. 0. 0. 0. 0. 0. 0. 0.
      0. 0. 0. 0. 0. 0. 0. 0. 0. 0. 0. 0. 0. 0. 0. 0. 0. 0. 0. 0. 0. 0.
      2.27697060e-01 0. 0. 0. 3.72548103e-01 0. 3.72548103e-01
      1.31951377e-01 2.27697060e-01 3.72548103e-01 0. 0. 0.
      3.12006533e-01 0. 3.72548103e-01 1.91815764e-01 3.72548103e-01 0.
      0. 0. 0. 0. 0. 0. 0. 0. 0. 0. 0. 0. 0. 0. 0. 0. 0. 2.45455373e-02
      0. 0. 0. 0. 0. 1.86641552e-02 6.23723213e-03 2.45455373e-02
      1.48378700e-01 0. 0. 0. 0. 0. 3.60957459e-02 1.20625654e-02
      1.48378700e-01 0. 0. 0. 0. 0. 0. 0. 0. 0. 0. 0. 0. 0. 0. 0. 0. 0.
      0. 0. 0. 0. 0. 0. 0. 0. 0. 0. 0. 0. 0. 0. 0. 0. 0. 0. 0. 0. 0. 0.
      0. 0. 0. 0. 0. 0. 0. 0. 0. 0. 0. 0. 0. 0. 0. 0. 0. 0. 0. 0. 0. 0.
      0. 0. 0. 0. 0. 0. 0. 0. 0. 0. 0. 7.91648701e-02 0. 0. 0.
      1.25846058e-01 0. 1.25488594e-01 4.19360884e-02 7.91648701e-02
      4.01475638e-01 0. 0. 0. 6.79090694e-02 0. 2.11751550e-01
      7.07636774e-02 4.01475638e-01 4.01475638e-01 9.98659357e-02
      2.98835933e-01 0. 8.93313512e-02 0. 0. 0. 4.01475638e-01
      4.25278284e-02 6.16614148e-02 1.84513792e-01 0. 9.91428941e-02 0.
      0. 0. 4.25278284e-02 9.84794553e-03 0. 0. 0. 0. 0. 6.96686562e-03
      2.32820399e-03 9.84794553e-03 1.48138180e-01 0. 0. 0. 0. 0.
      1.43398428e-02 4.79212357e-03 1.48138180e-01 1.54093921e-01
      5.49142901e-03 1.64323859e-02 0. 0. 0. 0. 0. 1.54093921e-01
      8.52153637e-03 2.68194312e-03 8.02536495e-03 0. 0. 0. 0. 0.
      8.52153637e-03 0. 0. 0. 0. 0. 0. 0. 0. 0. 0. 0. 0. 0. 0. 0. 0. 0.
      0. 0. 0. 0. 0. 0. 0. 0. 0. 0. 0. 0. 0. 0. 0. 0. 0. 0. 0. 0. 0. 0.
      0. 0. 0. 0. 0. 0. 0. 0. 0. 0. 0. 0. 0. 0. 0. 0. 0. 0. 0. 0. 0. 0.
      0. 0. 0. 0. 0. 0. 0. 0. 0. 0. 0. 3.77746165e-01 2.76529402e-01
      3.77746165e-01 0. 3.25602174e-01 0. 0. 0. 3.77746165e-01
      8.16522092e-02 1.92157060e-01 3.77746165e-01 0. 3.77746165e-01 0.
      0. 0. 8.16522092e-02 0. 0. 0. 0. 0. 0. 0. 0. 0. 0. 0. 0. 0. 0. 0.
      0. 0. 0. 1.53363720e-01 1.38215246e-02 4.13591191e-02 0. 0. 0. 0.
      0. 1.53363720e-01 1.68136023e-02 7.18327798e-03 2.14950237e-02 0.
      0. 0. 0. 0. 1.68136023e-02 0. 0. 0. 0. 0. 0. 0. 0. 0. 0. 0. 0. 0.
      0. 0. 0. 0. 0. 0. 0. 0. 0. 0. 0. 0. 0. 0. 0. 0. 0. 0. 0. 0. 0. 0.
      0. 0. 0. 0. 0. 0. 0. 0. 0. 0. 0. 0. 0. 0. 0. 0. 0. 0. 0. 0. 0. 0.
      0. 0. 0. 0. 0. 0. 0. 0. 0. 0. 0. 0. 0. 0. 0. 0. 0. 0. 0. 0. 0. 0.
      0. 0. 0. 0. 0. 0. 0. 0. 0. 0. 0.</_>
    <_>
      0. 0. 0. 0. 0. 0. 0. 0. 0. 0. 0. 0. 0. 0. 0. 0. 0. 0. 0. 0. 0. 0.
      0. 0. 0. 0. 0. 0. 0. 0. 0. 0. 0. 0. 0. 0. 0. 0. 0. 0. 0. 0. 0. 0.
      0. 0. 0. 0. 0. 0. 0. 0. 0. 0. 0. 0. 0. 0. 0. 0. 0. 0. 0. 0. 0. 0.
      0. 0. 0. 0. 0. 0. 0. 0. 0. 0. 0. 0. 0. 0. 0. 0. 0. 0. 0. 0. 0. 0.
      0. 0. 1.54943094e-02 6.62415801e-03 1.98220070e-02 0. 0. 0. 0. 0.
      1.54943094e-02 1.46862403e-01 1.28108636e-02 3.83349918e-02 0. 0.
      0. 0. 0. 1.46862403e-01 0. 0. 0. 0. 0. 0. 0. 0. 0. 0. 0. 0. 0. 0.
      0. 0. 0. 0. 6.05750605e-02 1.76599175e-01 3.73382628e-01 0.
      3.73382628e-01 0. 0. 0. 6.05750605e-02 3.73382628e-01
      2.74897397e-01 3.73382628e-01 0. 3.73382628e-01 0. 0. 0.
      3.73382628e-01 0. 0. 0. 0. 0. 0. 0. 0. 0. 0. 0. 0. 0. 0. 0. 0. 0.
      0. 0. 0. 0. 0. 0. 0. 0. 0. 0. 0. 0. 0. 0. 0. 0. 0. 0. 0. 0. 0. 0.
      0. 0. 0. 0. 0. 0. 0. 0. 0. 0. 0. 0. 0. 0. 0. 0. 0. 0. 0. 0. 0. 0.
      0. 0. 0. 0. 0. 0. 0. 0. 0. 0. 0. 6.28803764e-03 1.98009005e-03
      5.92518505e-03 0. 0. 0. 0. 0. 6.28803764e-03 1.21838115e-01
      4.07560356e-03 1.21957595e-02 0. 0. 0. 0. 0. 1.21838115e-01
      1.50711358e-01 0. 0. 0. 1.64791779e-03 0. 3.48737021e-03
      1.16542086e-03 1.50711358e-01 2.58723032e-02 0. 0. 0.
      4.94375359e-03 0. 4.88231704e-03 1.63158891e-03 2.58723032e-02
      2.61118952e-02 4.53394279e-02 1.35672837e-01 0. 8.66956189e-02 0.
      0. 0. 2.61118952e-02 4.09096807e-01 8.58784541e-02 2.56980896e-01
      0. 1.43097907e-01 0. 0. 0. 4.09096807e-01 4.09096807e-01 0. 0. 0.
      6.62167743e-02 0. 1.57399610e-01 5.26002347e-02 4.09096807e-01
      1.25293508e-01 0. 0. 0. 1.67021468e-01 0. 1.77976623e-01
      5.94767705e-02 1.25293508e-01 0. 0. 0. 0. 0. 0. 0. 0. 0. 0. 0. 0.
      0. 0. 0. 0. 0. 0. 0. 0. 0. 0. 0. 0. 0. 0. 0. 0. 0. 0. 0. 0. 0. 0.
      0. 0. 0. 0. 0. 0. 0. 0. 0. 0. 0. 0. 0. 0. 0. 0. 0. 0. 0. 0. 0. 0.
      0. 0. 0. 0. 0. 0. 0. 0. 0. 0. 0. 0. 0. 0. 0. 0. 1.49539322e-01 0.
      0. 0. 7.27277016e-03 0. 1.10280188e-02 3.68537963e-03
      1.49539322e-01 5.98438680e-02 0. 0. 0. 2.18183119e-02 0.
      1.54392282e-02 5.15953172e-03 5.98438680e-02 0. 0. 0. 0. 0. 0. 0.
      0. 0. 0. 0. 0. 0. 0. 0. 0. 0. 0. 3.69908303e-01 0. 0. 0.
      2.50147849e-01 0. 3.69908303e-01 1.38698593e-01 3.69908303e-01
      2.61906892e-01 0. 0. 0. 3.69908303e-01 0. 3.69908303e-01
      2.00813890e-01 2.61906892e-01 0. 0. 0. 0. 0. 0. 0. 0. 0. 0. 0. 0.
      0. 0. 0. 0. 0. 0. 0. 0. 0. 0. 0. 0. 0. 0. 0. 0. 0. 0. 0. 0. 0. 0.
      0. 0. 4.02206834e-03 2.34913616e-03 7.02951150e-03 0. 0. 0. 0. 0.
      4.02206834e-03 3.97224016e-02 4.54313727e-03 1.35947987e-02 0. 0.
      0. 0. 0. 3.97224016e-02 0. 0. 0. 0. 0. 0. 0. 0. 0. 0. 0. 0. 0. 0.
      0. 0. 0. 0. 2.05067862e-02 9.62243453e-02 2.74709761e-01 0.
      2.74709761e-01 0. 8.54258910e-02 2.85478365e-02 2.05067862e-02
      2.74709761e-01 1.36463776e-01 2.74709761e-01 0. 2.74709761e-01 0.
      1.05590895e-01 3.52866612e-02 2.74709761e-01 0. 0. 0. 0. 0. 0. 0.
      0. 0. 0. 0. 0. 0. 0. 0. 0. 0. 0. 4.75085676e-02 2.72460133e-02
      8.15304592e-02 0. 2.74709761e-01 0. 2.54012406e-01 8.48864913e-02
      4.75085676e-02 2.74709761e-01 2.83788890e-02 8.49203616e-02 0.
      2.74709761e-01 0. 2.74709761e-01 1.41839936e-01 2.74709761e-01 0.
      0. 0. 0. 0. 0. 0. 0. 0. 0. 0. 0. 0. 0. 0. 0. 0. 0. 3.33331712e-03
      0. 0. 0. 0. 0. 3.28519801e-03 1.09785551e-03 3.33331712e-03
      3.45668197e-02 0. 0. 0. 0. 0. 1.54535333e-02 5.16429963e-03
      3.45668197e-02 1.86063501e-03 7.95953558e-04 2.38179672e-03 0. 0.
      0. 0. 0. 1.86063501e-03 3.77407484e-02 1.63830479e-03
      4.90243267e-03 0. 0. 0. 0. 0. 3.77407484e-02 4.69197296e-02 0. 0.
      0. 6.62427396e-04 0. 1.40184793e-03 4.68474143e-04 4.69197296e-02
      7.87340570e-03 0. 0. 0. 1.98728195e-03 0. 1.96258631e-03
      6.55863550e-04 7.87340570e-03 1.02865575e-02 2.62916926e-02
      7.86747560e-02 0. 9.00815800e-02 0. 2.02513896e-02 6.76766131e-03
      1.02865575e-02 3.03959072e-01 4.79689501e-02 1.43541247e-01 0.
      1.53044805e-01 0. 3.93737890e-02 1.31580513e-02 3.03959072e-01
      3.03959072e-01 6.46901224e-03 1.93577316e-02 0. 5.80609329e-02 0.
      1.10841468e-01 3.70412953e-02 3.03959072e-01 5.62071018e-02
      7.61556439e-03 2.27886252e-02 0. 1.58943877e-01 0. 1.12774596e-01
      3.76873426e-02 5.62071018e-02 1.77225601e-02 6.26681326e-03
      1.87526904e-02 0. 8.43797773e-02 0. 7.03034922e-02 2.34941952e-02
      1.77225601e-02 3.03959072e-01 9.33944248e-03 2.79471185e-02 0.
      1.25471741e-01 0. 1.69299856e-01 5.65770715e-02 3.03959072e-01
      3.03959072e-01 3.33609842e-02 9.98284817e-02 0. 3.63273285e-02 0.
      3.72531898e-02 1.24493651e-02 3.03959072e-01 4.62736115e-02
      4.48131636e-02 1.34097606e-01 0. 1.17472984e-01 0. 2.95686461e-02
      9.88133159e-03 4.62736115e-02 1.25256879e-03 0. 0. 0. 0. 0.
      1.48793904e-03 4.97243134e-04 1.25256879e-03 3.72192971e-02 0. 0.
      0. 0. 0. 7.72729563e-03 2.58232676e-03 3.72192971e-02
      4.96101044e-02 1.35845144e-03 4.06498881e-03 0. 0. 0. 0. 0.
      4.96101044e-02 5.24922973e-03 1.32436154e-03 3.96297919e-03 0. 0.
      0. 0. 0. 5.24922973e-03 4.27973568e-02 0. 0. 0. 2.70614703e-03 0.
      4.10344917e-03 1.37130404e-03 4.27973568e-02 1.66952573e-02 0. 0.
      0. 8.11844133e-03 0. 5.74482931e-03 1.91982591e-03 1.66952573e-02
      0. 0. 0. 0. 0. 0. 0. 0. 0. 0. 0. 0. 0. 0. 0. 0. 0. 0.
      2.93279618e-01 1.63018443e-02 4.87812608e-02 0. 2.04315469e-01 0.
      2.55977750e-01 8.55433494e-02 2.93279618e-01 1.01080149e-01
      2.34392211e-02 7.01389089e-02 0. 2.93279618e-01 0. 2.93279618e-01
      1.14528194e-01 1.01080149e-01 0. 0. 0. 0. 0. 0. 0. 0. 0. 0. 0. 0.
      0. 0. 0. 0. 0. 0. 2.93279618e-01 9.09672156e-02 2.72207707e-01 0.
      1.32452816e-01 0. 7.76006952e-02 2.59328038e-02 2.93279618e-01
      7.50047266e-02 1.41355902e-01 2.93279618e-01 0. 2.93279618e-01 0.
      7.91325122e-02 2.64447257e-02 7.50047266e-02 0. 0. 0. 0. 0. 0. 0.
      0. 0. 0. 0. 0. 0. 0. 0. 0. 0. 0. 3.98750715e-02 3.27764195e-03
      9.80791543e-03 0. 0. 0. 0. 0. 3.98750715e-02 8.92672688e-03
      3.37750628e-03 1.01067480e-02 0. 0. 0. 0. 0. 8.92672688e-03 0. 0.
      0. 0. 0. 0. 0. 0. 0. 0. 0. 0. 0. 0. 0. 0. 0. 0. 0. 0. 0. 0. 0. 0.
      0. 0. 0. 0. 0. 0. 0. 0. 0. 0. 0. 0. 1.26026109e-01 0. 0. 0.
      3.73626590e-01 0. 3.73626590e-01 1.48292527e-01 1.26026109e-01
      3.73626590e-01 0. 0. 0. 3.42795521e-01 0. 3.73626590e-01
      2.99000561e-01 3.73626590e-01 0. 0. 0. 0. 0. 0. 0. 0. 0. 0. 0. 0.
      0. 0. 0. 0. 0. 0. 1.09246960e-02 0. 0. 0. 0. 0. 9.72948875e-03
      3.25142406e-03 1.09246960e-02 1.32182866e-01 0. 0. 0. 0. 0.
      4.57673967e-02 1.52946636e-02 1.32182866e-01 0. 0. 0. 0. 0. 0. 0.
      0. 0. 0. 0. 0. 0. 0. 0. 0. 0. 0. 0. 0. 0. 0. 0. 0. 0. 0. 0. 0. 0.
      0. 0. 0. 0. 0. 0. 0. 0. 0. 0. 0. 0. 0. 0. 0. 0. 0. 0. 0. 0. 0. 0.
      0. 0. 0. 0. 0. 0. 0. 0. 0. 0. 0. 0. 0. 0. 0. 0. 0. 0. 0. 0. 0.
      3.99318114e-02 0. 0. 0. 7.74591714e-02 0. 1.16401106e-01
      3.88992094e-02 3.99318114e-02 3.93678010e-01 0. 0. 0.
      8.10266957e-02 0. 3.26493710e-01 1.09108485e-01 3.93678010e-01
      3.93678010e-01 6.51039183e-02 1.94815069e-01 0. 2.05497984e-02 0.
      0. 0. 3.93678010e-01 9.81585830e-02 8.49531665e-02 2.54211336e-01
      0. 7.70220608e-02 0. 0. 0. 9.81585830e-02 3.75899719e-03 0. 0. 0.
      0. 0. 3.83148878e-03 1.28041639e-03 3.75899719e-03 1.24386638e-01
      0. 0. 0. 0. 0. 1.98980253e-02 6.64957007e-03 1.24386638e-01
      1.65593460e-01 3.49805434e-03 1.04674716e-02 0. 0. 0. 0. 0.
      1.65593460e-01 1.80602614e-02 3.41027137e-03 1.02047930e-02 0. 0.
      0. 0. 0. 1.80602614e-02 0. 0. 0. 0. 0. 0. 0. 0. 0. 0. 0. 0. 0. 0.
      0. 0. 0. 0. 0. 0. 0. 0. 0. 0. 0. 0. 0. 0. 0. 0. 0. 0. 0. 0. 0. 0.
      0. 0. 0. 0. 0. 0. 0. 0. 0. 0. 0. 0. 0. 0. 0. 0. 0. 0. 0. 0. 0. 0.
      0. 0. 0. 0. 0. 0. 0. 0. 0. 0. 0. 0. 0. 0. 3.84031266e-01
      2.01368555e-01 3.84031266e-01 0. 8.91310200e-02 0. 0. 0.
      3.84031266e-01 1.85274348e-01 3.00039768e-01 3.84031266e-01 0.
      3.84031266e-01 0. 0. 0. 1.85274348e-01 0. 0. 0. 0. 0. 0. 0. 0. 0.
      0. 0. 0. 0. 0. 0. 0. 0. 0. 1.53573617e-01 9.65525489e-03
      2.88920924e-02 0. 0. 0. 0. 0. 1.53573617e-01 3.54222208e-02
      9.94943548e-03 2.97723934e-02 0. 0. 0. 0. 0. 3.54222208e-02 0. 0.
      0. 0. 0. 0. 0. 0. 0. 0. 0. 0. 0. 0. 0. 0. 0. 0. 0. 0. 0. 0. 0. 0.
      0. 0. 0. 0. 0. 0. 0. 0. 0. 0. 0. 0. 0. 0. 0. 0. 0. 0. 0. 0. 0. 0.
      0. 0. 0. 0. 0. 0. 0. 0. 0. 0. 0. 0. 0. 0. 0. 0. 0. 0. 0. 0. 0. 0.
      0. 0. 0. 0. 0. 0. 0. 0. 0. 0. 0. 0. 0. 0. 0. 0. 0. 0. 0. 0. 0. 0.</_>
    <_>
      0. 0. 0. 0. 0. 0. 0. 0. 0. 0. 0. 0. 0. 0. 0. 0. 0. 0. 0. 0. 0. 0.
      0. 0. 0. 0. 0. 0. 0. 0. 0. 0. 0. 0. 0. 0. 0. 0. 0. 0. 0. 0. 0. 0.
      0. 0. 0. 0. 0. 0. 0. 0. 0. 0. 0. 0. 0. 0. 0. 0. 0. 0. 0. 0. 0. 0.
      0. 0. 0. 0. 0. 0. 0. 0. 0. 0. 0. 0. 0. 0. 0. 0. 5.58676664e-04
      1.67177350e-03 0. 0. 0. 0. 0. 0. 1.18672781e-01 6.86179474e-02
      2.05331057e-01 0. 0. 0. 5.35954256e-03 1.79106963e-03
      1.18672781e-01 2.28096083e-01 5.58163114e-02 1.67023733e-01 0. 0.
      0. 5.89550287e-02 1.97017863e-02 2.28096083e-01 0. 0. 0. 0. 0. 0.
      0. 0. 0. 0. 2.60787364e-02 7.80375302e-02 0. 7.78987035e-02 0. 0.
      0. 0. 2.38566011e-01 3.29367846e-01 3.29367846e-01 0.
      2.98376203e-01 0. 7.50335725e-03 2.50749686e-03 2.38566011e-01
      3.29367846e-01 1.29612431e-01 3.29367846e-01 0. 1.27027798e-02 0.
      8.25370103e-02 2.75824945e-02 3.29367846e-01 0. 0. 0. 0. 0. 0. 0.
      0. 0. 0. 0. 0. 0. 0. 0. 0. 0. 0. 0. 0. 0. 0. 0. 0. 0. 0. 0. 0. 0.
      0. 0. 0. 0. 0. 0. 0. 0. 0. 0. 0. 0. 0. 0. 0. 0. 0. 0. 0. 0. 0. 0.
      0. 0. 0. 0. 0. 0. 0. 0. 0. 0. 0. 0. 0. 0. 0. 0. 0. 0. 0. 0. 0.
      4.13344987e-02 1.84677392e-02 5.52625209e-02 0. 0. 0.
      4.58530243e-03 1.53233157e-03 4.13344987e-02 2.75378376e-01
      3.81648839e-02 1.14203893e-01 0. 0. 0. 5.04382998e-02
      1.68556385e-02 2.75378376e-01 3.03251177e-01 5.43068862e-03
      1.62506904e-02 0. 0. 0. 5.12276478e-02 1.71194244e-02
      3.03251177e-01 6.34521693e-02 0. 0. 0. 1.64350506e-03 0.
      7.33586401e-02 2.45152321e-02 6.34521693e-02 8.47793147e-02
      7.28777274e-02 2.18077794e-01 0. 3.24245431e-02 0. 6.41942071e-03
      2.14526337e-03 8.47793147e-02 3.03251177e-01 7.37302676e-02
      2.20628902e-01 0. 2.86469935e-03 0. 7.06136003e-02 2.35978831e-02
      3.03251177e-01 3.03251177e-01 7.60296173e-03 2.27509607e-02 0. 0.
      0. 1.25594661e-01 4.19716015e-02 3.03251177e-01 1.29305646e-01 0.
      0. 0. 5.42507432e-02 0. 2.50260383e-01 8.36327970e-02
      1.29305646e-01 0. 0. 0. 0. 0. 0. 0. 0. 0. 0. 0. 0. 0. 0. 0. 0. 0.
      0. 0. 0. 0. 0. 0. 0. 0. 0. 0. 0. 0. 0. 0. 0. 0. 0. 0. 0. 0. 0. 0.
      0. 0. 0. 0. 0. 0. 0. 0. 0. 0. 0. 0. 0. 0. 0. 0. 0. 0. 0. 0. 0. 0.
      0. 0. 0. 0. 0. 0. 0. 0. 0. 0. 0. 2.64116228e-01 0. 0. 0. 0. 0.
      1.05229102e-01 3.51658091e-02 2.64116228e-01 1.40586749e-01 0. 0.
      0. 1.42507162e-02 0. 2.05365315e-01 6.86296523e-02 1.40586749e-01
      2.72900728e-03 0. 0. 0. 4.75023873e-03 0. 1.56579353e-03
      5.23262075e-04 2.72900728e-03 0. 0. 0. 0. 0. 0. 0. 0. 0.
      3.03621560e-01 0. 0. 0. 0. 0. 2.70652473e-01 9.04474556e-02
      3.03621560e-01 3.03621560e-01 0. 0. 0. 3.03621560e-01 0.
      3.03621560e-01 3.03621560e-01 3.03621560e-01 8.18702206e-03 0. 0.
      0. 1.51385024e-01 0. 8.84484202e-02 2.95579862e-02 8.18702206e-03
      0. 0. 0. 0. 0. 0. 0. 0. 0. 0. 0. 0. 0. 0. 0. 0. 0. 0. 0.
      2.67441064e-04 8.00285547e-04 0. 0. 0. 0. 0. 0. 3.02076656e-02
      2.32201982e-02 6.94836974e-02 0. 0. 0. 1.31723995e-03
      4.40199598e-04 3.02076656e-02 5.06354123e-02 1.45365754e-02
      4.34989743e-02 0. 0. 0. 1.44896545e-02 4.84220078e-03
      5.06354123e-02 0. 0. 0. 0. 0. 0. 0. 0. 0. 0. 2.22889520e-02
      6.66970387e-02 0. 1.38906911e-01 0. 2.95694941e-03 9.88160726e-04
      0. 9.68548581e-02 2.17071548e-01 2.95414150e-01 0. 2.95414150e-01
      0. 3.41519155e-02 1.14129931e-02 9.68548581e-02 2.39777789e-01
      6.17527850e-02 1.84787482e-01 0. 5.31941876e-02 0. 3.91045474e-02
      1.30680865e-02 2.39777789e-01 0. 0. 0. 0. 0. 0. 0. 0. 0. 0.
      8.41024891e-03 2.51666736e-02 0. 2.38054872e-01 0. 7.50171244e-02
      2.50694100e-02 0. 9.73376706e-02 4.07614708e-02 1.21973716e-01 0.
      2.95414150e-01 0. 2.95414150e-01 1.82464793e-01 9.73376706e-02
      2.78236359e-01 1.49716595e-02 4.48007435e-02 0. 7.44718388e-02 0.
      1.42283440e-01 4.75487374e-02 2.78236359e-01 0. 0. 0. 0. 0. 0. 0.
      0. 0. 0. 0. 0. 0. 7.91616458e-03 0. 8.69067479e-03 2.90427078e-03
      0. 6.84188530e-02 0. 0. 0. 3.04051824e-02 0. 1.64282531e-01
      5.49003482e-02 6.84188530e-02 1.12802461e-01 0. 0. 0. 0. 0.
      2.99191903e-02 9.99846775e-03 1.12802461e-01 1.35947308e-02
      7.51451403e-03 2.24862918e-02 0. 0. 0. 1.51274563e-03
      5.05534292e-04 1.35947308e-02 7.74906501e-02 1.28122875e-02
      3.83392572e-02 0. 0. 0. 1.66401900e-02 5.56087447e-03
      7.74906501e-02 1.05794579e-01 1.79164857e-03 5.36129577e-03 0. 0.
      0. 1.76231563e-02 5.88936498e-03 1.05794579e-01 2.00225208e-02 0.
      0. 0. 1.05608627e-03 0. 2.84675285e-02 9.51337256e-03
      2.00225208e-02 4.96674068e-02 5.09085879e-02 1.52337760e-01 0.
      8.26625749e-02 0. 1.35139553e-02 4.51613730e-03 4.96674068e-02
      2.74457872e-01 4.19921689e-02 1.25656337e-01 0. 1.82117466e-02 0.
      3.19561474e-02 1.06792105e-02 2.74457872e-01 2.74457872e-01
      4.34024958e-03 1.29876826e-02 0. 1.92287599e-03 0. 9.53746811e-02
      3.18725705e-02 2.74457872e-01 7.07294270e-02 4.54027764e-03
      1.35862427e-02 0. 9.26289558e-02 0. 1.94919646e-01 6.51388094e-02
      7.07294270e-02 5.27926348e-02 9.89775266e-03 2.96177734e-02 0.
      1.21036895e-01 0. 1.28691360e-01 4.30064499e-02 5.27926348e-02
      2.74457872e-01 8.86449404e-03 2.65258439e-02 0. 2.54964381e-02 0.
      6.60434067e-02 2.20705923e-02 2.74457872e-01 2.74457872e-01
      1.43085485e-02 4.28166129e-02 0. 3.83575354e-03 0. 3.47116552e-02
      1.16000250e-02 2.74457872e-01 7.37451911e-02 5.48151396e-02
      1.64027497e-01 0. 1.18742667e-01 0. 6.58648685e-02 2.20108870e-02
      7.37451911e-02 2.99861543e-02 0. 0. 0. 3.78930825e-03 0.
      3.80840190e-02 1.27270101e-02 2.99861543e-02 1.57173261e-01 0. 0.
      0. 0. 0. 1.06725348e-02 3.56657384e-03 1.57173261e-01
      1.72298595e-01 2.00836593e-03 6.00977428e-03 0. 0. 0. 0. 0.
      1.72298595e-01 3.75892594e-02 1.72984675e-02 5.17634116e-02 0.
      6.76251249e-04 0. 0. 0. 3.75892594e-02 5.62425032e-02 0. 0. 0. 0.
      0. 2.85437461e-02 9.53884330e-03 5.62425032e-02 3.87070924e-02 0.
      0. 0. 7.02350074e-03 0. 6.60499632e-02 2.20727958e-02
      3.87070924e-02 9.63731902e-04 0. 0. 0. 2.34116684e-03 0.
      7.71705236e-04 2.57890992e-04 9.63731902e-04 0. 0. 0. 0. 0. 0. 0.
      0. 0. 2.11181000e-01 4.06780653e-03 1.21724298e-02 0.
      6.56563044e-03 0. 1.62350282e-01 5.42546622e-02 2.11181000e-01
      1.37605265e-01 1.05283000e-02 3.15046906e-02 0. 2.96104521e-01 0.
      2.96104521e-01 1.92907333e-01 1.37605265e-01 2.89119571e-03 0. 0.
      0. 2.04358324e-01 0. 6.49585426e-02 2.17080601e-02 2.89119571e-03
      0. 0. 0. 0. 0. 0. 0. 0. 0. 2.55369961e-01 3.11119482e-02
      9.30987522e-02 0. 1.30971242e-02 0. 6.43356517e-02 2.14998424e-02
      2.55369961e-01 9.22609493e-02 1.89171791e-01 2.96104521e-01 0.
      2.96104521e-01 0. 1.61322385e-01 5.39111421e-02 9.22609493e-02 0.
      2.14317571e-02 6.41317442e-02 0. 2.96104521e-01 0. 1.15299737e-02
      3.85312457e-03 0. 0. 0. 0. 0. 0. 0. 0. 0. 0. 1.00842610e-01
      5.55802509e-03 1.66316684e-02 0. 0. 0. 0. 0. 1.00842610e-01
      5.65161258e-02 6.60934001e-02 1.97775871e-01 0. 6.27664011e-03 0.
      0. 0. 5.65161258e-02 0. 5.31352405e-03 1.59000289e-02 0.
      4.48331377e-03 0. 0. 0. 0. 0. 0. 0. 0. 0. 0. 0. 0. 0. 0. 0. 0. 0.
      0. 0. 0. 0. 0. 0. 0. 0. 0. 1.63059711e-01 0. 9.02119800e-02
      3.01472601e-02 0. 1.90081999e-01 0. 0. 0. 3.00063014e-01 0.
      3.00063014e-01 2.74940640e-01 1.90081999e-01 3.00063014e-01 0. 0.
      0. 3.21648084e-02 0. 1.70957059e-01 5.71309291e-02 3.00063014e-01
      0. 0. 0. 0. 0. 0. 0. 0. 0. 0. 0. 0. 0. 1.31860711e-02 0.
      1.59766991e-02 5.33913216e-03 0. 2.41922736e-01 0. 0. 0.
      4.77472134e-02 0. 3.00063014e-01 1.39596537e-01 2.41922736e-01
      3.00063014e-01 0. 0. 0. 0. 0. 9.69272107e-02 3.23913768e-02
      3.00063014e-01 0. 0. 0. 0. 0. 0. 0. 0. 0. 0. 0. 0. 0. 0. 0. 0. 0.
      0. 0. 0. 0. 0. 0. 0. 0. 0. 0. 0. 0. 0. 0. 0. 0. 0. 0. 0. 0. 0. 0.
      0. 0. 0. 0. 0. 0. 0. 0. 0. 0. 0. 0. 0. 0. 0. 0. 0. 0. 0. 0. 0. 0.
      0. 0. 0. 0. 0. 0. 0. 0. 0. 0. 0. 7.58792236e-02 0. 0. 0.
      6.39984831e-02 0. 1.56742871e-01 5.23807555e-02 7.58792236e-02
      3.16486180e-01 0. 0. 0. 9.35471896e-03 0. 6.23040758e-02
      2.08209641e-02 3.16486180e-01 3.16486180e-01 1.31396232e-02
      3.93187180e-02 0. 1.79090258e-03 0. 2.53252010e-03 8.46323732e-04
      3.16486180e-01 1.03667207e-01 6.91254064e-02 2.06848994e-01 0.
      5.90449683e-02 0. 7.59756006e-03 2.53897114e-03 1.03667207e-01
      9.30942520e-02 0. 0. 0. 4.91128908e-03 0. 8.91729295e-02
      2.98000276e-02 9.30942520e-02 3.16486180e-01 0. 0. 0. 0. 0.
      2.95785367e-02 9.88462847e-03 3.16486180e-01 3.16486180e-01
      5.43163577e-03 1.62534621e-02 0. 0. 0. 0. 0. 3.16486180e-01
      1.24447115e-01 3.93682197e-02 1.17804281e-01 0. 7.02821242e-04 0.
      0. 0. 1.24447115e-01 0. 0. 0. 0. 0. 0. 0. 0. 0. 0. 0. 0. 0. 0. 0.
      0. 0. 0. 0. 0. 0. 0. 0. 0. 0. 0. 0. 0. 0. 0. 0. 0. 0. 0. 0. 0. 0.
      0. 0. 0. 0. 0. 0. 0. 0. 0. 0. 0. 0. 0. 0. 0. 0. 0. 0. 0. 0. 0. 0.
      0. 0. 0. 0. 0. 0. 0. 0. 0. 0. 0. 0. 0. 3.03712904e-01
      3.60084884e-02 1.07750967e-01 0. 7.26862485e-03 0. 7.36491475e-03
      2.46122549e-03 3.03712904e-01 1.68513358e-01 3.03712904e-01
      3.03712904e-01 0. 3.03712904e-01 0. 2.20947452e-02 7.38367578e-03
      1.68513358e-01 0. 3.31230573e-02 9.91164446e-02 0. 2.05167547e-01
      0. 0. 0. 0. 0. 0. 0. 0. 0. 0. 0. 0. 0. 3.03712904e-01
      1.76812336e-02 5.29087856e-02 0. 0. 0. 0. 0. 3.03712904e-01
      2.27568120e-01 1.67296231e-01 3.03712904e-01 0. 7.75388116e-03 0.
      0. 0. 2.27568120e-01 0. 9.49038658e-03 2.83987448e-02 0.
      5.53848501e-03 0. 0. 0. 0. 0. 0. 0. 0. 0. 0. 0. 0. 0. 0. 0. 0. 0.
      0. 0. 0. 0. 0. 0. 0. 0. 0. 0. 0. 0. 0. 0. 0. 0. 0. 0. 0. 0. 0. 0.
      0. 0. 0. 0. 0. 0. 0. 0. 0. 0. 0. 0. 0. 0. 0. 0. 0. 0. 0. 0. 0. 0.
      0. 0. 0. 0. 0. 0. 0. 0. 0. 0. 0. 0. 0. 0. 0. 0. 0. 0. 0. 0. 0. 0.
      0. 0.</_>
    <_>
      0. 0. 0. 0. 0. 0. 0. 0. 0. 0. 0. 0. 0. 0. 0. 0. 0. 0. 0. 0. 0. 0.
      0. 0. 0. 0. 0. 0. 0. 0. 0. 0. 0. 0. 0. 0. 0. 0. 0. 0. 0. 0. 0. 0.
      0. 0. 0. 0. 0. 0. 0. 0. 0. 0. 8.69078562e-03 0. 0. 0. 0. 0. 0. 0.
      8.69078562e-03 2.10290030e-02 0. 0. 0. 0. 0. 0. 0. 2.10290030e-02
      0. 0. 0. 0. 0. 0. 0. 0. 0. 0. 2.82812398e-03 8.46282672e-03 0.
      1.99864693e-02 0. 0. 0. 0. 1.61190331e-01 2.56441891e-01
      3.41841131e-01 0. 1.97129577e-01 0. 0. 0. 1.61190331e-01
      3.41841131e-01 1.07826605e-01 3.22657704e-01 0. 5.63533697e-03 0.
      0. 0. 3.41841131e-01 0. 0. 0. 0. 0. 0. 0. 0. 0. 0. 5.46948193e-03
      1.63667761e-02 0. 1.15483843e-01 0. 0. 0. 0. 2.08898392e-02
      2.00940520e-01 3.41841131e-01 0. 3.41841131e-01 0. 0. 0.
      2.08898392e-02 9.78222862e-02 7.83372968e-02 2.34414250e-01 0.
      5.77092320e-02 0. 0. 0. 9.78222862e-02 0. 0. 0. 0. 0. 0. 0. 0. 0.
      0. 0. 0. 0. 0. 0. 0. 0. 0. 0. 0. 0. 0. 0. 0. 0. 0. 0. 0. 0. 0. 0.
      0. 0. 0. 0. 0. 4.45642928e-03 0. 0. 0. 0. 0. 0. 0. 4.45642928e-03
      2.62639057e-02 0. 0. 0. 0. 0. 0. 0. 2.62639057e-02 2.80711465e-02
      0. 0. 0. 0. 0. 0. 0. 2.80711465e-02 5.19120600e-03 0. 0. 0. 0. 0.
      0. 0. 5.19120600e-03 9.11786258e-02 7.02087209e-02 2.10091054e-01
      0. 2.99886093e-02 0. 0. 0. 9.11786258e-02 3.49476904e-01
      5.47739342e-02 1.63904086e-01 0. 1.10912218e-03 0. 2.60074828e-02
      8.69124476e-03 3.49476904e-01 3.49476904e-01 1.80874746e-02
      5.41244075e-02 0. 1.05443606e-02 0. 2.00370550e-01 6.69603869e-02
      3.49476904e-01 1.21101491e-01 0. 0. 0. 5.88349290e-02 0.
      2.39148691e-01 7.99194649e-02 1.21101491e-01 1.33394618e-02
      5.22230864e-02 1.56271026e-01 0. 1.50645837e-01 0. 0. 0.
      1.33394618e-02 1.47192866e-01 4.09938879e-02 1.22668900e-01 0.
      1.38272233e-02 0. 1.85767803e-02 6.20803330e-03 1.47192866e-01
      1.56462625e-01 1.29196281e-02 3.86603028e-02 0. 3.73151340e-02 0.
      1.27517924e-01 4.26142626e-02 1.56462625e-01 3.01687568e-02 0. 0.
      0. 2.31667593e-01 0. 1.55627310e-01 5.20079769e-02 3.01687568e-02
      0. 0. 0. 0. 0. 0. 0. 0. 0. 0. 0. 0. 0. 0. 0. 0. 0. 0. 0. 0. 0. 0.
      0. 0. 0. 0. 0. 0. 0. 0. 0. 0. 0. 0. 0. 0. 1.89851299e-02 0. 0. 0.
      0. 0. 0. 0. 1.89851299e-02 8.23573116e-03 0. 0. 0. 0. 0. 0. 0.
      8.23573116e-03 0. 0. 0. 0. 0. 0. 0. 0. 0. 0. 0. 0. 0. 0. 0. 0. 0.
      0. 3.44065130e-01 1.00398185e-02 3.00428476e-02 0. 2.88138017e-02
      0. 2.85576433e-01 9.54347774e-02 3.44065130e-01 1.81445599e-01 0.
      0. 0. 2.60101199e-01 0. 3.44065130e-01 2.46320322e-01
      1.81445599e-01 0. 0. 0. 0. 2.13192068e-02 0. 8.89441278e-03
      2.97236396e-03 0. 0. 0. 0. 0. 0. 0. 0. 0. 0. 1.03154577e-01
      7.17130071e-03 2.14591827e-02 0. 1.05774321e-01 0. 1.67297944e-01
      5.59080690e-02 1.03154577e-01 4.62921821e-02 0. 0. 0.
      3.44065130e-01 0. 3.44065130e-01 1.80290177e-01 4.62921821e-02 0.
      0. 0. 0. 1.24004021e-01 0. 1.72014460e-02 5.74843632e-03 0. 0. 0.
      0. 0. 0. 0. 0. 0. 0. 0. 0. 0. 0. 0. 0. 0. 0. 0. 0. 1.51902495e-03
      4.54550236e-03 0. 1.12187304e-02 0. 0. 0. 0. 2.71767601e-02
      7.99629837e-02 2.39279538e-01 0. 9.53254923e-02 0. 0. 0.
      2.71767601e-02 1.03795148e-01 3.32702771e-02 9.95570943e-02 0.
      2.97631882e-03 0. 0. 0. 1.03795148e-01 0. 0. 0. 0. 0. 0. 0. 0. 0.
      0. 3.12659657e-03 9.35596973e-03 0. 1.65818080e-01 0. 0. 0. 0.
      7.14625232e-03 1.05734147e-01 3.16396266e-01 0. 4.12343979e-01 0.
      2.62415837e-02 8.76949914e-03 7.14625232e-03 3.04038115e-02
      3.83743756e-02 1.14830352e-01 0. 1.02429390e-01 0. 8.74719396e-03
      2.92316615e-03 3.04038115e-02 0. 0. 0. 0. 0. 0. 0. 0. 0. 0. 0. 0.
      0. 1.51912063e-01 0. 1.49212256e-02 4.98641143e-03 0.
      1.10734766e-02 0. 0. 0. 4.12343979e-01 0. 4.12343979e-01
      1.55823424e-01 1.10734766e-02 5.53181693e-02 0. 0. 0.
      1.14420623e-01 0. 1.78592294e-01 5.96825518e-02 5.53181693e-02 0.
      0. 0. 0. 0. 0. 0. 0. 0. 0. 0. 0. 0. 8.77119508e-03 0.
      2.89769261e-03 9.68357956e-04 0. 4.82658260e-02 0. 0. 0.
      1.34394035e-01 0. 1.98331520e-01 6.62789494e-02 4.82658260e-02
      1.24355204e-01 0. 0. 0. 6.47352589e-03 0. 1.03916995e-01
      3.47272754e-02 1.24355204e-01 2.27464382e-02 3.06240246e-02
      9.16386172e-02 0. 2.05734335e-02 0. 0. 0. 2.27464382e-02
      2.14063451e-01 2.55625173e-02 7.64925554e-02 0. 8.39364424e-04 0.
      1.26693761e-02 4.23388369e-03 2.14063451e-01 2.20349610e-01
      8.81119631e-03 2.63663586e-02 0. 8.50589853e-03 0. 8.81098285e-02
      2.94447728e-02 2.20349610e-01 3.49132046e-02 0. 0. 0.
      4.19693328e-02 0. 9.81466323e-02 3.27989459e-02 3.49132046e-02
      6.60916744e-03 3.90453525e-02 1.16838269e-01 0. 2.37535551e-01 0.
      1.03282239e-02 3.45151988e-03 6.60916744e-03 6.33792728e-02
      2.58844122e-02 7.74557441e-02 0. 3.67757119e-02 0. 1.24922972e-02
      4.17470932e-03 6.33792728e-02 7.29770958e-02 6.29371172e-03
      1.88331138e-02 0. 6.52753636e-02 0. 7.24612549e-02 2.42152810e-02
      7.29770958e-02 1.62528437e-02 0. 0. 0. 2.37535551e-01 0.
      1.13556504e-01 3.79486270e-02 1.62528437e-02 8.80703330e-03 0. 0.
      0. 2.37535551e-01 0. 1.78025961e-01 5.94932660e-02 8.80703330e-03
      1.32467672e-01 7.81683601e-04 2.33908650e-03 0. 4.68930304e-02 0.
      1.12783231e-01 3.76902670e-02 1.32467672e-01 1.61287144e-01
      2.61209682e-02 7.81638250e-02 0. 5.36923185e-02 0. 5.91134094e-03
      1.97546626e-03 1.61287144e-01 2.19347756e-02 5.98343462e-02
      1.79046869e-01 0. 2.37535551e-01 0. 2.59371038e-04 8.66772389e-05
      2.19347756e-02 3.10290977e-02 0. 0. 0. 3.18865478e-02 0.
      8.41733515e-02 2.81292815e-02 3.10290977e-02 2.37535551e-01
      8.59852880e-03 2.57299785e-02 0. 2.03371514e-03 0. 8.34321007e-02
      2.78815795e-02 2.37535551e-01 2.37535551e-01 4.61000055e-02
      1.37948379e-01 0. 6.52400684e-03 0. 6.50248155e-02 2.17301510e-02
      2.37535551e-01 4.41869311e-02 3.40454131e-02 1.01876609e-01 0.
      4.68123034e-02 0. 2.85308412e-03 9.53450624e-04 4.41869311e-02
      9.40592363e-02 3.34504293e-03 1.00096054e-02 0. 1.54713029e-02 0.
      7.88309202e-02 2.63439361e-02 9.40592363e-02 3.59925814e-02 0. 0.
      0. 1.25399336e-01 0. 2.18490779e-01 7.30159432e-02 3.59925814e-02
      0. 0. 0. 0. 1.17757255e-02 0. 4.68181446e-03 1.56458397e-03 0. 0.
      0. 0. 0. 0. 0. 0. 0. 0. 3.54442745e-02 2.38931645e-03
      7.14971870e-03 0. 1.34171247e-01 0. 7.53059015e-02 2.51659155e-02
      3.54442745e-02 1.69361811e-02 0. 0. 0. 4.44892704e-01 0.
      2.73711354e-01 9.14696530e-02 1.69361811e-02 0. 0. 0. 0.
      1.74505919e-01 0. 9.63653997e-03 3.22037051e-03 0. 0. 0. 0. 0. 0.
      0. 0. 0. 0. 6.61472976e-02 3.64983976e-02 1.09217063e-01 0.
      1.19686499e-01 0. 2.67265551e-03 8.93154589e-04 6.61472976e-02
      2.51139663e-02 1.41609684e-01 4.23749268e-01 0. 4.44892704e-01 0.
      1.37421128e-04 4.59237272e-05 2.51139663e-02 0. 5.13595995e-03
      1.53686935e-02 0. 1.57239139e-01 0. 0. 0. 0. 0. 0. 0. 0. 0. 0. 0.
      0. 0. 1.01403616e-01 3.59539874e-02 1.07587777e-01 0.
      1.48420576e-02 0. 2.93992367e-02 9.82470997e-03 1.01403616e-01
      6.00043945e-02 6.33115992e-02 1.89451933e-01 0. 1.33934304e-01 0.
      1.51163398e-03 5.05161530e-04 6.00043945e-02 0. 9.97400261e-04
      2.98459036e-03 0. 5.46140037e-03 0. 0. 0. 0. 0. 0. 0. 0. 0. 0. 0.
      0. 0. 0. 0. 0. 0. 0. 0. 0. 0. 0. 0. 0. 0. 0. 8.95127058e-02 0.
      1.72917340e-02 5.77859441e-03 0. 4.06589694e-02 0. 0. 0.
      3.17830414e-01 0. 3.17830414e-01 2.01438010e-01 4.06589694e-02
      1.43430680e-01 0. 0. 0. 6.93826377e-02 0. 2.51157403e-01
      8.39325711e-02 1.43430680e-01 0. 0. 0. 0. 0. 0. 0. 0. 0. 0. 0. 0.
      0. 1.74834207e-02 0. 3.70508060e-03 1.23817299e-03 0.
      2.24584267e-01 0. 0. 0. 2.66325116e-01 0. 3.17830414e-01
      1.91598967e-01 2.24584267e-01 3.17830414e-01 0. 0. 0.
      9.72992182e-03 0. 3.17830414e-01 1.13584623e-01 3.17830414e-01 0.
      0. 0. 0. 0. 0. 0. 0. 0. 0. 0. 0. 0. 0. 0. 0. 0. 0. 2.01989478e-03
      0. 0. 0. 0. 0. 0. 0. 2.01989478e-03 1.69519410e-02 0. 0. 0. 0. 0.
      0. 0. 1.69519410e-02 0. 0. 0. 0. 0. 0. 0. 0. 0. 0. 0. 0. 0. 0. 0.
      0. 0. 0. 0. 0. 0. 0. 0. 0. 0. 0. 0. 0. 0. 0. 0. 0. 0. 0. 0. 0.
      1.83906127e-02 0. 0. 0. 1.25459090e-01 0. 1.48171499e-01
      4.95163947e-02 1.83906127e-02 2.02855363e-01 2.58820574e-03
      7.74486829e-03 0. 1.80242397e-02 0. 1.10222109e-01 3.68343741e-02
      2.02855363e-01 2.42987007e-01 3.50010879e-02 1.04736455e-01 0.
      2.15842891e-02 0. 1.95728354e-02 6.54089870e-03 2.42987007e-01
      3.86981629e-02 5.86328134e-02 1.75451398e-01 0. 1.79884970e-01 0.
      8.58794374e-04 2.86994007e-04 3.86981629e-02 8.91261548e-02 0. 0.
      0. 3.87304910e-02 0. 1.62086532e-01 5.41664921e-02 8.91261548e-02
      2.95966834e-01 2.84702461e-02 8.51935074e-02 0. 1.86050916e-03 0.
      1.81159094e-01 6.05402291e-02 2.95966834e-01 2.95966834e-01
      1.24860510e-01 2.95966834e-01 0. 1.11263888e-02 0. 2.15301096e-01
      7.19498396e-02 2.95966834e-01 1.05078474e-01 5.80747612e-02
      1.73781335e-01 0. 7.44371489e-02 0. 9.44673363e-03 3.15693254e-03
      1.05078474e-01 1.47759065e-03 0. 0. 0. 0. 0. 0. 0. 1.47759065e-03
      2.29137428e-02 0. 0. 0. 0. 0. 0. 0. 2.29137428e-02 1.64750870e-02
      0. 0. 0. 0. 0. 0. 0. 1.64750870e-02 1.66175351e-03 0. 0. 0. 0. 0.
      0. 0. 1.66175351e-03 0. 0. 0. 0. 0. 0. 0. 0. 0. 0. 0. 0. 0. 0. 0.
      0. 0. 0. 0. 0. 0. 0. 0. 0. 0. 0. 0. 0. 0. 0. 0. 0. 0. 0. 0. 0.
      1.64743483e-01 6.59179240e-02 1.97251365e-01 0. 7.80496970e-02 0.
      1.41200973e-02 4.71868878e-03 1.64743483e-01 7.69032538e-02
      2.08007157e-01 3.05490315e-01 0. 3.05490315e-01 0. 7.26019265e-04
      2.42622918e-04 7.69032538e-02 0. 5.98883629e-03 1.79208145e-02 0.
      8.75485986e-02 0. 0. 0. 0. 0. 0. 0. 0. 0. 0. 0. 0. 0.
      3.05490315e-01 1.29339293e-01 3.05490315e-01 0. 4.04191352e-02 0.
      1.55320987e-01 5.19055463e-02 3.05490315e-01 2.34395027e-01
      1.45956710e-01 3.05490315e-01 0. 3.05490315e-01 0. 7.98620749e-03
      2.66885036e-03 2.34395027e-01 0. 1.28322118e-03 3.83987231e-03 0.
      8.31401534e-03 0. 0. 0. 0. 0. 0. 0. 0. 0. 0. 0. 0. 0.
      9.55470465e-03 0. 0. 0. 0. 0. 0. 0. 9.55470465e-03 1.81128713e-03
      0. 0. 0. 0. 0. 0. 0. 1.81128713e-03 0. 0. 0. 0. 0. 0. 0. 0. 0. 0.
      0. 0. 0. 0. 0. 0. 0. 0. 0. 0. 0. 0. 0. 0. 0. 0. 0. 0. 0. 0. 0. 0.
      0. 0. 0. 0. 0. 0. 0. 0. 0. 0. 0. 0. 0. 0. 0. 0. 0. 0. 0. 0. 0. 0.</_>
    <_>
      0. 0. 0. 0. 0. 0. 0. 0. 0. 0. 0. 0. 0. 0. 0. 0. 0. 0. 0. 0. 0. 0.
      0. 0. 0. 0. 0. 0. 0. 0. 0. 0. 0. 0. 0. 0. 0. 0. 0. 0. 0. 0. 0. 0.
      0. 0. 0. 0. 0. 0. 0. 0. 0. 0. 0. 0. 0. 0. 0. 0. 0. 0. 0. 0. 0. 0.
      0. 0. 0. 0. 0. 0. 0. 0. 0. 0. 0. 0. 0. 0. 0. 0. 0. 0. 0. 0. 0. 0.
      0. 0. 3.61278318e-02 1.00768656e-02 3.01538296e-02 0. 0. 0. 0. 0.
      3.61278318e-02 1.63530797e-01 9.82399099e-03 2.93971281e-02 0. 0.
      0. 0. 0. 1.63530797e-01 0. 0. 0. 0. 0. 0. 0. 0. 0. 0. 0. 0. 0. 0.
      0. 0. 0. 0. 1.42274529e-01 1.84500873e-01 3.79141927e-01 0.
      3.79141927e-01 0. 0. 0. 1.42274529e-01 3.79141927e-01
      2.27668822e-01 3.79141927e-01 0. 3.05032372e-01 0. 0. 0.
      3.79141927e-01 0. 0. 0. 0. 0. 0. 0. 0. 0. 0. 0. 0. 0. 0. 0. 0. 0.
      0. 0. 0. 0. 0. 0. 0. 0. 0. 0. 0. 0. 0. 0. 0. 0. 0. 0. 0. 0. 0. 0.
      0. 0. 0. 0. 0. 0. 0. 0. 0. 0. 0. 0. 0. 0. 0. 0. 0. 0. 0. 0. 0. 0.
      0. 0. 0. 0. 0. 0. 0. 0. 0. 0. 0. 1.37884971e-02 2.57841730e-03
      7.71560846e-03 0. 0. 0. 0. 0. 1.37884971e-02 1.36494026e-01
      2.65697739e-03 7.95069057e-03 0. 0. 0. 0. 0. 1.36494026e-01
      1.44811183e-01 0. 0. 0. 0. 0. 9.36053321e-03 3.12813371e-03
      1.44811183e-01 1.57577433e-02 0. 0. 0. 0. 0. 9.12563317e-03
      3.04963416e-03 1.57577433e-02 5.81442043e-02 4.93190847e-02
      1.47581428e-01 0. 1.15410887e-01 0. 0. 0. 5.81442043e-02
      4.05698210e-01 7.82161281e-02 2.34052017e-01 0. 6.27217665e-02 0.
      0. 0. 4.05698210e-01 4.05698210e-01 0. 0. 0. 7.54417777e-02 0.
      2.68998235e-01 8.98946077e-02 4.05698210e-01 6.60564601e-02 0. 0.
      0. 1.40291974e-01 0. 1.73620299e-01 5.80209754e-02 6.60564601e-02
      0. 0. 0. 0. 0. 0. 0. 0. 0. 0. 0. 0. 0. 0. 0. 0. 0. 0. 0. 0. 0. 0.
      0. 0. 0. 0. 0. 0. 0. 0. 0. 0. 0. 0. 0. 0. 0. 0. 0. 0. 0. 0. 0. 0.
      0. 0. 0. 0. 0. 0. 0. 0. 0. 0. 0. 0. 0. 0. 0. 0. 0. 0. 0. 0. 0. 0.
      0. 0. 0. 0. 0. 0. 1.56924337e-01 0. 0. 0. 0. 0. 3.02089173e-02
      1.00953160e-02 1.56924337e-01 3.61145288e-02 0. 0. 0. 0. 0.
      3.11293341e-02 1.04029039e-02 3.61145288e-02 0. 0. 0. 0. 0. 0. 0.
      0. 0. 0. 0. 0. 0. 0. 0. 0. 0. 0. 3.76792341e-01 0. 0. 0.
      3.21200043e-01 0. 3.76792341e-01 2.30421498e-01 3.76792341e-01
      1.41457975e-01 0. 0. 0. 3.76792341e-01 0. 3.76792341e-01
      1.90100625e-01 1.41457975e-01 0. 0. 0. 0. 0. 0. 0. 0. 0. 0. 0. 0.
      0. 0. 0. 0. 0. 0. 0. 0. 0. 0. 0. 0. 0. 0. 0. 0. 0. 0. 0. 0. 0. 0.
      0. 0. 9.62369423e-03 3.61018092e-03 1.08030383e-02 0. 0. 0. 0. 0.
      9.62369423e-03 4.49120328e-02 3.51958466e-03 1.05319396e-02 0. 0.
      0. 0. 0. 4.49120328e-02 0. 0. 0. 0. 0. 0. 0. 0. 0. 0. 0. 0. 0. 0.
      0. 0. 0. 0. 4.81092185e-02 8.20545182e-02 2.45538205e-01 0.
      2.81105787e-01 0. 5.03490567e-02 1.68257803e-02 4.81092185e-02
      2.81105787e-01 1.19547755e-01 2.81105787e-01 0. 2.81105787e-01 0.
      6.86424077e-02 2.29391214e-02 2.81105787e-01 0. 0. 0. 0. 0. 0. 0.
      0. 0. 0. 0. 0. 0. 0. 0. 0. 0. 0. 3.05249169e-02 9.79388505e-03
      2.93069575e-02 0. 2.81105787e-01 0. 2.81105787e-01 1.02696747e-01
      3.05249169e-02 2.81105787e-01 2.90175918e-02 8.68313909e-02 0.
      2.58024871e-01 0. 2.81105787e-01 1.29765347e-01 2.81105787e-01 0.
      0. 0. 0. 0. 0. 0. 0. 0. 0. 0. 0. 0. 0. 0. 0. 0. 0. 3.98732070e-03
      0. 0. 0. 0. 0. 6.79171132e-03 2.26967083e-03 3.98732070e-03
      3.92289236e-02 0. 0. 0. 0. 0. 1.31349070e-02 4.38945508e-03
      3.92289236e-02 4.14234120e-03 1.03314582e-03 3.09156626e-03 0. 0.
      0. 0. 0. 4.14234120e-03 4.22805138e-02 1.06462417e-03
      3.18576186e-03 0. 0. 0. 0. 0. 4.22805138e-02 4.48349826e-02 0. 0.
      0. 0. 0. 3.75067210e-03 1.25341187e-03 4.48349826e-02
      4.73060412e-03 0. 0. 0. 0. 0. 3.65654984e-03 1.22195785e-03
      4.73060412e-03 2.32616458e-02 2.58633588e-02 7.73929507e-02 0.
      1.27859339e-01 0. 1.60304215e-02 5.35709085e-03 2.32616458e-02
      2.96195954e-01 5.04781194e-02 1.51049390e-01 0. 7.92118385e-02 0.
      2.84705330e-02 9.51437000e-03 2.96195954e-01 2.96195954e-01
      1.35745499e-02 4.06202041e-02 0. 9.73218381e-02 0. 1.90349221e-01
      6.36114255e-02 2.96195954e-01 2.33446490e-02 7.00267358e-03
      2.09546331e-02 0. 1.56642750e-01 0. 9.05677304e-02 3.02661993e-02
      2.33446490e-02 1.69069245e-02 4.29034326e-03 1.28383022e-02 0.
      9.92869735e-02 0. 9.67159867e-02 3.23207900e-02 1.69069245e-02
      2.96195954e-01 1.50347939e-02 4.49896753e-02 0. 6.55136183e-02 0.
      1.46089062e-01 4.88204286e-02 2.96195954e-01 2.96195954e-01
      4.33358289e-02 1.29677087e-01 0. 1.22931451e-01 0. 1.04826443e-01
      3.50312032e-02 2.96195954e-01 2.73624174e-02 3.02697308e-02
      9.05783176e-02 0. 1.63158700e-01 0. 1.46251563e-02 4.88747284e-03
      2.73624174e-02 2.13846541e-03 0. 0. 0. 0. 0. 2.66931113e-03
      8.92036944e-04 2.13846541e-03 4.31931242e-02 0. 0. 0. 0. 0.
      5.49422018e-03 1.83607207e-03 4.31931242e-02 5.04478067e-02
      8.56364553e-04 2.56255944e-03 0. 1.48216309e-03 0. 0. 0.
      5.04478067e-02 5.33786695e-03 6.11689116e-04 1.83039997e-03 0.
      2.07502791e-03 0. 0. 0. 5.33786695e-03 4.13273387e-02 0. 0. 0. 0.
      0. 1.03862369e-02 3.47090722e-03 4.13273387e-02 9.22590028e-03 0.
      0. 0. 0. 0. 1.07026892e-02 3.57666030e-03 9.22590028e-03 0. 0. 0.
      0. 0. 0. 0. 0. 0. 0. 0. 0. 0. 0. 0. 0. 0. 0. 2.81506240e-01
      2.72113420e-02 8.14266205e-02 0. 2.81506240e-01 0. 2.81506240e-01
      1.20563343e-01 2.81506240e-01 4.10731696e-02 1.73948035e-02
      5.20517528e-02 0. 2.81506240e-01 0. 2.41962314e-01 8.08597282e-02
      4.10731696e-02 0. 0. 0. 0. 0. 0. 0. 0. 0. 0. 0. 0. 0. 0. 0. 0. 0.
      0. 2.81506240e-01 9.99273956e-02 2.81506240e-01 0. 2.81506240e-01
      0. 1.29967332e-01 4.34328467e-02 2.81506240e-01 4.75770868e-02
      8.30545723e-02 2.48530135e-01 0. 2.81506240e-01 0. 2.81028412e-02
      9.39148292e-03 4.75770868e-02 0. 0. 0. 0. 0. 0. 0. 0. 0. 0. 0. 0.
      0. 0. 0. 0. 0. 0. 4.65377569e-02 2.06145551e-03 6.16863696e-03 0.
      4.97938786e-03 0. 0. 0. 4.65377569e-02 1.04182847e-02
      1.47246826e-03 4.40616952e-03 0. 6.97114505e-03 0. 0. 0.
      1.04182847e-02 0. 0. 0. 0. 0. 0. 0. 0. 0. 0. 0. 0. 0. 0. 0. 0. 0.
      0. 0. 0. 0. 0. 0. 0. 0. 0. 0. 0. 0. 0. 0. 0. 0. 0. 0. 0.
      8.28648731e-02 0. 0. 0. 3.58525395e-01 0. 3.93882453e-01
      2.29705423e-01 8.28648731e-02 3.93882453e-01 0. 0. 0.
      1.85201153e-01 0. 3.93882453e-01 3.02355886e-01 3.93882453e-01 0.
      0. 0. 0. 0. 0. 0. 0. 0. 0. 0. 0. 0. 0. 0. 0. 0. 0. 1.70267317e-02
      0. 0. 0. 0. 0. 2.12173909e-02 7.09047960e-03 1.70267317e-02
      1.60907760e-01 0. 0. 0. 0. 0. 4.10336070e-02 1.37127126e-02
      1.60907760e-01 0. 0. 0. 0. 0. 0. 0. 0. 0. 0. 0. 0. 0. 0. 0. 0. 0.
      0. 0. 0. 0. 0. 0. 0. 0. 0. 0. 0. 0. 0. 0. 0. 0. 0. 0. 0. 0. 0. 0.
      0. 0. 0. 0. 0. 0. 0. 0. 0. 0. 0. 0. 0. 0. 0. 0. 0. 0. 0. 0. 0. 0.
      0. 0. 0. 0. 0. 0. 0. 0. 0. 0. 0. 3.70292515e-02 0. 0. 0.
      6.10939190e-02 0. 1.80359215e-01 6.02728911e-02 3.70292515e-02
      3.97337407e-01 0. 0. 0. 3.70140374e-02 0. 2.77577728e-01
      9.27616283e-02 3.97337407e-01 3.97337407e-01 6.78559989e-02
      2.03050509e-01 0. 1.37769297e-01 0. 7.08754212e-02 2.36853790e-02
      3.97337407e-01 7.83030391e-02 5.11662401e-02 1.53108403e-01 0.
      1.69341937e-01 0. 0. 0. 7.83030391e-02 7.40189990e-03 0. 0. 0. 0.
      0. 6.79655885e-03 2.27129064e-03 7.40189990e-03 1.42941654e-01 0.
      0. 0. 0. 0. 1.39893005e-02 4.67497855e-03 1.42941654e-01
      1.66503280e-01 2.18046224e-03 6.52474910e-03 0. 3.77386087e-03 0.
      0. 0. 1.66503280e-01 1.81594919e-02 1.55747333e-03 4.66053607e-03
      0. 5.28340368e-03 0. 0. 0. 1.81594919e-02 0. 0. 0. 0. 0. 0. 0. 0.
      0. 0. 0. 0. 0. 0. 0. 0. 0. 0. 0. 0. 0. 0. 0. 0. 0. 0. 0. 0. 0. 0.
      0. 0. 0. 0. 0. 0. 0. 0. 0. 0. 0. 0. 0. 0. 0. 0. 0. 0. 0. 0. 0. 0.
      0. 0. 0. 0. 0. 0. 0. 0. 0. 0. 0. 0. 0. 0. 0. 0. 0. 0. 0. 0.
      3.70243788e-01 1.79817289e-01 3.70243788e-01 0. 3.70243788e-01 0.
      6.91747963e-02 2.31170617e-02 3.70243788e-01 1.57041863e-01
      1.56050295e-01 3.70243788e-01 0. 3.70243788e-01 0. 0. 0.
      1.57041863e-01 0. 0. 0. 0. 0. 0. 0. 0. 0. 0. 0. 0. 0. 0. 0. 0. 0.
      0. 1.70741722e-01 5.78489248e-03 1.73105374e-02 0. 1.39732454e-02
      0. 0. 0. 1.70741722e-01 3.93820964e-02 4.13206639e-03
      1.23646716e-02 0. 1.95625518e-02 0. 0. 0. 3.93820964e-02 0. 0. 0.
      0. 0. 0. 0. 0. 0. 0. 0. 0. 0. 0. 0. 0. 0. 0. 0. 0. 0. 0. 0. 0. 0.
      0. 0. 0. 0. 0. 0. 0. 0. 0. 0. 0. 0. 0. 0. 0. 0. 0. 0. 0. 0. 0. 0.
      0. 0. 0. 0. 0. 0. 0. 0. 0. 0. 0. 0. 0. 0. 0. 0. 0. 0. 0. 0. 0. 0.
      0. 0. 0. 0. 0. 0. 0. 0. 0. 0. 0. 0. 0. 0. 0. 0. 0. 0. 0. 0. 0.</_>
    <_>
      0. 0. 0. 0. 0. 0. 0. 0. 0. 0. 0. 0. 0. 0. 0. 0. 0. 0. 0. 0. 0. 0.
      0. 0. 0. 0. 0. 0. 0. 0. 0. 0. 0. 0. 0. 0. 0. 0. 0. 0. 0. 0. 0. 0.
      0. 0. 0. 0. 0. 0. 0. 0. 0. 0. 0. 0. 0. 0. 0. 0. 0. 0. 0. 0. 0. 0.
      0. 0. 0. 0. 0. 0. 0. 0. 0. 0. 0. 0. 0. 0. 0. 0. 0. 0. 0. 0. 0. 0.
      0. 0. 5.28483577e-02 3.20072137e-02 9.57777798e-02 0. 0. 0. 0. 0.
      5.28483577e-02 2.50775933e-01 2.66585704e-02 7.97726139e-02 0. 0.
      0. 0. 0. 2.50775933e-01 0. 0. 0. 0. 0. 0. 0. 0. 0. 0. 0. 0. 0. 0.
      0. 0. 0. 0. 1.56259954e-01 2.39140645e-01 3.55398625e-01 0.
      3.55398625e-01 0. 0. 0. 1.56259954e-01 3.55398625e-01
      1.60872936e-01 3.55398625e-01 0. 2.90465862e-01 0. 0. 0.
      3.55398625e-01 0. 0. 0. 0. 0. 0. 0. 0. 0. 0. 0. 0. 0. 0. 0. 0. 0.
      0. 0. 0. 0. 0. 0. 0. 0. 0. 0. 0. 0. 0. 0. 0. 0. 0. 0. 0. 0. 0. 0.
      0. 0. 0. 0. 0. 0. 0. 0. 0. 0. 0. 0. 0. 0. 0. 0. 0. 0. 0. 0. 0. 0.
      0. 0. 0. 0. 0. 0. 0. 0. 0. 0. 0. 2.35215500e-02 8.66578612e-03
      2.59313360e-02 0. 0. 0. 0. 0. 2.35215500e-02 2.44072765e-01
      7.91338366e-03 2.36798655e-02 0. 0. 0. 0. 0. 2.44072765e-01
      2.38623694e-01 0. 0. 0. 1.17800338e-03 0. 3.94056104e-02
      1.31686972e-02 2.38623694e-01 1.93863232e-02 0. 0. 0.
      3.53401038e-03 0. 2.15177778e-02 7.19088176e-03 1.93863232e-02
      7.16239735e-02 5.79840206e-02 1.73510224e-01 0. 1.40619501e-01 0.
      0. 0. 7.16239735e-02 3.56675416e-01 4.50889468e-02 1.34923205e-01
      0. 7.50302002e-02 0. 0. 0. 3.56675416e-01 3.56675416e-01 0. 0. 0.
      7.23394826e-02 0. 2.64801174e-01 8.84920359e-02 3.56675416e-01
      6.72483295e-02 0. 0. 0. 1.46058187e-01 0. 2.03700393e-01
      6.80732206e-02 6.72483295e-02 0. 0. 0. 0. 0. 0. 0. 0. 0. 0. 0. 0.
      0. 0. 0. 0. 0. 0. 0. 0. 0. 0. 0. 0. 0. 0. 0. 0. 0. 0. 0. 0. 0. 0.
      0. 0. 0. 0. 0. 0. 0. 0. 0. 0. 0. 0. 0. 0. 0. 0. 0. 0. 0. 0. 0. 0.
      0. 0. 0. 0. 0. 0. 0. 0. 0. 0. 0. 0. 0. 0. 0. 0. 2.22444326e-01 0.
      0. 0. 6.13873778e-03 0. 9.14671570e-02 3.05667985e-02
      2.22444326e-01 4.70109805e-02 0. 0. 0. 1.84162129e-02 0.
      5.57310805e-02 1.86243970e-02 4.70109805e-02 0. 0. 0. 0. 0. 0. 0.
      0. 0. 0. 0. 0. 0. 0. 0. 0. 0. 0. 3.55789155e-01 0. 0. 0.
      2.91631490e-01 0. 3.55789155e-01 2.31740519e-01 3.55789155e-01
      1.65862128e-01 0. 0. 0. 3.55789155e-01 0. 3.55789155e-01
      2.30714574e-01 1.65862128e-01 0. 0. 0. 0. 0. 0. 0. 0. 0. 0. 0. 0.
      0. 0. 0. 0. 0. 0. 0. 0. 0. 0. 0. 0. 0. 0. 0. 0. 0. 0. 0. 0. 0. 0.
      0. 0. 1.22554321e-02 1.00086750e-02 2.99497712e-02 0. 0. 0. 0. 0.
      1.22554321e-02 5.97558990e-02 7.97919743e-03 2.38768049e-02 0. 0.
      0. 0. 0. 5.97558990e-02 0. 0. 0. 0. 0. 0. 0. 0. 0. 0. 0. 0. 0. 0.
      0. 0. 0. 0. 5.07877283e-02 9.66015160e-02 2.89068490e-01 0.
      3.46097082e-01 0. 0. 0. 5.07877283e-02 2.79475093e-01
      6.24581426e-02 1.86898381e-01 0. 3.30776304e-01 0. 0. 0.
      2.79475093e-01 0. 0. 0. 0. 0. 0. 0. 0. 0. 0. 0. 0. 0. 0. 0. 0. 0.
      0. 8.06381553e-02 3.39400722e-03 1.01561518e-02 0. 3.46097082e-01
      0. 1.35822654e-01 4.53895703e-02 8.06381553e-02 2.64209509e-01
      2.20358325e-03 6.59394497e-03 0. 3.46097082e-01 0. 1.09029472e-01
      3.64357717e-02 2.64209509e-01 0. 0. 0. 0. 0. 0. 0. 0. 0. 0. 0. 0.
      0. 0. 0. 0. 0. 0. 4.18095514e-02 0. 0. 0. 4.51825857e-02 0.
      5.41524328e-02 1.80967934e-02 4.18095514e-02 1.18978426e-01 0. 0.
      0. 8.62774812e-03 0. 4.15887199e-02 1.38982246e-02 1.18978426e-01
      7.20873475e-03 3.47540970e-03 1.03997514e-02 0. 0. 0. 0. 0.
      7.20873475e-03 7.68158063e-02 3.05977254e-03 9.15600546e-03 0. 0.
      0. 0. 0. 7.68158063e-02 7.54771382e-02 0. 0. 0. 6.04427536e-04 0.
      1.48499841e-02 4.96261660e-03 7.54771382e-02 6.53269934e-03 0. 0.
      0. 1.81328249e-03 0. 8.41859169e-03 2.81335274e-03 6.53269934e-03
      3.09689231e-02 3.00995801e-02 9.00693610e-02 0. 2.01695815e-01 0.
      0. 0. 3.09689231e-02 2.50221074e-01 2.27872171e-02 6.81879520e-02
      0. 1.14521272e-01 0. 0. 0. 2.50221074e-01 2.50221074e-01 0. 0. 0.
      1.13689654e-01 0. 1.53686911e-01 5.13595305e-02 2.50221074e-01
      2.86182724e-02 0. 0. 0. 2.09950507e-01 0. 1.29513085e-01
      4.32810672e-02 2.86182724e-02 3.73144336e-02 1.04587071e-03
      3.12963896e-03 0. 2.50221074e-01 0. 4.66885976e-02 1.56025235e-02
      3.73144336e-02 2.50221074e-01 8.51132034e-04 2.54690391e-03 0.
      1.63183078e-01 0. 4.40499485e-02 1.47207379e-02 2.50221074e-01
      2.50221074e-01 2.37698350e-02 7.11282343e-02 0. 1.76495910e-01 0.
      1.60202291e-02 5.35368221e-03 2.50221074e-01 2.94986647e-02
      3.17645110e-02 9.50512290e-02 0. 2.50221074e-01 0. 1.69708133e-02
      5.67135494e-03 2.94986647e-02 1.84016749e-02 0. 0. 0.
      9.00603645e-03 0. 1.83318499e-02 6.12618402e-03 1.84016749e-02
      1.44845918e-01 0. 0. 0. 2.18102010e-03 0. 1.61475129e-02
      5.39621711e-03 1.44845918e-01 1.50693968e-01 7.89167453e-03
      2.36148164e-02 0. 1.51022116e-03 0. 0. 0. 1.50693968e-01
      1.48655381e-02 9.81710851e-03 2.93764248e-02 0. 3.84507678e-03 0.
      0. 0. 1.48655381e-02 4.95783836e-02 0. 0. 0. 2.19565816e-03 0.
      2.43852772e-02 8.14915169e-03 4.95783836e-02 1.14396121e-02 0. 0.
      0. 6.58697495e-03 0. 1.56042287e-02 5.21467254e-03 1.14396121e-02
      0. 0. 0. 0. 0. 0. 0. 0. 0. 0. 0. 0. 0. 0. 0. 0. 0. 0.
      2.32229531e-01 0. 0. 0. 2.98642099e-01 0. 2.90539771e-01
      9.70934182e-02 2.32229531e-01 4.84108515e-02 0. 0. 0.
      3.25369209e-01 0. 3.22642624e-01 1.07821710e-01 4.84108515e-02 0.
      0. 0. 0. 0. 0. 0. 0. 0. 0. 0. 0. 0. 0. 0. 0. 0. 0. 2.32030019e-01
      5.71128428e-02 1.70902938e-01 0. 3.25369209e-01 0. 3.33690830e-02
      1.11513706e-02 2.32030019e-01 4.20323424e-02 8.99260864e-02
      2.69092232e-01 0. 3.25369209e-01 0. 4.68458720e-02 1.56550948e-02
      4.20323424e-02 0. 0. 0. 0. 0. 0. 0. 0. 0. 0. 0. 0. 0. 0. 0. 0. 0.
      0. 1.05664194e-01 1.86086558e-02 5.56840003e-02 0. 4.37568175e-03
      0. 0. 0. 1.05664194e-01 2.20323019e-02 2.62396932e-02
      7.85188749e-02 0. 1.49004878e-02 0. 0. 0. 2.20323019e-02 0. 0. 0.
      0. 0. 0. 0. 0. 0. 0. 0. 0. 0. 0. 0. 0. 0. 0. 0. 0. 0. 0. 0. 0. 0.
      0. 0. 0. 0. 0. 0. 0. 0. 0. 0. 0. 2.00753868e-01 0. 0. 0.
      3.34415734e-01 0. 3.07651281e-01 1.02811702e-01 2.00753868e-01
      3.34415734e-01 0. 0. 0. 3.34415734e-01 0. 2.41448849e-01
      8.06880221e-02 3.34415734e-01 0. 0. 0. 0. 0. 0. 0. 0. 0. 0. 0. 0.
      0. 0. 0. 0. 0. 0. 1.25868857e-01 0. 0. 0. 8.41465443e-02 0.
      1.40661970e-01 4.70067672e-02 1.25868857e-01 3.34415734e-01 0. 0.
      0. 1.45698087e-02 0. 1.12417899e-01 3.75680923e-02 3.34415734e-01
      0. 0. 0. 0. 0. 0. 0. 0. 0. 0. 0. 0. 0. 0. 0. 0. 0. 0. 0. 0. 0. 0.
      0. 0. 0. 0. 0. 0. 0. 0. 0. 0. 0. 0. 0. 0. 0. 0. 0. 0. 0. 0. 0. 0.
      0. 0. 0. 0. 0. 0. 0. 0. 0. 0. 0. 0. 0. 0. 0. 0. 0. 0. 0. 0. 0. 0.
      0. 0. 0. 0. 0. 0. 7.47293234e-02 0. 0. 0. 2.16495872e-01 0.
      8.70070383e-02 2.90762391e-02 7.47293234e-02 3.13226461e-01 0. 0.
      0. 1.03891172e-01 0. 7.95773491e-02 2.65933778e-02 3.13226461e-01
      3.13226461e-01 4.14653309e-02 1.24079719e-01 0. 1.12366758e-01 0.
      0. 0. 3.13226461e-01 5.94416037e-02 5.41225262e-02 1.61954701e-01
      0. 2.08993196e-01 0. 0. 0. 5.94416037e-02 4.69349399e-02 0. 0. 0.
      1.35841928e-02 0. 4.03803587e-02 1.34944078e-02 4.69349399e-02
      3.13226461e-01 0. 0. 0. 2.96562980e-03 0. 3.64856385e-02
      1.21928612e-02 3.13226461e-01 3.13226461e-01 1.69683788e-02
      5.07756807e-02 0. 1.91864080e-03 0. 0. 0. 3.13226461e-01
      4.01035361e-02 2.01680399e-02 6.03502467e-02 0. 4.88492800e-03 0.
      0. 0. 4.01035361e-02 0. 0. 0. 0. 0. 0. 0. 0. 0. 0. 0. 0. 0. 0. 0.
      0. 0. 0. 0. 0. 0. 0. 0. 0. 0. 0. 0. 0. 0. 0. 0. 0. 0. 0. 0. 0. 0.
      0. 0. 0. 0. 0. 0. 0. 0. 0. 0. 0. 0. 0. 0. 0. 0. 0. 0. 0. 0. 0. 0.
      0. 0. 0. 0. 0. 0. 0. 0. 0. 0. 0. 0. 0. 3.24313462e-01
      1.24957599e-01 3.24313462e-01 0. 3.24313462e-01 0. 0. 0.
      3.24313462e-01 1.08808197e-01 1.89650387e-01 3.24313462e-01 0.
      3.24313462e-01 0. 0. 0. 1.08808197e-01 0. 0. 0. 0. 0. 0. 0. 0. 0.
      0. 0. 0. 0. 0. 0. 0. 0. 0. 3.24313462e-01 4.95899431e-02
      1.48391470e-01 0. 7.01258238e-03 0. 0. 0. 3.24313462e-01
      7.56683052e-02 6.61175773e-02 1.97848260e-01 0. 2.38799099e-02 0.
      0. 0. 7.56683052e-02 0. 0. 0. 0. 0. 0. 0. 0. 0. 0. 0. 0. 0. 0. 0.
      0. 0. 0. 0. 0. 0. 0. 0. 0. 0. 0. 0. 0. 0. 0. 0. 0. 0. 0. 0. 0. 0.
      0. 0. 0. 0. 0. 0. 0. 0. 0. 0. 0. 0. 0. 0. 0. 0. 0. 0. 0. 0. 0. 0.
      0. 0. 0. 0. 0. 0. 0. 0. 0. 0. 0. 0. 0. 0. 0. 0. 0. 0. 0. 0. 0. 0.
      0. 0. 0. 0. 0. 0. 0. 0. 0.</_>
    <_>
      0. 0. 0. 0. 0. 0. 0. 0. 0. 0. 0. 0. 0. 0. 0. 0. 0. 0. 0. 0. 0. 0.
      0. 0. 0. 0. 0. 0. 0. 0. 0. 0. 0. 0. 0. 0. 0. 0. 0. 0. 0. 0. 0. 0.
      0. 0. 0. 0. 0. 0. 0. 0. 0. 0. 0. 0. 0. 0. 0. 0. 0. 0. 0. 0. 0. 0.
      0. 0. 0. 0. 0. 0. 0. 0. 0. 0. 0. 0. 0. 0. 0. 0. 0. 0. 0. 0. 0. 0.
      0. 0. 1.49095831e-02 6.37417426e-03 1.90739613e-02 0. 0. 0. 0. 0.
      1.49095831e-02 1.41320094e-01 1.23274056e-02 3.68882976e-02 0. 0.
      0. 0. 0. 1.41320094e-01 0. 0. 0. 0. 0. 0. 0. 0. 0. 0. 0. 0. 0. 0.
      0. 0. 0. 0. 8.88078064e-02 2.53260314e-01 4.14891720e-01 0.
      2.45886698e-01 0. 0. 0. 8.88078064e-02 4.14891720e-01
      3.43391478e-01 4.14891720e-01 0. 8.19622204e-02 0. 0. 0.
      4.14891720e-01 0. 0. 0. 0. 0. 0. 0. 0. 0. 0. 0. 0. 0. 0. 0. 0. 0.
      0. 0. 0. 0. 0. 0. 0. 0. 0. 0. 0. 0. 0. 0. 0. 0. 0. 0. 0. 0. 0. 0.
      0. 0. 0. 0. 0. 0. 0. 0. 0. 0. 0. 0. 0. 0. 0. 0. 0. 0. 0. 0. 0. 0.
      0. 0. 0. 0. 0. 0. 0. 0. 0. 0. 0. 6.14234153e-03 1.93421065e-03
      5.78789646e-03 0. 0. 0. 0. 0. 6.14234153e-03 1.19015075e-01
      3.98117024e-03 1.19131785e-02 0. 0. 0. 0. 0. 1.19015075e-01
      1.25158265e-01 0. 0. 0. 0. 0. 1.36516066e-02 4.56213858e-03
      1.25158265e-01 6.89834496e-03 0. 0. 0. 0. 0. 6.66726939e-03
      2.22809007e-03 6.89834496e-03 3.75804789e-02 6.41548559e-02
      1.91975638e-01 0. 3.38398814e-02 0. 0. 0. 3.75804789e-02
      3.89375627e-01 9.78679433e-02 2.92857915e-01 0. 1.12799602e-02 0.
      0. 0. 3.89375627e-01 3.89375627e-01 0. 0. 0. 1.38926664e-02 0.
      3.38765800e-01 1.13209784e-01 3.89375627e-01 4.21070457e-02 0. 0.
      0. 4.16780002e-02 0. 2.24261373e-01 7.49443546e-02 4.21070457e-02
      0. 0. 0. 0. 0. 0. 0. 0. 0. 0. 0. 0. 0. 0. 0. 0. 0. 0. 0. 0. 0. 0.
      0. 0. 0. 0. 0. 0. 0. 0. 0. 0. 0. 0. 0. 0. 0. 0. 0. 0. 0. 0. 0. 0.
      0. 0. 0. 0. 0. 0. 0. 0. 0. 0. 0. 0. 0. 0. 0. 0. 0. 0. 0. 0. 0. 0.
      0. 0. 0. 0. 0. 0. 1.34056851e-01 0. 0. 0. 0. 0. 3.70071270e-02
      1.23671647e-02 1.34056851e-01 1.46536967e-02 0. 0. 0. 0. 0.
      1.92332231e-02 6.42742263e-03 1.46536967e-02 0. 0. 0. 0. 0. 0. 0.
      0. 0. 0. 0. 0. 0. 0. 0. 0. 0. 0. 4.11041021e-01 0. 0. 0.
      8.81742388e-02 0. 4.11041021e-01 3.48532647e-01 4.11041021e-01
      8.71015042e-02 0. 0. 0. 2.64522731e-01 0. 4.11041021e-01
      2.59564817e-01 8.71015042e-02 0. 0. 0. 0. 0. 0. 0. 0. 0. 0. 0. 0.
      0. 0. 0. 0. 0. 0. 0. 0. 0. 0. 0. 0. 0. 0. 0. 0. 0. 0. 0. 0. 0. 0.
      0. 0. 3.77013371e-03 2.20199069e-03 6.58919616e-03 0. 0. 0. 0. 0.
      3.77013371e-03 3.72342616e-02 4.25856328e-03 1.27432467e-02 0. 0.
      0. 0. 0. 3.72342616e-02 0. 0. 0. 0. 0. 0. 0. 0. 0. 0. 0. 0. 0. 0.
      0. 0. 0. 0. 3.28510776e-02 1.32523119e-01 2.78679460e-01 0.
      2.78679460e-01 0. 3.24649476e-02 1.08492365e-02 3.28510776e-02
      2.78679460e-01 1.73627108e-01 2.78679460e-01 0. 1.35856986e-01 0.
      4.38065678e-02 1.46394186e-02 2.78679460e-01 0. 0. 0. 0. 0. 0. 0.
      0. 0. 0. 0. 0. 0. 0. 0. 0. 0. 0. 2.98711360e-02 2.95741856e-02
      8.84970576e-02 0. 2.78679460e-01 0. 2.78679460e-01 1.31175727e-01
      2.98711360e-02 2.78679460e-01 6.32669181e-02 1.89318135e-01 0.
      1.90199763e-01 0. 2.78679460e-01 1.85473964e-01 2.78679460e-01 0.
      0. 0. 0. 0. 0. 0. 0. 0. 0. 0. 0. 0. 0. 0. 0. 0. 0. 7.76076829e-03
      0. 0. 0. 0. 0. 2.11128294e-02 7.05553638e-03 7.76076829e-03
      4.18461896e-02 8.44002049e-03 2.52556615e-02 0. 0. 0.
      5.18416055e-02 1.73245557e-02 4.18461896e-02 2.16928986e-03
      9.27991874e-04 2.77690566e-03 0. 0. 0. 0. 0. 2.16928986e-03
      4.40014452e-02 1.91007799e-03 5.71568171e-03 0. 0. 0. 0. 0.
      4.40014452e-02 4.62432578e-02 0. 0. 0. 0. 0. 6.54974207e-03
      2.18881434e-03 4.62432578e-02 2.43507745e-03 0. 0. 0. 0. 0.
      3.19880946e-03 1.06898881e-03 2.43507745e-03 1.95424445e-02
      4.59306985e-02 1.37441993e-01 0. 6.67681247e-02 0. 1.15759866e-02
      3.86850000e-03 1.95424445e-02 2.74430811e-01 6.75573871e-02
      2.02157140e-01 0. 3.25259417e-02 0. 1.68185458e-02 5.62047586e-03
      2.74430811e-01 2.74430811e-01 6.52269600e-03 1.95183866e-02 0.
      3.91625725e-02 0. 2.34178692e-01 7.82585293e-02 2.74430811e-01
      2.18735132e-02 4.51740064e-03 1.35177756e-02 0. 8.15923885e-02 0.
      1.60766557e-01 5.37254475e-02 2.18735132e-02 1.48488795e-02
      1.02201877e-02 3.05826273e-02 0. 9.34753567e-02 0. 1.36162654e-01
      4.55032140e-02 1.48488795e-02 2.74430811e-01 4.39745188e-02
      1.31588057e-01 0. 4.55363058e-02 0. 2.35219702e-01 7.86063895e-02
      2.74430811e-01 2.74430811e-01 6.88684732e-02 2.06080362e-01 0.
      5.48275895e-02 0. 5.01611941e-02 1.67629980e-02 2.74430811e-01
      2.02299077e-02 4.78664339e-02 1.43234298e-01 0. 1.14229314e-01 0.
      3.57927941e-02 1.19613344e-02 2.02299077e-02 3.43541359e-03 0. 0.
      0. 0. 0. 8.62862915e-03 2.88353674e-03 3.43541359e-03
      4.12510559e-02 9.84498020e-03 2.94598211e-02 0. 0. 0.
      2.85490025e-02 9.54057556e-03 4.12510559e-02 4.17134389e-02
      3.59394401e-03 1.07544092e-02 0. 0. 0. 0. 0. 4.17134389e-02
      5.19971875e-03 1.54405576e-03 4.62038582e-03 0. 0. 0. 0. 0.
      5.19971875e-03 3.72624360e-02 0. 0. 0. 0. 0. 1.34980744e-02
      4.51083109e-03 3.72624360e-02 3.91061511e-03 0. 0. 0. 0. 0.
      7.01517519e-03 2.34435452e-03 3.91061511e-03 0. 0. 0. 0. 0. 0. 0.
      0. 0. 0. 0. 0. 0. 0. 0. 0. 0. 0. 2.83196539e-01 1.57140754e-02
      4.70224842e-02 0. 1.52091369e-01 0. 2.83196539e-01 1.86331198e-01
      2.83196539e-01 3.39859761e-02 1.17171956e-02 3.50622833e-02 0.
      2.83196539e-01 0. 2.83196539e-01 1.43572867e-01 3.39859761e-02 0.
      0. 0. 0. 0. 0. 0. 0. 0. 0. 0. 0. 0. 0. 0. 0. 0. 0. 2.70167798e-01
      1.57267690e-01 2.83196539e-01 0. 2.12927908e-01 0. 1.22038670e-01
      4.07832153e-02 2.70167798e-01 3.85782495e-02 1.33453280e-01
      2.83196539e-01 0. 2.83196539e-01 0. 9.58652049e-02 3.20365019e-02
      3.85782495e-02 0. 0. 0. 0. 0. 0. 0. 0. 0. 0. 0. 0. 0. 0. 0. 0. 0.
      0. 4.26678509e-02 4.51343320e-03 1.35058602e-02 0. 0. 0. 0. 0.
      4.26678509e-02 1.07832924e-02 4.65095043e-03 1.39173642e-02 0. 0.
      0. 0. 0. 1.07832924e-02 0. 0. 0. 0. 0. 0. 0. 0. 0. 0. 0. 0. 0. 0.
      0. 0. 0. 0. 0. 0. 0. 0. 0. 0. 0. 0. 0. 0. 0. 0. 0. 0. 0. 0. 0. 0.
      7.71187991e-02 0. 0. 0. 3.55591059e-01 0. 3.55591059e-01
      2.38851890e-01 7.71187991e-02 3.55591059e-01 7.69674703e-02
      2.30315134e-01 0. 1.70801207e-01 0. 3.55591059e-01 3.55591059e-01
      3.55591059e-01 0. 0. 0. 0. 0. 0. 0. 0. 0. 0. 0. 0. 0. 0. 0. 0. 0.
      0. 2.48141028e-02 0. 0. 0. 0. 0. 5.32088131e-02 1.77814513e-02
      2.48141028e-02 1.51281267e-01 2.56558228e-02 7.67717138e-02 0. 0.
      0. 1.46892875e-01 4.90890220e-02 1.51281267e-01 0. 0. 0. 0. 0. 0.
      0. 0. 0. 0. 0. 0. 0. 0. 0. 0. 0. 0. 0. 0. 0. 0. 0. 0. 0. 0. 0. 0.
      0. 0. 0. 0. 0. 0. 0. 0. 0. 0. 0. 0. 0. 0. 0. 0. 0. 0. 0. 0. 0. 0.
      0. 0. 0. 0. 0. 0. 0. 0. 0. 0. 0. 0. 0. 0. 0. 0. 0. 0. 0. 0. 0. 0.
      3.68838087e-02 0. 0. 0. 8.77178460e-02 0. 2.58664966e-01
      8.64413604e-02 3.68838087e-02 3.14071804e-01 9.21630487e-02
      2.75785923e-01 0. 4.10657637e-02 0. 3.14071804e-01 1.68796003e-01
      3.14071804e-01 3.14071804e-01 1.26048416e-01 3.14071804e-01 0.
      4.95444424e-02 0. 0. 0. 3.14071804e-01 5.33475019e-02
      8.42487663e-02 2.52103806e-01 0. 1.07297421e-01 0. 0. 0.
      5.33475019e-02 1.16305156e-02 0. 0. 0. 0. 0. 2.34699305e-02
      7.84323923e-03 1.16305156e-02 1.49774075e-01 3.07210125e-02
      9.19286385e-02 0. 0. 0. 8.55256915e-02 2.85811815e-02
      1.49774075e-01 1.31169111e-01 9.81385354e-03 2.93666814e-02 0. 0.
      0. 0. 0. 1.31169111e-01 1.62255932e-02 3.45238461e-03
      1.03308102e-02 0. 0. 0. 0. 0. 1.62255932e-02 0. 0. 0. 0. 0. 0. 0.
      0. 0. 0. 0. 0. 0. 0. 0. 0. 0. 0. 0. 0. 0. 0. 0. 0. 0. 0. 0. 0. 0.
      0. 0. 0. 0. 0. 0. 0. 0. 0. 0. 0. 0. 0. 0. 0. 0. 0. 0. 0. 0. 0. 0.
      0. 0. 0. 0. 0. 0. 0. 0. 0. 0. 0. 0. 0. 0. 0. 0. 0. 0. 0. 0. 0.
      3.71467799e-01 3.12753737e-01 3.71467799e-01 0. 2.25788981e-01 0.
      0. 0. 3.71467799e-01 1.22759447e-01 2.73681819e-01 3.71467799e-01
      0. 3.71467799e-01 0. 0. 0. 1.22759447e-01 0. 0. 0. 0. 0. 0. 0. 0.
      0. 0. 0. 0. 0. 0. 0. 0. 0. 0. 1.52914718e-01 1.15902023e-02
      3.46821696e-02 0. 0. 0. 0. 0. 1.52914718e-01 3.86455879e-02
      1.19433384e-02 3.57388854e-02 0. 0. 0. 0. 0. 3.86455879e-02 0. 0.
      0. 0. 0. 0. 0. 0. 0. 0. 0. 0. 0. 0. 0. 0. 0. 0. 0. 0. 0. 0. 0. 0.
      0. 0. 0. 0. 0. 0. 0. 0. 0. 0. 0. 0. 0. 0. 0. 0. 0. 0. 0. 0. 0. 0.
      0. 0. 0. 0. 0. 0. 0. 0. 0. 0. 0. 0. 0. 0. 0. 0. 0. 0. 0. 0. 0. 0.
      0. 0. 0. 0. 0. 0. 0. 0. 0. 0. 0. 0. 0. 0. 0. 0. 0. 0. 0. 0. 0. 0.</_>
    <_>
      0. 0. 0. 0. 0. 0. 0. 0. 0. 0. 0. 0. 0. 0. 0. 0. 0. 0. 0. 0. 0. 0.
      0. 0. 0. 0. 0. 0. 0. 0. 0. 0. 0. 0. 0. 0. 0. 0. 0. 0. 0. 0. 0. 0.
      0. 0. 0. 0. 0. 0. 0. 0. 0. 0. 0. 0. 0. 0. 0. 0. 0. 0. 0. 0. 0. 0.
      0. 0. 0. 0. 0. 0. 0. 0. 0. 0. 0. 0. 0. 0. 0. 0. 0. 0. 0. 0. 0. 0.
      0. 0. 5.21022500e-03 1.47206876e-02 4.40499038e-02 0. 0. 0. 0. 0.
      5.21022500e-03 1.43898204e-01 9.32536125e-02 2.79050261e-01 0. 0.
      0. 0. 0. 1.43898204e-01 0. 0. 0. 0. 0. 0. 0. 0. 0. 0. 0. 0. 0. 0.
      0. 0. 0. 0. 7.29431352e-03 2.07011178e-01 4.33930397e-01 0.
      2.75785774e-01 0. 0. 0. 7.29431352e-03 2.54737258e-01
      4.33930397e-01 4.33930397e-01 0. 2.27571324e-01 0. 0. 0.
      2.54737258e-01 0. 0. 0. 0. 0. 0. 0. 0. 0. 0. 0. 0. 0. 0. 0. 0. 0.
      0. 0. 0. 0. 0. 0. 0. 0. 0. 0. 0. 0. 0. 0. 0. 0. 0. 0. 0. 0. 0. 0.
      0. 0. 0. 0. 0. 0. 0. 0. 0. 0. 0. 0. 0. 0. 0. 0. 0. 0. 0. 0. 0. 0.
      0. 0. 0. 0. 0. 0. 0. 0. 0. 0. 0. 2.55795708e-03 5.13730664e-03
      1.53727774e-02 0. 0. 0. 0. 0. 2.55795708e-03 1.53772026e-01
      6.10198192e-02 1.82594493e-01 0. 0. 0. 5.38977087e-02
      1.80117134e-02 1.53772026e-01 1.93089396e-01 1.78530701e-02
      5.34231924e-02 0. 1.31561817e-03 0. 1.67052284e-01 5.58260716e-02
      1.93089396e-01 1.88165326e-02 0. 0. 0. 3.94685473e-03 0.
      2.70470437e-02 9.03866719e-03 1.88165326e-02 3.58113856e-03
      5.88247515e-02 1.76025957e-01 0. 5.09837531e-02 0. 0. 0.
      3.58113856e-03 2.92538762e-01 2.67800838e-01 2.92538762e-01 0.
      5.15680723e-02 0. 7.54567683e-02 2.52163894e-02 2.92538762e-01
      2.92538762e-01 2.75934879e-02 8.25702026e-02 0. 4.03610654e-02 0.
      2.92538762e-01 2.14242756e-01 2.92538762e-01 5.19014262e-02 0. 0.
      0. 1.09161146e-01 0. 2.92538762e-01 9.83525440e-02 5.19014262e-02
      0. 0. 0. 0. 0. 0. 0. 0. 0. 0. 0. 0. 0. 0. 0. 0. 0. 0. 0. 0. 0. 0.
      0. 0. 0. 0. 0. 0. 0. 0. 0. 0. 0. 0. 0. 0. 0. 0. 0. 0. 0. 0. 0. 0.
      0. 0. 0. 0. 0. 0. 0. 0. 0. 0. 0. 0. 0. 0. 0. 0. 0. 0. 0. 0. 0. 0.
      0. 0. 0. 0. 0. 0. 1.59780592e-01 0. 0. 0. 6.22166228e-03 0.
      1.75532892e-01 5.86601384e-02 1.59780592e-01 4.35995832e-02 0. 0.
      0. 1.86649896e-02 0. 6.13306239e-02 2.04956643e-02 4.35995832e-02
      0. 0. 0. 0. 0. 0. 0. 0. 0. 0. 0. 0. 0. 0. 0. 0. 0. 0.
      3.54868829e-01 0. 0. 0. 1.66033641e-01 0. 3.54868829e-01
      3.54868829e-01 3.54868829e-01 1.33535326e-01 0. 0. 0.
      3.54868829e-01 0. 3.54868829e-01 2.89740890e-01 1.33535326e-01 0.
      0. 0. 0. 0. 0. 0. 0. 0. 0. 0. 0. 0. 0. 0. 0. 0. 0. 0. 0. 0. 0. 0.
      0. 0. 0. 0. 0. 0. 0. 0. 0. 0. 0. 0. 0. 1.13709690e-03
      5.21153677e-03 1.55949034e-02 0. 0. 0. 0. 0. 1.13709690e-03
      3.17128003e-02 2.81310473e-02 8.41787681e-02 0. 0. 0. 0. 0.
      3.17128003e-02 0. 0. 0. 0. 0. 0. 0. 0. 0. 0. 0. 0. 0. 0. 0. 0. 0.
      0. 4.56305780e-03 1.24936260e-01 3.02491039e-01 0. 3.02491039e-01
      0. 7.88956434e-02 2.63655391e-02 4.56305780e-03 7.79811740e-02
      2.87049174e-01 3.02491039e-01 0. 3.02491039e-01 0. 6.27044067e-02
      2.09547170e-02 7.79811740e-02 0. 0. 0. 0. 0. 0. 0. 0. 0. 0. 0. 0.
      0. 0. 0. 0. 0. 0. 3.45370844e-02 3.04459501e-02 9.11058560e-02 0.
      3.02491039e-01 0. 2.73931801e-01 9.15432423e-02 3.45370844e-02
      1.74042106e-01 3.36904898e-02 1.00814633e-01 0. 3.02491039e-01 0.
      3.02491039e-01 2.05143854e-01 1.74042106e-01 0. 0. 0. 0. 0. 0. 0.
      0. 0. 0. 0. 0. 0. 0. 0. 0. 0. 0. 1.32479344e-03 0. 0. 0.
      2.44521606e-03 0. 1.48409083e-02 4.95957164e-03 1.32479344e-03
      4.31427993e-02 0. 0. 0. 7.33564841e-03 0. 1.02952287e-01
      3.44048589e-02 4.31427993e-02 7.59742165e-04 2.42899754e-03
      7.26848561e-03 0. 0. 0. 0. 0. 7.59742165e-04 4.56528664e-02
      2.26588193e-02 6.78038001e-02 0. 0. 0. 1.60082281e-02
      5.34968264e-03 4.56528664e-02 5.96827194e-02 5.37877576e-03
      1.60953477e-02 0. 7.61085132e-04 0. 5.96150868e-02 1.99223608e-02
      5.96827194e-02 6.81766355e-03 0. 0. 0. 2.28325534e-03 0.
      1.23450458e-02 4.12550708e-03 6.81766355e-03 2.19814945e-03
      4.46615629e-02 1.33644298e-01 0. 9.34883580e-02 0. 2.00393777e-02
      6.69680908e-03 2.19814945e-03 1.29851639e-01 1.55167550e-01
      2.43673474e-01 0. 1.16829641e-01 0. 3.97655554e-02 1.32889738e-02
      1.29851639e-01 1.84150472e-01 2.14902032e-02 6.43068478e-02 0.
      3.46011668e-02 0. 2.43673474e-01 1.22995995e-01 1.84150472e-01
      2.25477237e-02 1.49949109e-02 4.48704511e-02 0. 1.19563803e-01 0.
      2.25684762e-01 7.54199773e-02 2.25477237e-02 1.37188332e-02
      8.60125478e-03 2.57382151e-02 0. 1.15774803e-01 0. 9.05942470e-02
      3.02750207e-02 1.37188332e-02 2.32373849e-01 1.21573294e-02
      3.63792852e-02 0. 1.80217922e-01 0. 2.43673474e-01 1.16757430e-01
      2.32373849e-01 2.43673474e-01 1.29133344e-01 2.43673474e-01 0.
      3.67294736e-02 0. 5.36870025e-02 1.79412626e-02 2.43673474e-01
      1.37112876e-02 8.72859806e-02 2.43673474e-01 0. 1.24575630e-01 0.
      4.32466827e-02 1.44522898e-02 1.37112876e-02 8.85150104e-04 0. 0.
      0. 1.17063231e-03 0. 6.89726090e-03 2.30494374e-03 8.85150104e-04
      8.45126137e-02 0. 0. 0. 3.51189706e-03 0. 8.01899135e-02
      2.67980695e-02 8.45126137e-02 1.45799503e-01 2.13963501e-02
      6.40258268e-02 0. 8.38794687e-04 0. 9.23507288e-03 3.08619952e-03
      1.45799503e-01 7.54661066e-03 8.18728656e-03 2.44993959e-02 0.
      2.51638400e-03 0. 0. 0. 7.54661066e-03 4.14570495e-02 0. 0. 0.
      2.85495538e-03 0. 5.62722646e-02 1.88052449e-02 4.14570495e-02
      1.32467812e-02 0. 0. 0. 8.56486615e-03 0. 2.25137807e-02
      7.52372807e-03 1.32467812e-02 0. 0. 0. 0. 0. 0. 0. 0. 0. 0. 0. 0.
      0. 0. 0. 0. 0. 0. 1.25058606e-01 2.96402872e-02 8.86949971e-02 0.
      1.17221937e-01 0. 3.18312913e-01 1.98894337e-01 1.25058606e-01
      4.70209643e-02 4.15088572e-02 1.24210164e-01 0. 3.18312913e-01 0.
      3.18312913e-01 1.87369272e-01 4.70209643e-02 0. 0. 0. 0. 0. 0. 0.
      0. 0. 0. 0. 0. 0. 0. 0. 0. 0. 0. 1.80256918e-01 2.25941226e-01
      3.18312913e-01 0. 1.24027751e-01 0. 8.53906646e-02 2.85360683e-02
      1.80256918e-01 2.08005328e-02 2.17192873e-01 3.18312913e-01 0.
      3.18312913e-01 0. 1.19714871e-01 4.00066450e-02 2.08005328e-02 0.
      0. 0. 0. 0. 0. 0. 0. 0. 0. 0. 0. 0. 0. 0. 0. 0. 0. 8.78988430e-02
      3.01353242e-02 9.01760682e-02 0. 3.14645702e-03 0. 0. 0.
      8.78988430e-02 1.18284039e-02 1.60301533e-02 4.79681566e-02 0.
      9.43937059e-03 0. 0. 0. 1.18284039e-02 0. 0. 0. 0. 0. 0. 0. 0. 0.
      0. 0. 0. 0. 0. 0. 0. 0. 0. 0. 0. 0. 0. 0. 0. 0. 0. 0. 0. 0. 0. 0.
      0. 0. 0. 0. 0. 5.33665046e-02 0. 0. 0. 3.19898039e-01 0.
      3.42455357e-01 1.26864389e-01 5.33665046e-02 3.42455357e-01 0. 0.
      0. 3.42455357e-01 0. 3.42455357e-01 3.42455357e-01 3.42455357e-01
      0. 0. 0. 0. 0. 0. 0. 0. 0. 0. 0. 0. 0. 0. 0. 0. 0. 0.
      5.09440806e-03 0. 0. 0. 4.82762419e-03 0. 3.63026597e-02
      1.21317133e-02 5.09440806e-03 1.72987103e-01 0. 0. 0.
      1.44828726e-02 0. 3.10533106e-01 1.03774734e-01 1.72987103e-01 0.
      0. 0. 0. 0. 0. 0. 0. 0. 0. 0. 0. 0. 0. 0. 0. 0. 0. 0. 0. 0. 0. 0.
      0. 0. 0. 0. 0. 0. 0. 0. 0. 0. 0. 0. 0. 0. 0. 0. 0. 0. 0. 0. 0. 0.
      0. 0. 0. 0. 0. 0. 0. 0. 0. 0. 0. 0. 0. 0. 0. 0. 0. 0. 0. 0. 0. 0.
      0. 0. 0. 0. 0. 1.39949713e-02 0. 0. 0. 6.12783581e-02 0.
      8.80131125e-02 2.94124540e-02 1.39949713e-02 2.92621493e-01 0. 0.
      0. 1.08025454e-01 0. 2.92621493e-01 1.67869627e-01 2.92621493e-01
      2.92621493e-01 1.61133438e-01 2.92621493e-01 0. 3.10690664e-02 0.
      3.63020450e-02 1.21315122e-02 2.92621493e-01 2.86686961e-02
      8.96980762e-02 2.68410236e-01 0. 8.33974257e-02 0. 0. 0.
      2.86686961e-02 2.12473539e-03 0. 0. 0. 1.44271075e-03 0.
      1.07691744e-02 3.59886955e-03 2.12473539e-03 2.13264763e-01 0. 0.
      0. 4.32813168e-03 0. 1.60484597e-01 5.36311418e-02 2.13264763e-01
      2.92621493e-01 4.39122617e-02 1.31401762e-01 0. 1.03374734e-03 0.
      2.15647668e-02 7.20656756e-03 2.92621493e-01 1.75484847e-02
      1.51141686e-02 4.52271849e-02 0. 3.10124177e-03 0. 0. 0.
      1.75484847e-02 0. 0. 0. 0. 0. 0. 0. 0. 0. 0. 0. 0. 0. 0. 0. 0. 0.
      0. 0. 0. 0. 0. 0. 0. 0. 0. 0. 0. 0. 0. 0. 0. 0. 0. 0. 0. 0. 0. 0.
      0. 0. 0. 0. 0. 0. 0. 0. 0. 0. 0. 0. 0. 0. 0. 0. 0. 0. 0. 0. 0. 0.
      0. 0. 0. 0. 0. 0. 0. 0. 0. 0. 0. 3.35664928e-01 3.30781728e-01
      3.35664928e-01 0. 1.29182503e-01 0. 0. 0. 3.35664928e-01
      5.64497449e-02 2.67445087e-01 3.35664928e-01 0. 3.35664928e-01 0.
      0. 0. 5.64497449e-02 0. 0. 0. 0. 0. 0. 0. 0. 0. 0. 0. 0. 0. 0. 0.
      0. 0. 0. 2.79465646e-01 7.59669691e-02 2.27321371e-01 0.
      4.94218990e-03 0. 0. 0. 2.79465646e-01 3.48605514e-02
      3.60878408e-02 1.07988171e-01 0. 1.48265688e-02 0. 0. 0.
      3.48605514e-02 0. 0. 0. 0. 0. 0. 0. 0. 0. 0. 0. 0. 0. 0. 0. 0. 0.
      0. 0. 0. 0. 0. 0. 0. 0. 0. 0. 0. 0. 0. 0. 0. 0. 0. 0. 0. 0. 0. 0.
      0. 0. 0. 0. 0. 0. 0. 0. 0. 0. 0. 0. 0. 0. 0. 0. 0. 0. 0. 0. 0. 0.
      0. 0. 0. 0. 0. 0. 0. 0. 0. 0. 0. 0. 0. 0. 0. 0. 0. 0. 0. 0. 0. 0.
      0. 0. 0. 0. 0. 0. 0.</_>
    <_>
      0. 0. 0. 0. 0. 0. 0. 0. 0. 0. 0. 0. 0. 0. 0. 0. 0. 0. 0. 0. 0. 0.
      0. 0. 0. 0. 0. 0. 0. 0. 0. 0. 0. 0. 0. 0. 0. 0. 0. 0. 0. 0. 0. 0.
      0. 0. 0. 0. 0. 0. 0. 0. 0. 0. 0. 0. 0. 0. 0. 0. 0. 0. 0. 0. 0. 0.
      0. 0. 0. 0. 0. 0. 0. 0. 0. 0. 0. 0. 0. 0. 0. 0. 0. 0. 0. 0. 0. 0.
      0. 0. 1.85018424e-02 2.39962377e-02 7.18058869e-02 0.
      1.43851023e-02 0. 0. 0. 1.85018424e-02 1.98304892e-01
      9.04890448e-02 2.70777583e-01 0. 1.02750761e-02 0. 5.10304831e-02
      1.70535333e-02 1.98304892e-01 0. 0. 0. 0. 0. 0. 0. 0. 0. 0. 0. 0.
