<?xml version="1.0"?>
<opencv_storage>
<my_svm type_id="opencv-ml-svm">
  <svm_type>C_SVC</svm_type>
  <kernel><type>RBF</type>
    <gamma>3.3750000000000002e-02</gamma></kernel>
  <C>6.2500000000000000e+01</C>
  <term_criteria><epsilon>1.1920928955078125e-07</epsilon>
    <iterations>2147483647</iterations></term_criteria>
  <var_all>1296</var_all>
  <var_count>1296</var_count>
  <class_count>10</class_count>
  <class_labels type_id="opencv-matrix">
    <rows>1</rows>
    <cols>10</cols>
    <dt>i</dt>
    <data>
      0 1 2 3 4 5 6 7 8 9</data></class_labels>
  <sv_total>121</sv_total>
  <support_vectors>
    <_>
      0. 0. 0. 0. 0. 0. 0. 0. 0. 0. 0. 0. 0. 0. 0. 0. 0. 0. 0. 0. 0. 0.
      0. 0. 0. 0. 0. 0. 0. 0. 0. 0. 0. 0. 0. 0. 0. 0. 0. 0. 0. 0. 0. 0.
      0. 0. 0. 0. 0. 0. 0. 0. 0. 0. 0. 0. 0. 0. 0. 0. 0. 0. 0. 0. 0. 0.
      0. 0. 0. 0. 0. 0. 0. 0. 0. 0. 0. 0. 0. 0. 0. 0. 0. 0. 0. 0. 0. 0.
      0. 0. 3.61278318e-02 1.00768656e-02 3.01538296e-02 0. 0. 0. 0. 0.
      3.61278318e-02 1.63530797e-01 9.82399099e-03 2.93971281e-02 0. 0.
      0. 0. 0. 1.63530797e-01 0. 0. 0. 0. 0. 0. 0. 0. 0. 0. 0. 0. 0. 0.
      0. 0. 0. 0. 1.42274529e-01 1.84500873e-01 3.79141927e-01 0.
      3.79141927e-01 0. 0. 0. 1.42274529e-01 3.79141927e-01
      2.27668822e-01 3.79141927e-01 0. 3.05032372e-01 0. 0. 0.
      3.79141927e-01 0. 0. 0. 0. 0. 0. 0. 0. 0. 0. 0. 0. 0. 0. 0. 0. 0.
      0. 0. 0. 0. 0. 0. 0. 0. 0. 0. 0. 0. 0. 0. 0. 0. 0. 0. 0. 0. 0. 0.
      0. 0. 0. 0. 0. 0. 0. 0. 0. 0. 0. 0. 0. 0. 0. 0. 0. 0. 0. 0. 0. 0.
      0. 0. 0. 0. 0. 0. 0. 0. 0. 0. 0. 1.36752389e-02 2.55723856e-03
      7.65223289e-03 0. 0. 0. 0. 0. 1.36752389e-02 1.35372877e-01
      2.63515348e-03 7.88538437e-03 0. 0. 0. 0. 0. 1.35372877e-01
      1.29635870e-01 0. 0. 0. 0. 0. 1.41400006e-02 4.72535193e-03
      1.29635870e-01 7.14513753e-03 0. 0. 0. 0. 0. 6.90579554e-03
      2.30780127e-03 7.14513753e-03 5.76666147e-02 4.89139855e-02
      1.46369204e-01 0. 1.14462920e-01 0. 0. 0. 5.76666147e-02
      3.90954792e-01 7.75736719e-02 2.32129544e-01 0. 6.22065775e-02 0.
      0. 0. 3.90954792e-01 3.90954792e-01 0. 0. 0. 8.10628608e-02 0.
      3.70003700e-01 1.23648942e-01 3.90954792e-01 2.95172837e-02 0. 0.
      0. 8.98171440e-02 0. 1.84032306e-01 6.15004972e-02 2.95172837e-02
      0. 0. 0. 0. 0. 0. 0. 0. 0. 0. 0. 0. 0. 0. 0. 0. 0. 0. 0. 0. 0. 0.
      0. 0. 0. 0. 0. 0. 0. 0. 0. 0. 0. 0. 0. 0. 0. 0. 0. 0. 0. 0. 0. 0.
      0. 0. 0. 0. 0. 0. 0. 0. 0. 0. 0. 0. 0. 0. 0. 0. 0. 0. 0. 0. 0. 0.
      0. 0. 0. 0. 0. 0. 1.36584193e-01 0. 0. 0. 0. 0. 3.77048142e-02
      1.26003195e-02 1.36584193e-01 1.49299596e-02 0. 0. 0. 0. 0.
      1.95958242e-02 6.54859701e-03 1.49299596e-02 0. 0. 0. 0. 0. 0. 0.
      0. 0. 0. 0. 0. 0. 0. 0. 0. 0. 0. 3.75967592e-01 0. 0. 0.
      3.12564284e-01 0. 3.75967592e-01 3.27126414e-01 3.75967592e-01
      5.80899715e-02 0. 0. 0. 3.75967592e-01 0. 3.75967592e-01
      1.95614606e-01 5.80899715e-02 0. 0. 0. 0. 0. 0. 0. 0. 0. 0. 0. 0.
      0. 0. 0. 0. 0. 0. 0. 0. 0. 0. 0. 0. 0. 0. 0. 0. 0. 0. 0. 0. 0. 0.
      0. 0. 9.38456506e-03 3.52047547e-03 1.05346050e-02 0. 0. 0. 0. 0.
      9.38456506e-03 4.37960625e-02 3.43213067e-03 1.02702426e-02 0. 0.
      0. 0. 0. 4.37960625e-02 0. 0. 0. 0. 0. 0. 0. 0. 0. 0. 0. 0. 0. 0.
      0. 0. 0. 0. 4.91449833e-02 8.00156370e-02 2.39437103e-01 0.
      2.93048292e-01 0. 2.02378277e-02 6.76313788e-03 4.91449833e-02
      2.93048292e-01 1.16577245e-01 2.93048292e-01 0. 2.93048292e-01 0.
      4.30789404e-02 1.43962568e-02 2.93048292e-01 0. 0. 0. 0. 0. 0. 0.
      0. 0. 0. 0. 0. 0. 0. 0. 0. 0. 0. 9.16556269e-02 9.55052767e-03
      2.85787415e-02 0. 2.93048292e-01 0. 1.75250664e-01 5.85657209e-02
      9.16556269e-02 2.93048292e-01 2.82965656e-02 8.46738070e-02 0.
      2.93048292e-01 0. 2.54108161e-01 8.49185437e-02 2.93048292e-01 0.
      0. 0. 0. 0. 0. 0. 0. 0. 0. 0. 0. 0. 0. 0. 0. 0. 0. 7.28334952e-03
      0. 0. 0. 0. 0. 6.62295194e-03 2.21327436e-03 7.28334952e-03
      4.06792462e-02 0. 0. 0. 0. 0. 1.28085315e-02 4.28038649e-03
      4.06792462e-02 4.14169813e-03 1.03298551e-03 3.09108640e-03 0. 0.
      0. 0. 0. 4.14169813e-03 4.22739498e-02 1.06445886e-03
      3.18526709e-03 0. 0. 0. 0. 0. 4.22739498e-02 4.03270759e-02 0. 0.
      0. 0. 0. 5.71179343e-03 1.90878590e-03 4.03270759e-02
      2.12354306e-03 0. 0. 0. 0. 0. 2.78956653e-03 9.32226598e-04
      2.12354306e-03 2.40522884e-02 2.58593410e-02 7.73809329e-02 0.
      1.35584116e-01 0. 8.18927679e-03 2.73671793e-03 2.40522884e-02
      2.98752248e-01 5.04702851e-02 1.51025936e-01 0. 8.39931071e-02 0.
      2.00697947e-02 6.70698890e-03 2.98752248e-01 2.98752248e-01
      1.27196191e-02 3.80618870e-02 0. 9.19282809e-02 0. 2.32175663e-01
      7.75891319e-02 2.98752248e-01 1.42198438e-02 9.63922311e-03
      2.88441498e-02 0. 1.00815162e-01 0. 1.15382604e-01 3.85589190e-02
      1.42198438e-02 3.51669565e-02 4.28967737e-03 1.28363091e-02 0.
      1.38009951e-01 0. 5.97146712e-02 1.99556015e-02 3.51669565e-02
      2.98752248e-01 1.50324600e-02 4.49826904e-02 0. 8.50523114e-02 0.
      1.02018952e-01 3.40929665e-02 2.98752248e-01 2.98752248e-01
      5.25747575e-02 1.57323226e-01 0. 9.37541649e-02 0. 6.54213950e-02
      2.18626950e-02 2.98752248e-01 1.89233348e-02 3.50321531e-02
      1.04829185e-01 0. 1.02903157e-01 0. 3.36137637e-02 1.12331463e-02
      1.89233348e-02 3.00412206e-03 0. 0. 0. 0. 0. 2.66889646e-03
      8.91898351e-04 3.00412206e-03 4.38049845e-02 0. 0. 0. 0. 0.
      5.49336756e-03 1.83578697e-03 4.38049845e-02 4.53893319e-02
      2.10368005e-03 6.29498856e-03 0. 0. 0. 0. 0. 4.53893319e-02
      2.40021572e-03 1.02741038e-03 3.07439128e-03 0. 0. 0. 0. 0.
      2.40021572e-03 3.47463824e-02 0. 0. 0. 0. 0. 1.25866495e-02
      4.20624809e-03 3.47463824e-02 3.64656048e-03 0. 0. 0. 0. 0.
      6.54149288e-03 2.18605762e-03 3.64656048e-03 0. 0. 0. 0. 0. 0. 0.
      0. 0. 0. 0. 0. 0. 0. 0. 0. 0. 0. 2.68870056e-01 3.33468132e-02
      9.97861400e-02 0. 2.68870056e-01 0. 2.68870056e-01 1.68528423e-01
      2.68870056e-01 2.26731580e-02 3.07095982e-02 9.18945223e-02 0.
      2.68870056e-01 0. 2.68870056e-01 1.05122112e-01 2.26731580e-02 0.
      0. 0. 0. 0. 0. 0. 0. 0. 0. 0. 0. 0. 0. 0. 0. 0. 0. 2.68870056e-01
      1.31427318e-01 2.68870056e-01 0. 2.68870056e-01 0. 1.42269373e-01
      4.75439765e-02 2.68870056e-01 3.14901955e-02 1.00739680e-01
      2.68870056e-01 0. 2.68870056e-01 0. 9.92072225e-02 3.31533737e-02
      3.14901955e-02 0. 0. 0. 0. 0. 0. 0. 0. 0. 0. 0. 0. 0. 0. 0. 0. 0.
      0. 3.91453989e-02 4.63572191e-03 1.38717946e-02 0. 0. 0. 0. 0.
      3.91453989e-02 4.12383350e-03 2.40926212e-03 7.20940344e-03 0. 0.
      0. 0. 0. 4.12383350e-03 0. 0. 0. 0. 0. 0. 0. 0. 0. 0. 0. 0. 0. 0.
      0. 0. 0. 0. 0. 0. 0. 0. 0. 0. 0. 0. 0. 0. 0. 0. 0. 0. 0. 0. 0. 0.
      2.27697060e-01 0. 0. 0. 3.72548103e-01 0. 3.72548103e-01
      1.31951377e-01 2.27697060e-01 3.72548103e-01 0. 0. 0.
      3.12006533e-01 0. 3.72548103e-01 1.91815764e-01 3.72548103e-01 0.
      0. 0. 0. 0. 0. 0. 0. 0. 0. 0. 0. 0. 0. 0. 0. 0. 0. 2.45455373e-02
      0. 0. 0. 0. 0. 1.86641552e-02 6.23723213e-03 2.45455373e-02
      1.48378700e-01 0. 0. 0. 0. 0. 3.60957459e-02 1.20625654e-02
      1.48378700e-01 0. 0. 0. 0. 0. 0. 0. 0. 0. 0. 0. 0. 0. 0. 0. 0. 0.
      0. 0. 0. 0. 0. 0. 0. 0. 0. 0. 0. 0. 0. 0. 0. 0. 0. 0. 0. 0. 0. 0.
      0. 0. 0. 0. 0. 0. 0. 0. 0. 0. 0. 0. 0. 0. 0. 0. 0. 0. 0. 0. 0. 0.
      0. 0. 0. 0. 0. 0. 0. 0. 0. 0. 0. 7.91648701e-02 0. 0. 0.
      1.25846058e-01 0. 1.25488594e-01 4.19360884e-02 7.91648701e-02
      4.01475638e-01 0. 0. 0. 6.79090694e-02 0. 2.11751550e-01
      7.07636774e-02 4.01475638e-01 4.01475638e-01 9.98659357e-02
      2.98835933e-01 0. 8.93313512e-02 0. 0. 0. 4.01475638e-01
      4.25278284e-02 6.16614148e-02 1.84513792e-01 0. 9.91428941e-02 0.
      0. 0. 4.25278284e-02 9.84794553e-03 0. 0. 0. 0. 0. 6.96686562e-03
      2.32820399e-03 9.84794553e-03 1.48138180e-01 0. 0. 0. 0. 0.
      1.43398428e-02 4.79212357e-03 1.48138180e-01 1.54093921e-01
      5.49142901e-03 1.64323859e-02 0. 0. 0. 0. 0. 1.54093921e-01
      8.52153637e-03 2.68194312e-03 8.02536495e-03 0. 0. 0. 0. 0.
      8.52153637e-03 0. 0. 0. 0. 0. 0. 0. 0. 0. 0. 0. 0. 0. 0. 0. 0. 0.
      0. 0. 0. 0. 0. 0. 0. 0. 0. 0. 0. 0. 0. 0. 0. 0. 0. 0. 0. 0. 0. 0.
      0. 0. 0. 0. 0. 0. 0. 0. 0. 0. 0. 0. 0. 0. 0. 0. 0. 0. 0. 0. 0. 0.
      0. 0. 0. 0. 0. 0. 0. 0. 0. 0. 0. 3.77746165e-01 2.76529402e-01
      3.77746165e-01 0. 3.25602174e-01 0. 0. 0. 3.77746165e-01
      8.16522092e-02 1.92157060e-01 3.77746165e-01 0. 3.77746165e-01 0.
      0. 0. 8.16522092e-02 0. 0. 0. 0. 0. 0. 0. 0. 0. 0. 0. 0. 0. 0. 0.
      0. 0. 0. 1.53363720e-01 1.38215246e-02 4.13591191e-02 0. 0. 0. 0.
      0. 1.53363720e-01 1.68136023e-02 7.18327798e-03 2.14950237e-02 0.
      0. 0. 0. 0. 1.68136023e-02 0. 0. 0. 0. 0. 0. 0. 0. 0. 0. 0. 0. 0.
      0. 0. 0. 0. 0. 0. 0. 0. 0. 0. 0. 0. 0. 0. 0. 0. 0. 0. 0. 0. 0. 0.
      0. 0. 0. 0. 0. 0. 0. 0. 0. 0. 0. 0. 0. 0. 0. 0. 0. 0. 0. 0. 0. 0.
      0. 0. 0. 0. 0. 0. 0. 0. 0. 0. 0. 0. 0. 0. 0. 0. 0. 0. 0. 0. 0. 0.
      0. 0. 0. 0. 0. 0. 0. 0. 0. 0. 0.</_>
    <_>
      0. 0. 0. 0. 0. 0. 0. 0. 0. 0. 0. 0. 0. 0. 0. 0. 0. 0. 0. 0. 0. 0.
      0. 0. 0. 0. 0. 0. 0. 0. 0. 0. 0. 0. 0. 0. 0. 0. 0. 0. 0. 0. 0. 0.
      0. 0. 0. 0. 0. 0. 0. 0. 0. 0. 0. 0. 0. 0. 0. 0. 0. 0. 0. 0. 0. 0.
      0. 0. 0. 0. 0. 0. 0. 0. 0. 0. 0. 0. 0. 0. 0. 0. 0. 0. 0. 0. 0. 0.
      0. 0. 1.49095831e-02 6.37417426e-03 1.90739613e-02 0. 0. 0. 0. 0.
      1.49095831e-02 1.41320094e-01 1.23274056e-02 3.68882976e-02 0. 0.
      0. 0. 0. 1.41320094e-01 0. 0. 0. 0. 0. 0. 0. 0. 0. 0. 0. 0. 0. 0.
      0. 0. 0. 0. 8.88078064e-02 2.53260314e-01 4.14891720e-01 0.
      2.45886698e-01 0. 0. 0. 8.88078064e-02 4.14891720e-01
      3.43391478e-01 4.14891720e-01 0. 8.19622204e-02 0. 0. 0.
      4.14891720e-01 0. 0. 0. 0. 0. 0. 0. 0. 0. 0. 0. 0. 0. 0. 0. 0. 0.
      0. 0. 0. 0. 0. 0. 0. 0. 0. 0. 0. 0. 0. 0. 0. 0. 0. 0. 0. 0. 0. 0.
      0. 0. 0. 0. 0. 0. 0. 0. 0. 0. 0. 0. 0. 0. 0. 0. 0. 0. 0. 0. 0. 0.
      0. 0. 0. 0. 0. 0. 0. 0. 0. 0. 0. 6.14234153e-03 1.93421065e-03
      5.78789646e-03 0. 0. 0. 0. 0. 6.14234153e-03 1.19015075e-01
      3.98117024e-03 1.19131785e-02 0. 0. 0. 0. 0. 1.19015075e-01
      1.25158265e-01 0. 0. 0. 0. 0. 1.36516066e-02 4.56213858e-03
      1.25158265e-01 6.89834496e-03 0. 0. 0. 0. 0. 6.66726939e-03
      2.22809007e-03 6.89834496e-03 3.75804789e-02 6.41548559e-02
      1.91975638e-01 0. 3.38398814e-02 0. 0. 0. 3.75804789e-02
      3.89375627e-01 9.78679433e-02 2.92857915e-01 0. 1.12799602e-02 0.
      0. 0. 3.89375627e-01 3.89375627e-01 0. 0. 0. 1.38926664e-02 0.
      3.38765800e-01 1.13209784e-01 3.89375627e-01 4.21070457e-02 0. 0.
      0. 4.16780002e-02 0. 2.24261373e-01 7.49443546e-02 4.21070457e-02
      0. 0. 0. 0. 0. 0. 0. 0. 0. 0. 0. 0. 0. 0. 0. 0. 0. 0. 0. 0. 0. 0.
      0. 0. 0. 0. 0. 0. 0. 0. 0. 0. 0. 0. 0. 0. 0. 0. 0. 0. 0. 0. 0. 0.
      0. 0. 0. 0. 0. 0. 0. 0. 0. 0. 0. 0. 0. 0. 0. 0. 0. 0. 0. 0. 0. 0.
      0. 0. 0. 0. 0. 0. 1.34056851e-01 0. 0. 0. 0. 0. 3.70071270e-02
      1.23671647e-02 1.34056851e-01 1.46536967e-02 0. 0. 0. 0. 0.
      1.92332231e-02 6.42742263e-03 1.46536967e-02 0. 0. 0. 0. 0. 0. 0.
      0. 0. 0. 0. 0. 0. 0. 0. 0. 0. 0. 4.11041021e-01 0. 0. 0.
      8.81742388e-02 0. 4.11041021e-01 3.48532647e-01 4.11041021e-01
      8.71015042e-02 0. 0. 0. 2.64522731e-01 0. 4.11041021e-01
      2.59564817e-01 8.71015042e-02 0. 0. 0. 0. 0. 0. 0. 0. 0. 0. 0. 0.
      0. 0. 0. 0. 0. 0. 0. 0. 0. 0. 0. 0. 0. 0. 0. 0. 0. 0. 0. 0. 0. 0.
      0. 0. 3.77013371e-03 2.20199069e-03 6.58919616e-03 0. 0. 0. 0. 0.
      3.77013371e-03 3.72342616e-02 4.25856328e-03 1.27432467e-02 0. 0.
      0. 0. 0. 3.72342616e-02 0. 0. 0. 0. 0. 0. 0. 0. 0. 0. 0. 0. 0. 0.
      0. 0. 0. 0. 3.28510776e-02 1.32523119e-01 2.78679460e-01 0.
      2.78679460e-01 0. 3.24649476e-02 1.08492365e-02 3.28510776e-02
      2.78679460e-01 1.73627108e-01 2.78679460e-01 0. 1.35856986e-01 0.
      4.38065678e-02 1.46394186e-02 2.78679460e-01 0. 0. 0. 0. 0. 0. 0.
      0. 0. 0. 0. 0. 0. 0. 0. 0. 0. 0. 2.98711360e-02 2.95741856e-02
      8.84970576e-02 0. 2.78679460e-01 0. 2.78679460e-01 1.31175727e-01
      2.98711360e-02 2.78679460e-01 6.32669181e-02 1.89318135e-01 0.
      1.90199763e-01 0. 2.78679460e-01 1.85473964e-01 2.78679460e-01 0.
      0. 0. 0. 0. 0. 0. 0. 0. 0. 0. 0. 0. 0. 0. 0. 0. 0. 7.76076829e-03
      0. 0. 0. 0. 0. 2.11128294e-02 7.05553638e-03 7.76076829e-03
      4.18461896e-02 8.44002049e-03 2.52556615e-02 0. 0. 0.
      5.18416055e-02 1.73245557e-02 4.18461896e-02 2.16928986e-03
      9.27991874e-04 2.77690566e-03 0. 0. 0. 0. 0. 2.16928986e-03
      4.40014452e-02 1.91007799e-03 5.71568171e-03 0. 0. 0. 0. 0.
      4.40014452e-02 4.62432578e-02 0. 0. 0. 0. 0. 6.54974207e-03
      2.18881434e-03 4.62432578e-02 2.43507745e-03 0. 0. 0. 0. 0.
      3.19880946e-03 1.06898881e-03 2.43507745e-03 1.95424445e-02
      4.59306985e-02 1.37441993e-01 0. 6.67681247e-02 0. 1.15759866e-02
      3.86850000e-03 1.95424445e-02 2.74430811e-01 6.75573871e-02
      2.02157140e-01 0. 3.25259417e-02 0. 1.68185458e-02 5.62047586e-03
      2.74430811e-01 2.74430811e-01 6.52269600e-03 1.95183866e-02 0.
      3.91625725e-02 0. 2.34178692e-01 7.82585293e-02 2.74430811e-01
      2.18735132e-02 4.51740064e-03 1.35177756e-02 0. 8.15923885e-02 0.
      1.60766557e-01 5.37254475e-02 2.18735132e-02 1.48488795e-02
      1.02201877e-02 3.05826273e-02 0. 9.34753567e-02 0. 1.36162654e-01
      4.55032140e-02 1.48488795e-02 2.74430811e-01 4.39745188e-02
      1.31588057e-01 0. 4.55363058e-02 0. 2.35219702e-01 7.86063895e-02
      2.74430811e-01 2.74430811e-01 6.88684732e-02 2.06080362e-01 0.
      5.48275895e-02 0. 5.01611941e-02 1.67629980e-02 2.74430811e-01
      2.02299077e-02 4.78664339e-02 1.43234298e-01 0. 1.14229314e-01 0.
      3.57927941e-02 1.19613344e-02 2.02299077e-02 3.43541359e-03 0. 0.
      0. 0. 0. 8.62862915e-03 2.88353674e-03 3.43541359e-03
      4.12510559e-02 9.84498020e-03 2.94598211e-02 0. 0. 0.
      2.85490025e-02 9.54057556e-03 4.12510559e-02 4.17134389e-02
      3.59394401e-03 1.07544092e-02 0. 0. 0. 0. 0. 4.17134389e-02
      5.19971875e-03 1.54405576e-03 4.62038582e-03 0. 0. 0. 0. 0.
      5.19971875e-03 3.72624360e-02 0. 0. 0. 0. 0. 1.34980744e-02
      4.51083109e-03 3.72624360e-02 3.91061511e-03 0. 0. 0. 0. 0.
      7.01517519e-03 2.34435452e-03 3.91061511e-03 0. 0. 0. 0. 0. 0. 0.
      0. 0. 0. 0. 0. 0. 0. 0. 0. 0. 0. 2.83196539e-01 1.57140754e-02
      4.70224842e-02 0. 1.52091369e-01 0. 2.83196539e-01 1.86331198e-01
      2.83196539e-01 3.39859761e-02 1.17171956e-02 3.50622833e-02 0.
      2.83196539e-01 0. 2.83196539e-01 1.43572867e-01 3.39859761e-02 0.
      0. 0. 0. 0. 0. 0. 0. 0. 0. 0. 0. 0. 0. 0. 0. 0. 0. 2.70167798e-01
      1.57267690e-01 2.83196539e-01 0. 2.12927908e-01 0. 1.22038670e-01
      4.07832153e-02 2.70167798e-01 3.85782495e-02 1.33453280e-01
      2.83196539e-01 0. 2.83196539e-01 0. 9.58652049e-02 3.20365019e-02
      3.85782495e-02 0. 0. 0. 0. 0. 0. 0. 0. 0. 0. 0. 0. 0. 0. 0. 0. 0.
      0. 4.26678509e-02 4.51343320e-03 1.35058602e-02 0. 0. 0. 0. 0.
      4.26678509e-02 1.07832924e-02 4.65095043e-03 1.39173642e-02 0. 0.
      0. 0. 0. 1.07832924e-02 0. 0. 0. 0. 0. 0. 0. 0. 0. 0. 0. 0. 0. 0.
      0. 0. 0. 0. 0. 0. 0. 0. 0. 0. 0. 0. 0. 0. 0. 0. 0. 0. 0. 0. 0. 0.
      7.71187991e-02 0. 0. 0. 3.55591059e-01 0. 3.55591059e-01
      2.38851890e-01 7.71187991e-02 3.55591059e-01 7.69674703e-02
      2.30315134e-01 0. 1.70801207e-01 0. 3.55591059e-01 3.55591059e-01
      3.55591059e-01 0. 0. 0. 0. 0. 0. 0. 0. 0. 0. 0. 0. 0. 0. 0. 0. 0.
      0. 2.48141028e-02 0. 0. 0. 0. 0. 5.32088131e-02 1.77814513e-02
      2.48141028e-02 1.51281267e-01 2.56558228e-02 7.67717138e-02 0. 0.
      0. 1.46892875e-01 4.90890220e-02 1.51281267e-01 0. 0. 0. 0. 0. 0.
      0. 0. 0. 0. 0. 0. 0. 0. 0. 0. 0. 0. 0. 0. 0. 0. 0. 0. 0. 0. 0. 0.
      0. 0. 0. 0. 0. 0. 0. 0. 0. 0. 0. 0. 0. 0. 0. 0. 0. 0. 0. 0. 0. 0.
      0. 0. 0. 0. 0. 0. 0. 0. 0. 0. 0. 0. 0. 0. 0. 0. 0. 0. 0. 0. 0. 0.
      3.68838087e-02 0. 0. 0. 8.77178460e-02 0. 2.58664966e-01
      8.64413604e-02 3.68838087e-02 3.14071804e-01 9.21630487e-02
      2.75785923e-01 0. 4.10657637e-02 0. 3.14071804e-01 1.68796003e-01
      3.14071804e-01 3.14071804e-01 1.26048416e-01 3.14071804e-01 0.
      4.95444424e-02 0. 0. 0. 3.14071804e-01 5.33475019e-02
      8.42487663e-02 2.52103806e-01 0. 1.07297421e-01 0. 0. 0.
      5.33475019e-02 1.16305156e-02 0. 0. 0. 0. 0. 2.34699305e-02
      7.84323923e-03 1.16305156e-02 1.49774075e-01 3.07210125e-02
      9.19286385e-02 0. 0. 0. 8.55256915e-02 2.85811815e-02
      1.49774075e-01 1.31169111e-01 9.81385354e-03 2.93666814e-02 0. 0.
      0. 0. 0. 1.31169111e-01 1.62255932e-02 3.45238461e-03
      1.03308102e-02 0. 0. 0. 0. 0. 1.62255932e-02 0. 0. 0. 0. 0. 0. 0.
      0. 0. 0. 0. 0. 0. 0. 0. 0. 0. 0. 0. 0. 0. 0. 0. 0. 0. 0. 0. 0. 0.
      0. 0. 0. 0. 0. 0. 0. 0. 0. 0. 0. 0. 0. 0. 0. 0. 0. 0. 0. 0. 0. 0.
      0. 0. 0. 0. 0. 0. 0. 0. 0. 0. 0. 0. 0. 0. 0. 0. 0. 0. 0. 0. 0.
      3.71467799e-01 3.12753737e-01 3.71467799e-01 0. 2.25788981e-01 0.
      0. 0. 3.71467799e-01 1.22759447e-01 2.73681819e-01 3.71467799e-01
      0. 3.71467799e-01 0. 0. 0. 1.22759447e-01 0. 0. 0. 0. 0. 0. 0. 0.
      0. 0. 0. 0. 0. 0. 0. 0. 0. 0. 1.52914718e-01 1.15902023e-02
      3.46821696e-02 0. 0. 0. 0. 0. 1.52914718e-01 3.86455879e-02
      1.19433384e-02 3.57388854e-02 0. 0. 0. 0. 0. 3.86455879e-02 0. 0.
      0. 0. 0. 0. 0. 0. 0. 0. 0. 0. 0. 0. 0. 0. 0. 0. 0. 0. 0. 0. 0. 0.
      0. 0. 0. 0. 0. 0. 0. 0. 0. 0. 0. 0. 0. 0. 0. 0. 0. 0. 0. 0. 0. 0.
      0. 0. 0. 0. 0. 0. 0. 0. 0. 0. 0. 0. 0. 0. 0. 0. 0. 0. 0. 0. 0. 0.
      0. 0. 0. 0. 0. 0. 0. 0. 0. 0. 0. 0. 0. 0. 0. 0. 0. 0. 0. 0. 0. 0.</_>
    <_>
      0. 0. 0. 0. 0. 0. 0. 0. 0. 0. 0. 0. 0. 0. 0. 0. 0. 0. 0. 0. 0. 0.
      0. 0. 0. 0. 0. 0. 0. 0. 0. 0. 0. 0. 0. 0. 0. 0. 0. 0. 0. 0. 0. 0.
      0. 0. 0. 0. 0. 0. 0. 0. 0. 0. 0. 0. 0. 0. 0. 0. 0. 0. 0. 0. 0. 0.
      0. 0. 0. 0. 0. 0. 0. 0. 0. 0. 0. 0. 0. 0. 0. 0. 0. 0. 0. 0. 0. 0.
      0. 0. 1.85018424e-02 2.39962377e-02 7.18058869e-02 0.
      1.43851023e-02 0. 0. 0. 1.85018424e-02 1.98304892e-01
      9.04890448e-02 2.70777583e-01 0. 1.02750761e-02 0. 5.10304831e-02
      1.70535333e-02 1.98304892e-01 0. 0. 0. 0. 0. 0. 0. 0. 0. 0. 0. 0.
      0. 0. 0. 0. 0. 0. 2.94365324e-02 1.21184051e-01 3.39061141e-01 0.
      3.39061141e-01 0. 0. 0. 2.94365324e-02 3.39061141e-01
      3.39061141e-01 3.39061141e-01 0. 3.39061141e-01 0. 7.14426488e-02
      2.38749404e-02 3.39061141e-01 0. 0. 0. 0. 0. 0. 0. 0. 0. 0. 0. 0.
      0. 0. 0. 0. 0. 0. 0. 0. 0. 0. 0. 0. 0. 0. 0. 0. 0. 0. 0. 0. 0. 0.
      0. 0. 0. 0. 0. 0. 0. 0. 0. 0. 0. 0. 0. 0. 0. 0. 0. 0. 0. 0. 0. 0.
      0. 0. 0. 0. 0. 0. 0. 0. 0. 0. 0. 0. 0. 0. 0. 0. 8.67622625e-03
      9.51198675e-03 2.84634922e-02 0. 3.30718141e-03 0. 0. 0.
      8.67622625e-03 2.10203618e-01 5.87829612e-02 1.75900966e-01 0.
      2.36227270e-03 0. 8.37013870e-02 2.79716086e-02 2.10203618e-01
      2.35388950e-01 1.23144835e-02 3.68496217e-02 0. 9.48406849e-03 0.
      1.08566090e-01 3.62809636e-02 2.35388950e-01 4.45785634e-02 0. 0.
      0. 2.39246450e-02 0. 2.13862024e-02 7.14690657e-03 4.45785634e-02
      1.43552339e-02 4.77591679e-02 1.42913476e-01 0. 1.24504156e-01 0.
      0. 0. 1.43552339e-02 2.85865396e-01 2.30266556e-01 2.85865396e-01
      0. 1.20126978e-01 0. 1.17181912e-01 3.91602367e-02 2.85865396e-01
      2.85865396e-01 2.00404786e-02 5.99687286e-02 0. 1.26807526e-01 0.
      2.85865396e-01 1.09484024e-01 2.85865396e-01 7.61075765e-02 0. 0.
      0. 2.39570171e-01 0. 1.41478807e-01 4.72797751e-02 7.61075765e-02
      0. 0. 0. 0. 0. 0. 0. 0. 0. 0. 0. 0. 0. 0. 0. 0. 0. 0. 0. 0. 0. 0.
      0. 0. 0. 0. 0. 0. 0. 0. 0. 0. 0. 0. 0. 0. 0. 0. 0. 0. 0. 0. 0. 0.
      0. 0. 0. 0. 0. 0. 0. 0. 0. 0. 0. 0. 0. 0. 0. 0. 0. 0. 0. 0. 0. 0.
      0. 0. 0. 0. 0. 0. 2.66457230e-01 0. 0. 0. 4.16104831e-02 0.
      1.04669899e-01 3.49789113e-02 2.66457230e-01 1.14022195e-01 0. 0.
      0. 1.09283045e-01 0. 6.60717562e-02 2.20800694e-02 1.14022195e-01
      0. 0. 0. 0. 0. 0. 0. 0. 0. 0. 0. 0. 0. 0. 0. 0. 0. 0.
      3.36031675e-01 0. 0. 0. 3.36031675e-01 0. 3.36031675e-01
      1.83208302e-01 3.36031675e-01 1.88604057e-01 0. 0. 0.
      3.36031675e-01 0. 3.36031675e-01 1.25391409e-01 1.88604057e-01 0.
      0. 0. 0. 0. 0. 0. 0. 0. 0. 0. 0. 0. 0. 0. 0. 0. 0. 0. 0. 0. 0. 0.
      0. 0. 0. 0. 0. 0. 0. 0. 0. 0. 0. 0. 0. 5.61509933e-03
      9.91477165e-03 2.96687782e-02 0. 8.11978802e-03 0. 0. 0.
      5.61509933e-03 5.87387085e-02 3.35564055e-02 1.00413509e-01 0.
      5.79985091e-03 0. 1.47887347e-02 4.94214799e-03 5.87387085e-02 0.
      0. 0. 0. 0. 0. 0. 0. 0. 0. 0. 0. 0. 0. 0. 0. 0. 0. 9.29045491e-03
      6.73121810e-02 2.01423436e-01 0. 3.35059702e-01 0. 3.12237022e-03
      1.04344403e-03 9.29045491e-03 1.29432246e-01 2.29714245e-01
      3.35059702e-01 0. 3.35059702e-01 0. 3.00713424e-02 1.00493403e-02
      1.29432246e-01 0. 0. 0. 0. 0. 0. 0. 0. 0. 0. 0. 0. 0. 0. 0. 0. 0.
      0. 4.72177938e-03 4.36723512e-03 1.30683836e-02 0. 3.35059702e-01
      0. 1.71950012e-01 5.74627370e-02 4.72177938e-03 1.24963120e-01
      1.52093703e-02 4.55120616e-02 0. 3.35059702e-01 0. 3.35059702e-01
      1.61884904e-01 1.24963120e-01 0. 0. 0. 0. 0. 0. 0. 0. 0. 0. 0. 0.
      0. 0. 0. 0. 0. 0. 6.61048852e-03 0. 0. 0. 4.70187590e-02 0.
      5.96278161e-02 1.99265759e-02 6.61048852e-03 1.11837864e-01 0. 0.
      0. 6.20949678e-02 0. 1.96758851e-01 6.57533780e-02 1.11837864e-01
      2.69771251e-03 3.86192556e-03 1.15563525e-02 0. 1.88427721e-03 0.
      0. 0. 2.69771251e-03 6.24798425e-02 2.07797717e-02 6.21809550e-02
      0. 1.34591234e-03 0. 2.44843736e-02 8.18226952e-03 6.24798425e-02
      7.34059364e-02 3.68310395e-03 1.10212518e-02 0. 4.55776602e-03 0.
      3.63727398e-02 1.21551566e-02 7.34059364e-02 1.38591295e-02 0. 0.
      0. 1.10937059e-02 0. 9.67895240e-03 3.23454151e-03 1.38591295e-02
      4.67841607e-03 2.73597781e-02 8.18707421e-02 0. 1.41267166e-01 0.
      1.41128304e-03 4.71627194e-04 4.67841607e-03 1.64148346e-01
      1.26063466e-01 2.20035180e-01 0. 1.62120521e-01 0. 3.85119803e-02
      1.28700603e-02 1.64148346e-01 2.20035180e-01 6.75177388e-03
      2.02038623e-02 0. 1.47225469e-01 0. 1.57699719e-01 5.27005196e-02
      2.20035180e-01 2.56331302e-02 0. 0. 0. 2.20035180e-01 0.
      7.99325034e-02 2.67120544e-02 2.56331302e-02 2.13420158e-03
      2.02106056e-03 6.04776107e-03 0. 1.87916622e-01 0. 6.90942034e-02
      2.30901018e-02 2.13420158e-03 1.85333833e-01 7.39270402e-03
      2.21217070e-02 0. 2.20035180e-01 0. 2.20035180e-01 7.77511820e-02
      1.85333833e-01 2.20035180e-01 4.74823862e-02 1.42085239e-01 0.
      1.83612078e-01 0. 4.95552877e-03 1.65605103e-03 2.20035180e-01
      1.76384021e-02 2.54080668e-02 7.60305524e-02 0. 2.20035180e-01 0.
      2.19434313e-03 7.33310881e-04 1.76384021e-02 2.98788119e-03 0. 0.
      0. 1.33565869e-02 0. 2.30017081e-02 7.68676959e-03 2.98788119e-03
      1.61769822e-01 0. 0. 0. 2.33126394e-02 0. 1.07711866e-01
      3.59954312e-02 1.61769822e-01 2.20035180e-01 2.73015145e-02
      8.16963241e-02 0. 1.17126657e-02 0. 2.63682893e-03 8.81181855e-04
      2.20035180e-01 1.81817375e-02 1.08943619e-02 3.26000080e-02 0.
      2.73992214e-02 0. 0. 0. 1.81817375e-02 7.79982731e-02 0. 0. 0.
      1.83639955e-02 0. 3.90978493e-02 1.30658383e-02 7.79982731e-02
      3.29200625e-02 0. 0. 0. 4.68146540e-02 0. 2.71330085e-02
      9.06739198e-03 3.29200625e-02 0. 0. 0. 0. 0. 0. 0. 0. 0. 0. 0. 0.
      0. 0. 0. 0. 0. 0. 1.96158528e-01 0. 0. 0. 3.41914564e-01 0.
      2.81414956e-01 9.40439925e-02 1.96158528e-01 5.78934476e-02 0. 0.
      0. 3.41914564e-01 0. 1.91359624e-01 6.39490858e-02 5.78934476e-02
      0. 0. 0. 0. 0. 0. 0. 0. 0. 0. 0. 0. 0. 0. 0. 0. 0. 0.
      1.87423512e-01 9.33237374e-02 2.79259890e-01 0. 3.41914564e-01 0.
      7.06329383e-03 2.36042892e-03 1.87423512e-01 3.99609022e-02
      5.84362373e-02 1.74863279e-01 0. 3.41914564e-01 0. 5.04521001e-03
      1.68602075e-03 3.99609022e-02 0. 0. 0. 0. 0. 0. 0. 0. 0. 0. 0. 0.
      0. 0. 0. 0. 0. 0. 1.67248234e-01 4.68760245e-02 1.40270591e-01 0.
      4.63118702e-02 0. 0. 0. 1.67248234e-01 4.38073948e-02
      2.48235762e-02 7.42814243e-02 0. 1.14103600e-01 0. 0. 0.
      4.38073948e-02 0. 0. 0. 0. 0. 0. 0. 0. 0. 0. 0. 0. 0. 0. 0. 0. 0.
      0. 0. 0. 0. 0. 0. 0. 0. 0. 0. 0. 0. 0. 0. 0. 0. 0. 0. 0.
      1.51653318e-02 0. 0. 0. 3.15797627e-01 0. 2.77157277e-01
      9.26211551e-02 1.51653318e-02 3.00390601e-01 0. 0. 0.
      3.15797627e-01 0. 3.15797627e-01 2.72783279e-01 3.00390601e-01 0.
      0. 0. 0. 0. 0. 0. 0. 0. 0. 0. 0. 0. 0. 0. 0. 0. 0. 2.12314688e-02
      0. 0. 0. 7.04380199e-02 0. 1.25688478e-01 4.20028865e-02
      2.12314688e-02 3.15797627e-01 0. 0. 0. 9.19912532e-02 0.
      3.15797627e-01 1.60791233e-01 3.15797627e-01 0. 0. 0. 0. 0. 0. 0.
      0. 0. 0. 0. 0. 0. 0. 0. 0. 0. 0. 0. 0. 0. 0. 0. 0. 0. 0. 0. 0. 0.
      0. 0. 0. 0. 0. 0. 0. 0. 0. 0. 0. 0. 0. 0. 0. 0. 0. 0. 0. 0. 0. 0.
      0. 0. 0. 0. 0. 0. 0. 0. 0. 0. 0. 0. 0. 0. 0. 0. 0. 0. 0. 0. 0.
      5.35448454e-03 0. 0. 0. 1.19746044e-01 0. 8.52093548e-02
      2.84754969e-02 5.35448454e-03 2.81790376e-01 0. 0. 0.
      1.97938010e-01 0. 2.81790376e-01 1.07503995e-01 2.81790376e-01
      2.81790376e-01 7.35637993e-02 2.20130503e-01 0. 1.03854045e-01 0.
      4.72537475e-03 1.57913729e-03 2.81790376e-01 3.69604230e-02
      3.51599418e-02 1.05211772e-01 0. 1.80585787e-01 0. 0. 0.
      3.69604230e-02 7.49627920e-03 0. 0. 0. 1.56263672e-02 0.
      3.85976508e-02 1.28986584e-02 7.49627920e-03 2.81790376e-01 0. 0.
      0. 2.66948994e-02 0. 2.18278334e-01 7.29448050e-02 2.81790376e-01
      2.81790376e-01 5.66943884e-02 1.69650704e-01 0. 1.65780429e-02 0.
      6.61552604e-03 2.21079262e-03 2.81790376e-01 4.23985794e-02
      1.95671562e-02 5.85522205e-02 0. 3.97657380e-02 0. 0. 0.
      4.23985794e-02 0. 0. 0. 0. 0. 0. 0. 0. 0. 0. 0. 0. 0. 0. 0. 0. 0.
      0. 0. 0. 0. 0. 0. 0. 0. 0. 0. 0. 0. 0. 0. 0. 0. 0. 0. 0. 0. 0. 0.
      0. 0. 0. 0. 0. 0. 0. 0. 0. 0. 0. 0. 0. 0. 0. 0. 0. 0. 0. 0. 0. 0.
      0. 0. 0. 0. 0. 0. 0. 0. 0. 0. 0. 3.06677133e-01 1.59652740e-01
      3.06677133e-01 0. 3.06677133e-01 0. 0. 0. 3.06677133e-01
      1.01561889e-01 9.44393203e-02 2.82597959e-01 0. 3.06677133e-01 0.
      0. 0. 1.01561889e-01 0. 0. 0. 0. 0. 0. 0. 0. 0. 0. 0. 0. 0. 0. 0.
      0. 0. 0. 3.06677133e-01 1.07451983e-01 3.06677133e-01 0.
      7.74039403e-02 0. 0. 0. 3.06677133e-01 1.19975671e-01
      5.04378974e-02 1.50928959e-01 0. 1.94885924e-01 0. 0. 0.
      1.19975671e-01 0. 0. 0. 0. 0. 0. 0. 0. 0. 0. 0. 0. 0. 0. 0. 0. 0.
      0. 0. 0. 0. 0. 0. 0. 0. 0. 0. 0. 0. 0. 0. 0. 0. 0. 0. 0. 0. 0. 0.
      0. 0. 0. 0. 0. 0. 0. 0. 0. 0. 0. 0. 0. 0. 0. 0. 0. 0. 0. 0. 0. 0.
      0. 0. 0. 0. 0. 0. 0. 0. 0. 0. 0. 0. 0. 0. 0. 0. 0. 0. 0. 0. 0. 0.
      0. 0. 0. 0. 0. 0. 0.</_>
    <_>
      0. 0. 0. 0. 0. 0. 0. 0. 0. 0. 0. 0. 0. 0. 0. 0. 0. 0. 0. 0. 0. 0.
      0. 0. 0. 0. 0. 0. 0. 0. 0. 0. 0. 0. 0. 0. 0. 0. 0. 0. 0. 0. 0. 0.
      0. 0. 0. 0. 0. 0. 0. 0. 0. 0. 1.38101019e-02 2.39410507e-03
      7.16407597e-03 0. 0. 0. 0. 0. 1.38101019e-02 5.06640337e-02
      4.63010650e-03 1.38550447e-02 0. 0. 0. 0. 0. 5.06640337e-02 0. 0.
      0. 0. 0. 0. 0. 0. 0. 0. 3.37513685e-02 1.00996964e-01 0.
      1.96871664e-02 0. 0. 0. 0. 2.00710043e-01 3.12656760e-01
      3.25445712e-01 0. 1.62748024e-02 0. 0. 0. 2.00710043e-01
      3.25445712e-01 9.10787508e-02 2.72542119e-01 0. 0. 0. 0. 0.
      3.25445712e-01 0. 0. 0. 0. 0. 0. 0. 0. 0. 0. 7.45179504e-02
      2.22986117e-01 0. 2.36877486e-01 0. 0. 0. 0. 2.57204287e-02
      2.95537353e-01 3.25445712e-01 0. 2.14869961e-01 0. 0. 0.
      2.57204287e-02 1.16058879e-01 4.62063625e-02 1.38266534e-01 0. 0.
      0. 0. 0. 1.16058879e-01 0. 0. 0. 0. 0. 0. 0. 0. 0. 0. 0. 0. 0. 0.
      0. 0. 0. 0. 0. 0. 0. 0. 0. 0. 0. 0. 0. 0. 0. 0. 0. 0. 0. 0. 0. 0.
      8.04075226e-03 1.70849590e-03 5.11247199e-03 0. 0. 0. 0. 0.
      8.04075226e-03 9.38276798e-02 3.51658277e-03 1.05229570e-02 0. 0.
      0. 0. 0. 9.38276798e-02 1.08113162e-01 0. 0. 0. 0. 0.
      7.91704375e-03 2.64574378e-03 1.08113162e-01 1.36505244e-02 0. 0.
      0. 0. 0. 7.71836936e-03 2.57934979e-03 1.36505244e-02
      1.04786746e-01 8.23373944e-02 2.46384770e-01 0. 3.85391206e-04 0.
      0. 0. 1.04786746e-01 3.24954122e-01 5.42375594e-02 1.62299365e-01
      0. 0. 0. 0. 0. 3.24954122e-01 3.24954122e-01 0. 0. 0.
      1.67244812e-04 0. 1.61874458e-01 5.40956929e-02 3.24954122e-01
      1.04356565e-01 0. 0. 0. 9.12582874e-03 0. 3.11716378e-01
      1.04170367e-01 1.04356565e-01 1.94143169e-02 6.14041612e-02
      1.83744207e-01 0. 1.36641748e-02 0. 0. 0. 1.94143169e-02
      1.99730441e-01 1.97316222e-02 5.90443127e-02 0. 0. 0. 0. 0.
      1.99730441e-01 1.95943654e-01 0. 0. 0. 1.20336283e-02 0.
      1.03818767e-01 3.46944146e-02 1.95943654e-01 2.92239711e-02 0. 0.
      0. 9.01495889e-02 0. 1.74819648e-01 5.84217235e-02 2.92239711e-02
      0. 0. 0. 0. 0. 0. 0. 0. 0. 0. 0. 0. 0. 0. 0. 0. 0. 0. 0. 0. 0. 0.
      0. 0. 0. 0. 0. 0. 0. 0. 0. 0. 0. 0. 0. 0. 5.81589676e-02 0. 0. 0.
      0. 0. 1.24049839e-02 4.14553890e-03 5.81589676e-02 1.84244569e-02
      0. 0. 0. 0. 0. 1.27829444e-02 4.27184673e-03 1.84244569e-02 0. 0.
      0. 0. 0. 0. 0. 0. 0. 0. 0. 0. 0. 0. 0. 0. 0. 0. 3.22539836e-01 0.
      0. 0. 6.19222876e-04 0. 2.69953847e-01 9.02140215e-02
      3.22539836e-01 1.69294104e-01 0. 0. 0. 7.43849725e-02 0.
      3.22539836e-01 3.22539836e-01 1.69294104e-01 0. 0. 0. 0.
      4.16510999e-02 0. 8.55101570e-02 2.85760686e-02 0. 0. 0. 0. 0. 0.
      0. 0. 0. 0. 1.02188453e-01 0. 0. 0. 3.53802070e-02 0.
      1.54839784e-01 5.17447516e-02 1.02188453e-01 5.53136617e-02 0. 0.
      0. 3.22539836e-01 0. 3.22539836e-01 2.30339542e-01 5.53136617e-02
      0. 0. 0. 0. 2.48148754e-01 0. 1.93246186e-01 6.45796508e-02 0. 0.
      0. 0. 0. 0. 0. 0. 0. 0. 0. 0. 0. 0. 0. 0. 0. 0. 0. 0.
      1.47621371e-02 4.41739522e-02 0. 1.34846075e-02 0. 0. 0. 0.
      3.24248634e-02 8.86935666e-02 2.65404820e-01 0. 1.16180824e-02 0.
      0. 0. 3.24248634e-02 8.12944919e-02 1.99752338e-02 5.97734116e-02
      0. 0. 0. 0. 0. 8.12944919e-02 0. 0. 0. 0. 0. 0. 0. 0. 0. 0.
      5.68160228e-02 1.70015186e-01 0. 3.20867389e-01 0. 0. 0. 0.
      8.44634976e-03 2.11766690e-01 3.20867389e-01 0. 3.20867389e-01 0.
      0. 0. 8.44634976e-03 4.45147231e-02 2.83004530e-02 8.46854225e-02
      0. 0. 0. 0. 0. 4.45147231e-02 0. 0. 0. 0. 0. 0. 0. 0. 0. 0.
      2.46322132e-03 7.37088732e-03 0. 3.20867389e-01 0. 9.87401083e-02
      3.29972208e-02 0. 7.55650876e-03 1.33918459e-02 4.00733724e-02 0.
      3.20867389e-01 0. 3.20867389e-01 1.24111228e-01 7.55650876e-03
      2.64637340e-02 1.96002470e-03 5.86513896e-03 0. 0. 0.
      3.60869430e-02 1.20596532e-02 2.64637340e-02 0. 0. 0. 0. 0. 0. 0.
      0. 0. 0. 0. 0. 0. 6.05147108e-02 0. 9.40296128e-02 3.14230472e-02
      0. 4.43250686e-02 4.80118499e-04 1.43669778e-03 0. 4.85992432e-02
      0. 3.20867389e-01 1.28217414e-01 4.43250686e-02 8.86526182e-02
      5.28130867e-03 1.58036910e-02 0. 0. 0. 5.73202819e-02
      1.91554725e-02 8.86526182e-02 3.52181047e-02 4.04055752e-02
      1.20908737e-01 0. 6.64495281e-04 0. 0. 0. 3.52181047e-02
      2.22994208e-01 2.03670189e-02 6.09457828e-02 0. 0. 0. 0. 0.
      2.22994208e-01 2.22994208e-01 0. 0. 0. 2.88365205e-04 0.
      7.91917443e-02 2.64645182e-02 2.22994208e-01 3.30592319e-02 0. 0.
      0. 1.08033288e-02 0. 1.42130524e-01 4.74976152e-02 3.30592319e-02
      1.29677635e-02 8.10458884e-02 2.22994208e-01 0. 8.10080916e-02 0.
      0. 0. 1.29677635e-02 1.51709080e-01 2.18760371e-02 6.54611886e-02
      0. 0. 0. 0. 0. 1.51709080e-01 1.56864151e-01 1.20672310e-04
      3.61097569e-04 0. 3.37792672e-02 0. 1.14390813e-01 3.82273979e-02
      1.56864151e-01 3.49600725e-02 1.32739672e-03 3.97207728e-03 0.
      2.22994208e-01 0. 2.22994208e-01 7.49331042e-02 3.49600725e-02
      9.24198609e-03 4.52176295e-03 1.35307917e-02 0. 1.43357962e-01 0.
      1.33101940e-01 4.44804356e-02 9.24198609e-03 9.22393203e-02
      4.24052542e-03 1.26892691e-02 0. 0. 0. 2.59183440e-02
      8.66147690e-03 9.22393203e-02 1.08533353e-01 2.43851785e-02
      7.29697570e-02 0. 2.66457126e-02 0. 2.96560023e-03 9.91051667e-04
      1.08533353e-01 1.66518334e-02 6.60468489e-02 1.97637215e-01 0.
      2.22994208e-01 0. 3.26216370e-02 1.09015787e-02 1.66518334e-02
      4.32060882e-02 1.13226159e-03 3.38815851e-03 0. 4.22803499e-03 0.
      1.51002333e-01 5.04623987e-02 4.32060882e-02 2.22994208e-01
      1.24548711e-02 3.72697301e-02 0. 0. 0. 4.75647785e-02
      1.58953462e-02 2.22994208e-01 2.22994208e-01 2.82578897e-02
      8.45583081e-02 0. 3.66792479e-03 0. 0. 0. 2.22994208e-01
      5.13751730e-02 5.18717580e-02 1.55219734e-01 0. 4.58764322e-02 0.
      0. 0. 5.13751730e-02 6.58268556e-02 0. 0. 0. 5.36785461e-04 0.
      6.12687543e-02 2.04749629e-02 6.58268556e-02 2.80978009e-02 0. 0.
      0. 4.18933518e-02 0. 2.50874013e-01 8.38378817e-02 2.80978009e-02
      0. 0. 0. 0. 2.22484823e-02 0. 3.50166857e-02 1.17019918e-02 0. 0.
      0. 0. 0. 0. 0. 0. 0. 0. 4.65144590e-02 2.24628835e-04
      6.72175142e-04 0. 5.00857979e-02 0. 9.36560035e-02 3.12981904e-02
      4.65144590e-02 3.53899300e-02 3.87355709e-03 1.15911439e-02 0.
      3.15891355e-01 0. 3.15891355e-01 1.60950333e-01 3.53899300e-02 0.
      1.96369691e-03 5.87610761e-03 0. 3.15891355e-01 0. 1.82156056e-01
      6.08735122e-02 0. 0. 0. 0. 0. 0. 0. 0. 0. 0. 3.05703767e-02
      2.33803038e-02 6.99627846e-02 0. 4.01723348e-02 0. 5.52039966e-03
      1.84482057e-03 3.05703767e-02 1.20344888e-02 1.48278803e-01
      3.15891355e-01 0. 3.15891355e-01 0. 9.51950476e-02 3.18125486e-02
      1.20344888e-02 0. 5.77560961e-02 1.72827601e-01 0. 3.15891355e-01
      0. 4.82589528e-02 1.61273330e-02 0. 0. 0. 0. 0. 0. 0. 0. 0. 0.
      8.17734301e-02 2.14650165e-02 6.42314628e-02 0. 6.20813528e-03 0.
      0. 0. 8.17734301e-02 4.86369170e-02 1.02123439e-01 3.05591315e-01
      0. 1.28611341e-01 0. 0. 0. 4.86369170e-02 0. 2.29916498e-02
      6.87995329e-02 0. 5.09816855e-02 0. 0. 0. 0. 0. 0. 0. 0. 0. 0. 0.
      0. 0. 0. 0. 0. 0. 0. 0. 0. 0. 0. 0. 0. 0. 0. 3.14570695e-01 0.
      1.34461775e-01 4.49347757e-02 0. 1.74785014e-02 4.25439968e-04
      1.27307873e-03 0. 3.14570695e-01 0. 3.14570695e-01 1.56628028e-01
      1.74785014e-02 5.79289086e-02 4.67984471e-03 1.40038794e-02 0. 0.
      0. 6.12166822e-02 2.04575919e-02 5.79289086e-02 0. 0. 0. 0. 0. 0.
      0. 0. 0. 0. 0. 0. 0. 8.05265605e-02 0. 2.08715677e-01
      6.97491243e-02 0. 2.29024112e-01 1.27631996e-03 3.81923630e-03 0.
      6.55427724e-02 0. 3.14570695e-01 3.14570695e-01 2.29024112e-01
      3.14570695e-01 1.40395323e-02 4.20116372e-02 0. 0. 0.
      1.76318467e-01 5.89226224e-02 3.14570695e-01 0. 0. 0. 0. 0. 0. 0.
      0. 0. 0. 0. 0. 0. 0. 0. 1.21942756e-03 4.07511310e-04 0.
      6.67366385e-02 0. 0. 0. 0. 0. 7.63070509e-02 2.55004764e-02
      6.67366385e-02 1.24629878e-01 0. 0. 0. 0. 0. 2.57423259e-02
      8.60263314e-03 1.24629878e-01 0. 0. 0. 0. 0. 0. 0. 0. 0. 0. 0. 0.
      0. 0. 0. 0. 0. 0. 0. 0. 0. 0. 0. 0. 0. 0. 0. 0. 0. 0. 0. 0. 0. 0.
      0. 0. 1.26128029e-02 5.98810788e-04 1.79187022e-03 0.
      3.29241082e-02 0. 1.04820818e-01 3.50293592e-02 1.26128029e-02
      1.18937880e-01 6.58691488e-03 1.97105613e-02 0. 0. 0.
      2.86504943e-02 9.57451761e-03 1.18937880e-01 1.35445088e-01
      2.15905048e-02 6.46070167e-02 0. 8.31891224e-03 0. 0. 0.
      1.35445088e-01 1.74464714e-02 4.41594906e-02 1.32141933e-01 0.
      7.68183470e-02 0. 0. 0. 1.74464714e-02 1.26245722e-01
      1.79643242e-03 5.37561113e-03 0. 2.93040974e-03 0. 2.74171054e-01
      9.16232169e-02 1.26245722e-01 3.21655482e-01 1.97607465e-02
      5.91316894e-02 0. 0. 0. 8.71249586e-02 2.91156676e-02
      3.21655482e-01 3.21655482e-01 4.83460054e-02 1.44669384e-01 0.
      4.60210629e-03 0. 0. 0. 3.21655482e-01 1.44093826e-01
      8.87205750e-02 2.65484989e-01 0. 8.32404718e-02 0. 0. 0.
      1.44093826e-01 3.84038053e-02 0. 0. 0. 0. 0. 2.75831167e-02
      9.21779405e-03 3.84038053e-02 2.13950291e-01 0. 0. 0. 0. 0.
      1.15809469e-02 3.87014938e-03 2.13950291e-01 2.17432886e-01
      8.11580848e-03 2.42855009e-02 0. 0. 0. 0. 0. 2.17432886e-01
      3.80788073e-02 9.19517968e-03 2.75153760e-02 0. 3.13845999e-03 0.
      0. 0. 3.80788073e-02 0. 0. 0. 0. 0. 0. 0. 0. 0. 0. 0. 0. 0. 0. 0.
      0. 0. 0. 0. 0. 0. 0. 0. 0. 0. 0. 0. 0. 0. 0. 0. 0. 0. 0. 0. 0.
      6.44962564e-02 3.20891589e-02 9.60230008e-02 0. 2.26346087e-02 0.
      0. 0. 6.44962564e-02 2.22809855e-02 1.67505249e-01 2.92011559e-01
      0. 2.92011559e-01 0. 0. 0. 2.22809855e-02 0. 5.66688292e-02
      1.69574082e-01 0. 2.68195599e-01 0. 0. 0. 0. 0. 0. 0. 0. 0. 0. 0.
      0. 0. 2.92011559e-01 6.67030737e-02 1.99600577e-01 0.
      1.48824602e-02 0. 0. 0. 2.92011559e-01 2.63681114e-01
      2.91521102e-01 2.92011559e-01 0. 2.92011559e-01 0. 0. 0.
      2.63681114e-01 0. 4.78180908e-02 1.43089399e-01 0. 7.26397187e-02
      0. 0. 0. 0. 0. 0. 0. 0. 0. 0. 0. 0. 0. 1.09541051e-01
      1.16994223e-02 3.50089967e-02 0. 0. 0. 0. 0. 1.09541051e-01
      6.56348094e-02 1.63107142e-02 4.88076843e-02 0. 1.46062542e-02 0.
      0. 0. 6.56348094e-02 0. 0. 0. 0. 1.32784201e-03 0. 0. 0. 0. 0. 0.
      0. 0. 0. 0. 0. 0. 0. 0. 0. 0. 0. 0. 0. 0. 0. 0. 0. 0. 0. 0. 0. 0.
      0. 0. 0. 0. 0. 0. 0. 0. 0. 0. 0. 0. 0. 0. 0. 0. 0. 0. 0. 0. 0.</_>
    <_>
      0. 0. 0. 0. 0. 0. 0. 0. 0. 0. 0. 0. 0. 0. 0. 0. 0. 0. 0. 0. 0. 0.
      0. 0. 0. 0. 0. 0. 0. 0. 0. 0. 0. 0. 0. 0. 0. 0. 0. 0. 0. 0. 0. 0.
      0. 0. 0. 0. 0. 0. 0. 0. 0. 0. 8.69078562e-03 0. 0. 0. 0. 0. 0. 0.
      8.69078562e-03 2.10290030e-02 0. 0. 0. 0. 0. 0. 0. 2.10290030e-02
      0. 0. 0. 0. 0. 0. 0. 0. 0. 0. 2.82812398e-03 8.46282672e-03 0.
      1.99864693e-02 0. 0. 0. 0. 1.61190331e-01 2.56441891e-01
      3.41841131e-01 0. 1.97129577e-01 0. 0. 0. 1.61190331e-01
      3.41841131e-01 1.07826605e-01 3.22657704e-01 0. 5.63533697e-03 0.
      0. 0. 3.41841131e-01 0. 0. 0. 0. 0. 0. 0. 0. 0. 0. 5.46948193e-03
      1.63667761e-02 0. 1.15483843e-01 0. 0. 0. 0. 2.08898392e-02
      2.00940520e-01 3.41841131e-01 0. 3.41841131e-01 0. 0. 0.
      2.08898392e-02 9.78222862e-02 7.83372968e-02 2.34414250e-01 0.
      5.77092320e-02 0. 0. 0. 9.78222862e-02 0. 0. 0. 0. 0. 0. 0. 0. 0.
      0. 0. 0. 0. 0. 0. 0. 0. 0. 0. 0. 0. 0. 0. 0. 0. 0. 0. 0. 0. 0. 0.
      0. 0. 0. 0. 0. 4.45642928e-03 0. 0. 0. 0. 0. 0. 0. 4.45642928e-03
      2.62639057e-02 0. 0. 0. 0. 0. 0. 0. 2.62639057e-02 2.80711465e-02
      0. 0. 0. 0. 0. 0. 0. 2.80711465e-02 5.19120600e-03 0. 0. 0. 0. 0.
      0. 0. 5.19120600e-03 9.11786258e-02 7.02087209e-02 2.10091054e-01
      0. 2.99886093e-02 0. 0. 0. 9.11786258e-02 3.49476904e-01
      5.47739342e-02 1.63904086e-01 0. 1.10912218e-03 0. 2.60074828e-02
      8.69124476e-03 3.49476904e-01 3.49476904e-01 1.80874746e-02
      5.41244075e-02 0. 1.05443606e-02 0. 2.00370550e-01 6.69603869e-02
      3.49476904e-01 1.21101491e-01 0. 0. 0. 5.88349290e-02 0.
      2.39148691e-01 7.99194649e-02 1.21101491e-01 1.33394618e-02
      5.22230864e-02 1.56271026e-01 0. 1.50645837e-01 0. 0. 0.
      1.33394618e-02 1.47192866e-01 4.09938879e-02 1.22668900e-01 0.
      1.38272233e-02 0. 1.85767803e-02 6.20803330e-03 1.47192866e-01
      1.56462625e-01 1.29196281e-02 3.86603028e-02 0. 3.73151340e-02 0.
      1.27517924e-01 4.26142626e-02 1.56462625e-01 3.01687568e-02 0. 0.
      0. 2.31667593e-01 0. 1.55627310e-01 5.20079769e-02 3.01687568e-02
      0. 0. 0. 0. 0. 0. 0. 0. 0. 0. 0. 0. 0. 0. 0. 0. 0. 0. 0. 0. 0. 0.
      0. 0. 0. 0. 0. 0. 0. 0. 0. 0. 0. 0. 0. 0. 1.89851299e-02 0. 0. 0.
      0. 0. 0. 0. 1.89851299e-02 8.23573116e-03 0. 0. 0. 0. 0. 0. 0.
      8.23573116e-03 0. 0. 0. 0. 0. 0. 0. 0. 0. 0. 0. 0. 0. 0. 0. 0. 0.
      0. 3.44065130e-01 1.00398185e-02 3.00428476e-02 0. 2.88138017e-02
      0. 2.85576433e-01 9.54347774e-02 3.44065130e-01 1.81445599e-01 0.
      0. 0. 2.60101199e-01 0. 3.44065130e-01 2.46320322e-01
      1.81445599e-01 0. 0. 0. 0. 2.13192068e-02 0. 8.89441278e-03
      2.97236396e-03 0. 0. 0. 0. 0. 0. 0. 0. 0. 0. 1.03154577e-01
      7.17130071e-03 2.14591827e-02 0. 1.05774321e-01 0. 1.67297944e-01
      5.59080690e-02 1.03154577e-01 4.62921821e-02 0. 0. 0.
      3.44065130e-01 0. 3.44065130e-01 1.80290177e-01 4.62921821e-02 0.
      0. 0. 0. 1.24004021e-01 0. 1.72014460e-02 5.74843632e-03 0. 0. 0.
      0. 0. 0. 0. 0. 0. 0. 0. 0. 0. 0. 0. 0. 0. 0. 0. 0. 1.51902495e-03
      4.54550236e-03 0. 1.12187304e-02 0. 0. 0. 0. 2.71767601e-02
      7.99629837e-02 2.39279538e-01 0. 9.53254923e-02 0. 0. 0.
      2.71767601e-02 1.03795148e-01 3.32702771e-02 9.95570943e-02 0.
      2.97631882e-03 0. 0. 0. 1.03795148e-01 0. 0. 0. 0. 0. 0. 0. 0. 0.
      0. 3.12659657e-03 9.35596973e-03 0. 1.65818080e-01 0. 0. 0. 0.
      7.14625232e-03 1.05734147e-01 3.16396266e-01 0. 4.12343979e-01 0.
      2.62415837e-02 8.76949914e-03 7.14625232e-03 3.04038115e-02
      3.83743756e-02 1.14830352e-01 0. 1.02429390e-01 0. 8.74719396e-03
      2.92316615e-03 3.04038115e-02 0. 0. 0. 0. 0. 0. 0. 0. 0. 0. 0. 0.
      0. 1.51912063e-01 0. 1.49212256e-02 4.98641143e-03 0.
      1.10734766e-02 0. 0. 0. 4.12343979e-01 0. 4.12343979e-01
      1.55823424e-01 1.10734766e-02 5.53181693e-02 0. 0. 0.
      1.14420623e-01 0. 1.78592294e-01 5.96825518e-02 5.53181693e-02 0.
      0. 0. 0. 0. 0. 0. 0. 0. 0. 0. 0. 0. 8.77119508e-03 0.
      2.89769261e-03 9.68357956e-04 0. 4.82658260e-02 0. 0. 0.
      1.34394035e-01 0. 1.98331520e-01 6.62789494e-02 4.82658260e-02
      1.24355204e-01 0. 0. 0. 6.47352589e-03 0. 1.03916995e-01
      3.47272754e-02 1.24355204e-01 2.27464382e-02 3.06240246e-02
      9.16386172e-02 0. 2.05734335e-02 0. 0. 0. 2.27464382e-02
      2.14063451e-01 2.55625173e-02 7.64925554e-02 0. 8.39364424e-04 0.
      1.26693761e-02 4.23388369e-03 2.14063451e-01 2.20349610e-01
      8.81119631e-03 2.63663586e-02 0. 8.50589853e-03 0. 8.81098285e-02
      2.94447728e-02 2.20349610e-01 3.49132046e-02 0. 0. 0.
      4.19693328e-02 0. 9.81466323e-02 3.27989459e-02 3.49132046e-02
      6.60916744e-03 3.90453525e-02 1.16838269e-01 0. 2.37535551e-01 0.
      1.03282239e-02 3.45151988e-03 6.60916744e-03 6.33792728e-02
      2.58844122e-02 7.74557441e-02 0. 3.67757119e-02 0. 1.24922972e-02
      4.17470932e-03 6.33792728e-02 7.29770958e-02 6.29371172e-03
      1.88331138e-02 0. 6.52753636e-02 0. 7.24612549e-02 2.42152810e-02
      7.29770958e-02 1.62528437e-02 0. 0. 0. 2.37535551e-01 0.
      1.13556504e-01 3.79486270e-02 1.62528437e-02 8.80703330e-03 0. 0.
      0. 2.37535551e-01 0. 1.78025961e-01 5.94932660e-02 8.80703330e-03
      1.32467672e-01 7.81683601e-04 2.33908650e-03 0. 4.68930304e-02 0.
      1.12783231e-01 3.76902670e-02 1.32467672e-01 1.61287144e-01
      2.61209682e-02 7.81638250e-02 0. 5.36923185e-02 0. 5.91134094e-03
      1.97546626e-03 1.61287144e-01 2.19347756e-02 5.98343462e-02
      1.79046869e-01 0. 2.37535551e-01 0. 2.59371038e-04 8.66772389e-05
      2.19347756e-02 3.10290977e-02 0. 0. 0. 3.18865478e-02 0.
      8.41733515e-02 2.81292815e-02 3.10290977e-02 2.37535551e-01
      8.59852880e-03 2.57299785e-02 0. 2.03371514e-03 0. 8.34321007e-02
      2.78815795e-02 2.37535551e-01 2.37535551e-01 4.61000055e-02
      1.37948379e-01 0. 6.52400684e-03 0. 6.50248155e-02 2.17301510e-02
      2.37535551e-01 4.41869311e-02 3.40454131e-02 1.01876609e-01 0.
      4.68123034e-02 0. 2.85308412e-03 9.53450624e-04 4.41869311e-02
      9.40592363e-02 3.34504293e-03 1.00096054e-02 0. 1.54713029e-02 0.
      7.88309202e-02 2.63439361e-02 9.40592363e-02 3.59925814e-02 0. 0.
      0. 1.25399336e-01 0. 2.18490779e-01 7.30159432e-02 3.59925814e-02
      0. 0. 0. 0. 1.17757255e-02 0. 4.68181446e-03 1.56458397e-03 0. 0.
      0. 0. 0. 0. 0. 0. 0. 0. 3.54442745e-02 2.38931645e-03
      7.14971870e-03 0. 1.34171247e-01 0. 7.53059015e-02 2.51659155e-02
      3.54442745e-02 1.69361811e-02 0. 0. 0. 4.44892704e-01 0.
      2.73711354e-01 9.14696530e-02 1.69361811e-02 0. 0. 0. 0.
      1.74505919e-01 0. 9.63653997e-03 3.22037051e-03 0. 0. 0. 0. 0. 0.
      0. 0. 0. 0. 6.61472976e-02 3.64983976e-02 1.09217063e-01 0.
      1.19686499e-01 0. 2.67265551e-03 8.93154589e-04 6.61472976e-02
      2.51139663e-02 1.41609684e-01 4.23749268e-01 0. 4.44892704e-01 0.
      1.37421128e-04 4.59237272e-05 2.51139663e-02 0. 5.13595995e-03
      1.53686935e-02 0. 1.57239139e-01 0. 0. 0. 0. 0. 0. 0. 0. 0. 0. 0.
      0. 0. 1.01403616e-01 3.59539874e-02 1.07587777e-01 0.
      1.48420576e-02 0. 2.93992367e-02 9.82470997e-03 1.01403616e-01
      6.00043945e-02 6.33115992e-02 1.89451933e-01 0. 1.33934304e-01 0.
      1.51163398e-03 5.05161530e-04 6.00043945e-02 0. 9.97400261e-04
      2.98459036e-03 0. 5.46140037e-03 0. 0. 0. 0. 0. 0. 0. 0. 0. 0. 0.
      0. 0. 0. 0. 0. 0. 0. 0. 0. 0. 0. 0. 0. 0. 0. 8.95127058e-02 0.
      1.72917340e-02 5.77859441e-03 0. 4.06589694e-02 0. 0. 0.
      3.17830414e-01 0. 3.17830414e-01 2.01438010e-01 4.06589694e-02
      1.43430680e-01 0. 0. 0. 6.93826377e-02 0. 2.51157403e-01
      8.39325711e-02 1.43430680e-01 0. 0. 0. 0. 0. 0. 0. 0. 0. 0. 0. 0.
      0. 1.74834207e-02 0. 3.70508060e-03 1.23817299e-03 0.
      2.24584267e-01 0. 0. 0. 2.66325116e-01 0. 3.17830414e-01
      1.91598967e-01 2.24584267e-01 3.17830414e-01 0. 0. 0.
      9.72992182e-03 0. 3.17830414e-01 1.13584623e-01 3.17830414e-01 0.
      0. 0. 0. 0. 0. 0. 0. 0. 0. 0. 0. 0. 0. 0. 0. 0. 0. 2.01989478e-03
      0. 0. 0. 0. 0. 0. 0. 2.01989478e-03 1.69519410e-02 0. 0. 0. 0. 0.
      0. 0. 1.69519410e-02 0. 0. 0. 0. 0. 0. 0. 0. 0. 0. 0. 0. 0. 0. 0.
      0. 0. 0. 0. 0. 0. 0. 0. 0. 0. 0. 0. 0. 0. 0. 0. 0. 0. 0. 0. 0.
      1.83906127e-02 0. 0. 0. 1.25459090e-01 0. 1.48171499e-01
      4.95163947e-02 1.83906127e-02 2.02855363e-01 2.58820574e-03
      7.74486829e-03 0. 1.80242397e-02 0. 1.10222109e-01 3.68343741e-02
      2.02855363e-01 2.42987007e-01 3.50010879e-02 1.04736455e-01 0.
      2.15842891e-02 0. 1.95728354e-02 6.54089870e-03 2.42987007e-01
      3.86981629e-02 5.86328134e-02 1.75451398e-01 0. 1.79884970e-01 0.
      8.58794374e-04 2.86994007e-04 3.86981629e-02 8.91261548e-02 0. 0.
      0. 3.87304910e-02 0. 1.62086532e-01 5.41664921e-02 8.91261548e-02
      2.95966834e-01 2.84702461e-02 8.51935074e-02 0. 1.86050916e-03 0.
      1.81159094e-01 6.05402291e-02 2.95966834e-01 2.95966834e-01
      1.24860510e-01 2.95966834e-01 0. 1.11263888e-02 0. 2.15301096e-01
      7.19498396e-02 2.95966834e-01 1.05078474e-01 5.80747612e-02
      1.73781335e-01 0. 7.44371489e-02 0. 9.44673363e-03 3.15693254e-03
      1.05078474e-01 1.47759065e-03 0. 0. 0. 0. 0. 0. 0. 1.47759065e-03
      2.29137428e-02 0. 0. 0. 0. 0. 0. 0. 2.29137428e-02 1.64750870e-02
      0. 0. 0. 0. 0. 0. 0. 1.64750870e-02 1.66175351e-03 0. 0. 0. 0. 0.
      0. 0. 1.66175351e-03 0. 0. 0. 0. 0. 0. 0. 0. 0. 0. 0. 0. 0. 0. 0.
      0. 0. 0. 0. 0. 0. 0. 0. 0. 0. 0. 0. 0. 0. 0. 0. 0. 0. 0. 0. 0.
      1.64743483e-01 6.59179240e-02 1.97251365e-01 0. 7.80496970e-02 0.
      1.41200973e-02 4.71868878e-03 1.64743483e-01 7.69032538e-02
      2.08007157e-01 3.05490315e-01 0. 3.05490315e-01 0. 7.26019265e-04
      2.42622918e-04 7.69032538e-02 0. 5.98883629e-03 1.79208145e-02 0.
      8.75485986e-02 0. 0. 0. 0. 0. 0. 0. 0. 0. 0. 0. 0. 0.
      3.05490315e-01 1.29339293e-01 3.05490315e-01 0. 4.04191352e-02 0.
      1.55320987e-01 5.19055463e-02 3.05490315e-01 2.34395027e-01
      1.45956710e-01 3.05490315e-01 0. 3.05490315e-01 0. 7.98620749e-03
      2.66885036e-03 2.34395027e-01 0. 1.28322118e-03 3.83987231e-03 0.
      8.31401534e-03 0. 0. 0. 0. 0. 0. 0. 0. 0. 0. 0. 0. 0.
      9.55470465e-03 0. 0. 0. 0. 0. 0. 0. 9.55470465e-03 1.81128713e-03
      0. 0. 0. 0. 0. 0. 0. 1.81128713e-03 0. 0. 0. 0. 0. 0. 0. 0. 0. 0.
      0. 0. 0. 0. 0. 0. 0. 0. 0. 0. 0. 0. 0. 0. 0. 0. 0. 0. 0. 0. 0. 0.
      0. 0. 0. 0. 0. 0. 0. 0. 0. 0. 0. 0. 0. 0. 0. 0. 0. 0. 0. 0. 0. 0.</_>
    <_>
      0. 0. 0. 0. 0. 0. 0. 0. 0. 0. 0. 0. 0. 0. 0. 0. 0. 0. 0. 0. 0. 0.
      0. 0. 0. 0. 0. 0. 0. 0. 0. 0. 0. 0. 0. 0. 0. 0. 0. 0. 0. 0. 0. 0.
      0. 0. 0. 0. 0. 0. 0. 0. 0. 0. 7.78209371e-03 0. 0. 0. 0. 0. 0. 0.
      7.78209371e-03 1.88302491e-02 0. 0. 0. 0. 0. 0. 0. 1.88302491e-02
      0. 0. 0. 0. 0. 0. 0. 0. 0. 0. 2.20275261e-02 6.59147575e-02 0.
      2.90630162e-02 0. 0. 0. 0. 2.72188455e-01 2.46994421e-01
      3.14381570e-01 0. 1.25295311e-01 0. 0. 0. 2.72188455e-01
      3.14381570e-01 5.76014742e-02 1.72365367e-01 0. 0. 0. 0. 0.
      3.14381570e-01 0. 0. 0. 0. 0. 0. 0. 0. 0. 0. 7.81823024e-02
      2.33951241e-01 0. 1.76514387e-01 0. 0. 0. 0. 4.64808047e-02
      2.81032741e-01 3.14381570e-01 0. 3.14381570e-01 0. 0. 0.
      4.64808047e-02 1.37480438e-01 5.02517149e-02 1.50371760e-01 0.
      5.19894203e-03 0. 0. 0. 1.37480438e-01 0. 0. 0. 0. 0. 0. 0. 0. 0.
      0. 0. 0. 0. 0. 0. 0. 0. 0. 0. 0. 0. 0. 0. 0. 0. 0. 0. 0. 0. 0. 0.
      0. 0. 0. 0. 0. 4.48438060e-03 0. 0. 0. 0. 0. 0. 0. 4.48438060e-03
      2.84369513e-02 2.66216858e-03 7.96622410e-03 0. 0. 0. 0. 0.
      2.84369513e-02 7.84569755e-02 5.31049538e-03 1.58910267e-02 0. 0.
      0. 7.98680447e-03 2.66905664e-03 7.84569755e-02 1.37708047e-02 0.
      0. 0. 0. 0. 7.78637873e-03 2.60207755e-03 1.37708047e-02
      1.27905756e-01 6.11016899e-02 1.82839394e-01 0. 1.65817887e-02 0.
      0. 0. 1.27905756e-01 3.21793020e-01 5.25520332e-02 1.57255620e-01
      0. 0. 0. 0. 0. 3.21793020e-01 3.21793020e-01 5.84155060e-02
      1.74801469e-01 0. 0. 0. 1.41441360e-01 4.72673140e-02
      3.21793020e-01 1.46879479e-01 0. 0. 0. 3.43140289e-02 0.
      2.74431705e-01 9.17104483e-02 1.46879479e-01 2.53200624e-02
      5.69959991e-02 1.70553356e-01 0. 4.96799313e-02 0. 0. 0.
      2.53200624e-02 2.21947387e-01 2.05942094e-02 6.16255067e-02 0.
      1.14988012e-03 0. 0. 0. 2.21947387e-01 2.18752414e-01 0. 0. 0.
      1.45610911e-03 0. 7.03866184e-02 2.35219691e-02 2.18752414e-01
      2.78499611e-02 0. 0. 0. 6.06123358e-02 0. 1.91028163e-01
      6.38383105e-02 2.78499611e-02 0. 0. 0. 0. 0. 0. 0. 0. 0. 0. 0. 0.
      0. 0. 0. 0. 0. 0. 0. 0. 0. 0. 0. 0. 0. 0. 0. 0. 0. 0. 0. 0. 0. 0.
      0. 0. 4.76187505e-02 1.48060662e-03 4.43053897e-03 0. 0. 0.
      1.11059714e-02 3.71143012e-03 4.76187505e-02 1.64951030e-02 0. 0.
      0. 0. 0. 1.14443535e-02 3.82451154e-03 1.64951030e-02 0. 0. 0. 0.
      0. 0. 0. 0. 0. 0. 0. 0. 0. 0. 0. 0. 0. 0. 2.90879220e-01
      1.62866898e-02 4.87359874e-02 0. 0. 0. 2.24496663e-01
      7.50229955e-02 2.90879220e-01 2.88453907e-01 0. 0. 0.
      2.01760471e-01 0. 2.90879220e-01 2.57725149e-01 2.88453907e-01
      7.21350405e-03 0. 0. 0. 6.31136298e-02 0. 9.69759598e-02
      3.24077494e-02 7.21350405e-03 0. 0. 0. 0. 0. 0. 0. 0. 0.
      9.79011357e-02 0. 0. 0. 4.78452258e-03 0. 1.25043958e-01
      4.17875014e-02 9.79011357e-02 4.59218472e-02 0. 0. 0.
      2.90879220e-01 0. 2.90879220e-01 2.35024899e-01 4.59218472e-02
      6.55772514e-04 0. 0. 0. 2.64888108e-01 0. 2.23860621e-01
      7.48104751e-02 6.55772514e-04 0. 0. 0. 0. 0. 0. 0. 0. 0. 0. 0. 0.
      0. 0. 0. 0. 0. 0. 0. 1.12532824e-02 3.36741097e-02 0.
      1.00470157e-02 0. 0. 0. 0. 4.87780049e-02 7.68363178e-02
      2.29923338e-01 0. 4.74063307e-02 0. 0. 0. 4.87780049e-02
      1.02463603e-01 1.68593321e-02 5.04494347e-02 0. 0. 0. 0. 0.
      1.02463603e-01 0. 0. 0. 0. 0. 0. 0. 0. 0. 0. 6.35832250e-02
      1.90265253e-01 0. 3.20168227e-01 0. 0. 0. 0. 1.29431700e-02
      1.86829835e-01 3.20168227e-01 0. 3.20168227e-01 0. 0. 0.
      1.29431700e-02 4.90567461e-02 2.96570938e-02 8.87450054e-02 0.
      1.61470957e-02 0. 0. 0. 4.90567461e-02 0. 0. 0. 0. 0. 0. 0. 0. 0.
      0. 1.62349478e-03 4.85811569e-03 0. 3.20168227e-01 0.
      1.37119949e-01 4.58230786e-02 0. 5.03731938e-03 3.44256498e-03
      1.03014410e-02 0. 3.20168227e-01 0. 3.20168227e-01 1.34355187e-01
      5.03731938e-03 3.01592611e-02 2.07538513e-04 6.21032028e-04 0.
      2.26059314e-02 0. 6.82210848e-02 2.27983464e-02 3.01592611e-02 0.
      0. 0. 0. 0. 0. 0. 0. 0. 0. 0. 0. 0. 3.36657204e-02 0.
      7.67145008e-02 2.56366376e-02 0. 3.38601917e-02 0. 0. 0.
      3.45493853e-02 0. 3.20168227e-01 1.28922328e-01 3.38601917e-02
      9.41443443e-02 0. 0. 0. 0. 0. 7.82620758e-02 2.61538588e-02
      9.41443443e-02 4.44465131e-02 3.38482223e-02 1.01286642e-01 0.
      1.22223906e-02 0. 0. 0. 4.44465131e-02 2.25400791e-01
      2.01169755e-02 6.01975694e-02 0. 0. 0. 0. 0. 2.25400791e-01
      2.25400791e-01 1.32209044e-02 3.95619869e-02 0. 0. 0.
      5.83012216e-02 1.94832701e-02 2.25400791e-01 4.78750430e-02 0. 0.
      0. 1.88606605e-02 0. 1.25352487e-01 4.18906733e-02 4.78750430e-02
      1.50541533e-02 6.73841462e-02 2.01638475e-01 0. 1.68065175e-01 0.
      0. 0. 1.50541533e-02 1.55087471e-01 2.16223393e-02 6.47020414e-02
      0. 6.76779123e-03 0. 0. 0. 1.55087471e-01 1.58771753e-01 0. 0. 0.
      6.80831494e-03 0. 7.67185241e-02 2.56379824e-02 1.58771753e-01
      1.68515816e-02 3.20788450e-03 9.59921442e-03 0. 1.78446695e-01 0.
      2.25400791e-01 8.31669345e-02 1.68515816e-02 7.67135480e-03
      9.56850359e-04 2.86324997e-03 0. 2.15022117e-01 0. 1.49724081e-01
      5.00352830e-02 7.67135480e-03 9.87291560e-02 8.69863725e-05
      2.60295405e-04 0. 9.47490614e-03 0. 4.87785786e-02 1.63009856e-02
      9.87291560e-02 1.12757228e-01 1.17392950e-02 3.51284519e-02 0.
      2.06573252e-02 0. 3.29615956e-04 1.10151865e-04 1.12757228e-01
      2.36301590e-02 5.04158065e-02 1.50863275e-01 0. 2.25400791e-01 0.
      1.96244642e-02 6.55815098e-03 2.36301590e-02 3.63757536e-02 0. 0.
      0. 4.02523484e-03 0. 1.58853114e-01 5.30859828e-02 3.63757536e-02
      2.25400791e-01 0. 0. 0. 0. 0. 6.99009821e-02 2.33597159e-02
      2.25400791e-01 2.25400791e-01 1.82074606e-02 5.44835962e-02 0.
      4.37256042e-03 0. 0. 0. 2.25400791e-01 6.31847456e-02
      4.80756424e-02 1.43860310e-01 0. 3.24122086e-02 0. 0. 0.
      6.31847456e-02 6.92132115e-02 2.05549411e-03 6.15082355e-03 0. 0.
      0. 5.27143292e-02 1.76162235e-02 6.92132115e-02 5.24957776e-02 0.
      0. 0. 6.61451146e-02 0. 2.21723586e-01 7.40962923e-02
      5.24957776e-02 1.27055822e-03 0. 0. 0. 2.61373203e-02 0.
      4.52486910e-02 1.51213566e-02 1.27055822e-03 0. 0. 0. 0. 0. 0. 0.
      0. 0. 3.90673205e-02 0. 0. 0. 1.24748303e-02 0. 8.13141912e-02
      2.71737687e-02 3.90673205e-02 1.30467536e-02 8.20310041e-03
      2.45468020e-02 0. 3.26233000e-01 0. 3.26233000e-01 1.77863419e-01
      1.30467536e-02 1.15505267e-04 7.45736761e-04 2.23152875e-03 0.
      3.26233000e-01 0. 1.78044707e-01 5.94995767e-02 1.15505267e-04 0.
      0. 0. 0. 0. 0. 0. 0. 0. 3.40008102e-02 1.25602316e-02
      3.75850052e-02 0. 3.29769216e-02 0. 6.03953202e-04 2.01830539e-04
      3.40008102e-02 2.06518453e-02 1.20979093e-01 3.26233000e-01 0.
      3.26233000e-01 0. 5.13260290e-02 1.71522629e-02 2.06518453e-02 0.
      4.41324636e-02 1.32060677e-01 0. 3.26233000e-01 0. 8.99892952e-03
      3.00728879e-03 0. 0. 0. 0. 0. 0. 0. 0. 0. 0. 8.93111601e-02
      1.58985574e-02 4.75744978e-02 0. 6.38735946e-03 0. 0. 0.
      8.93111601e-02 5.96655272e-02 1.02793351e-01 3.07595938e-01 0.
      1.10823937e-01 0. 0. 0. 5.96655272e-02 0. 2.83639878e-02
      8.48755538e-02 0. 7.44480938e-02 0. 0. 0. 0. 0. 0. 0. 0. 0. 0. 0.
      0. 0. 0. 0. 0. 0. 0. 0. 0. 0. 0. 0. 0. 0. 0. 2.57271886e-01 0.
      1.67516425e-01 5.59810512e-02 0. 1.27992528e-02 0. 0. 0.
      3.24206710e-01 0. 3.24206710e-01 1.82922065e-01 1.27992528e-02
      7.22773746e-02 0. 0. 0. 7.40408478e-03 0. 1.00487597e-01
      3.35812755e-02 7.22773746e-02 0. 0. 0. 0. 0. 0. 0. 0. 0. 0. 0. 0.
      0. 4.17648926e-02 0. 1.49751753e-01 5.00443988e-02 0.
      1.85652807e-01 0. 0. 0. 3.97350192e-02 0. 3.24206710e-01
      3.24206710e-01 1.85652807e-01 3.24206710e-01 0. 0. 0. 0. 0.
      2.76729733e-01 9.24782902e-02 3.24206710e-01 0. 0. 0. 0. 0. 0. 0.
      0. 0. 0. 0. 0. 0. 0. 0. 0. 0. 0. 4.08150479e-02 0. 0. 0. 0. 0.
      4.61404435e-02 1.54193286e-02 4.08150479e-02 1.06793247e-01 0. 0.
      0. 0. 0. 4.62003089e-02 1.54393315e-02 1.06793247e-01 0. 0. 0. 0.
      0. 0. 0. 0. 0. 0. 0. 0. 0. 0. 0. 0. 0. 0. 0. 0. 0. 0. 0. 0. 0. 0.
      0. 0. 0. 0. 0. 0. 0. 0. 0. 0. 1.06193768e-02 0. 0. 0.
      4.66598645e-02 0. 1.16366118e-01 3.88875902e-02 1.06193768e-02
      1.29783794e-01 0. 0. 0. 1.72287715e-03 0. 4.30608280e-02
      1.43902097e-02 1.29783794e-01 1.44861206e-01 1.14090582e-02
      3.41402516e-02 0. 8.79515614e-03 0. 0. 0. 1.44861206e-01
      2.63446476e-02 3.31868902e-02 9.93077680e-02 0. 8.93707797e-02 0.
      0. 0. 2.63446476e-02 1.00252166e-01 0. 0. 0. 2.03592959e-03 0.
      2.81017452e-01 9.39111486e-02 1.00252166e-01 3.21615100e-01 0. 0.
      0. 0. 0. 1.55767575e-01 5.20548262e-02 3.21615100e-01
      3.21615100e-01 3.86311188e-02 1.15598746e-01 0. 2.88176676e-03 0.
      0. 0. 3.21615100e-01 1.60780385e-01 9.65816975e-02 2.89008379e-01
      0. 2.28798538e-02 0. 0. 0. 1.60780385e-01 2.12787353e-02 0. 0. 0.
      0. 0. 2.20527109e-02 7.36962911e-03 2.12787353e-02 1.88290104e-01
      0. 0. 0. 0. 0. 3.29881981e-02 1.10240765e-02 1.88290104e-01
      2.15906367e-01 8.05883016e-03 2.41149999e-02 0. 0. 0. 0. 0.
      2.15906367e-01 3.78114693e-02 1.02345524e-02 3.06255650e-02 0. 0.
      0. 0. 0. 3.78114693e-02 0. 0. 0. 0. 0. 0. 0. 0. 0. 0. 0. 0. 0. 0.
      0. 0. 0. 0. 0. 0. 0. 0. 0. 0. 0. 0. 0. 0. 0. 0. 0. 0. 0. 0. 0. 0.
      7.16948062e-02 1.88229252e-02 5.63253760e-02 0. 2.27046348e-02 0.
      0. 0. 7.16948062e-02 3.81029919e-02 1.28936470e-01 3.02624464e-01
      0. 3.02624464e-01 0. 0. 0. 3.81029919e-02 0. 4.90797982e-02
      1.46864906e-01 0. 3.02624464e-01 0. 0. 0. 0. 0. 0. 0. 0. 0. 0. 0.
      0. 0. 3.02624464e-01 5.55980615e-02 1.66370198e-01 0.
      7.41112186e-03 0. 0. 0. 3.02624464e-01 2.74582833e-01
      3.02624464e-01 3.02624464e-01 0. 1.50293902e-01 0. 0. 0.
      2.74582833e-01 0. 6.93305433e-02 2.07462639e-01 0. 1.10445157e-01
      0. 0. 0. 0. 0. 0. 0. 0. 0. 0. 0. 0. 0. 1.02577791e-01
      1.09557165e-02 3.27835567e-02 0. 0. 0. 0. 0. 1.02577791e-01
      6.14625588e-02 2.01189425e-02 6.02033176e-02 0. 0. 0. 0. 0.
      6.14625588e-02 0. 4.40460542e-04 1.31802086e-03 0. 0. 0. 0. 0. 0.
      0. 0. 0. 0. 0. 0. 0. 0. 0. 0. 0. 0. 0. 0. 0. 0. 0. 0. 0. 0. 0. 0.
      0. 0. 0. 0. 0. 0. 0. 0. 0. 0. 0. 0. 0. 0. 0. 0. 0. 0. 0. 0. 0. 0.
      0.</_>
    <_>
      0. 0. 0. 0. 0. 0. 0. 0. 0. 0. 0. 0. 0. 0. 0. 0. 0. 0. 0. 0. 0. 0.
      0. 0. 0. 0. 0. 0. 0. 0. 0. 0. 0. 0. 0. 0. 0. 0. 0. 0. 0. 0. 0. 0.
      0. 0. 0. 0. 0. 0. 0. 0. 0. 0. 1.99007592e-03 0. 0. 0. 0. 0. 0. 0.
      1.99007592e-03 1.67016871e-02 0. 0. 0. 0. 0. 0. 0. 1.67016871e-02
      0. 0. 0. 0. 0. 0. 0. 0. 0. 0. 4.26406087e-03 1.27596976e-02 0.
      1.06447553e-02 0. 0. 0. 0. 1.19010113e-01 2.35390544e-01
      3.22289824e-01 0. 4.51749638e-02 0. 0. 0. 1.19010113e-01
      3.22289824e-01 1.25076279e-01 3.22289824e-01 0. 2.15285551e-03 0.
      0. 0. 3.22289824e-01 0. 0. 0. 0. 0. 0. 0. 0. 0. 0. 2.49205306e-02
      7.45717287e-02 0. 1.39197409e-01 0. 0. 0. 0. 6.35856539e-02
      2.95474052e-01 3.22289824e-01 0. 3.22289824e-01 0. 0. 0.
      6.35856539e-02 1.96975127e-01 8.29656124e-02 2.48264134e-01 0.
      6.48412481e-02 0. 0. 0. 1.96975127e-01 0. 0. 0. 0. 0. 0. 0. 0. 0.
      0. 0. 0. 0. 0. 0. 0. 0. 0. 0. 0. 0. 0. 0. 0. 0. 0. 0. 0. 0. 0. 0.
      0. 0. 0. 0. 0. 1.42120174e-03 0. 0. 0. 0. 0. 0. 0. 1.42120174e-03
      2.39392612e-02 0. 0. 0. 0. 0. 0. 0. 2.39392612e-02 2.91113444e-02
      0. 0. 0. 0. 0. 0. 0. 2.91113444e-02 5.38356975e-03 0. 0. 0. 0. 0.
      0. 0. 5.38356975e-03 5.71654253e-02 6.24926500e-02 1.87001839e-01
      0. 5.34486398e-03 0. 0. 0. 5.71654253e-02 3.15601617e-01
      5.68246171e-02 1.70040891e-01 0. 5.21640177e-04 0. 0. 0.
      3.15601617e-01 3.15601617e-01 0. 0. 0. 0. 0. 7.39755109e-02
      2.47213747e-02 3.15601617e-01 1.15851387e-01 0. 0. 0.
      2.98682833e-03 0. 2.50383198e-01 8.36738721e-02 1.15851387e-01
      2.93386932e-02 5.88702969e-02 1.76162139e-01 0. 8.19137171e-02 0.
      0. 0. 2.93386932e-02 2.49514356e-01 3.36141065e-02 1.00585938e-01
      0. 1.78789701e-02 0. 0. 0. 2.49514356e-01 2.89571911e-01 0. 0. 0.
      9.49172070e-04 0. 4.47594225e-02 1.49578229e-02 2.89571911e-01
      4.32400443e-02 0. 0. 0. 4.78852615e-02 0. 2.32973829e-01
      7.78558627e-02 4.32400443e-02 0. 0. 0. 0. 0. 0. 0. 0. 0. 0. 0. 0.
      0. 0. 0. 0. 0. 0. 0. 0. 0. 0. 0. 0. 0. 0. 0. 0. 0. 0. 0. 0. 0. 0.
      0. 0. 1.83867421e-02 0. 0. 0. 0. 0. 0. 0. 1.83867421e-02
      7.97615200e-03 0. 0. 0. 0. 0. 0. 0. 7.97615200e-03 0. 0. 0. 0. 0.
      0. 0. 0. 0. 0. 0. 0. 0. 0. 0. 0. 0. 0. 3.33115608e-01 0. 0. 0. 0.
      0. 1.80256501e-01 6.02386966e-02 3.33115608e-01 1.59752265e-01 0.
      0. 0. 2.82965228e-02 0. 3.33115608e-01 2.84673274e-01
      1.59752265e-01 0. 0. 0. 0. 1.75142363e-02 0. 4.71486300e-02
      1.57562848e-02 0. 0. 0. 0. 0. 0. 0. 0. 0. 0. 1.71566293e-01 0. 0.
      0. 3.63556412e-03 0. 1.15675323e-01 3.86566855e-02 1.71566293e-01
      5.83022870e-02 0. 0. 0. 3.33115608e-01 0. 3.33115608e-01
      3.33115608e-01 5.83022870e-02 0. 0. 0. 0. 2.21506491e-01 0.
      1.60592854e-01 5.36674410e-02 0. 0. 0. 0. 0. 0. 0. 0. 0. 0. 0. 0.
      0. 0. 0. 0. 0. 0. 0. 0. 2.09603575e-03 6.27213949e-03 0.
      5.74266072e-03 0. 0. 0. 0. 2.25830376e-02 6.50939196e-02
      1.94785789e-01 0. 2.68925317e-02 0. 0. 0. 2.25830376e-02
      8.12945142e-02 2.58144513e-02 7.72465989e-02 0. 1.57139567e-03 0.
      0. 0. 8.12945142e-02 0. 0. 0. 0. 0. 0. 0. 0. 0. 0. 1.87555123e-02
      5.61236404e-02 0. 2.19960153e-01 0. 0. 0. 0. 3.04142777e-02
      1.67559683e-01 3.53336364e-01 0. 3.53336364e-01 0. 0. 0.
      3.04142777e-02 8.69385228e-02 4.43089232e-02 1.32588759e-01 0.
      9.38616097e-02 0. 0. 0. 8.69385228e-02 0. 0. 0. 0. 0. 0. 0. 0. 0.
      0. 7.55561166e-04 2.26092711e-03 0. 3.28690350e-01 0.
      3.48644182e-02 1.16510764e-02 0. 1.70681730e-03 1.00253578e-02
      2.99996063e-02 0. 3.53336364e-01 0. 3.35761815e-01 1.12205856e-01
      1.70681730e-03 2.44711600e-02 2.58622458e-03 7.73893949e-03 0.
      9.53462198e-02 0. 1.15999691e-01 3.87651622e-02 2.44711600e-02 0.
      0. 0. 0. 0. 0. 0. 0. 0. 0. 0. 0. 0. 2.85420623e-02 0.
      2.24170536e-02 7.49138603e-03 0. 2.06283238e-02 0. 0. 0.
      9.30010527e-02 0. 3.38994175e-01 1.13285974e-01 2.06283238e-02
      1.02141611e-01 0. 0. 0. 6.36223122e-04 0. 1.05045542e-01
      3.51044349e-02 1.02141611e-01 1.99242197e-02 2.83717234e-02
      8.48989710e-02 0. 6.28460199e-03 0. 0. 0. 1.99242197e-02
      2.02483252e-01 2.11610943e-02 6.33220002e-02 0. 7.12330686e-04 0.
      0. 0. 2.02483252e-01 2.21335530e-01 0. 0. 0. 0. 0. 2.75608320e-02
      9.21036117e-03 2.21335530e-01 3.70383225e-02 0. 0. 0.
      3.28992587e-03 0. 1.09395929e-01 3.65582705e-02 3.70383225e-02
      2.59293821e-02 6.02254681e-02 1.80217206e-01 0. 2.21335530e-01 0.
      0. 0. 2.59293821e-02 2.00077742e-01 3.20989154e-02 9.60518643e-02
      0. 4.53202501e-02 0. 0. 0. 2.00077742e-01 2.21335530e-01 0. 0. 0.
      3.40187643e-03 0. 4.19270061e-02 1.40112732e-02 2.21335530e-01
      3.33768316e-02 4.56219818e-03 1.36518348e-02 0. 1.33959085e-01 0.
      2.21335530e-01 8.58332738e-02 3.33768316e-02 2.47578928e-03
      3.89509182e-03 1.16555588e-02 0. 2.21335530e-01 0. 1.35752350e-01
      4.53661419e-02 2.47578928e-03 7.38027990e-02 1.17236376e-03
      3.50814546e-03 0. 3.96245718e-02 0. 8.09870288e-02 2.70645116e-02
      7.38027990e-02 9.63289738e-02 8.90259817e-03 2.66399719e-02 0.
      1.28361899e-02 0. 2.77384941e-04 9.26971770e-05 9.63289738e-02
      4.49994430e-02 4.42530178e-02 1.32421806e-01 0. 2.07049221e-01 0.
      5.35539426e-02 1.78967882e-02 4.49994430e-02 2.13805195e-02 0. 0.
      0. 1.77088492e-02 0. 1.33724168e-01 4.46883217e-02 2.13805195e-02
      2.21335530e-01 0. 0. 0. 2.06652679e-04 0. 7.72795156e-02
      2.58255061e-02 2.21335530e-01 2.21335530e-01 1.25154424e-02
      3.74509506e-02 0. 3.67968343e-03 0. 0. 0. 2.21335530e-01
      6.00472838e-02 4.49516773e-02 1.34512231e-01 0. 3.13915201e-02 0.
      0. 0. 6.00472838e-02 7.92218223e-02 0. 0. 0. 0. 0. 3.74711044e-02
      1.25222076e-02 7.92218223e-02 2.78607812e-02 0. 0. 0.
      1.67377833e-02 0. 2.25852400e-01 7.54760727e-02 2.78607812e-02 0.
      0. 0. 0. 9.92925745e-03 0. 2.01592091e-02 6.73687086e-03 0. 0. 0.
      0. 0. 0. 0. 0. 0. 0. 7.40253329e-02 0. 0. 0. 7.16748554e-03 0.
      6.08460344e-02 2.03336794e-02 7.40253329e-02 2.44710203e-02
      1.34148728e-02 4.01424132e-02 0. 3.22179049e-01 0. 3.22179049e-01
      2.13852122e-01 2.44710203e-02 0. 1.21953443e-03 3.64931254e-03 0.
      3.22179049e-01 0. 1.17290631e-01 3.91965695e-02 0. 0. 0. 0. 0. 0.
      0. 0. 0. 0. 3.59340534e-02 1.00968005e-02 3.02134790e-02 0.
      2.23290231e-02 0. 5.84428140e-04 1.95305620e-04 3.59340534e-02
      8.06331933e-02 1.16822682e-01 3.22179049e-01 0. 3.22179049e-01 0.
      1.57380611e-01 5.25938384e-02 8.06331933e-02 2.48109666e-03
      2.46789213e-02 7.38485083e-02 0. 3.22179049e-01 0. 1.68638285e-02
      5.63559867e-03 2.48109666e-03 0. 0. 0. 0. 0. 0. 0. 0. 0.
      1.03116445e-01 1.42031126e-02 4.25010845e-02 0. 6.18086383e-03 0.
      0. 0. 1.03116445e-01 6.28454611e-02 1.04756460e-01 3.13470274e-01
      0. 1.05971061e-01 0. 0. 0. 6.28454611e-02 8.27032141e-04
      1.74232721e-02 5.21368757e-02 0. 4.74476330e-02 0. 0. 0.
      8.27032141e-04 0. 0. 0. 0. 0. 0. 0. 0. 0. 0. 0. 0. 0. 0. 0. 0. 0.
      0. 0. 0. 0. 0. 1.91877186e-01 0. 5.24783395e-02 1.75373387e-02 0.
      5.02332253e-03 0. 0. 0. 3.39058578e-01 0. 3.39058578e-01
      1.76541299e-01 5.02332253e-03 6.55326992e-02 0. 0. 0.
      3.91052738e-02 0. 1.78152144e-01 5.95354699e-02 6.55326992e-02 0.
      0. 0. 0. 0. 0. 0. 0. 0. 0. 0. 0. 0. 4.46143150e-02 0.
      4.22334075e-02 1.41136618e-02 0. 1.37907997e-01 0. 0. 0.
      1.52373403e-01 0. 3.39058578e-01 3.39058578e-01 1.37907997e-01
      3.39058578e-01 0. 0. 0. 5.39178727e-04 0. 3.13844770e-01
      1.04881503e-01 3.39058578e-01 0. 0. 0. 0. 0. 0. 0. 0. 0. 0. 0. 0.
      0. 0. 0. 0. 0. 0. 3.05822007e-02 0. 0. 0. 0. 0. 2.13946048e-02
      7.14970054e-03 3.05822007e-02 8.10045227e-02 0. 0. 0. 0. 0.
      1.04488498e-02 3.49182216e-03 8.10045227e-02 0. 0. 0. 0. 0. 0. 0.
      0. 0. 0. 0. 0. 0. 0. 0. 0. 0. 0. 0. 0. 0. 0. 0. 0. 0. 0. 0. 0. 0.
      0. 0. 0. 0. 0. 0. 0. 4.50262381e-03 0. 0. 0. 9.77170020e-02 0.
      1.31360143e-01 4.38983329e-02 4.50262381e-03 1.22335754e-01 0. 0.
      0. 9.94602777e-03 0. 8.46628472e-02 2.82929037e-02 1.22335754e-01
      1.53807327e-01 1.16317626e-02 3.48066688e-02 0. 8.11373536e-03 0.
      0. 0. 1.53807327e-01 4.31697555e-02 3.98448147e-02 1.19230732e-01
      0. 9.01728123e-02 0. 1.08468402e-02 3.62482341e-03 4.31697555e-02
      8.39021429e-02 0. 0. 0. 1.80118047e-02 0. 2.67034292e-01
      8.92382190e-02 8.39021429e-02 3.62615436e-01 0. 0. 0.
      1.10109118e-04 0. 1.32402420e-01 4.42466252e-02 3.62615436e-01
      3.62615436e-01 2.24209577e-02 6.70919642e-02 0. 3.04447883e-03 0.
      0. 0. 3.62615436e-01 1.74287796e-01 9.70097110e-02 2.90289134e-01
      0. 3.07540633e-02 0. 0. 0. 1.74287796e-01 1.68231558e-02 0. 0. 0.
      0. 0. 7.07944576e-03 2.36582686e-03 1.68231558e-02 1.07608937e-01
      0. 0. 0. 0. 0. 3.67930648e-03 1.22955965e-03 1.07608937e-01
      1.18512623e-01 6.30329596e-04 1.88617932e-03 0. 0. 0. 0. 0.
      1.18512623e-01 2.82552578e-02 2.96506332e-03 8.87256581e-03 0. 0.
      0. 0. 0. 2.82552578e-02 0. 0. 0. 0. 0. 0. 0. 0. 0. 0. 0. 0. 0. 0.
      0. 0. 0. 0. 0. 0. 0. 0. 0. 0. 0. 0. 0. 0. 0. 0. 0. 0. 0. 0. 0. 0.
      8.10137615e-02 1.92392468e-02 5.75711578e-02 0. 2.10239440e-02 0.
      0. 0. 8.10137615e-02 1.00626424e-01 1.54115021e-01 3.19621861e-01
      0. 3.19621861e-01 0. 4.93476018e-02 1.64911021e-02 1.00626424e-01
      2.85457144e-03 3.52472402e-02 1.05472796e-01 0. 3.14086616e-01 0.
      4.48614778e-03 1.49919197e-03 2.85457144e-03 0. 0. 0. 0. 0. 0. 0.
      0. 0. 3.19621861e-01 4.31590416e-02 1.29148051e-01 0.
      8.11600871e-03 0. 0. 0. 3.19621861e-01 2.54603535e-01
      3.19621861e-01 3.19621861e-01 0. 1.64008841e-01 0. 0. 0.
      2.54603535e-01 9.51523718e-04 3.86073254e-02 1.15527391e-01 0.
      7.26456717e-02 0. 0. 0. 9.51523718e-04 0. 0. 0. 0. 0. 0. 0. 0. 0.
      6.77549094e-02 1.59638084e-03 4.77696210e-03 0. 0. 0. 0. 0.
      6.77549094e-02 4.28889059e-02 8.29046592e-03 2.48081405e-02 0. 0.
      0. 0. 0. 4.28889059e-02 0. 0. 0. 0. 0. 0. 0. 0. 0. 0. 0. 0. 0. 0.
      0. 0. 0. 0. 0. 0. 0. 0. 0. 0. 0. 0. 0. 0. 0. 0. 0. 0. 0. 0. 0. 0.
      0. 0. 0. 0. 0. 0. 0. 0. 0. 0. 0. 0. 0. 0. 0. 0. 0. 0.</_>
    <_>
      0. 0. 0. 0. 0. 0. 0. 0. 0. 0. 0. 0. 0. 0. 0. 0. 0. 0. 0. 0. 0. 0.
      0. 0. 0. 0. 0. 0. 0. 0. 0. 0. 0. 0. 0. 0. 0. 0. 0. 0. 0. 0. 0. 0.
      0. 0. 0. 0. 0. 0. 0. 0. 0. 0. 2.46823188e-02 5.91047714e-03
      1.76864024e-02 0. 0. 0. 0. 0. 2.46823188e-02 6.55144826e-02
      2.88660079e-03 8.63781013e-03 0. 0. 0. 0. 0. 6.55144826e-02 0. 0.
      0. 0. 0. 0. 0. 0. 0. 6.66385842e-03 4.05414030e-02 1.21315338e-01
      0. 5.39984927e-02 0. 0. 0. 6.66385842e-03 2.61371404e-01
      3.02917391e-01 3.07139695e-01 0. 1.16716608e-01 0. 0. 0.
      2.61371404e-01 3.07139695e-01 8.18487704e-02 2.44922385e-01 0.
      3.37892491e-03 0. 0. 0. 3.07139695e-01 0. 0. 0. 0. 0. 0. 0. 0. 0.
      6.05804671e-04 6.50484785e-02 1.94649875e-01 0. 2.68823653e-01 0.
      0. 0. 6.05804671e-04 5.00319153e-02 1.94378540e-01 3.07139695e-01
      0. 3.07139695e-01 0. 0. 0. 5.00319153e-02 8.17659125e-02
      3.97363640e-02 1.18905894e-01 0. 2.61479653e-02 0. 0. 0.
      8.17659125e-02 0. 0. 0. 0. 0. 0. 0. 0. 0. 0. 0. 0. 0. 0. 0. 0. 0.
      0. 0. 0. 0. 0. 0. 0. 0. 0. 0. 0. 0. 0. 0. 0. 0. 0. 0. 0.
      1.61329713e-02 2.32199696e-03 6.94830110e-03 0. 0. 0. 0. 0.
      1.61329713e-02 1.03384592e-01 1.20678078e-03 3.61114857e-03 0. 0.
      0. 0. 0. 1.03384592e-01 1.13872230e-01 0. 0. 0. 0. 0.
      1.85123784e-03 6.18652790e-04 1.13872230e-01 2.87249573e-02 0. 0.
      0. 0. 0. 8.70820135e-03 2.91013531e-03 2.87249573e-02
      1.19735308e-01 8.30029994e-02 2.48376399e-01 0. 1.59895495e-02 0.
      0. 0. 1.19735308e-01 3.62419665e-01 4.07237001e-02 1.21860594e-01
      0. 9.56728065e-04 0. 0. 0. 3.62419665e-01 3.62419665e-01 0. 0. 0.
      0. 0. 7.75225759e-02 2.59066969e-02 3.62419665e-01 1.91411197e-01
      0. 0. 0. 4.87553887e-02 0. 2.51093388e-01 8.39111283e-02
      1.91411197e-01 2.21170187e-02 4.27009799e-02 1.27777264e-01 0.
      7.23810568e-02 0. 0. 0. 2.21170187e-02 1.42184690e-01
      2.13738214e-02 6.39583841e-02 0. 7.85208400e-03 0. 0. 0.
      1.42184690e-01 1.53038293e-01 0. 0. 0. 2.79962807e-03 0.
      5.89823276e-02 1.97108556e-02 1.53038293e-01 1.52926566e-02 0. 0.
      0. 8.63472894e-02 0. 1.55433297e-01 5.19431010e-02 1.52926566e-02
      0. 0. 0. 0. 0. 0. 0. 0. 0. 0. 0. 0. 0. 0. 0. 0. 0. 0. 0. 0. 0. 0.
      0. 0. 0. 0. 0. 0. 0. 0. 0. 0. 0. 0. 0. 0. 6.01055920e-02 0. 0. 0.
      0. 0. 4.33032867e-03 1.44712359e-03 6.01055920e-02 4.47626598e-02
      0. 0. 0. 0. 0. 2.24886443e-02 7.51532894e-03 4.47626598e-02
      6.17192243e-04 0. 0. 0. 0. 0. 0. 0. 6.17192243e-04 0. 0. 0. 0. 0.
      0. 0. 0. 0. 2.95112669e-01 0. 0. 0. 0. 0. 1.30585685e-01
      4.36394848e-02 2.95112669e-01 2.95112669e-01 0. 0. 0.
      2.71274090e-01 0. 2.95112669e-01 2.68498540e-01 2.95112669e-01
      6.78912224e-03 0. 0. 0. 9.85357761e-02 0. 1.50327981e-01
      5.02371006e-02 6.78912224e-03 0. 0. 0. 0. 0. 0. 0. 0. 0.
      6.22749552e-02 0. 0. 0. 8.42924975e-03 0. 9.72464755e-02
      3.24980654e-02 6.22749552e-02 1.70799624e-02 0. 0. 0.
      2.95112669e-01 0. 2.95112669e-01 1.76055133e-01 1.70799624e-02 0.
      0. 0. 0. 2.95112669e-01 0. 1.87354043e-01 6.26105964e-02 0. 0. 0.
      0. 0. 0. 0. 0. 0. 0. 0. 0. 0. 0. 0. 0. 0. 0. 0. 1.31527486e-03
      1.95452794e-02 5.84869310e-02 0. 2.60949042e-02 0. 0. 0.
      1.31527486e-03 5.39747737e-02 8.91074389e-02 2.66643226e-01 0.
      6.25676364e-02 0. 0. 0. 5.39747737e-02 8.80432725e-02
      2.28968747e-02 6.85160160e-02 0. 2.95463880e-03 0. 0. 0.
      8.80432725e-02 0. 0. 0. 0. 0. 0. 0. 0. 0. 1.19570388e-04
      4.69039455e-02 1.40354514e-01 0. 3.20813894e-01 0. 0. 0.
      1.19570388e-04 1.71976462e-02 1.35012016e-01 3.20813894e-01 0.
      3.20813894e-01 0. 3.12854685e-02 1.04550812e-02 1.71976462e-02
      3.01781017e-02 2.21135579e-02 6.61719367e-02 0. 3.66464704e-02 0.
      2.84413062e-03 9.50460962e-04 3.01781017e-02 0. 0. 0. 0. 0. 0. 0.
      0. 0. 2.73246597e-02 0. 0. 0. 3.20813894e-01 0. 8.45176876e-02
      2.82443259e-02 2.73246597e-02 5.18302955e-02 2.36301497e-03
      7.07101543e-03 0. 3.20813894e-01 0. 3.20813894e-01 1.59232125e-01
      5.18302955e-02 6.38933778e-02 2.14819331e-04 6.42818864e-04 0.
      3.62842195e-02 0. 1.06759876e-01 3.56773585e-02 6.38933778e-02 0.
      0. 0. 0. 0. 0. 0. 0. 0. 1.41731268e-02 0. 0. 0. 2.65198033e-02 0.
      5.41392341e-02 1.80923827e-02 1.41731268e-02 6.79731518e-02 0. 0.
      0. 1.73180178e-02 0. 3.05052936e-01 1.01943374e-01 6.79731518e-02
      1.24428861e-01 0. 0. 0. 6.06440939e-04 0. 6.52285144e-02
      2.17982568e-02 1.24428861e-01 3.74617651e-02 3.62829827e-02
      1.08572349e-01 0. 1.56808197e-02 0. 0. 0. 3.74617651e-02
      2.24638373e-01 1.98391825e-02 5.93662299e-02 0. 1.38487574e-03 0.
      0. 0. 2.24638373e-01 2.24638373e-01 0. 0. 0. 0. 0. 4.53741886e-02
      1.51632624e-02 2.24638373e-01 4.93132323e-02 0. 0. 0.
      2.21896525e-02 0. 1.22305654e-01 4.08724472e-02 4.93132323e-02
      1.35416649e-02 4.55365367e-02 1.36262253e-01 0. 1.91700026e-01 0.
      1.22142676e-02 4.08180431e-03 1.35416649e-02 8.01438466e-02
      1.67428870e-02 5.01009114e-02 0. 1.71253718e-02 0. 1.11038750e-03
      3.71072994e-04 8.01438466e-02 8.32329243e-02 1.13840644e-04
      3.40654602e-04 0. 1.12395640e-02 0. 4.85473387e-02 1.62236672e-02
      8.32329243e-02 7.51712918e-03 1.25224842e-03 3.74720455e-03 0.
      2.24638373e-01 0. 1.51617676e-01 5.06679751e-02 7.51712918e-03
      2.60053296e-02 9.22552834e-04 2.76061916e-03 0. 1.59645438e-01 0.
      1.93963841e-01 6.48194477e-02 2.60053296e-02 1.73841178e-01
      8.38684209e-05 2.50965328e-04 0. 1.71721652e-02 0. 8.66843462e-02
      2.89684571e-02 1.73841178e-01 1.79380015e-01 3.41691002e-02
      1.02246985e-01 0. 8.33281130e-03 0. 0. 0. 1.79380015e-01
      2.98847686e-02 7.54557773e-02 2.24638373e-01 0. 2.02518895e-01 0.
      0. 0. 2.98847686e-02 5.26388511e-02 0. 0. 0. 2.60439259e-03 0.
      1.12614535e-01 3.76338325e-02 5.26388511e-02 2.24638373e-01 0. 0.
      0. 2.36762891e-04 0. 9.73947942e-02 3.25476602e-02 2.24638373e-01
      2.24638373e-01 3.15289907e-02 9.43465903e-02 0. 0. 0.
      2.43026540e-02 8.12152028e-03 2.24638373e-01 6.38166294e-02
      4.64141555e-02 1.38888478e-01 0. 2.58842530e-03 0. 0. 0.
      6.38166294e-02 7.98001215e-02 0. 0. 0. 0. 0. 4.64209430e-02
      1.55130699e-02 7.98001215e-02 5.13961278e-02 0. 0. 0.
      8.65289420e-02 0. 2.53200620e-01 8.46153572e-02 5.13961278e-02
      9.85537888e-04 0. 0. 0. 4.30730060e-02 0. 6.61051050e-02
      2.20912192e-02 9.85537888e-04 0. 0. 0. 0. 0. 0. 0. 0. 0.
      2.12585069e-02 2.18488931e-04 6.53802126e-04 0. 2.15715580e-02 0.
      5.53753898e-02 1.85054801e-02 2.12585069e-02 4.82384302e-03
      2.40337709e-03 7.19182007e-03 0. 3.31889570e-01 0. 3.31889570e-01
      1.13668017e-01 4.82384302e-03 0. 0. 0. 0. 3.31889570e-01 0.
      1.29960507e-01 4.34306301e-02 0. 0. 0. 0. 0. 0. 0. 0. 0. 0.
      5.17086945e-02 3.19751911e-02 9.56819803e-02 0. 1.59927681e-02 0.
      0. 0. 5.17086945e-02 2.67635435e-02 1.53839901e-01 3.31889570e-01
      0. 3.31889570e-01 0. 0. 0. 2.67635435e-02 1.47715982e-04
      4.96137030e-02 1.48462549e-01 0. 3.31889570e-01 0. 0. 0.
      1.47715982e-04 0. 0. 0. 0. 0. 0. 0. 0. 0. 8.81634429e-02
      2.29691509e-02 6.87323287e-02 0. 0. 0. 0. 0. 8.81634429e-02
      7.57550150e-02 9.33157206e-02 2.79235303e-01 0. 3.00156716e-02 0.
      0. 0. 7.57550150e-02 1.62487733e-03 2.60624439e-02 7.79884830e-02
      0. 3.61638442e-02 0. 0. 0. 1.62487733e-03 0. 0. 0. 0. 0. 0. 0. 0.
      0. 0. 0. 0. 0. 0. 0. 0. 0. 0. 4.01851423e-02 0. 0. 0.
      3.06269526e-01 0. 1.34022713e-01 4.47880365e-02 4.01851423e-02
      8.17162246e-02 0. 0. 0. 3.06269526e-01 0. 3.06269526e-01
      2.11297631e-01 8.17162246e-02 1.27914533e-01 0. 0. 0.
      1.97829567e-02 0. 1.39065295e-01 4.64732870e-02 1.27914533e-01 0.
      0. 0. 0. 0. 0. 0. 0. 0. 2.21125241e-02 0. 0. 0. 2.90021095e-02 0.
      1.01624593e-01 3.39611508e-02 2.21125241e-02 2.80615836e-01 0. 0.
      0. 1.71591993e-02 0. 3.06269526e-01 2.87479430e-01 2.80615836e-01
      3.06269526e-01 0. 0. 0. 5.35893836e-04 0. 1.97022900e-01
      6.58416376e-02 3.06269526e-01 0. 0. 0. 0. 0. 0. 0. 0. 0. 0. 0. 0.
      0. 0. 0. 0. 0. 0. 1.41264061e-02 0. 0. 0. 0. 0. 0. 0.
      1.41264061e-02 2.23043561e-02 0. 0. 0. 0. 0. 6.20800164e-03
      2.07460509e-03 2.23043561e-02 0. 0. 0. 0. 0. 0. 0. 0. 0. 0. 0. 0.
      0. 0. 0. 0. 0. 0. 0. 0. 0. 0. 0. 0. 0. 0. 0. 0. 0. 0. 0. 0. 0. 0.
      0. 0. 2.63962634e-02 0. 0. 0. 3.79399620e-02 0. 1.39296532e-01
      4.65505421e-02 2.63962634e-02 2.02762082e-01 0. 0. 0.
      5.49559901e-03 0. 7.12210014e-02 2.38008630e-02 2.02762082e-01
      2.00990096e-01 2.78897546e-02 8.34567696e-02 0. 1.22229371e-03 0.
      0. 0. 2.00990096e-01 3.39299217e-02 5.35519719e-02 1.60247773e-01
      0. 4.06292006e-02 0. 0. 0. 3.39299217e-02 1.36024773e-01 0. 0. 0.
      1.31376553e-03 0. 1.83517382e-01 6.13283031e-02 1.36024773e-01
      3.22338969e-01 0. 0. 0. 1.19433207e-04 0. 2.37032428e-01
      7.92121068e-02 3.22338969e-01 3.22338969e-01 6.90340996e-02
      2.06575722e-01 0. 0. 0. 9.05844793e-02 3.02717425e-02
      3.22338969e-01 1.59776807e-01 8.90173912e-02 2.66373068e-01 0.
      1.82226545e-03 0. 0. 0. 1.59776807e-01 6.59886701e-03 0. 0. 0. 0.
      0. 0. 0. 6.59886701e-03 4.63127270e-02 0. 0. 0. 0. 0.
      1.63419303e-02 5.46118664e-03 4.63127270e-02 9.80929732e-02
      4.30502044e-03 1.28822131e-02 0. 0. 0. 8.23495723e-03
      2.75197811e-03 9.80929732e-02 1.01240231e-02 2.10251682e-03
      6.29150728e-03 0. 0. 0. 0. 0. 1.01240231e-02 0. 0. 0. 0. 0. 0. 0.
      0. 0. 0. 0. 0. 0. 0. 0. 0. 0. 0. 0. 0. 0. 0. 0. 0. 0. 0. 0. 0. 0.
      0. 0. 0. 0. 0. 0. 0. 9.77025479e-02 4.09866758e-02 1.22647755e-01
      0. 4.07151412e-03 0. 0. 0. 9.77025479e-02 6.02345541e-02
      1.98571295e-01 2.91902333e-01 0. 2.91902333e-01 0. 0. 0.
      6.02345541e-02 6.84718078e-04 6.85256198e-02 2.05054000e-01 0.
      2.91902333e-01 0. 0. 0. 6.84718078e-04 0. 0. 0. 0. 0. 0. 0. 0. 0.
      2.91902333e-01 8.35390538e-02 2.49979958e-01 0. 0. 0. 0. 0.
      2.91902333e-01 2.91902333e-01 2.77535439e-01 2.91902333e-01 0.
      4.28925827e-02 0. 0. 0. 2.91902333e-01 7.53189530e-03
      5.49419075e-02 1.64406508e-01 0. 5.17135449e-02 0. 0. 0.
      7.53189530e-03 0. 0. 0. 0. 0. 0. 0. 0. 0. 4.68004532e-02
      4.38869745e-03 1.31326057e-02 0. 0. 0. 0. 0. 4.68004532e-02
      1.36306798e-02 2.28087953e-03 6.82523474e-03 0. 0. 0. 0. 0.
      1.36306798e-02 0. 0. 0. 0. 0. 0. 0. 0. 0. 0. 0. 0. 0. 0. 0. 0. 0.
      0. 0. 0. 0. 0. 0. 0. 0. 0. 0. 0. 0. 0. 0. 0. 0. 0. 0. 0. 0. 0. 0.
      0. 0. 0. 0. 0. 0. 0. 0. 0. 0. 0. 0. 0. 0. 0.</_>
    <_>
      0. 0. 0. 0. 0. 0. 0. 0. 0. 0. 0. 0. 0. 0. 0. 0. 0. 0. 0. 0. 0. 0.
      0. 0. 0. 0. 0. 0. 0. 0. 0. 0. 0. 0. 0. 0. 0. 0. 0. 0. 0. 0. 0. 0.
      0. 0. 0. 0. 0. 0. 0. 0. 0. 0. 0. 0. 0. 0. 0. 0. 0. 0. 0. 0. 0. 0.
      0. 0. 0. 0. 0. 0. 0. 0. 0. 0. 0. 0. 0. 0. 0. 0. 0. 0. 0. 0. 0. 0.
      0. 0. 4.19386402e-02 2.26734616e-02 6.78476468e-02 0.
      6.60529211e-02 0. 0. 0. 4.19386402e-02 3.17467302e-01
      7.36638159e-02 2.20430225e-01 0. 5.24122082e-02 0. 0. 0.
      3.17467302e-01 0. 0. 0. 0. 0. 0. 0. 0. 0. 0. 0. 0. 0. 0. 0. 0. 0.
      0. 7.07075819e-02 1.13255821e-01 3.31784278e-01 0. 3.31784278e-01
      0. 0. 0. 7.07075819e-02 3.31784278e-01 2.05041930e-01
      3.31784278e-01 0. 3.31784278e-01 0. 0. 0. 3.31784278e-01 0. 0. 0.
      0. 0. 0. 0. 0. 0. 0. 0. 0. 0. 0. 0. 0. 0. 0. 0. 0. 0. 0. 0. 0. 0.
      0. 0. 0. 0. 0. 0. 0. 0. 0. 0. 0. 0. 0. 0. 0. 0. 0. 0. 0. 0. 0. 0.
      0. 0. 0. 0. 0. 0. 0. 0. 0. 0. 0. 0. 0. 0. 0. 0. 0. 0. 0. 0. 0. 0.
      0. 0. 0. 1.35619640e-02 7.74293207e-03 2.31698081e-02 0.
      1.31303454e-02 0. 0. 0. 1.35619640e-02 2.88364142e-01
      3.01621519e-02 9.02566612e-02 0. 1.07667660e-02 0. 0. 0.
      2.88364142e-01 3.00832570e-01 0. 0. 0. 2.74389284e-04 0.
      7.63975158e-02 2.55307741e-02 3.00832570e-01 3.24452408e-02 0. 0.
      0. 3.01828515e-03 0. 5.72101884e-02 1.91186909e-02 3.24452408e-02
      2.35296972e-02 2.85766795e-02 8.55123028e-02 0. 1.50021553e-01 0.
      0. 0. 2.35296972e-02 3.00832570e-01 7.47173354e-02 2.23582551e-01
      0. 2.29810148e-01 0. 0. 0. 3.00832570e-01 3.00832570e-01 0. 0. 0.
      8.88708606e-02 0. 1.66709036e-01 5.57113513e-02 3.00832570e-01
      7.47144371e-02 0. 0. 0. 2.07562715e-01 0. 1.69574350e-01
      5.66689037e-02 7.47144371e-02 0. 0. 0. 0. 0. 0. 0. 0. 0. 0. 0. 0.
      0. 0. 0. 0. 0. 0. 0. 0. 0. 0. 0. 0. 0. 0. 0. 0. 0. 0. 0. 0. 0. 0.
      0. 0. 0. 0. 0. 0. 0. 0. 0. 0. 0. 0. 0. 0. 0. 0. 0. 0. 0. 0. 0. 0.
      0. 0. 0. 0. 0. 0. 0. 0. 0. 0. 0. 0. 0. 0. 0. 0. 2.90320277e-01 0.
      0. 0. 1.72429765e-03 0. 1.70273408e-01 5.69025427e-02
      2.90320277e-01 7.09584504e-02 0. 0. 0. 1.89672653e-02 0.
      1.67355731e-01 5.59274852e-02 7.09584504e-02 0. 0. 0. 0. 0. 0. 0.
      0. 0. 0. 0. 0. 0. 0. 0. 0. 0. 0. 3.32835317e-01 0. 0. 0.
      3.06839168e-01 0. 3.32835317e-01 1.41908139e-01 3.32835317e-01
      1.58459812e-01 0. 0. 0. 3.32835317e-01 0. 3.32835317e-01
      1.89470902e-01 1.58459812e-01 0. 0. 0. 0. 0. 0. 0. 0. 0. 0. 0. 0.
      0. 0. 0. 0. 0. 0. 0. 0. 0. 0. 0. 0. 0. 0. 0. 0. 0. 0. 0. 0. 0. 0.
      0. 0. 1.07019264e-02 6.55637309e-03 1.96191706e-02 0.
      2.54305620e-02 0. 0. 0. 1.07019264e-02 7.13610426e-02
      1.95023566e-02 5.83584942e-02 0. 2.06739902e-02 0. 0. 0.
      7.13610426e-02 0. 0. 0. 0. 0. 0. 0. 0. 0. 0. 0. 0. 0. 0. 0. 0. 0.
      0. 2.04931404e-02 6.49123564e-02 1.94242507e-01 0. 3.54603618e-01
      0. 7.47427810e-03 2.49777269e-03 2.04931404e-02 2.09732890e-01
      9.27900821e-02 2.77663022e-01 0. 3.54603618e-01 0. 5.33877173e-03
      1.78412371e-03 2.09732890e-01 0. 0. 0. 0. 0. 0. 0. 0. 0. 0. 0. 0.
      0. 0. 0. 0. 0. 0. 1.30616305e-02 1.00171864e-02 2.99752392e-02 0.
      3.54603618e-01 0. 2.03337356e-01 6.79517835e-02 1.30616305e-02
      9.97309312e-02 1.41630871e-02 4.23813350e-02 0. 3.54603618e-01 0.
      3.54329765e-01 1.18410923e-01 9.97309312e-02 0. 0. 0. 0. 0. 0. 0.
      0. 0. 0. 0. 0. 0. 0. 0. 0. 0. 0. 1.51569936e-02 0. 0. 0.
      6.12749830e-02 0. 3.93351801e-02 1.31451292e-02 1.51569936e-02
      1.11475021e-01 1.67198514e-03 5.00321714e-03 0. 5.86785749e-02 0.
      1.27946600e-01 4.27575335e-02 1.11475021e-01 4.48198058e-03
      2.82689184e-03 8.45913775e-03 0. 6.67204894e-03 0. 0. 0.
      4.48198058e-03 8.24038461e-02 1.01709841e-02 3.04354597e-02 0.
      5.63506084e-03 0. 0. 0. 8.24038461e-02 1.00314051e-01 0. 0. 0.
      1.71857784e-04 0. 2.64080670e-02 8.82513449e-03 1.00314051e-01
      1.04787247e-02 0. 0. 0. 1.89043768e-03 0. 2.23067403e-02
      7.45454011e-03 1.04787247e-02 9.25047230e-03 1.92403644e-02
      5.75744957e-02 0. 1.79689169e-01 0. 1.85535604e-03 6.20027422e-04
      9.25047230e-03 2.41175205e-01 4.12454233e-02 1.23421863e-01 0.
      2.41175205e-01 0. 1.32525433e-03 4.42876742e-04 2.41175205e-01
      2.41175205e-01 0. 0. 0. 1.52862772e-01 0. 7.85484165e-02
      2.62495484e-02 2.41175205e-01 3.77184488e-02 0. 0. 0.
      2.41175205e-01 0. 8.61169696e-02 2.87788343e-02 3.77184488e-02
      5.45542920e-03 2.56919279e-03 7.68800266e-03 0. 2.18575239e-01 0.
      6.01461306e-02 2.00997870e-02 5.45542920e-03 1.33178502e-01
      1.90430712e-02 5.69841228e-02 0. 2.41175205e-01 0. 2.01980710e-01
      6.74985275e-02 1.33178502e-01 1.85778230e-01 5.16400561e-02
      1.54526606e-01 0. 2.05134213e-01 0. 8.28285813e-02 2.76799239e-02
      1.85778230e-01 1.19615020e-02 3.27411629e-02 9.79738235e-02 0.
      2.41175205e-01 0. 1.72546203e-03 5.76619117e-04 1.19615020e-02
      6.26862142e-03 0. 0. 0. 1.71598159e-02 0. 1.59778651e-02
      5.33952331e-03 6.26862142e-03 1.30455419e-01 5.28793503e-03
      1.58235189e-02 0. 1.80554464e-02 0. 7.92791918e-02 2.64937449e-02
      1.30455419e-01 1.69715285e-01 2.14200374e-02 6.40968084e-02 0.
      2.80199316e-03 0. 2.68043093e-02 8.95755179e-03 1.69715285e-01
      1.53331310e-02 1.70970894e-02 5.11608496e-02 0. 1.18103139e-02 0.
      0. 0. 1.53331310e-02 6.54158816e-02 0. 0. 0. 8.25927942e-04 0.
      4.72298153e-02 1.57834142e-02 6.54158816e-02 1.80494618e-02 0. 0.
      0. 9.08520352e-03 0. 5.32421619e-02 1.77926421e-02 1.80494618e-02
      0. 0. 0. 0. 0. 0. 0. 0. 0. 0. 0. 0. 0. 0. 0. 0. 0. 0.
      2.38675818e-01 0. 0. 0. 3.81087542e-01 0. 1.59214973e-01
      5.32069430e-02 2.38675818e-01 5.83501048e-02 0. 0. 0.
      3.81093800e-01 0. 2.23965794e-01 7.48456046e-02 5.83501048e-02 0.
      0. 0. 0. 0. 0. 0. 0. 0. 0. 0. 0. 0. 0. 0. 0. 0. 0. 1.12583891e-01
      7.03387931e-02 2.10480139e-01 0. 3.81093800e-01 0. 4.77566645e-02
      1.59594752e-02 1.12583891e-01 1.44002587e-02 7.78240189e-02
      2.32878506e-01 0. 3.81093800e-01 0. 3.05058528e-03 1.01945200e-03
      1.44002587e-02 0. 0. 0. 0. 0. 0. 0. 0. 0. 0. 0. 0. 0. 0. 0. 0. 0.
      0. 1.11858815e-01 3.37786190e-02 1.01078242e-01 0. 9.24538355e-03
      0. 1.44952806e-02 4.84408112e-03 1.11858815e-01 2.03113891e-02
      4.23455685e-02 1.26713678e-01 0. 4.93245460e-02 0. 0. 0.
      2.03113891e-02 0. 0. 0. 0. 0. 0. 0. 0. 0. 0. 0. 0. 0. 0. 0. 0. 0.
      0. 0. 0. 0. 0. 0. 0. 0. 0. 0. 0. 0. 0. 0. 0. 0. 0. 0. 0.
      4.23882827e-02 0. 0. 0. 3.18075508e-01 0. 2.95562387e-01
      9.87717807e-02 4.23882827e-02 2.98546433e-01 9.37578175e-03
      2.80559137e-02 0. 3.18075508e-01 0. 3.18075508e-01 2.15692699e-01
      2.98546433e-01 0. 0. 0. 0. 0. 0. 0. 0. 0. 0. 0. 0. 0. 0. 0. 0. 0.
      0. 5.30416109e-02 0. 0. 0. 1.30803153e-01 0. 1.05368294e-01
      3.52122374e-02 5.30416109e-02 3.18075508e-01 3.12526035e-03
      9.35197156e-03 0. 1.17389999e-01 0. 3.18075508e-01 1.20284744e-01
      3.18075508e-01 0. 0. 0. 0. 0. 0. 0. 0. 0. 0. 0. 0. 0. 0. 0. 0. 0.
      0. 0. 0. 0. 0. 0. 0. 0. 0. 0. 0. 0. 0. 0. 0. 0. 0. 0. 0. 0. 0. 0.
      0. 0. 0. 0. 0. 0. 0. 0. 0. 0. 0. 0. 0. 0. 0. 0. 0. 0. 0. 0. 0. 0.
      0. 0. 0. 0. 0. 0. 0. 0. 0. 0. 0. 1.37249120e-02 0. 0. 0.
      1.49308398e-01 0. 7.55653828e-02 2.52526347e-02 1.37249120e-02
      2.66607493e-01 2.32639797e-02 6.96147010e-02 0. 2.48407602e-01 0.
      2.66607493e-01 1.01122528e-01 2.66607493e-01 2.66607493e-01
      8.06727633e-02 2.41403416e-01 0. 1.07995875e-01 0. 1.17924072e-01
      3.94082554e-02 2.66607493e-01 2.93180998e-02 5.61125539e-02
      1.67909712e-01 0. 2.30817705e-01 0. 0. 0. 2.93180998e-02
      1.73984133e-02 0. 0. 0. 2.79706623e-02 0. 3.55262943e-02
      1.18722674e-02 1.73984133e-02 2.66607493e-01 7.75465975e-03
      2.32048985e-02 0. 2.71560475e-02 0. 1.68304443e-01 5.62444329e-02
      2.66607493e-01 2.66607493e-01 4.15090732e-02 1.24210693e-01 0.
      3.15860473e-03 0. 3.93080264e-02 1.31360861e-02 2.66607493e-01
      4.97386493e-02 3.66583951e-02 1.09695517e-01 0. 1.47676207e-02 0.
      0. 0. 4.97386493e-02 0. 0. 0. 0. 0. 0. 0. 0. 0. 0. 0. 0. 0. 0. 0.
      0. 0. 0. 0. 0. 0. 0. 0. 0. 0. 0. 0. 0. 0. 0. 0. 0. 0. 0. 0. 0. 0.
      0. 0. 0. 0. 0. 0. 0. 0. 0. 0. 0. 0. 0. 0. 0. 0. 0. 0. 0. 0. 0. 0.
      0. 0. 0. 0. 0. 0. 0. 0. 0. 0. 0. 0. 0. 2.90286064e-01
      1.40061855e-01 3.08224767e-01 0. 3.08224767e-01 0. 7.69856647e-02
      2.57273223e-02 2.90286064e-01 4.46794331e-02 1.64649829e-01
      3.08224767e-01 0. 3.08224767e-01 0. 0. 0. 4.46794331e-02 0. 0. 0.
      0. 0. 0. 0. 0. 0. 0. 0. 0. 0. 0. 0. 0. 0. 0. 3.08224767e-01
      8.62804726e-02 2.58183300e-01 0. 1.29714077e-02 0. 2.56618876e-02
      8.57577380e-03 3.08224767e-01 8.21036100e-02 1.08460248e-01
      3.08224767e-01 0. 7.62471631e-02 0. 0. 0. 8.21036100e-02 0. 0. 0.
      0. 0. 0. 0. 0. 0. 0. 0. 0. 0. 0. 0. 0. 0. 0. 0. 0. 0. 0. 0. 0. 0.
      0. 0. 0. 0. 0. 0. 0. 0. 0. 0. 0. 0. 0. 0. 0. 0. 0. 0. 0. 0. 0. 0.
      0. 0. 0. 0. 0. 0. 0. 0. 0. 0. 0. 0. 0. 0. 0. 0. 0. 0. 0. 0. 0. 0.
      0. 0. 0. 0. 0. 0. 0. 0. 0. 0. 0. 0. 0. 0. 0. 0. 0. 0. 0. 0. 0.</_>
    <_>
      0. 0. 0. 0. 0. 0. 0. 0. 0. 0. 0. 0. 0. 0. 0. 0. 0. 0. 0. 0. 0. 0.
      0. 0. 0. 0. 0. 0. 0. 0. 0. 0. 0. 0. 0. 0. 0. 0. 0. 0. 0. 0. 0. 0.
      0. 0. 0. 0. 0. 0. 0. 0. 0. 0. 0. 0. 0. 0. 0. 0. 0. 0. 0. 0. 0. 0.
      0. 0. 0. 0. 0. 0. 0. 0. 0. 0. 0. 0. 0. 0. 0. 0. 5.58676664e-04
      1.67177350e-03 0. 0. 0. 0. 0. 0. 1.18672781e-01 6.86179474e-02
      2.05331057e-01 0. 0. 0. 5.35954256e-03 1.79106963e-03
      1.18672781e-01 2.28096083e-01 5.58163114e-02 1.67023733e-01 0. 0.
      0. 5.89550287e-02 1.97017863e-02 2.28096083e-01 0. 0. 0. 0. 0. 0.
      0. 0. 0. 0. 2.60787364e-02 7.80375302e-02 0. 7.78987035e-02 0. 0.
      0. 0. 2.38566011e-01 3.29367846e-01 3.29367846e-01 0.
      2.98376203e-01 0. 7.50335725e-03 2.50749686e-03 2.38566011e-01
      3.29367846e-01 1.29612431e-01 3.29367846e-01 0. 1.27027798e-02 0.
      8.25370103e-02 2.75824945e-02 3.29367846e-01 0. 0. 0. 0. 0. 0. 0.
      0. 0. 0. 0. 0. 0. 0. 0. 0. 0. 0. 0. 0. 0. 0. 0. 0. 0. 0. 0. 0. 0.
      0. 0. 0. 0. 0. 0. 0. 0. 0. 0. 0. 0. 0. 0. 0. 0. 0. 0. 0. 0. 0. 0.
      0. 0. 0. 0. 0. 0. 0. 0. 0. 0. 0. 0. 0. 0. 0. 0. 0. 0. 0. 0. 0.
      4.13344987e-02 1.84677392e-02 5.52625209e-02 0. 0. 0.
      4.58530243e-03 1.53233157e-03 4.13344987e-02 2.75378376e-01
      3.81648839e-02 1.14203893e-01 0. 0. 0. 5.04382998e-02
      1.68556385e-02 2.75378376e-01 3.03251177e-01 5.43068862e-03
      1.62506904e-02 0. 0. 0. 5.12276478e-02 1.71194244e-02
      3.03251177e-01 6.34521693e-02 0. 0. 0. 1.64350506e-03 0.
      7.33586401e-02 2.45152321e-02 6.34521693e-02 8.47793147e-02
      7.28777274e-02 2.18077794e-01 0. 3.24245431e-02 0. 6.41942071e-03
      2.14526337e-03 8.47793147e-02 3.03251177e-01 7.37302676e-02
      2.20628902e-01 0. 2.86469935e-03 0. 7.06136003e-02 2.35978831e-02
      3.03251177e-01 3.03251177e-01 7.60296173e-03 2.27509607e-02 0. 0.
      0. 1.25594661e-01 4.19716015e-02 3.03251177e-01 1.29305646e-01 0.
      0. 0. 5.42507432e-02 0. 2.50260383e-01 8.36327970e-02
      1.29305646e-01 0. 0. 0. 0. 0. 0. 0. 0. 0. 0. 0. 0. 0. 0. 0. 0. 0.
      0. 0. 0. 0. 0. 0. 0. 0. 0. 0. 0. 0. 0. 0. 0. 0. 0. 0. 0. 0. 0. 0.
      0. 0. 0. 0. 0. 0. 0. 0. 0. 0. 0. 0. 0. 0. 0. 0. 0. 0. 0. 0. 0. 0.
      0. 0. 0. 0. 0. 0. 0. 0. 0. 0. 0. 2.64116228e-01 0. 0. 0. 0. 0.
      1.05229102e-01 3.51658091e-02 2.64116228e-01 1.40586749e-01 0. 0.
      0. 1.42507162e-02 0. 2.05365315e-01 6.86296523e-02 1.40586749e-01
      2.72900728e-03 0. 0. 0. 4.75023873e-03 0. 1.56579353e-03
      5.23262075e-04 2.72900728e-03 0. 0. 0. 0. 0. 0. 0. 0. 0.
      3.03621560e-01 0. 0. 0. 0. 0. 2.70652473e-01 9.04474556e-02
      3.03621560e-01 3.03621560e-01 0. 0. 0. 3.03621560e-01 0.
      3.03621560e-01 3.03621560e-01 3.03621560e-01 8.18702206e-03 0. 0.
      0. 1.51385024e-01 0. 8.84484202e-02 2.95579862e-02 8.18702206e-03
      0. 0. 0. 0. 0. 0. 0. 0. 0. 0. 0. 0. 0. 0. 0. 0. 0. 0. 0.
      2.67441064e-04 8.00285547e-04 0. 0. 0. 0. 0. 0. 3.02076656e-02
      2.32201982e-02 6.94836974e-02 0. 0. 0. 1.31723995e-03
      4.40199598e-04 3.02076656e-02 5.06354123e-02 1.45365754e-02
      4.34989743e-02 0. 0. 0. 1.44896545e-02 4.84220078e-03
      5.06354123e-02 0. 0. 0. 0. 0. 0. 0. 0. 0. 0. 2.22889520e-02
      6.66970387e-02 0. 1.38906911e-01 0. 2.95694941e-03 9.88160726e-04
      0. 9.68548581e-02 2.17071548e-01 2.95414150e-01 0. 2.95414150e-01
      0. 3.41519155e-02 1.14129931e-02 9.68548581e-02 2.39777789e-01
      6.17527850e-02 1.84787482e-01 0. 5.31941876e-02 0. 3.91045474e-02
      1.30680865e-02 2.39777789e-01 0. 0. 0. 0. 0. 0. 0. 0. 0. 0.
      8.41024891e-03 2.51666736e-02 0. 2.38054872e-01 0. 7.50171244e-02
      2.50694100e-02 0. 9.73376706e-02 4.07614708e-02 1.21973716e-01 0.
      2.95414150e-01 0. 2.95414150e-01 1.82464793e-01 9.73376706e-02
      2.78236359e-01 1.49716595e-02 4.48007435e-02 0. 7.44718388e-02 0.
      1.42283440e-01 4.75487374e-02 2.78236359e-01 0. 0. 0. 0. 0. 0. 0.
      0. 0. 0. 0. 0. 0. 7.91616458e-03 0. 8.69067479e-03 2.90427078e-03
      0. 6.84188530e-02 0. 0. 0. 3.04051824e-02 0. 1.64282531e-01
      5.49003482e-02 6.84188530e-02 1.12802461e-01 0. 0. 0. 0. 0.
      2.99191903e-02 9.99846775e-03 1.12802461e-01 1.35947308e-02
      7.51451403e-03 2.24862918e-02 0. 0. 0. 1.51274563e-03
      5.05534292e-04 1.35947308e-02 7.74906501e-02 1.28122875e-02
      3.83392572e-02 0. 0. 0. 1.66401900e-02 5.56087447e-03
      7.74906501e-02 1.05794579e-01 1.79164857e-03 5.36129577e-03 0. 0.
      0. 1.76231563e-02 5.88936498e-03 1.05794579e-01 2.00225208e-02 0.
      0. 0. 1.05608627e-03 0. 2.84675285e-02 9.51337256e-03
      2.00225208e-02 4.96674068e-02 5.09085879e-02 1.52337760e-01 0.
      8.26625749e-02 0. 1.35139553e-02 4.51613730e-03 4.96674068e-02
      2.74457872e-01 4.19921689e-02 1.25656337e-01 0. 1.82117466e-02 0.
      3.19561474e-02 1.06792105e-02 2.74457872e-01 2.74457872e-01
      4.34024958e-03 1.29876826e-02 0. 1.92287599e-03 0. 9.53746811e-02
      3.18725705e-02 2.74457872e-01 7.07294270e-02 4.54027764e-03
      1.35862427e-02 0. 9.26289558e-02 0. 1.94919646e-01 6.51388094e-02
      7.07294270e-02 5.27926348e-02 9.89775266e-03 2.96177734e-02 0.
      1.21036895e-01 0. 1.28691360e-01 4.30064499e-02 5.27926348e-02
      2.74457872e-01 8.86449404e-03 2.65258439e-02 0. 2.54964381e-02 0.
      6.60434067e-02 2.20705923e-02 2.74457872e-01 2.74457872e-01
      1.43085485e-02 4.28166129e-02 0. 3.83575354e-03 0. 3.47116552e-02
      1.16000250e-02 2.74457872e-01 7.37451911e-02 5.48151396e-02
      1.64027497e-01 0. 1.18742667e-01 0. 6.58648685e-02 2.20108870e-02
      7.37451911e-02 2.99861543e-02 0. 0. 0. 3.78930825e-03 0.
      3.80840190e-02 1.27270101e-02 2.99861543e-02 1.57173261e-01 0. 0.
      0. 0. 0. 1.06725348e-02 3.56657384e-03 1.57173261e-01
      1.72298595e-01 2.00836593e-03 6.00977428e-03 0. 0. 0. 0. 0.
      1.72298595e-01 3.75892594e-02 1.72984675e-02 5.17634116e-02 0.
      6.76251249e-04 0. 0. 0. 3.75892594e-02 5.62425032e-02 0. 0. 0. 0.
      0. 2.85437461e-02 9.53884330e-03 5.62425032e-02 3.87070924e-02 0.
      0. 0. 7.02350074e-03 0. 6.60499632e-02 2.20727958e-02
      3.87070924e-02 9.63731902e-04 0. 0. 0. 2.34116684e-03 0.
      7.71705236e-04 2.57890992e-04 9.63731902e-04 0. 0. 0. 0. 0. 0. 0.
      0. 0. 2.11181000e-01 4.06780653e-03 1.21724298e-02 0.
      6.56563044e-03 0. 1.62350282e-01 5.42546622e-02 2.11181000e-01
      1.37605265e-01 1.05283000e-02 3.15046906e-02 0. 2.96104521e-01 0.
      2.96104521e-01 1.92907333e-01 1.37605265e-01 2.89119571e-03 0. 0.
      0. 2.04358324e-01 0. 6.49585426e-02 2.17080601e-02 2.89119571e-03
      0. 0. 0. 0. 0. 0. 0. 0. 0. 2.55369961e-01 3.11119482e-02
      9.30987522e-02 0. 1.30971242e-02 0. 6.43356517e-02 2.14998424e-02
      2.55369961e-01 9.22609493e-02 1.89171791e-01 2.96104521e-01 0.
      2.96104521e-01 0. 1.61322385e-01 5.39111421e-02 9.22609493e-02 0.
      2.14317571e-02 6.41317442e-02 0. 2.96104521e-01 0. 1.15299737e-02
      3.85312457e-03 0. 0. 0. 0. 0. 0. 0. 0. 0. 0. 1.00842610e-01
      5.55802509e-03 1.66316684e-02 0. 0. 0. 0. 0. 1.00842610e-01
      5.65161258e-02 6.60934001e-02 1.97775871e-01 0. 6.27664011e-03 0.
      0. 0. 5.65161258e-02 0. 5.31352405e-03 1.59000289e-02 0.
      4.48331377e-03 0. 0. 0. 0. 0. 0. 0. 0. 0. 0. 0. 0. 0. 0. 0. 0. 0.
      0. 0. 0. 0. 0. 0. 0. 0. 0. 1.63059711e-01 0. 9.02119800e-02
      3.01472601e-02 0. 1.90081999e-01 0. 0. 0. 3.00063014e-01 0.
      3.00063014e-01 2.74940640e-01 1.90081999e-01 3.00063014e-01 0. 0.
      0. 3.21648084e-02 0. 1.70957059e-01 5.71309291e-02 3.00063014e-01
      0. 0. 0. 0. 0. 0. 0. 0. 0. 0. 0. 0. 0. 1.31860711e-02 0.
      1.59766991e-02 5.33913216e-03 0. 2.41922736e-01 0. 0. 0.
      4.77472134e-02 0. 3.00063014e-01 1.39596537e-01 2.41922736e-01
      3.00063014e-01 0. 0. 0. 0. 0. 9.69272107e-02 3.23913768e-02
      3.00063014e-01 0. 0. 0. 0. 0. 0. 0. 0. 0. 0. 0. 0. 0. 0. 0. 0. 0.
      0. 0. 0. 0. 0. 0. 0. 0. 0. 0. 0. 0. 0. 0. 0. 0. 0. 0. 0. 0. 0. 0.
      0. 0. 0. 0. 0. 0. 0. 0. 0. 0. 0. 0. 0. 0. 0. 0. 0. 0. 0. 0. 0. 0.
      0. 0. 0. 0. 0. 0. 0. 0. 0. 0. 0. 7.58792236e-02 0. 0. 0.
      6.39984831e-02 0. 1.56742871e-01 5.23807555e-02 7.58792236e-02
      3.16486180e-01 0. 0. 0. 9.35471896e-03 0. 6.23040758e-02
      2.08209641e-02 3.16486180e-01 3.16486180e-01 1.31396232e-02
      3.93187180e-02 0. 1.79090258e-03 0. 2.53252010e-03 8.46323732e-04
      3.16486180e-01 1.03667207e-01 6.91254064e-02 2.06848994e-01 0.
      5.90449683e-02 0. 7.59756006e-03 2.53897114e-03 1.03667207e-01
      9.30942520e-02 0. 0. 0. 4.91128908e-03 0. 8.91729295e-02
      2.98000276e-02 9.30942520e-02 3.16486180e-01 0. 0. 0. 0. 0.
      2.95785367e-02 9.88462847e-03 3.16486180e-01 3.16486180e-01
      5.43163577e-03 1.62534621e-02 0. 0. 0. 0. 0. 3.16486180e-01
      1.24447115e-01 3.93682197e-02 1.17804281e-01 0. 7.02821242e-04 0.
      0. 0. 1.24447115e-01 0. 0. 0. 0. 0. 0. 0. 0. 0. 0. 0. 0. 0. 0. 0.
      0. 0. 0. 0. 0. 0. 0. 0. 0. 0. 0. 0. 0. 0. 0. 0. 0. 0. 0. 0. 0. 0.
      0. 0. 0. 0. 0. 0. 0. 0. 0. 0. 0. 0. 0. 0. 0. 0. 0. 0. 0. 0. 0. 0.
      0. 0. 0. 0. 0. 0. 0. 0. 0. 0. 0. 0. 0. 3.03712904e-01
      3.60084884e-02 1.07750967e-01 0. 7.26862485e-03 0. 7.36491475e-03
      2.46122549e-03 3.03712904e-01 1.68513358e-01 3.03712904e-01
      3.03712904e-01 0. 3.03712904e-01 0. 2.20947452e-02 7.38367578e-03
      1.68513358e-01 0. 3.31230573e-02 9.91164446e-02 0. 2.05167547e-01
      0. 0. 0. 0. 0. 0. 0. 0. 0. 0. 0. 0. 0. 3.03712904e-01
      1.76812336e-02 5.29087856e-02 0. 0. 0. 0. 0. 3.03712904e-01
      2.27568120e-01 1.67296231e-01 3.03712904e-01 0. 7.75388116e-03 0.
      0. 0. 2.27568120e-01 0. 9.49038658e-03 2.83987448e-02 0.
      5.53848501e-03 0. 0. 0. 0. 0. 0. 0. 0. 0. 0. 0. 0. 0. 0. 0. 0. 0.
      0. 0. 0. 0. 0. 0. 0. 0. 0. 0. 0. 0. 0. 0. 0. 0. 0. 0. 0. 0. 0. 0.
      0. 0. 0. 0. 0. 0. 0. 0. 0. 0. 0. 0. 0. 0. 0. 0. 0. 0. 0. 0. 0. 0.
      0. 0. 0. 0. 0. 0. 0. 0. 0. 0. 0. 0. 0. 0. 0. 0. 0. 0. 0. 0. 0. 0.
      0. 0.</_>
    <_>
      0. 0. 0. 0. 0. 0. 0. 0. 0. 0. 0. 0. 0. 0. 0. 0. 0. 0. 0. 0. 0. 0.
      0. 0. 0. 0. 0. 0. 0. 0. 0. 0. 0. 0. 0. 0. 0. 0. 0. 0. 0. 0. 0. 0.
      0. 0. 0. 0. 0. 0. 0. 0. 0. 0. 0. 0. 0. 0. 0. 0. 0. 0. 0. 0. 0. 0.
      0. 0. 0. 0. 0. 0. 0. 0. 0. 0. 0. 0. 0. 0. 0. 0. 0. 0. 0. 0. 0. 0.
      0. 0. 5.21022500e-03 1.47206876e-02 4.40499038e-02 0. 0. 0. 0. 0.
      5.21022500e-03 1.43898204e-01 9.32536125e-02 2.79050261e-01 0. 0.
      0. 0. 0. 1.43898204e-01 0. 0. 0. 0. 0. 0. 0. 0. 0. 0. 0. 0. 0. 0.
      0. 0. 0. 0. 7.29431352e-03 2.07011178e-01 4.33930397e-01 0.
      2.75785774e-01 0. 0. 0. 7.29431352e-03 2.54737258e-01
      4.33930397e-01 4.33930397e-01 0. 2.27571324e-01 0. 0. 0.
      2.54737258e-01 0. 0. 0. 0. 0. 0. 0. 0. 0. 0. 0. 0. 0. 0. 0. 0. 0.
      0. 0. 0. 0. 0. 0. 0. 0. 0. 0. 0. 0. 0. 0. 0. 0. 0. 0. 0. 0. 0. 0.
      0. 0. 0. 0. 0. 0. 0. 0. 0. 0. 0. 0. 0. 0. 0. 0. 0. 0. 0. 0. 0. 0.
      0. 0. 0. 0. 0. 0. 0. 0. 0. 0. 0. 2.55795708e-03 5.13730664e-03
      1.53727774e-02 0. 0. 0. 0. 0. 2.55795708e-03 1.53772026e-01
      6.10198192e-02 1.82594493e-01 0. 0. 0. 5.38977087e-02
      1.80117134e-02 1.53772026e-01 1.93089396e-01 1.78530701e-02
      5.34231924e-02 0. 1.31561817e-03 0. 1.67052284e-01 5.58260716e-02
      1.93089396e-01 1.88165326e-02 0. 0. 0. 3.94685473e-03 0.
      2.70470437e-02 9.03866719e-03 1.88165326e-02 3.58113856e-03
      5.88247515e-02 1.76025957e-01 0. 5.09837531e-02 0. 0. 0.
      3.58113856e-03 2.92538762e-01 2.67800838e-01 2.92538762e-01 0.
      5.15680723e-02 0. 7.54567683e-02 2.52163894e-02 2.92538762e-01
      2.92538762e-01 2.75934879e-02 8.25702026e-02 0. 4.03610654e-02 0.
      2.92538762e-01 2.14242756e-01 2.92538762e-01 5.19014262e-02 0. 0.
      0. 1.09161146e-01 0. 2.92538762e-01 9.83525440e-02 5.19014262e-02
      0. 0. 0. 0. 0. 0. 0. 0. 0. 0. 0. 0. 0. 0. 0. 0. 0. 0. 0. 0. 0. 0.
