<?xml version="1.0"?>
<opencv_storage>
<my_svm type_id="opencv-ml-svm">
  <svm_type>C_SVC</svm_type>
  <kernel><type>RBF</type>
    <gamma>3.3750000000000002e-02</gamma></kernel>
  <C>1.2500000000000000e+01</C>
  <term_criteria><epsilon>1.1920928955078125e-07</epsilon>
    <iterations>2147483647</iterations></term_criteria>
  <var_all>1296</var_all>
  <var_count>1296</var_count>
  <class_count>10</class_count>
  <class_labels type_id="opencv-matrix">
    <rows>1</rows>
    <cols>10</cols>
    <dt>i</dt>
    <data>
      0 1 2 3 4 5 6 7 8 9</data></class_labels>
  <sv_total>94</sv_total>
  <support_vectors>
    <_>
      0. 0. 0. 0. 0. 0. 0. 0. 0. 0. 0. 0. 0. 0. 0. 0. 0. 0. 0. 0. 0. 0.
      0. 0. 0. 0. 0. 0. 0. 0. 0. 0. 0. 0. 0. 0. 0. 0. 0. 0. 0. 0. 0. 0.
      0. 0. 0. 0. 0. 0. 0. 0. 0. 0. 1.99007592e-03 0. 0. 0. 0. 0. 0. 0.
      1.99007592e-03 1.67016871e-02 0. 0. 0. 0. 0. 0. 0. 1.67016871e-02
      0. 0. 0. 0. 0. 0. 0. 0. 0. 0. 4.26406087e-03 1.27596976e-02 0.
      1.06447553e-02 0. 0. 0. 0. 1.19010113e-01 2.35390544e-01
      3.22289824e-01 0. 4.51749638e-02 0. 0. 0. 1.19010113e-01
      3.22289824e-01 1.25076279e-01 3.22289824e-01 0. 2.15285551e-03 0.
      0. 0. 3.22289824e-01 0. 0. 0. 0. 0. 0. 0. 0. 0. 0. 2.49205306e-02
      7.45717287e-02 0. 1.39197409e-01 0. 0. 0. 0. 6.35856539e-02
      2.95474052e-01 3.22289824e-01 0. 3.22289824e-01 0. 0. 0.
      6.35856539e-02 1.96975127e-01 8.29656124e-02 2.48264134e-01 0.
      6.48412481e-02 0. 0. 0. 1.96975127e-01 0. 0. 0. 0. 0. 0. 0. 0. 0.
      0. 0. 0. 0. 0. 0. 0. 0. 0. 0. 0. 0. 0. 0. 0. 0. 0. 0. 0. 0. 0. 0.
      0. 0. 0. 0. 0. 1.42120174e-03 0. 0. 0. 0. 0. 0. 0. 1.42120174e-03
      2.39392612e-02 0. 0. 0. 0. 0. 0. 0. 2.39392612e-02 2.91113444e-02
      0. 0. 0. 0. 0. 0. 0. 2.91113444e-02 5.38356975e-03 0. 0. 0. 0. 0.
      0. 0. 5.38356975e-03 5.71654253e-02 6.24926500e-02 1.87001839e-01
      0. 5.34486398e-03 0. 0. 0. 5.71654253e-02 3.15601617e-01
      5.68246171e-02 1.70040891e-01 0. 5.21640177e-04 0. 0. 0.
      3.15601617e-01 3.15601617e-01 0. 0. 0. 0. 0. 7.39755109e-02
      2.47213747e-02 3.15601617e-01 1.15851387e-01 0. 0. 0.
      2.98682833e-03 0. 2.50383198e-01 8.36738721e-02 1.15851387e-01
      2.93386932e-02 5.88702969e-02 1.76162139e-01 0. 8.19137171e-02 0.
      0. 0. 2.93386932e-02 2.49514356e-01 3.36141065e-02 1.00585938e-01
      0. 1.78789701e-02 0. 0. 0. 2.49514356e-01 2.89571911e-01 0. 0. 0.
      9.49172070e-04 0. 4.47594225e-02 1.49578229e-02 2.89571911e-01
      4.32400443e-02 0. 0. 0. 4.78852615e-02 0. 2.32973829e-01
      7.78558627e-02 4.32400443e-02 0. 0. 0. 0. 0. 0. 0. 0. 0. 0. 0. 0.
      0. 0. 0. 0. 0. 0. 0. 0. 0. 0. 0. 0. 0. 0. 0. 0. 0. 0. 0. 0. 0. 0.
      0. 0. 1.83867421e-02 0. 0. 0. 0. 0. 0. 0. 1.83867421e-02
      7.97615200e-03 0. 0. 0. 0. 0. 0. 0. 7.97615200e-03 0. 0. 0. 0. 0.
      0. 0. 0. 0. 0. 0. 0. 0. 0. 0. 0. 0. 0. 3.33115608e-01 0. 0. 0. 0.
      0. 1.80256501e-01 6.02386966e-02 3.33115608e-01 1.59752265e-01 0.
      0. 0. 2.82965228e-02 0. 3.33115608e-01 2.84673274e-01
      1.59752265e-01 0. 0. 0. 0. 1.75142363e-02 0. 4.71486300e-02
      1.57562848e-02 0. 0. 0. 0. 0. 0. 0. 0. 0. 0. 1.71566293e-01 0. 0.
      0. 3.63556412e-03 0. 1.15675323e-01 3.86566855e-02 1.71566293e-01
      5.83022870e-02 0. 0. 0. 3.33115608e-01 0. 3.33115608e-01
      3.33115608e-01 5.83022870e-02 0. 0. 0. 0. 2.21506491e-01 0.
      1.60592854e-01 5.36674410e-02 0. 0. 0. 0. 0. 0. 0. 0. 0. 0. 0. 0.
      0. 0. 0. 0. 0. 0. 0. 0. 2.09603575e-03 6.27213949e-03 0.
      5.74266072e-03 0. 0. 0. 0. 2.25830376e-02 6.50939196e-02
      1.94785789e-01 0. 2.68925317e-02 0. 0. 0. 2.25830376e-02
      8.12945142e-02 2.58144513e-02 7.72465989e-02 0. 1.57139567e-03 0.
      0. 0. 8.12945142e-02 0. 0. 0. 0. 0. 0. 0. 0. 0. 0. 1.87555123e-02
      5.61236404e-02 0. 2.19960153e-01 0. 0. 0. 0. 3.04142777e-02
      1.67559683e-01 3.53336364e-01 0. 3.53336364e-01 0. 0. 0.
      3.04142777e-02 8.69385228e-02 4.43089232e-02 1.32588759e-01 0.
      9.38616097e-02 0. 0. 0. 8.69385228e-02 0. 0. 0. 0. 0. 0. 0. 0. 0.
      0. 7.55561166e-04 2.26092711e-03 0. 3.28690350e-01 0.
      3.48644182e-02 1.16510764e-02 0. 1.70681730e-03 1.00253578e-02
      2.99996063e-02 0. 3.53336364e-01 0. 3.35761815e-01 1.12205856e-01
      1.70681730e-03 2.44711600e-02 2.58622458e-03 7.73893949e-03 0.
      9.53462198e-02 0. 1.15999691e-01 3.87651622e-02 2.44711600e-02 0.
      0. 0. 0. 0. 0. 0. 0. 0. 0. 0. 0. 0. 2.85420623e-02 0.
      2.24170536e-02 7.49138603e-03 0. 2.06283238e-02 0. 0. 0.
      9.30010527e-02 0. 3.38994175e-01 1.13285974e-01 2.06283238e-02
      1.02141611e-01 0. 0. 0. 6.36223122e-04 0. 1.05045542e-01
      3.51044349e-02 1.02141611e-01 1.99242197e-02 2.83717234e-02
      8.48989710e-02 0. 6.28460199e-03 0. 0. 0. 1.99242197e-02
      2.02483252e-01 2.11610943e-02 6.33220002e-02 0. 7.12330686e-04 0.
      0. 0. 2.02483252e-01 2.21335530e-01 0. 0. 0. 0. 0. 2.75608320e-02
      9.21036117e-03 2.21335530e-01 3.70383225e-02 0. 0. 0.
      3.28992587e-03 0. 1.09395929e-01 3.65582705e-02 3.70383225e-02
      2.59293821e-02 6.02254681e-02 1.80217206e-01 0. 2.21335530e-01 0.
      0. 0. 2.59293821e-02 2.00077742e-01 3.20989154e-02 9.60518643e-02
      0. 4.53202501e-02 0. 0. 0. 2.00077742e-01 2.21335530e-01 0. 0. 0.
      3.40187643e-03 0. 4.19270061e-02 1.40112732e-02 2.21335530e-01
      3.33768316e-02 4.56219818e-03 1.36518348e-02 0. 1.33959085e-01 0.
      2.21335530e-01 8.58332738e-02 3.33768316e-02 2.47578928e-03
      3.89509182e-03 1.16555588e-02 0. 2.21335530e-01 0. 1.35752350e-01
      4.53661419e-02 2.47578928e-03 7.38027990e-02 1.17236376e-03
      3.50814546e-03 0. 3.96245718e-02 0. 8.09870288e-02 2.70645116e-02
      7.38027990e-02 9.63289738e-02 8.90259817e-03 2.66399719e-02 0.
      1.28361899e-02 0. 2.77384941e-04 9.26971770e-05 9.63289738e-02
      4.49994430e-02 4.42530178e-02 1.32421806e-01 0. 2.07049221e-01 0.
      5.35539426e-02 1.78967882e-02 4.49994430e-02 2.13805195e-02 0. 0.
      0. 1.77088492e-02 0. 1.33724168e-01 4.46883217e-02 2.13805195e-02
      2.21335530e-01 0. 0. 0. 2.06652679e-04 0. 7.72795156e-02
      2.58255061e-02 2.21335530e-01 2.21335530e-01 1.25154424e-02
      3.74509506e-02 0. 3.67968343e-03 0. 0. 0. 2.21335530e-01
      6.00472838e-02 4.49516773e-02 1.34512231e-01 0. 3.13915201e-02 0.
      0. 0. 6.00472838e-02 7.92218223e-02 0. 0. 0. 0. 0. 3.74711044e-02
      1.25222076e-02 7.92218223e-02 2.78607812e-02 0. 0. 0.
      1.67377833e-02 0. 2.25852400e-01 7.54760727e-02 2.78607812e-02 0.
      0. 0. 0. 9.92925745e-03 0. 2.01592091e-02 6.73687086e-03 0. 0. 0.
      0. 0. 0. 0. 0. 0. 0. 7.40253329e-02 0. 0. 0. 7.16748554e-03 0.
      6.08460344e-02 2.03336794e-02 7.40253329e-02 2.44710203e-02
      1.34148728e-02 4.01424132e-02 0. 3.22179049e-01 0. 3.22179049e-01
      2.13852122e-01 2.44710203e-02 0. 1.21953443e-03 3.64931254e-03 0.
      3.22179049e-01 0. 1.17290631e-01 3.91965695e-02 0. 0. 0. 0. 0. 0.
      0. 0. 0. 0. 3.59340534e-02 1.00968005e-02 3.02134790e-02 0.
      2.23290231e-02 0. 5.84428140e-04 1.95305620e-04 3.59340534e-02
      8.06331933e-02 1.16822682e-01 3.22179049e-01 0. 3.22179049e-01 0.
      1.57380611e-01 5.25938384e-02 8.06331933e-02 2.48109666e-03
      2.46789213e-02 7.38485083e-02 0. 3.22179049e-01 0. 1.68638285e-02
      5.63559867e-03 2.48109666e-03 0. 0. 0. 0. 0. 0. 0. 0. 0.
      1.03116445e-01 1.42031126e-02 4.25010845e-02 0. 6.18086383e-03 0.
      0. 0. 1.03116445e-01 6.28454611e-02 1.04756460e-01 3.13470274e-01
      0. 1.05971061e-01 0. 0. 0. 6.28454611e-02 8.27032141e-04
      1.74232721e-02 5.21368757e-02 0. 4.74476330e-02 0. 0. 0.
      8.27032141e-04 0. 0. 0. 0. 0. 0. 0. 0. 0. 0. 0. 0. 0. 0. 0. 0. 0.
      0. 0. 0. 0. 0. 1.91877186e-01 0. 5.24783395e-02 1.75373387e-02 0.
      5.02332253e-03 0. 0. 0. 3.39058578e-01 0. 3.39058578e-01
      1.76541299e-01 5.02332253e-03 6.55326992e-02 0. 0. 0.
      3.91052738e-02 0. 1.78152144e-01 5.95354699e-02 6.55326992e-02 0.
      0. 0. 0. 0. 0. 0. 0. 0. 0. 0. 0. 0. 4.46143150e-02 0.
      4.22334075e-02 1.41136618e-02 0. 1.37907997e-01 0. 0. 0.
      1.52373403e-01 0. 3.39058578e-01 3.39058578e-01 1.37907997e-01
      3.39058578e-01 0. 0. 0. 5.39178727e-04 0. 3.13844770e-01
      1.04881503e-01 3.39058578e-01 0. 0. 0. 0. 0. 0. 0. 0. 0. 0. 0. 0.
      0. 0. 0. 0. 0. 0. 3.05822007e-02 0. 0. 0. 0. 0. 2.13946048e-02
      7.14970054e-03 3.05822007e-02 8.10045227e-02 0. 0. 0. 0. 0.
      1.04488498e-02 3.49182216e-03 8.10045227e-02 0. 0. 0. 0. 0. 0. 0.
      0. 0. 0. 0. 0. 0. 0. 0. 0. 0. 0. 0. 0. 0. 0. 0. 0. 0. 0. 0. 0. 0.
      0. 0. 0. 0. 0. 0. 0. 4.50262381e-03 0. 0. 0. 9.77170020e-02 0.
      1.31360143e-01 4.38983329e-02 4.50262381e-03 1.22335754e-01 0. 0.
      0. 9.94602777e-03 0. 8.46628472e-02 2.82929037e-02 1.22335754e-01
      1.53807327e-01 1.16317626e-02 3.48066688e-02 0. 8.11373536e-03 0.
      0. 0. 1.53807327e-01 4.31697555e-02 3.98448147e-02 1.19230732e-01
      0. 9.01728123e-02 0. 1.08468402e-02 3.62482341e-03 4.31697555e-02
      8.39021429e-02 0. 0. 0. 1.80118047e-02 0. 2.67034292e-01
      8.92382190e-02 8.39021429e-02 3.62615436e-01 0. 0. 0.
      1.10109118e-04 0. 1.32402420e-01 4.42466252e-02 3.62615436e-01
      3.62615436e-01 2.24209577e-02 6.70919642e-02 0. 3.04447883e-03 0.
      0. 0. 3.62615436e-01 1.74287796e-01 9.70097110e-02 2.90289134e-01
      0. 3.07540633e-02 0. 0. 0. 1.74287796e-01 1.68231558e-02 0. 0. 0.
      0. 0. 7.07944576e-03 2.36582686e-03 1.68231558e-02 1.07608937e-01
      0. 0. 0. 0. 0. 3.67930648e-03 1.22955965e-03 1.07608937e-01
      1.18512623e-01 6.30329596e-04 1.88617932e-03 0. 0. 0. 0. 0.
      1.18512623e-01 2.82552578e-02 2.96506332e-03 8.87256581e-03 0. 0.
      0. 0. 0. 2.82552578e-02 0. 0. 0. 0. 0. 0. 0. 0. 0. 0. 0. 0. 0. 0.
      0. 0. 0. 0. 0. 0. 0. 0. 0. 0. 0. 0. 0. 0. 0. 0. 0. 0. 0. 0. 0. 0.
      8.10137615e-02 1.92392468e-02 5.75711578e-02 0. 2.10239440e-02 0.
      0. 0. 8.10137615e-02 1.00626424e-01 1.54115021e-01 3.19621861e-01
      0. 3.19621861e-01 0. 4.93476018e-02 1.64911021e-02 1.00626424e-01
      2.85457144e-03 3.52472402e-02 1.05472796e-01 0. 3.14086616e-01 0.
      4.48614778e-03 1.49919197e-03 2.85457144e-03 0. 0. 0. 0. 0. 0. 0.
      0. 0. 3.19621861e-01 4.31590416e-02 1.29148051e-01 0.
      8.11600871e-03 0. 0. 0. 3.19621861e-01 2.54603535e-01
      3.19621861e-01 3.19621861e-01 0. 1.64008841e-01 0. 0. 0.
      2.54603535e-01 9.51523718e-04 3.86073254e-02 1.15527391e-01 0.
      7.26456717e-02 0. 0. 0. 9.51523718e-04 0. 0. 0. 0. 0. 0. 0. 0. 0.
      6.77549094e-02 1.59638084e-03 4.77696210e-03 0. 0. 0. 0. 0.
      6.77549094e-02 4.28889059e-02 8.29046592e-03 2.48081405e-02 0. 0.
      0. 0. 0. 4.28889059e-02 0. 0. 0. 0. 0. 0. 0. 0. 0. 0. 0. 0. 0. 0.
      0. 0. 0. 0. 0. 0. 0. 0. 0. 0. 0. 0. 0. 0. 0. 0. 0. 0. 0. 0. 0. 0.
      0. 0. 0. 0. 0. 0. 0. 0. 0. 0. 0. 0. 0. 0. 0. 0. 0. 0.</_>
    <_>
      0. 0. 0. 0. 0. 0. 0. 0. 0. 0. 0. 0. 0. 0. 0. 0. 0. 0. 0. 0. 0. 0.
      0. 0. 0. 0. 0. 0. 0. 0. 0. 0. 0. 0. 0. 0. 0. 0. 0. 0. 0. 0. 0. 0.
      0. 0. 0. 0. 0. 0. 0. 0. 0. 0. 2.46823188e-02 5.91047714e-03
      1.76864024e-02 0. 0. 0. 0. 0. 2.46823188e-02 6.55144826e-02
      2.88660079e-03 8.63781013e-03 0. 0. 0. 0. 0. 6.55144826e-02 0. 0.
      0. 0. 0. 0. 0. 0. 0. 6.66385842e-03 4.05414030e-02 1.21315338e-01
      0. 5.39984927e-02 0. 0. 0. 6.66385842e-03 2.61371404e-01
      3.02917391e-01 3.07139695e-01 0. 1.16716608e-01 0. 0. 0.
      2.61371404e-01 3.07139695e-01 8.18487704e-02 2.44922385e-01 0.
      3.37892491e-03 0. 0. 0. 3.07139695e-01 0. 0. 0. 0. 0. 0. 0. 0. 0.
      6.05804671e-04 6.50484785e-02 1.94649875e-01 0. 2.68823653e-01 0.
      0. 0. 6.05804671e-04 5.00319153e-02 1.94378540e-01 3.07139695e-01
      0. 3.07139695e-01 0. 0. 0. 5.00319153e-02 8.17659125e-02
      3.97363640e-02 1.18905894e-01 0. 2.61479653e-02 0. 0. 0.
      8.17659125e-02 0. 0. 0. 0. 0. 0. 0. 0. 0. 0. 0. 0. 0. 0. 0. 0. 0.
      0. 0. 0. 0. 0. 0. 0. 0. 0. 0. 0. 0. 0. 0. 0. 0. 0. 0. 0.
      1.61329713e-02 2.32199696e-03 6.94830110e-03 0. 0. 0. 0. 0.
      1.61329713e-02 1.03384592e-01 1.20678078e-03 3.61114857e-03 0. 0.
      0. 0. 0. 1.03384592e-01 1.13872230e-01 0. 0. 0. 0. 0.
      1.85123784e-03 6.18652790e-04 1.13872230e-01 2.87249573e-02 0. 0.
      0. 0. 0. 8.70820135e-03 2.91013531e-03 2.87249573e-02
      1.19735308e-01 8.30029994e-02 2.48376399e-01 0. 1.59895495e-02 0.
      0. 0. 1.19735308e-01 3.62419665e-01 4.07237001e-02 1.21860594e-01
      0. 9.56728065e-04 0. 0. 0. 3.62419665e-01 3.62419665e-01 0. 0. 0.
      0. 0. 7.75225759e-02 2.59066969e-02 3.62419665e-01 1.91411197e-01
      0. 0. 0. 4.87553887e-02 0. 2.51093388e-01 8.39111283e-02
      1.91411197e-01 2.21170187e-02 4.27009799e-02 1.27777264e-01 0.
      7.23810568e-02 0. 0. 0. 2.21170187e-02 1.42184690e-01
      2.13738214e-02 6.39583841e-02 0. 7.85208400e-03 0. 0. 0.
      1.42184690e-01 1.53038293e-01 0. 0. 0. 2.79962807e-03 0.
      5.89823276e-02 1.97108556e-02 1.53038293e-01 1.52926566e-02 0. 0.
      0. 8.63472894e-02 0. 1.55433297e-01 5.19431010e-02 1.52926566e-02
      0. 0. 0. 0. 0. 0. 0. 0. 0. 0. 0. 0. 0. 0. 0. 0. 0. 0. 0. 0. 0. 0.
      0. 0. 0. 0. 0. 0. 0. 0. 0. 0. 0. 0. 0. 0. 6.01055920e-02 0. 0. 0.
      0. 0. 4.33032867e-03 1.44712359e-03 6.01055920e-02 4.47626598e-02
      0. 0. 0. 0. 0. 2.24886443e-02 7.51532894e-03 4.47626598e-02
      6.17192243e-04 0. 0. 0. 0. 0. 0. 0. 6.17192243e-04 0. 0. 0. 0. 0.
      0. 0. 0. 0. 2.95112669e-01 0. 0. 0. 0. 0. 1.30585685e-01
      4.36394848e-02 2.95112669e-01 2.95112669e-01 0. 0. 0.
      2.71274090e-01 0. 2.95112669e-01 2.68498540e-01 2.95112669e-01
      6.78912224e-03 0. 0. 0. 9.85357761e-02 0. 1.50327981e-01
      5.02371006e-02 6.78912224e-03 0. 0. 0. 0. 0. 0. 0. 0. 0.
      6.22749552e-02 0. 0. 0. 8.42924975e-03 0. 9.72464755e-02
      3.24980654e-02 6.22749552e-02 1.70799624e-02 0. 0. 0.
      2.95112669e-01 0. 2.95112669e-01 1.76055133e-01 1.70799624e-02 0.
      0. 0. 0. 2.95112669e-01 0. 1.87354043e-01 6.26105964e-02 0. 0. 0.
      0. 0. 0. 0. 0. 0. 0. 0. 0. 0. 0. 0. 0. 0. 0. 0. 1.31527486e-03
      1.95452794e-02 5.84869310e-02 0. 2.60949042e-02 0. 0. 0.
      1.31527486e-03 5.39747737e-02 8.91074389e-02 2.66643226e-01 0.
      6.25676364e-02 0. 0. 0. 5.39747737e-02 8.80432725e-02
      2.28968747e-02 6.85160160e-02 0. 2.95463880e-03 0. 0. 0.
      8.80432725e-02 0. 0. 0. 0. 0. 0. 0. 0. 0. 1.19570388e-04
      4.69039455e-02 1.40354514e-01 0. 3.20813894e-01 0. 0. 0.
      1.19570388e-04 1.71976462e-02 1.35012016e-01 3.20813894e-01 0.
      3.20813894e-01 0. 3.12854685e-02 1.04550812e-02 1.71976462e-02
      3.01781017e-02 2.21135579e-02 6.61719367e-02 0. 3.66464704e-02 0.
      2.84413062e-03 9.50460962e-04 3.01781017e-02 0. 0. 0. 0. 0. 0. 0.
      0. 0. 2.73246597e-02 0. 0. 0. 3.20813894e-01 0. 8.45176876e-02
      2.82443259e-02 2.73246597e-02 5.18302955e-02 2.36301497e-03
      7.07101543e-03 0. 3.20813894e-01 0. 3.20813894e-01 1.59232125e-01
      5.18302955e-02 6.38933778e-02 2.14819331e-04 6.42818864e-04 0.
      3.62842195e-02 0. 1.06759876e-01 3.56773585e-02 6.38933778e-02 0.
      0. 0. 0. 0. 0. 0. 0. 0. 1.41731268e-02 0. 0. 0. 2.65198033e-02 0.
      5.41392341e-02 1.80923827e-02 1.41731268e-02 6.79731518e-02 0. 0.
      0. 1.73180178e-02 0. 3.05052936e-01 1.01943374e-01 6.79731518e-02
      1.24428861e-01 0. 0. 0. 6.06440939e-04 0. 6.52285144e-02
      2.17982568e-02 1.24428861e-01 3.74617651e-02 3.62829827e-02
      1.08572349e-01 0. 1.56808197e-02 0. 0. 0. 3.74617651e-02
      2.24638373e-01 1.98391825e-02 5.93662299e-02 0. 1.38487574e-03 0.
      0. 0. 2.24638373e-01 2.24638373e-01 0. 0. 0. 0. 0. 4.53741886e-02
      1.51632624e-02 2.24638373e-01 4.93132323e-02 0. 0. 0.
      2.21896525e-02 0. 1.22305654e-01 4.08724472e-02 4.93132323e-02
      1.35416649e-02 4.55365367e-02 1.36262253e-01 0. 1.91700026e-01 0.
      1.22142676e-02 4.08180431e-03 1.35416649e-02 8.01438466e-02
      1.67428870e-02 5.01009114e-02 0. 1.71253718e-02 0. 1.11038750e-03
      3.71072994e-04 8.01438466e-02 8.32329243e-02 1.13840644e-04
      3.40654602e-04 0. 1.12395640e-02 0. 4.85473387e-02 1.62236672e-02
      8.32329243e-02 7.51712918e-03 1.25224842e-03 3.74720455e-03 0.
      2.24638373e-01 0. 1.51617676e-01 5.06679751e-02 7.51712918e-03
      2.60053296e-02 9.22552834e-04 2.76061916e-03 0. 1.59645438e-01 0.
      1.93963841e-01 6.48194477e-02 2.60053296e-02 1.73841178e-01
      8.38684209e-05 2.50965328e-04 0. 1.71721652e-02 0. 8.66843462e-02
      2.89684571e-02 1.73841178e-01 1.79380015e-01 3.41691002e-02
      1.02246985e-01 0. 8.33281130e-03 0. 0. 0. 1.79380015e-01
      2.98847686e-02 7.54557773e-02 2.24638373e-01 0. 2.02518895e-01 0.
      0. 0. 2.98847686e-02 5.26388511e-02 0. 0. 0. 2.60439259e-03 0.
      1.12614535e-01 3.76338325e-02 5.26388511e-02 2.24638373e-01 0. 0.
      0. 2.36762891e-04 0. 9.73947942e-02 3.25476602e-02 2.24638373e-01
      2.24638373e-01 3.15289907e-02 9.43465903e-02 0. 0. 0.
      2.43026540e-02 8.12152028e-03 2.24638373e-01 6.38166294e-02
      4.64141555e-02 1.38888478e-01 0. 2.58842530e-03 0. 0. 0.
      6.38166294e-02 7.98001215e-02 0. 0. 0. 0. 0. 4.64209430e-02
      1.55130699e-02 7.98001215e-02 5.13961278e-02 0. 0. 0.
      8.65289420e-02 0. 2.53200620e-01 8.46153572e-02 5.13961278e-02
      9.85537888e-04 0. 0. 0. 4.30730060e-02 0. 6.61051050e-02
      2.20912192e-02 9.85537888e-04 0. 0. 0. 0. 0. 0. 0. 0. 0.
      2.12585069e-02 2.18488931e-04 6.53802126e-04 0. 2.15715580e-02 0.
      5.53753898e-02 1.85054801e-02 2.12585069e-02 4.82384302e-03
      2.40337709e-03 7.19182007e-03 0. 3.31889570e-01 0. 3.31889570e-01
      1.13668017e-01 4.82384302e-03 0. 0. 0. 0. 3.31889570e-01 0.
      1.29960507e-01 4.34306301e-02 0. 0. 0. 0. 0. 0. 0. 0. 0. 0.
      5.17086945e-02 3.19751911e-02 9.56819803e-02 0. 1.59927681e-02 0.
      0. 0. 5.17086945e-02 2.67635435e-02 1.53839901e-01 3.31889570e-01
      0. 3.31889570e-01 0. 0. 0. 2.67635435e-02 1.47715982e-04
      4.96137030e-02 1.48462549e-01 0. 3.31889570e-01 0. 0. 0.
      1.47715982e-04 0. 0. 0. 0. 0. 0. 0. 0. 0. 8.81634429e-02
      2.29691509e-02 6.87323287e-02 0. 0. 0. 0. 0. 8.81634429e-02
      7.57550150e-02 9.33157206e-02 2.79235303e-01 0. 3.00156716e-02 0.
      0. 0. 7.57550150e-02 1.62487733e-03 2.60624439e-02 7.79884830e-02
      0. 3.61638442e-02 0. 0. 0. 1.62487733e-03 0. 0. 0. 0. 0. 0. 0. 0.
      0. 0. 0. 0. 0. 0. 0. 0. 0. 0. 4.01851423e-02 0. 0. 0.
      3.06269526e-01 0. 1.34022713e-01 4.47880365e-02 4.01851423e-02
      8.17162246e-02 0. 0. 0. 3.06269526e-01 0. 3.06269526e-01
      2.11297631e-01 8.17162246e-02 1.27914533e-01 0. 0. 0.
      1.97829567e-02 0. 1.39065295e-01 4.64732870e-02 1.27914533e-01 0.
      0. 0. 0. 0. 0. 0. 0. 0. 2.21125241e-02 0. 0. 0. 2.90021095e-02 0.
      1.01624593e-01 3.39611508e-02 2.21125241e-02 2.80615836e-01 0. 0.
      0. 1.71591993e-02 0. 3.06269526e-01 2.87479430e-01 2.80615836e-01
      3.06269526e-01 0. 0. 0. 5.35893836e-04 0. 1.97022900e-01
      6.58416376e-02 3.06269526e-01 0. 0. 0. 0. 0. 0. 0. 0. 0. 0. 0. 0.
      0. 0. 0. 0. 0. 0. 1.41264061e-02 0. 0. 0. 0. 0. 0. 0.
      1.41264061e-02 2.23043561e-02 0. 0. 0. 0. 0. 6.20800164e-03
      2.07460509e-03 2.23043561e-02 0. 0. 0. 0. 0. 0. 0. 0. 0. 0. 0. 0.
      0. 0. 0. 0. 0. 0. 0. 0. 0. 0. 0. 0. 0. 0. 0. 0. 0. 0. 0. 0. 0. 0.
      0. 0. 2.63962634e-02 0. 0. 0. 3.79399620e-02 0. 1.39296532e-01
      4.65505421e-02 2.63962634e-02 2.02762082e-01 0. 0. 0.
      5.49559901e-03 0. 7.12210014e-02 2.38008630e-02 2.02762082e-01
      2.00990096e-01 2.78897546e-02 8.34567696e-02 0. 1.22229371e-03 0.
      0. 0. 2.00990096e-01 3.39299217e-02 5.35519719e-02 1.60247773e-01
      0. 4.06292006e-02 0. 0. 0. 3.39299217e-02 1.36024773e-01 0. 0. 0.
      1.31376553e-03 0. 1.83517382e-01 6.13283031e-02 1.36024773e-01
      3.22338969e-01 0. 0. 0. 1.19433207e-04 0. 2.37032428e-01
      7.92121068e-02 3.22338969e-01 3.22338969e-01 6.90340996e-02
      2.06575722e-01 0. 0. 0. 9.05844793e-02 3.02717425e-02
      3.22338969e-01 1.59776807e-01 8.90173912e-02 2.66373068e-01 0.
      1.82226545e-03 0. 0. 0. 1.59776807e-01 6.59886701e-03 0. 0. 0. 0.
      0. 0. 0. 6.59886701e-03 4.63127270e-02 0. 0. 0. 0. 0.
      1.63419303e-02 5.46118664e-03 4.63127270e-02 9.80929732e-02
      4.30502044e-03 1.28822131e-02 0. 0. 0. 8.23495723e-03
      2.75197811e-03 9.80929732e-02 1.01240231e-02 2.10251682e-03
      6.29150728e-03 0. 0. 0. 0. 0. 1.01240231e-02 0. 0. 0. 0. 0. 0. 0.
      0. 0. 0. 0. 0. 0. 0. 0. 0. 0. 0. 0. 0. 0. 0. 0. 0. 0. 0. 0. 0. 0.
      0. 0. 0. 0. 0. 0. 0. 9.77025479e-02 4.09866758e-02 1.22647755e-01
      0. 4.07151412e-03 0. 0. 0. 9.77025479e-02 6.02345541e-02
      1.98571295e-01 2.91902333e-01 0. 2.91902333e-01 0. 0. 0.
      6.02345541e-02 6.84718078e-04 6.85256198e-02 2.05054000e-01 0.
      2.91902333e-01 0. 0. 0. 6.84718078e-04 0. 0. 0. 0. 0. 0. 0. 0. 0.
      2.91902333e-01 8.35390538e-02 2.49979958e-01 0. 0. 0. 0. 0.
      2.91902333e-01 2.91902333e-01 2.77535439e-01 2.91902333e-01 0.
      4.28925827e-02 0. 0. 0. 2.91902333e-01 7.53189530e-03
      5.49419075e-02 1.64406508e-01 0. 5.17135449e-02 0. 0. 0.
      7.53189530e-03 0. 0. 0. 0. 0. 0. 0. 0. 0. 4.68004532e-02
      4.38869745e-03 1.31326057e-02 0. 0. 0. 0. 0. 4.68004532e-02
      1.36306798e-02 2.28087953e-03 6.82523474e-03 0. 0. 0. 0. 0.
      1.36306798e-02 0. 0. 0. 0. 0. 0. 0. 0. 0. 0. 0. 0. 0. 0. 0. 0. 0.
      0. 0. 0. 0. 0. 0. 0. 0. 0. 0. 0. 0. 0. 0. 0. 0. 0. 0. 0. 0. 0. 0.
      0. 0. 0. 0. 0. 0. 0. 0. 0. 0. 0. 0. 0. 0. 0.</_>
    <_>
      0. 0. 0. 0. 0. 0. 0. 0. 0. 0. 0. 0. 0. 0. 0. 0. 0. 0. 0. 0. 0. 0.
      0. 0. 0. 0. 0. 0. 0. 0. 0. 0. 0. 0. 0. 0. 0. 0. 0. 0. 0. 0. 0. 0.
      0. 0. 0. 0. 0. 0. 0. 0. 0. 0. 0. 0. 0. 0. 0. 0. 0. 0. 0. 0. 0. 0.
      0. 0. 0. 0. 0. 0. 0. 0. 0. 0. 0. 0. 0. 0. 0. 0. 0. 0. 0. 0. 0. 0.
      0. 0. 2.49405336e-02 2.47720778e-02 7.41275102e-02 0. 0. 0. 0. 0.
      2.49405336e-02 2.45197117e-01 4.02634367e-02 1.20483547e-01 0. 0.
      0. 1.44019518e-02 4.81289113e-03 2.45197117e-01 0. 0. 0. 0. 0. 0.
      0. 0. 0. 0. 0. 0. 0. 0. 0. 0. 0. 0. 6.95075840e-02 2.37048164e-01
      3.63945812e-01 0. 3.63945812e-01 0. 0. 0. 6.95075840e-02
      3.63945812e-01 3.13163221e-01 3.63945812e-01 0. 1.55294463e-01 0.
      4.32058498e-02 1.44386748e-02 3.63945812e-01 0. 0. 0. 0. 0. 0. 0.
      0. 0. 0. 0. 0. 0. 0. 0. 0. 0. 0. 0. 0. 0. 0. 0. 0. 0. 0. 0. 0. 0.
      0. 0. 0. 0. 0. 0. 0. 0. 0. 0. 0. 0. 0. 0. 0. 0. 0. 0. 0. 0. 0. 0.
      0. 0. 0. 0. 0. 0. 0. 0. 0. 0. 0. 0. 0. 0. 0. 0. 0. 0. 0. 0. 0.
      1.42694134e-02 9.44236200e-03 2.82551497e-02 0. 0. 0. 0. 0.
      1.42694134e-02 2.35088110e-01 1.69432443e-02 5.07006496e-02 0. 0.
      0. 4.85145450e-02 1.62127484e-02 2.35088110e-01 1.23956405e-01 0.
      0. 0. 0. 0. 5.74284866e-02 1.91916414e-02 1.23956405e-01
      1.31076081e-02 0. 0. 0. 0. 0. 8.58065858e-03 2.86751264e-03
      1.31076081e-02 4.06484641e-02 8.16735253e-02 2.44398087e-01 0.
      7.66863748e-02 0. 0. 0. 4.06484641e-02 3.27846617e-01
      1.21426336e-01 3.27846617e-01 0. 3.62387337e-02 0. 1.45543620e-01
      4.86382470e-02 3.27846617e-01 3.27846617e-01 0. 0. 0.
      4.36998010e-02 0. 3.27846617e-01 1.39685690e-01 3.27846617e-01
      4.33115400e-02 0. 0. 0. 9.37825590e-02 0. 2.13217080e-01
      7.12535158e-02 4.33115400e-02 0. 0. 0. 0. 0. 0. 0. 0. 0. 0. 0. 0.
      0. 0. 0. 0. 0. 0. 0. 0. 0. 0. 0. 0. 0. 0. 0. 0. 0. 0. 0. 0. 0. 0.
      0. 0. 0. 0. 0. 0. 0. 0. 0. 0. 0. 0. 0. 0. 0. 0. 0. 0. 0. 0. 0. 0.
      0. 0. 0. 0. 0. 0. 0. 0. 0. 0. 0. 0. 0. 0. 0. 0. 1.38247848e-01 0.
      0. 0. 0. 0. 5.24681322e-02 1.75339729e-02 1.38247848e-01
      3.71114798e-02 0. 0. 0. 0. 0. 3.52868326e-02 1.17922714e-02
      3.71114798e-02 0. 0. 0. 0. 0. 0. 0. 0. 0. 0. 0. 0. 0. 0. 0. 0. 0.
      0. 3.69030982e-01 0. 0. 0. 2.35538542e-01 0. 3.69030982e-01
      3.33143950e-01 3.69030982e-01 1.18260562e-01 0. 0. 0.
      3.69030982e-01 0. 3.69030982e-01 2.74836838e-01 1.18260562e-01 0.
      0. 0. 0. 0. 0. 0. 0. 0. 0. 0. 0. 0. 0. 0. 0. 0. 0. 0. 0. 0. 0. 0.
      0. 0. 0. 0. 0. 0. 0. 0. 0. 0. 0. 0. 0. 6.31547254e-03
      8.67669843e-03 2.59639956e-02 0. 0. 0. 0. 0. 6.31547254e-03
      6.41519576e-02 1.34653971e-02 4.02936079e-02 0. 0. 0.
      4.47479822e-03 1.49540277e-03 6.41519576e-02 0. 0. 0. 0. 0. 0. 0.
      0. 0. 0. 0. 0. 0. 0. 0. 0. 0. 0. 2.42838115e-02 1.17531478e-01
      2.78328210e-01 0. 2.78328210e-01 0. 4.64410381e-03 1.55198202e-03
      2.42838115e-02 2.78328210e-01 1.51693895e-01 2.78328210e-01 0.
      2.21213698e-01 0. 1.99261382e-02 6.65898249e-03 2.78328210e-01 0.
      0. 0. 0. 0. 0. 0. 0. 0. 0. 0. 0. 0. 0. 0. 0. 0. 0. 5.53424433e-02
      9.19061992e-03 2.75017638e-02 0. 2.78328210e-01 0. 2.16771409e-01
      7.24413022e-02 5.53424433e-02 2.78328210e-01 1.24078272e-02
      3.71288285e-02 0. 2.78328210e-01 0. 2.78328210e-01 1.07461244e-01
      2.78328210e-01 0. 0. 0. 0. 0. 0. 0. 0. 0. 0. 0. 0. 0. 0. 0. 0. 0.
      0. 3.00935507e-02 0. 0. 0. 4.28192504e-02 0. 5.17734475e-02
      1.73017848e-02 3.00935507e-02 1.38807133e-01 0. 0. 0.
      1.68128423e-02 0. 7.66658857e-02 2.56204046e-02 1.38807133e-01
      4.06272896e-03 3.61404452e-03 1.08145997e-02 0. 0. 0. 0. 0.
      4.06272896e-03 6.93320110e-02 6.23040926e-03 1.86437629e-02 0. 0.
      0. 1.68565735e-02 5.63318515e-03 6.93320110e-02 4.04173546e-02 0.
      0. 0. 0. 0. 2.11635996e-02 7.07252137e-03 4.04173546e-02
      4.55429032e-03 0. 0. 0. 0. 0. 4.16086335e-03 1.39049103e-03
      4.55429032e-03 1.60672851e-02 4.48572524e-02 1.34229809e-01 0.
      1.07749879e-01 0. 1.91631389e-03 6.40400103e-04 1.60672851e-02
      2.50784308e-01 6.49205148e-02 1.94266573e-01 0. 6.62138835e-02 0.
      5.32525517e-02 1.77961141e-02 2.50784308e-01 2.50784308e-01 0. 0.
      0. 8.18526968e-02 0. 2.24238545e-01 7.49366805e-02 2.50784308e-01
      1.63622331e-02 0. 0. 0. 1.32923111e-01 0. 1.31883189e-01
      4.40731086e-02 1.63622331e-02 2.57539786e-02 3.63451312e-03
      1.08758165e-02 0. 1.82340115e-01 0. 8.85795280e-02 2.96017695e-02
      2.57539786e-02 2.50784308e-01 5.27773751e-03 1.57929491e-02 0.
      1.11456282e-01 0. 1.45514026e-01 4.86283228e-02 2.50784308e-01
      2.50784308e-01 2.44088192e-02 7.30403364e-02 0. 1.46928713e-01 0.
      1.83291510e-02 6.12528110e-03 2.50784308e-01 3.74093801e-02
      2.30765995e-02 6.90538138e-02 0. 2.18391925e-01 0. 1.26997298e-02
      4.24402859e-03 3.74093801e-02 1.34736309e-02 0. 0. 0.
      9.63015854e-03 0. 2.08860114e-02 6.97974116e-03 1.34736309e-02
      1.68689802e-01 0. 0. 0. 3.96097079e-03 0. 3.53454947e-02
      1.18118497e-02 1.68689802e-01 1.91105857e-01 8.89418460e-03
      2.66147032e-02 0. 3.14433523e-03 0. 0. 0. 1.91105857e-01
      1.88520588e-02 9.10833757e-03 2.72555221e-02 0. 9.43300594e-03 0.
      0. 0. 1.88520588e-02 3.39831859e-02 0. 0. 0. 0. 0. 1.62274651e-02
      5.42294700e-03 3.39831859e-02 9.12250299e-03 0. 0. 0. 0. 0.
      1.21055329e-02 4.04546689e-03 9.12250299e-03 0. 0. 0. 0. 0. 0. 0.
      0. 0. 0. 0. 0. 0. 0. 0. 0. 0. 0. 1.93242997e-01 0. 0. 0.
      2.69720942e-01 0. 3.00656766e-01 1.44537941e-01 1.93242997e-01
      3.06835938e-02 0. 0. 0. 3.00656766e-01 0. 3.00656766e-01
      1.18535906e-01 3.06835938e-02 0. 0. 0. 0. 0. 0. 0. 0. 0. 0. 0. 0.
      0. 0. 0. 0. 0. 0. 3.00656766e-01 6.61919266e-02 1.98071033e-01 0.
      3.00656766e-01 0. 4.26675566e-02 1.42587535e-02 3.00656766e-01
      6.83856905e-02 6.61195442e-02 1.97854325e-01 0. 3.00656766e-01 0.
      3.17957625e-02 1.06255924e-02 6.83856905e-02 0. 0. 0. 0. 0. 0. 0.
      0. 0. 0. 0. 0. 0. 0. 0. 0. 0. 0. 1.71913281e-01 2.50850357e-02
      7.50637352e-02 0. 1.46538867e-02 0. 0. 0. 1.71913281e-01
      3.58460657e-02 2.71188971e-02 8.11497942e-02 0. 4.39616591e-02 0.
      0. 0. 3.58460657e-02 0. 0. 0. 0. 0. 0. 0. 0. 0. 0. 0. 0. 0. 0. 0.
      0. 0. 0. 0. 0. 0. 0. 0. 0. 0. 0. 0. 0. 0. 0. 0. 0. 0. 0. 0. 0.
      1.34868383e-01 0. 0. 0. 3.22516292e-01 0. 3.22516292e-01
      1.26207948e-01 1.34868383e-01 3.22516292e-01 0. 0. 0.
      3.22516292e-01 0. 3.22516292e-01 1.86836779e-01 3.22516292e-01 0.
      0. 0. 0. 0. 0. 0. 0. 0. 0. 0. 0. 0. 0. 0. 0. 0. 0. 8.45706537e-02
      0. 0. 0. 7.74902403e-02 0. 1.22255057e-01 4.08555008e-02
      8.45706537e-02 3.22516292e-01 0. 0. 0. 2.95239706e-02 0.
      1.88813165e-01 6.30980581e-02 3.22516292e-01 0. 0. 0. 0. 0. 0. 0.
      0. 0. 0. 0. 0. 0. 0. 0. 0. 0. 0. 0. 0. 0. 0. 0. 0. 0. 0. 0. 0. 0.
      0. 0. 0. 0. 0. 0. 0. 0. 0. 0. 0. 0. 0. 0. 0. 0. 0. 0. 0. 0. 0. 0.
      0. 0. 0. 0. 0. 0. 0. 0. 0. 0. 0. 0. 0. 0. 0. 0. 0. 0. 0. 0. 0.
      4.58981618e-02 0. 0. 0. 1.25847176e-01 0. 1.15024649e-01
      3.84392589e-02 4.58981618e-02 3.23046744e-01 0. 0. 0.
      6.68092817e-02 0. 1.91015735e-01 6.38341904e-02 3.23046744e-01
      3.23046744e-01 3.78246531e-02 1.13185473e-01 0. 8.54426250e-02 0.
      0. 0. 3.23046744e-01 6.46987334e-02 3.69853526e-02 1.10673949e-01
      0. 1.42990366e-01 0. 0. 0. 6.46987334e-02 2.89549585e-02 0. 0. 0.
      1.29168080e-02 0. 3.77944000e-02 1.26302280e-02 2.89549585e-02
      3.23046744e-01 0. 0. 0. 5.12439245e-03 0. 6.61595836e-02
      2.21093781e-02 3.23046744e-01 3.23046744e-01 1.69032291e-02
      5.05807288e-02 0. 4.42049606e-03 0. 0. 0. 3.23046744e-01
      4.36503775e-02 1.72541402e-02 5.16307727e-02 0. 1.32614877e-02 0.
      0. 0. 4.36503775e-02 0. 0. 0. 0. 0. 0. 0. 0. 0. 0. 0. 0. 0. 0. 0.
      0. 0. 0. 0. 0. 0. 0. 0. 0. 0. 0. 0. 0. 0. 0. 0. 0. 0. 0. 0. 0. 0.
      0. 0. 0. 0. 0. 0. 0. 0. 0. 0. 0. 0. 0. 0. 0. 0. 0. 0. 0. 0. 0. 0.
      0. 0. 0. 0. 0. 0. 0. 0. 0. 0. 0. 0. 0. 3.23672056e-01
      1.20635428e-01 3.23672056e-01 0. 3.23672056e-01 0. 0. 0.
      3.23672056e-01 1.39357582e-01 1.24680117e-01 3.23672056e-01 0.
      3.23672056e-01 0. 0. 0. 1.39357582e-01 0. 0. 0. 0. 0. 0. 0. 0. 0.
      0. 0. 0. 0. 0. 0. 0. 0. 0. 3.23672056e-01 5.50695732e-02
      1.64788559e-01 0. 2.38360502e-02 0. 0. 0. 3.23672056e-01
      9.69132110e-02 5.93507215e-02 1.77599341e-01 0. 7.15081468e-02 0.
      0. 0. 9.69132110e-02 0. 0. 0. 0. 0. 0. 0. 0. 0. 0. 0. 0. 0. 0. 0.
      0. 0. 0. 0. 0. 0. 0. 0. 0. 0. 0. 0. 0. 0. 0. 0. 0. 0. 0. 0. 0. 0.
      0. 0. 0. 0. 0. 0. 0. 0. 0. 0. 0. 0. 0. 0. 0. 0. 0. 0. 0. 0. 0. 0.
      0. 0. 0. 0. 0. 0. 0. 0. 0. 0. 0. 0. 0. 0. 0. 0. 0. 0. 0. 0. 0. 0.
      0. 0. 0. 0. 0. 0. 0. 0. 0.</_>
    <_>
      0. 0. 0. 0. 0. 0. 0. 0. 0. 0. 0. 0. 0. 0. 0. 0. 0. 0. 0. 0. 0. 0.
      0. 0. 0. 0. 0. 0. 0. 0. 0. 0. 0. 0. 0. 0. 0. 0. 0. 0. 0. 0. 0. 0.
      0. 0. 0. 0. 0. 0. 0. 0. 0. 0. 1.38101019e-02 2.39410507e-03
      7.16407597e-03 0. 0. 0. 0. 0. 1.38101019e-02 5.06640337e-02
      4.63010650e-03 1.38550447e-02 0. 0. 0. 0. 0. 5.06640337e-02 0. 0.
      0. 0. 0. 0. 0. 0. 0. 0. 3.37513685e-02 1.00996964e-01 0.
      1.96871664e-02 0. 0. 0. 0. 2.00710043e-01 3.12656760e-01
      3.25445712e-01 0. 1.62748024e-02 0. 0. 0. 2.00710043e-01
      3.25445712e-01 9.10787508e-02 2.72542119e-01 0. 0. 0. 0. 0.
      3.25445712e-01 0. 0. 0. 0. 0. 0. 0. 0. 0. 0. 7.45179504e-02
      2.22986117e-01 0. 2.36877486e-01 0. 0. 0. 0. 2.57204287e-02
      2.95537353e-01 3.25445712e-01 0. 2.14869961e-01 0. 0. 0.
      2.57204287e-02 1.16058879e-01 4.62063625e-02 1.38266534e-01 0. 0.
      0. 0. 0. 1.16058879e-01 0. 0. 0. 0. 0. 0. 0. 0. 0. 0. 0. 0. 0. 0.
      0. 0. 0. 0. 0. 0. 0. 0. 0. 0. 0. 0. 0. 0. 0. 0. 0. 0. 0. 0. 0. 0.
      8.04075226e-03 1.70849590e-03 5.11247199e-03 0. 0. 0. 0. 0.
      8.04075226e-03 9.38276798e-02 3.51658277e-03 1.05229570e-02 0. 0.
      0. 0. 0. 9.38276798e-02 1.08113162e-01 0. 0. 0. 0. 0.
      7.91704375e-03 2.64574378e-03 1.08113162e-01 1.36505244e-02 0. 0.
      0. 0. 0. 7.71836936e-03 2.57934979e-03 1.36505244e-02
      1.04786746e-01 8.23373944e-02 2.46384770e-01 0. 3.85391206e-04 0.
      0. 0. 1.04786746e-01 3.24954122e-01 5.42375594e-02 1.62299365e-01
      0. 0. 0. 0. 0. 3.24954122e-01 3.24954122e-01 0. 0. 0.
      1.67244812e-04 0. 1.61874458e-01 5.40956929e-02 3.24954122e-01
      1.04356565e-01 0. 0. 0. 9.12582874e-03 0. 3.11716378e-01
      1.04170367e-01 1.04356565e-01 1.94143169e-02 6.14041612e-02
      1.83744207e-01 0. 1.36641748e-02 0. 0. 0. 1.94143169e-02
      1.99730441e-01 1.97316222e-02 5.90443127e-02 0. 0. 0. 0. 0.
      1.99730441e-01 1.95943654e-01 0. 0. 0. 1.20336283e-02 0.
      1.03818767e-01 3.46944146e-02 1.95943654e-01 2.92239711e-02 0. 0.
      0. 9.01495889e-02 0. 1.74819648e-01 5.84217235e-02 2.92239711e-02
      0. 0. 0. 0. 0. 0. 0. 0. 0. 0. 0. 0. 0. 0. 0. 0. 0. 0. 0. 0. 0. 0.
      0. 0. 0. 0. 0. 0. 0. 0. 0. 0. 0. 0. 0. 0. 5.81589676e-02 0. 0. 0.
      0. 0. 1.24049839e-02 4.14553890e-03 5.81589676e-02 1.84244569e-02
      0. 0. 0. 0. 0. 1.27829444e-02 4.27184673e-03 1.84244569e-02 0. 0.
      0. 0. 0. 0. 0. 0. 0. 0. 0. 0. 0. 0. 0. 0. 0. 0. 3.22539836e-01 0.
      0. 0. 6.19222876e-04 0. 2.69953847e-01 9.02140215e-02
      3.22539836e-01 1.69294104e-01 0. 0. 0. 7.43849725e-02 0.
      3.22539836e-01 3.22539836e-01 1.69294104e-01 0. 0. 0. 0.
      4.16510999e-02 0. 8.55101570e-02 2.85760686e-02 0. 0. 0. 0. 0. 0.
      0. 0. 0. 0. 1.02188453e-01 0. 0. 0. 3.53802070e-02 0.
      1.54839784e-01 5.17447516e-02 1.02188453e-01 5.53136617e-02 0. 0.
      0. 3.22539836e-01 0. 3.22539836e-01 2.30339542e-01 5.53136617e-02
      0. 0. 0. 0. 2.48148754e-01 0. 1.93246186e-01 6.45796508e-02 0. 0.
      0. 0. 0. 0. 0. 0. 0. 0. 0. 0. 0. 0. 0. 0. 0. 0. 0. 0.
      1.47621371e-02 4.41739522e-02 0. 1.34846075e-02 0. 0. 0. 0.
      3.24248634e-02 8.86935666e-02 2.65404820e-01 0. 1.16180824e-02 0.
      0. 0. 3.24248634e-02 8.12944919e-02 1.99752338e-02 5.97734116e-02
      0. 0. 0. 0. 0. 8.12944919e-02 0. 0. 0. 0. 0. 0. 0. 0. 0. 0.
      5.68160228e-02 1.70015186e-01 0. 3.20867389e-01 0. 0. 0. 0.
      8.44634976e-03 2.11766690e-01 3.20867389e-01 0. 3.20867389e-01 0.
      0. 0. 8.44634976e-03 4.45147231e-02 2.83004530e-02 8.46854225e-02
      0. 0. 0. 0. 0. 4.45147231e-02 0. 0. 0. 0. 0. 0. 0. 0. 0. 0.
      2.46322132e-03 7.37088732e-03 0. 3.20867389e-01 0. 9.87401083e-02
      3.29972208e-02 0. 7.55650876e-03 1.33918459e-02 4.00733724e-02 0.
      3.20867389e-01 0. 3.20867389e-01 1.24111228e-01 7.55650876e-03
      2.64637340e-02 1.96002470e-03 5.86513896e-03 0. 0. 0.
      3.60869430e-02 1.20596532e-02 2.64637340e-02 0. 0. 0. 0. 0. 0. 0.
      0. 0. 0. 0. 0. 0. 6.05147108e-02 0. 9.40296128e-02 3.14230472e-02
      0. 4.43250686e-02 4.80118499e-04 1.43669778e-03 0. 4.85992432e-02
      0. 3.20867389e-01 1.28217414e-01 4.43250686e-02 8.86526182e-02
      5.28130867e-03 1.58036910e-02 0. 0. 0. 5.73202819e-02
      1.91554725e-02 8.86526182e-02 3.52181047e-02 4.04055752e-02
      1.20908737e-01 0. 6.64495281e-04 0. 0. 0. 3.52181047e-02
      2.22994208e-01 2.03670189e-02 6.09457828e-02 0. 0. 0. 0. 0.
      2.22994208e-01 2.22994208e-01 0. 0. 0. 2.88365205e-04 0.
      7.91917443e-02 2.64645182e-02 2.22994208e-01 3.30592319e-02 0. 0.
      0. 1.08033288e-02 0. 1.42130524e-01 4.74976152e-02 3.30592319e-02
      1.29677635e-02 8.10458884e-02 2.22994208e-01 0. 8.10080916e-02 0.
      0. 0. 1.29677635e-02 1.51709080e-01 2.18760371e-02 6.54611886e-02
      0. 0. 0. 0. 0. 1.51709080e-01 1.56864151e-01 1.20672310e-04
      3.61097569e-04 0. 3.37792672e-02 0. 1.14390813e-01 3.82273979e-02
      1.56864151e-01 3.49600725e-02 1.32739672e-03 3.97207728e-03 0.
      2.22994208e-01 0. 2.22994208e-01 7.49331042e-02 3.49600725e-02
      9.24198609e-03 4.52176295e-03 1.35307917e-02 0. 1.43357962e-01 0.
      1.33101940e-01 4.44804356e-02 9.24198609e-03 9.22393203e-02
      4.24052542e-03 1.26892691e-02 0. 0. 0. 2.59183440e-02
      8.66147690e-03 9.22393203e-02 1.08533353e-01 2.43851785e-02
      7.29697570e-02 0. 2.66457126e-02 0. 2.96560023e-03 9.91051667e-04
      1.08533353e-01 1.66518334e-02 6.60468489e-02 1.97637215e-01 0.
      2.22994208e-01 0. 3.26216370e-02 1.09015787e-02 1.66518334e-02
      4.32060882e-02 1.13226159e-03 3.38815851e-03 0. 4.22803499e-03 0.
      1.51002333e-01 5.04623987e-02 4.32060882e-02 2.22994208e-01
      1.24548711e-02 3.72697301e-02 0. 0. 0. 4.75647785e-02
      1.58953462e-02 2.22994208e-01 2.22994208e-01 2.82578897e-02
      8.45583081e-02 0. 3.66792479e-03 0. 0. 0. 2.22994208e-01
      5.13751730e-02 5.18717580e-02 1.55219734e-01 0. 4.58764322e-02 0.
      0. 0. 5.13751730e-02 6.58268556e-02 0. 0. 0. 5.36785461e-04 0.
      6.12687543e-02 2.04749629e-02 6.58268556e-02 2.80978009e-02 0. 0.
      0. 4.18933518e-02 0. 2.50874013e-01 8.38378817e-02 2.80978009e-02
      0. 0. 0. 0. 2.22484823e-02 0. 3.50166857e-02 1.17019918e-02 0. 0.
      0. 0. 0. 0. 0. 0. 0. 0. 4.65144590e-02 2.24628835e-04
      6.72175142e-04 0. 5.00857979e-02 0. 9.36560035e-02 3.12981904e-02
      4.65144590e-02 3.53899300e-02 3.87355709e-03 1.15911439e-02 0.
      3.15891355e-01 0. 3.15891355e-01 1.60950333e-01 3.53899300e-02 0.
      1.96369691e-03 5.87610761e-03 0. 3.15891355e-01 0. 1.82156056e-01
      6.08735122e-02 0. 0. 0. 0. 0. 0. 0. 0. 0. 0. 3.05703767e-02
      2.33803038e-02 6.99627846e-02 0. 4.01723348e-02 0. 5.52039966e-03
      1.84482057e-03 3.05703767e-02 1.20344888e-02 1.48278803e-01
      3.15891355e-01 0. 3.15891355e-01 0. 9.51950476e-02 3.18125486e-02
      1.20344888e-02 0. 5.77560961e-02 1.72827601e-01 0. 3.15891355e-01
      0. 4.82589528e-02 1.61273330e-02 0. 0. 0. 0. 0. 0. 0. 0. 0. 0.
      8.17734301e-02 2.14650165e-02 6.42314628e-02 0. 6.20813528e-03 0.
      0. 0. 8.17734301e-02 4.86369170e-02 1.02123439e-01 3.05591315e-01
      0. 1.28611341e-01 0. 0. 0. 4.86369170e-02 0. 2.29916498e-02
      6.87995329e-02 0. 5.09816855e-02 0. 0. 0. 0. 0. 0. 0. 0. 0. 0. 0.
      0. 0. 0. 0. 0. 0. 0. 0. 0. 0. 0. 0. 0. 0. 0. 3.14570695e-01 0.
      1.34461775e-01 4.49347757e-02 0. 1.74785014e-02 4.25439968e-04
      1.27307873e-03 0. 3.14570695e-01 0. 3.14570695e-01 1.56628028e-01
      1.74785014e-02 5.79289086e-02 4.67984471e-03 1.40038794e-02 0. 0.
      0. 6.12166822e-02 2.04575919e-02 5.79289086e-02 0. 0. 0. 0. 0. 0.
      0. 0. 0. 0. 0. 0. 0. 8.05265605e-02 0. 2.08715677e-01
      6.97491243e-02 0. 2.29024112e-01 1.27631996e-03 3.81923630e-03 0.
      6.55427724e-02 0. 3.14570695e-01 3.14570695e-01 2.29024112e-01
      3.14570695e-01 1.40395323e-02 4.20116372e-02 0. 0. 0.
      1.76318467e-01 5.89226224e-02 3.14570695e-01 0. 0. 0. 0. 0. 0. 0.
      0. 0. 0. 0. 0. 0. 0. 0. 1.21942756e-03 4.07511310e-04 0.
      6.67366385e-02 0. 0. 0. 0. 0. 7.63070509e-02 2.55004764e-02
      6.67366385e-02 1.24629878e-01 0. 0. 0. 0. 0. 2.57423259e-02
      8.60263314e-03 1.24629878e-01 0. 0. 0. 0. 0. 0. 0. 0. 0. 0. 0. 0.
      0. 0. 0. 0. 0. 0. 0. 0. 0. 0. 0. 0. 0. 0. 0. 0. 0. 0. 0. 0. 0. 0.
      0. 0. 1.26128029e-02 5.98810788e-04 1.79187022e-03 0.
      3.29241082e-02 0. 1.04820818e-01 3.50293592e-02 1.26128029e-02
      1.18937880e-01 6.58691488e-03 1.97105613e-02 0. 0. 0.
      2.86504943e-02 9.57451761e-03 1.18937880e-01 1.35445088e-01
      2.15905048e-02 6.46070167e-02 0. 8.31891224e-03 0. 0. 0.
      1.35445088e-01 1.74464714e-02 4.41594906e-02 1.32141933e-01 0.
      7.68183470e-02 0. 0. 0. 1.74464714e-02 1.26245722e-01
      1.79643242e-03 5.37561113e-03 0. 2.93040974e-03 0. 2.74171054e-01
      9.16232169e-02 1.26245722e-01 3.21655482e-01 1.97607465e-02
      5.91316894e-02 0. 0. 0. 8.71249586e-02 2.91156676e-02
      3.21655482e-01 3.21655482e-01 4.83460054e-02 1.44669384e-01 0.
      4.60210629e-03 0. 0. 0. 3.21655482e-01 1.44093826e-01
      8.87205750e-02 2.65484989e-01 0. 8.32404718e-02 0. 0. 0.
      1.44093826e-01 3.84038053e-02 0. 0. 0. 0. 0. 2.75831167e-02
      9.21779405e-03 3.84038053e-02 2.13950291e-01 0. 0. 0. 0. 0.
      1.15809469e-02 3.87014938e-03 2.13950291e-01 2.17432886e-01
      8.11580848e-03 2.42855009e-02 0. 0. 0. 0. 0. 2.17432886e-01
      3.80788073e-02 9.19517968e-03 2.75153760e-02 0. 3.13845999e-03 0.
      0. 0. 3.80788073e-02 0. 0. 0. 0. 0. 0. 0. 0. 0. 0. 0. 0. 0. 0. 0.
      0. 0. 0. 0. 0. 0. 0. 0. 0. 0. 0. 0. 0. 0. 0. 0. 0. 0. 0. 0. 0.
      6.44962564e-02 3.20891589e-02 9.60230008e-02 0. 2.26346087e-02 0.
      0. 0. 6.44962564e-02 2.22809855e-02 1.67505249e-01 2.92011559e-01
      0. 2.92011559e-01 0. 0. 0. 2.22809855e-02 0. 5.66688292e-02
      1.69574082e-01 0. 2.68195599e-01 0. 0. 0. 0. 0. 0. 0. 0. 0. 0. 0.
      0. 0. 2.92011559e-01 6.67030737e-02 1.99600577e-01 0.
      1.48824602e-02 0. 0. 0. 2.92011559e-01 2.63681114e-01
      2.91521102e-01 2.92011559e-01 0. 2.92011559e-01 0. 0. 0.
      2.63681114e-01 0. 4.78180908e-02 1.43089399e-01 0. 7.26397187e-02
      0. 0. 0. 0. 0. 0. 0. 0. 0. 0. 0. 0. 0. 1.09541051e-01
      1.16994223e-02 3.50089967e-02 0. 0. 0. 0. 0. 1.09541051e-01
      6.56348094e-02 1.63107142e-02 4.88076843e-02 0. 1.46062542e-02 0.
      0. 0. 6.56348094e-02 0. 0. 0. 0. 1.32784201e-03 0. 0. 0. 0. 0. 0.
      0. 0. 0. 0. 0. 0. 0. 0. 0. 0. 0. 0. 0. 0. 0. 0. 0. 0. 0. 0. 0. 0.
      0. 0. 0. 0. 0. 0. 0. 0. 0. 0. 0. 0. 0. 0. 0. 0. 0. 0. 0. 0. 0.</_>
    <_>
      0. 0. 0. 0. 0. 0. 0. 0. 0. 0. 0. 0. 0. 0. 0. 0. 0. 0. 0. 0. 0. 0.
      0. 0. 0. 0. 0. 0. 0. 0. 0. 0. 0. 0. 0. 0. 0. 0. 0. 0. 0. 0. 0. 0.
      0. 0. 0. 0. 0. 0. 0. 0. 0. 0. 0. 0. 0. 0. 0. 0. 0. 0. 0. 0. 0. 0.
      0. 0. 0. 0. 0. 0. 0. 0. 0. 0. 0. 0. 0. 0. 0. 0. 0. 0. 0. 0. 0. 0.
      0. 0. 5.86393289e-02 3.33774276e-02 9.98779684e-02 0.
      1.86764039e-02 0. 0. 0. 5.86393289e-02 2.31961951e-01
      3.79637778e-02 1.13602005e-01 0. 6.22546766e-03 0. 0. 0.
      2.31961951e-01 0. 0. 0. 0. 0. 0. 0. 0. 0. 0. 0. 0. 0. 0. 0. 0. 0.
      0. 1.48553714e-01 2.68400073e-01 3.42591196e-01 0. 3.42591196e-01
      0. 0. 0. 1.48553714e-01 3.42591196e-01 2.71568894e-01
      3.42591196e-01 0. 2.81948715e-01 0. 0. 0. 3.42591196e-01 0. 0. 0.
      0. 0. 0. 0. 0. 0. 0. 0. 0. 0. 0. 0. 0. 0. 0. 0. 0. 0. 0. 0. 0. 0.
      0. 0. 0. 0. 0. 0. 0. 0. 0. 0. 0. 0. 0. 0. 0. 0. 0. 0. 0. 0. 0. 0.
      0. 0. 0. 0. 0. 0. 0. 0. 0. 0. 0. 0. 0. 0. 0. 0. 0. 0. 0. 0. 0. 0.
      0. 0. 0. 2.74886712e-02 1.09371999e-02 3.27282622e-02 0.
      3.71322921e-03 0. 0. 0. 2.74886712e-02 2.28817433e-01
      1.51942521e-02 4.54669371e-02 0. 1.23774318e-03 0. 0. 0.
      2.28817433e-01 2.32622817e-01 0. 0. 0. 0. 0. 4.91323546e-02
      1.64192040e-02 2.32622817e-01 2.56796964e-02 0. 0. 0. 0. 0.
      4.62532714e-02 1.54570630e-02 2.56796964e-02 6.86221123e-02
      7.91687518e-02 2.36902848e-01 0. 1.40518367e-01 0. 0. 0.
      6.86221123e-02 2.85140991e-01 1.15232714e-01 2.85140991e-01 0.
      7.90533721e-02 0. 0. 0. 2.85140991e-01 2.85140991e-01 0. 0. 0.
      1.15848511e-01 0. 2.85140991e-01 1.16731331e-01 2.85140991e-01
      4.02026810e-02 0. 0. 0. 2.22449064e-01 0. 2.85140991e-01
      1.13269120e-01 4.02026810e-02 0. 0. 0. 0. 0. 0. 0. 0. 0. 0. 0. 0.
      0. 0. 0. 0. 0. 0. 0. 0. 0. 0. 0. 0. 0. 0. 0. 0. 0. 0. 0. 0. 0. 0.
      0. 0. 0. 0. 0. 0. 0. 0. 0. 0. 0. 0. 0. 0. 0. 0. 0. 0. 0. 0. 0. 0.
      0. 0. 0. 0. 0. 0. 0. 0. 0. 0. 0. 0. 0. 0. 0. 0. 1.82297155e-01 0.
      0. 0. 0. 0. 1.10533990e-01 3.69385965e-02 1.82297155e-01
      4.33233008e-02 0. 0. 0. 0. 0. 1.18708566e-01 3.96704115e-02
      4.33233008e-02 0. 0. 0. 0. 0. 0. 0. 0. 0. 0. 0. 0. 0. 0. 0. 0. 0.
      0. 3.50984067e-01 0. 0. 0. 3.27537745e-01 0. 3.50984067e-01
      2.60167271e-01 3.50984067e-01 6.50806502e-02 0. 0. 0.
      3.50984067e-01 0. 3.50984067e-01 3.12472463e-01 6.50806502e-02 0.
      0. 0. 0. 0. 0. 0. 0. 0. 0. 0. 0. 0. 0. 0. 0. 0. 0. 0. 0. 0. 0. 0.
      0. 0. 0. 0. 0. 0. 0. 0. 0. 0. 0. 0. 0. 1.30745564e-02
      1.00337481e-02 3.00247967e-02 0. 7.29007274e-03 0. 0. 0.
      1.30745564e-02 5.10130785e-02 1.18991183e-02 3.56066599e-02 0.
      2.43002432e-03 0. 0. 0. 5.10130785e-02 0. 0. 0. 0. 0. 0. 0. 0. 0.
      0. 0. 0. 0. 0. 0. 0. 0. 0. 4.65059467e-02 1.21750578e-01
      3.12274754e-01 0. 3.12274754e-01 0. 1.29703153e-02 4.33445489e-03
      4.65059467e-02 1.67030543e-01 1.09884031e-01 3.12274754e-01 0.
      3.12274754e-01 0. 8.42106063e-03 2.81417533e-03 1.67030543e-01 0.
      0. 0. 0. 0. 0. 0. 0. 0. 0. 0. 0. 0. 0. 0. 0. 0. 0. 5.18470518e-02
      1.31957140e-02 3.94865982e-02 0. 3.12274754e-01 0. 3.12274754e-01
      1.34590670e-01 5.18470518e-02 1.86801165e-01 5.67606231e-03
      1.69849247e-02 0. 3.12274754e-01 0. 3.12274754e-01 1.21268049e-01
      1.86801165e-01 0. 0. 0. 0. 0. 0. 0. 0. 0. 0. 0. 0. 0. 0. 0. 0. 0.
      0. 1.50712263e-02 0. 0. 0. 0. 0. 4.23099920e-02 1.41392592e-02
      1.50712263e-02 5.88769242e-02 0. 0. 0. 0. 0. 4.27665673e-02
      1.42918453e-02 5.88769242e-02 8.25709850e-03 4.47797915e-03
      1.33998170e-02 0. 1.95889734e-03 0. 0. 0. 8.25709850e-03
      6.81688115e-02 6.68440666e-03 2.00022589e-02 0. 6.52965799e-04 0.
      0. 0. 6.81688115e-02 6.87559173e-02 0. 0. 0. 0. 0. 2.12295484e-02
      7.09455414e-03 6.87559173e-02 7.06902705e-03 0. 0. 0. 0. 0.
      1.98283903e-02 6.62631448e-03 7.06902705e-03 2.91101094e-02
      4.58183512e-02 1.37105823e-01 0. 2.19201535e-01 0. 4.46351571e-03
      1.49163033e-03 2.91101094e-02 2.22233012e-01 6.15244657e-02
      1.84104174e-01 0. 1.30854160e-01 0. 3.63241532e-03 1.21389166e-03
      2.22233012e-01 2.09701076e-01 1.09590974e-03 3.27937980e-03 0.
      1.78360671e-01 0. 1.82672486e-01 6.10460043e-02 2.09701076e-01
      1.21392952e-02 7.82792864e-04 2.34241481e-03 0. 2.22617984e-01 0.
      1.80693313e-01 6.03846274e-02 1.21392952e-02 3.24292928e-02
      3.85078508e-03 1.15230111e-02 0. 2.22617984e-01 0. 1.51473671e-01
      5.06198779e-02 3.24292928e-02 2.22617984e-01 1.95219694e-03
      5.84170781e-03 0. 1.47647619e-01 0. 2.02994972e-01 6.78374767e-02
      2.22617984e-01 2.22617984e-01 5.08221611e-02 1.52079165e-01 0.
      1.93707824e-01 0. 3.99886351e-03 1.33635080e-03 2.22617984e-01
      2.93418970e-02 4.73238230e-02 1.41610637e-01 0. 2.22617984e-01 0.
      5.00373216e-03 1.67216163e-03 2.93418970e-02 9.52209998e-03 0. 0.
      0. 0. 0. 1.73597541e-02 5.80132613e-03 9.52209998e-03
      7.86409825e-02 0. 0. 0. 0. 0. 2.31199693e-02 7.72629492e-03
      7.86409825e-02 8.68317559e-02 5.38671762e-03 1.61190815e-02 0.
      2.39878442e-04 0. 0. 0. 8.68317559e-02 1.59862936e-02
      7.12124677e-03 2.13094186e-02 0. 2.63866573e-03 0. 0. 0.
      1.59862936e-02 3.97430249e-02 0. 0. 0. 0. 0. 3.57645899e-02
      1.19519196e-02 3.97430249e-02 8.94948933e-03 0. 0. 0. 0. 0.
      3.87689844e-02 1.29559413e-02 8.94948933e-03 0. 0. 0. 0. 0. 0. 0.
      0. 0. 0. 0. 0. 0. 0. 0. 0. 0. 0. 1.04199514e-01 1.67880487e-03
      5.02362475e-03 0. 3.51336330e-01 0. 3.08669120e-01 1.03151925e-01
      1.04199514e-01 1.42931240e-02 1.19914650e-03 3.58830346e-03 0.
      3.51336330e-01 0. 3.51336330e-01 1.28180996e-01 1.42931240e-02 0.
      0. 0. 0. 0. 0. 0. 0. 0. 0. 0. 0. 0. 0. 0. 0. 0. 0. 1.46551415e-01
      8.25769454e-02 2.47101367e-01 0. 3.51336330e-01 0. 7.48975342e-03
      2.50294618e-03 1.46551415e-01 4.42634486e-02 1.00674435e-01
      3.01255524e-01 0. 3.51336330e-01 0. 1.17570208e-02 3.92899662e-03
      4.42634486e-02 0. 0. 0. 0. 0. 0. 0. 0. 0. 0. 0. 0. 0. 0. 0. 0. 0.
      0. 5.95755465e-02 1.03356009e-02 3.09279803e-02 0. 9.98876407e-04
      0. 0. 0. 5.95755465e-02 2.53158677e-02 1.72306504e-02
      5.15604950e-02 0. 1.09876348e-02 0. 0. 0. 2.53158677e-02 0. 0. 0.
      0. 0. 0. 0. 0. 0. 0. 0. 0. 0. 0. 0. 0. 0. 0. 0. 0. 0. 0. 0. 0. 0.
      0. 0. 0. 0. 0. 0. 0. 0. 0. 0. 0. 1.37981758e-01 0. 0. 0.
      3.45540643e-01 0. 3.45540643e-01 2.76073843e-01 1.37981758e-01
      3.45540643e-01 0. 0. 0. 2.97153443e-01 0. 3.45540643e-01
      2.57485330e-01 3.45540643e-01 0. 0. 0. 0. 0. 0. 0. 0. 0. 0. 0. 0.
      0. 0. 0. 0. 0. 0. 5.56963421e-02 0. 0. 0. 0. 0. 1.10349931e-01
      3.68770137e-02 5.56963421e-02 2.20544696e-01 0. 0. 0. 0. 0.
      1.10774294e-01 3.70188467e-02 2.20544696e-01 0. 0. 0. 0. 0. 0. 0.
      0. 0. 0. 0. 0. 0. 0. 0. 0. 0. 0. 0. 0. 0. 0. 0. 0. 0. 0. 0. 0. 0.
      0. 0. 0. 0. 0. 0. 0. 0. 0. 0. 0. 0. 0. 0. 0. 0. 0. 0. 0. 0. 0. 0.
      0. 0. 0. 0. 0. 0. 0. 0. 0. 0. 0. 0. 0. 0. 0. 0. 0. 0. 0. 0. 0.
      6.62091374e-02 0. 0. 0. 1.62225738e-01 0. 2.43543535e-01
      8.13880414e-02 6.62091374e-02 2.81804860e-01 0. 0. 0.
      8.62800255e-02 0. 2.81804860e-01 1.10829435e-01 2.81804860e-01
      2.81804860e-01 8.15234929e-02 2.43949100e-01 0. 1.19321123e-01 0.
      0. 0. 2.81804860e-01 8.05122852e-02 8.20351616e-02 2.45479897e-01
      0. 2.81543344e-01 0. 0. 0. 8.05122852e-02 2.71158852e-02 0. 0. 0.
      0. 0. 3.51347290e-02 1.17414109e-02 2.71158852e-02 2.25932792e-01
      0. 0. 0. 0. 0. 4.46595699e-02 1.49244592e-02 2.25932792e-01
      2.49872431e-01 1.03428233e-02 3.09495982e-02 0. 3.87670414e-04 0.
      0. 0. 2.49872431e-01 4.74228859e-02 1.46751767e-02 4.39135768e-02
      0. 4.26437939e-03 0. 0. 0. 4.74228859e-02 0. 0. 0. 0. 0. 0. 0. 0.
      0. 0. 0. 0. 0. 0. 0. 0. 0. 0. 0. 0. 0. 0. 0. 0. 0. 0. 0. 0. 0. 0.
      0. 0. 0. 0. 0. 0. 0. 0. 0. 0. 0. 0. 0. 0. 0. 0. 0. 0. 0. 0. 0. 0.
      0. 0. 0. 0. 0. 0. 0. 0. 0. 0. 0. 0. 0. 0. 0. 0. 0. 0. 0. 0.
      3.46638530e-01 1.73428446e-01 3.46638530e-01 0. 3.46638530e-01 0.
      0. 0. 3.46638530e-01 1.57631129e-01 2.29487151e-01 3.46638530e-01
      0. 3.46638530e-01 0. 0. 0. 1.57631129e-01 0. 0. 0. 0. 0. 0. 0. 0.
      0. 0. 0. 0. 0. 0. 0. 0. 0. 0. 2.19978198e-01 2.61838436e-02
      7.83518180e-02 0. 2.04531476e-03 0. 0. 0. 2.19978198e-01
      9.57125723e-02 4.56154123e-02 1.36498228e-01 0. 2.24984474e-02 0.
      0. 0. 9.57125723e-02 0. 0. 0. 0. 0. 0. 0. 0. 0. 0. 0. 0. 0. 0. 0.
      0. 0. 0. 0. 0. 0. 0. 0. 0. 0. 0. 0. 0. 0. 0. 0. 0. 0. 0. 0. 0. 0.
      0. 0. 0. 0. 0. 0. 0. 0. 0. 0. 0. 0. 0. 0. 0. 0. 0. 0. 0. 0. 0. 0.
      0. 0. 0. 0. 0. 0. 0. 0. 0. 0. 0. 0. 0. 0. 0. 0. 0. 0. 0. 0. 0. 0.
      0. 0. 0. 0. 0. 0. 0. 0. 0.</_>
    <_>
      0. 0. 0. 0. 0. 0. 0. 0. 0. 0. 0. 0. 0. 0. 0. 0. 0. 0. 0. 0. 0. 0.
      0. 0. 0. 0. 0. 0. 0. 0. 0. 0. 0. 0. 0. 0. 0. 0. 0. 0. 0. 0. 0. 0.
      0. 0. 0. 0. 0. 0. 0. 0. 0. 0. 9.73174348e-03 2.75412109e-03
      8.24138243e-03 0. 0. 0. 0. 0. 9.73174348e-03 5.62310033e-02
      5.32636372e-03 1.59385111e-02 0. 0. 0. 0. 0. 5.62310033e-02 0. 0.
      0. 0. 0. 0. 0. 0. 0. 0. 8.48075747e-03 2.53776610e-02 0.
      2.25086119e-02 0. 0. 0. 0. 1.19831592e-01 3.00689220e-01
      3.31899732e-01 0. 1.05784260e-01 0. 0. 0. 1.19831592e-01
      3.31899732e-01 1.32533893e-01 3.31899732e-01 0. 9.21210647e-03 0.
      0. 0. 3.31899732e-01 0. 0. 0. 0. 0. 0. 0. 0. 0. 0. 2.18891706e-02
      6.55007511e-02 0. 1.79670617e-01 0. 0. 0. 0. 2.56468412e-02
      2.67618328e-01 3.31899732e-01 0. 3.31899732e-01 0. 0. 0.
      2.56468412e-02 1.30696133e-01 5.75358756e-02 1.72168702e-01 0.
      5.06978594e-02 0. 0. 0. 1.30696133e-01 0. 0. 0. 0. 0. 0. 0. 0. 0.
      0. 0. 0. 0. 0. 0. 0. 0. 0. 0. 0. 0. 0. 0. 0. 0. 0. 0. 0. 0. 0. 0.
      0. 0. 0. 0. 0. 6.19498687e-03 1.67761231e-03 5.02005592e-03 0. 0.
      0. 0. 0. 6.19498687e-03 9.15647969e-02 3.45301512e-03
      1.03327390e-02 0. 0. 0. 0. 0. 9.15647969e-02 1.12093091e-01 0. 0.
      0. 0. 0. 4.43457207e-03 1.48195995e-03 1.12093091e-01
      1.90359503e-02 0. 0. 0. 0. 0. 8.57629068e-03 2.86605279e-03
      1.90359503e-02 6.74723238e-02 8.46622884e-02 2.53341734e-01 0.
      1.62434969e-02 0. 0. 0. 6.74723238e-02 3.26855510e-01
      6.35523647e-02 1.90172806e-01 0. 2.83163413e-03 0. 0. 0.
      3.26855510e-01 3.26855510e-01 0. 0. 0. 0. 0. 8.54883268e-02
      2.85687521e-02 3.26855510e-01 1.51482642e-01 0. 0. 0.
      4.00330313e-02 0. 2.77781487e-01 9.28298980e-02 1.51482642e-01
      1.75437722e-02 5.77629209e-02 1.72848344e-01 0. 8.73107761e-02 0.
      0. 0. 1.75437722e-02 1.95034564e-01 2.07868107e-02 6.22018501e-02
      0. 1.69966035e-02 0. 0. 0. 1.95034564e-01 2.20320180e-01 0. 0. 0.
      0. 0. 3.26315574e-02 1.09048951e-02 2.20320180e-01 3.98632400e-02
      0. 0. 0. 6.96690902e-02 0. 1.79197088e-01 5.98845631e-02
      3.98632400e-02 0. 0. 0. 0. 0. 0. 0. 0. 0. 0. 0. 0. 0. 0. 0. 0. 0.
      0. 0. 0. 0. 0. 0. 0. 0. 0. 0. 0. 0. 0. 0. 0. 0. 0. 0. 0.
      5.90530224e-02 0. 0. 0. 0. 0. 8.45650118e-03 2.82602105e-03
      5.90530224e-02 2.33487170e-02 0. 0. 0. 0. 0. 1.74059458e-02
      5.81677584e-03 2.33487170e-02 0. 0. 0. 0. 0. 0. 0. 0. 0. 0. 0. 0.
      0. 0. 0. 0. 0. 0. 3.04829031e-01 0. 0. 0. 0. 0. 1.77591443e-01
      5.93480617e-02 3.04829031e-01 2.68339038e-01 0. 0. 0.
      2.37820014e-01 0. 3.04829031e-01 2.73449481e-01 2.68339038e-01
      7.01103592e-03 0. 0. 0. 7.68628642e-02 0. 6.74628094e-02
      2.25449428e-02 7.01103592e-03 0. 0. 0. 0. 0. 0. 0. 0. 0.
      1.13363385e-01 0. 0. 0. 0. 0. 7.18012974e-02 2.39947345e-02
      1.13363385e-01 6.26401231e-02 0. 0. 0. 3.04829031e-01 0.
      3.04829031e-01 2.30851188e-01 6.26401231e-02 6.37366262e-04 0. 0.
      0. 3.00733149e-01 0. 1.32045597e-01 4.41274196e-02 6.37366262e-04
      0. 0. 0. 0. 0. 0. 0. 0. 0. 0. 0. 0. 0. 0. 0. 0. 0. 0. 0.
      4.18754946e-03 1.25307450e-02 0. 1.19160917e-02 0. 0. 0. 0.
      2.07612962e-02 8.10562596e-02 2.42551103e-01 0. 5.87155782e-02 0.
      0. 0. 2.07612962e-02 8.17361698e-02 2.63793208e-02 7.89368823e-02
      0. 6.30084658e-03 0. 0. 0. 8.17361698e-02 0. 0. 0. 0. 0. 0. 0. 0.
      0. 0. 1.44500891e-02 4.32401784e-02 0. 2.82803565e-01 0. 0. 0. 0.
      8.64720065e-03 1.77553743e-01 3.47618818e-01 0. 3.47618818e-01 0.
      3.19563448e-02 1.06792757e-02 8.64720065e-03 4.84829843e-02
      3.50125283e-02 1.04770459e-01 0. 4.70677018e-02 0. 2.90511921e-03
      9.70842317e-04 4.84829843e-02 0. 0. 0. 0. 0. 0. 0. 0. 0. 0. 0. 0.
      0. 2.94589579e-01 0. 4.85542566e-02 1.62259806e-02 0.
      1.02781784e-02 1.19673396e-02 3.58107090e-02 0. 3.47618818e-01 0.
      3.47618818e-01 1.90875530e-01 1.02781784e-02 5.74300438e-02
      1.52233290e-03 4.55538323e-03 0. 3.50703076e-02 0. 1.11031190e-01
      3.71047631e-02 5.74300438e-02 0. 0. 0. 0. 0. 0. 0. 0. 0. 0. 0. 0.
      0. 1.36316260e-02 0. 1.43973678e-02 4.81134746e-03 0.
      2.58774869e-02 0. 0. 0. 5.65528236e-02 0. 3.06341529e-01
      1.02374017e-01 2.58774869e-02 9.70675796e-02 3.56996804e-03
      1.06826639e-02 0. 6.19445287e-04 0. 1.01893254e-01 3.40509675e-02
      9.70675796e-02 2.11403109e-02 3.45607884e-02 1.03418954e-01 0.
      1.63971446e-02 0. 0. 0. 2.11403109e-02 2.05777124e-01
      1.98536441e-02 5.94095960e-02 0. 3.40711745e-03 0. 0. 0.
      2.05777124e-01 2.18056545e-01 0. 0. 0. 0. 0. 2.92556230e-02
      9.77672916e-03 2.18056545e-01 4.64712903e-02 0. 0. 0.
      2.17799321e-02 0. 1.09526888e-01 3.66020203e-02 4.64712903e-02
      1.04437470e-02 6.45912960e-02 1.93281248e-01 0. 2.10709229e-01 0.
      1.08488649e-02 3.62550979e-03 1.04437470e-02 1.26819611e-01
      2.01746840e-02 6.03701212e-02 0. 2.58181114e-02 0. 9.86260129e-04
      3.29591654e-04 1.26819611e-01 1.44267425e-01 0. 0. 0. 0. 0.
      2.78910045e-02 9.32068471e-03 1.44267425e-01 2.33756937e-02
      8.78346036e-04 2.62834621e-03 0. 1.73103169e-01 0. 1.89381599e-01
      6.32880405e-02 2.33756937e-02 1.23857623e-02 4.30345535e-03
      1.28775304e-02 0. 2.18056545e-01 0. 2.05876112e-01 6.88003078e-02
      1.23857623e-02 1.51819080e-01 5.97037491e-04 1.78655703e-03 0.
      1.45762749e-02 0. 6.51907325e-02 2.17856523e-02 1.51819080e-01
      1.78153619e-01 1.08769182e-02 3.25478837e-02 0. 0. 0. 0. 0.
      1.78153619e-01 2.63602957e-02 7.57962689e-02 2.18056545e-01 0.
      1.69559762e-01 0. 2.45201844e-03 8.19421606e-04 2.63602957e-02
      2.61972304e-02 0. 0. 0. 1.21109327e-02 0. 1.32427573e-01
      4.42550033e-02 2.61972304e-02 2.18056545e-01 1.43151870e-02
      4.28363383e-02 0. 2.10295766e-04 0. 7.58254379e-02 2.53395569e-02
      2.18056545e-01 2.18056545e-01 1.54515011e-02 4.62366715e-02 0. 0.
      0. 0. 0. 2.18056545e-01 6.49151877e-02 4.54744026e-02
      1.36076406e-01 0. 7.33854063e-03 0. 0. 0. 6.49151877e-02
      7.61486962e-02 0. 0. 0. 0. 0. 3.85834984e-02 1.28939440e-02
      7.61486962e-02 5.20176813e-02 0. 0. 0. 8.42962340e-02 0.
      2.25218415e-01 7.52641931e-02 5.20176813e-02 1.21981697e-03 0. 0.
      0. 3.11217196e-02 0. 3.03916354e-02 1.01563772e-02 1.21981697e-03
      0. 0. 0. 0. 0. 0. 0. 0. 0. 4.58031595e-02 0. 0. 0. 0. 0.
      3.97573821e-02 1.32862180e-02 4.58031595e-02 2.03128941e-02
      2.51802942e-03 7.53490441e-03 0. 3.34414959e-01 0. 3.34414959e-01
      1.58527523e-01 2.03128941e-02 1.10892419e-04 2.28911871e-04
      6.84991654e-04 0. 3.34414959e-01 0. 9.14535746e-02 3.05622462e-02
      1.10892419e-04 0. 0. 0. 0. 0. 0. 0. 0. 0. 5.65937459e-02
      1.55548230e-02 4.65459526e-02 0. 0. 0. 0. 0. 5.65937459e-02
      1.89403351e-02 1.89484477e-01 3.34414959e-01 0. 3.34414959e-01 0.
      7.02940999e-03 2.34910566e-03 1.89403351e-02 0. 3.50480713e-02
      1.04876846e-01 0. 3.34414959e-01 0. 6.39037578e-04 2.13555162e-04
      0. 0. 0. 0. 0. 0. 0. 0. 0. 0. 1.16828203e-01 1.17321070e-02
      3.51068825e-02 0. 0. 0. 0. 0. 1.16828203e-01 5.41924648e-02
      1.02372460e-01 3.06336522e-01 0. 3.81290056e-02 0. 0. 0.
      5.41924648e-02 0. 1.28385173e-02 3.84175889e-02 0. 2.35461071e-02
      0. 0. 0. 0. 0. 0. 0. 0. 0. 0. 0. 0. 0. 0. 0. 0. 0. 0. 0. 0. 0. 0.
      0. 0. 0. 0. 1.61251932e-01 0. 6.15361556e-02 2.05643009e-02 0.
      2.54532341e-02 0. 0. 0. 3.31742018e-01 0. 3.31742018e-01
      2.59433687e-01 2.54532341e-02 1.29629806e-01 0. 0. 0.
      2.21389905e-02 0. 1.69522896e-01 5.66516966e-02 1.29629806e-01 0.
      0. 0. 0. 0. 0. 0. 0. 0. 0. 0. 0. 0. 2.15187259e-02 0.
      2.44523324e-02 8.17154068e-03 0. 1.26755133e-01 0. 0. 0.
      8.52535367e-02 0. 3.31742018e-01 3.12827498e-01 1.26755133e-01
      3.31742018e-01 2.55384985e-02 7.64206350e-02 0. 5.99715626e-04 0.
      3.31742018e-01 1.41001821e-01 3.31742018e-01 0. 0. 0. 0. 0. 0. 0.
      0. 0. 0. 0. 0. 0. 0. 0. 0. 0. 0. 1.06812119e-02 0. 0. 0. 0. 0.
      8.91244877e-03 2.97838403e-03 1.06812119e-02 5.49778566e-02
      2.32168287e-03 6.94733299e-03 0. 0. 0. 1.72363296e-02
      5.76007832e-03 5.49778566e-02 0. 0. 0. 0. 0. 0. 0. 0. 0. 0. 0. 0.
      0. 0. 0. 0. 0. 0. 0. 0. 0. 0. 0. 0. 0. 0. 0. 0. 0. 0. 0. 0. 0. 0.
      0. 0. 1.69189852e-02 0. 0. 0. 7.35657513e-02 0. 1.64463982e-01
      5.49610518e-02 1.69189852e-02 1.93418249e-01 0. 0. 0.
      5.32220956e-03 0. 5.94332628e-02 1.98615957e-02 1.93418249e-01
      2.34653547e-01 1.05576487e-02 3.15924957e-02 0. 0. 0. 0. 0.
      2.34653547e-01 3.65305431e-02 6.33592159e-02 1.89594671e-01 0.
      4.53622490e-02 0. 0. 0. 3.65305431e-02 6.93708807e-02 0. 0. 0.
      9.97978356e-03 0. 2.59657681e-01 8.67730454e-02 6.93708807e-02
      3.22344482e-01 5.81777841e-02 1.74089462e-01 0. 1.15665011e-04 0.
      1.97288856e-01 6.59304932e-02 3.22344482e-01 3.22344482e-01
      4.23984975e-02 1.26872048e-01 0. 0. 0. 0. 0. 3.22344482e-01
      1.71919331e-01 7.77298659e-02 2.32596681e-01 0. 6.65995898e-03 0.
      0. 0. 1.71919331e-01 6.65192725e-03 0. 0. 0. 0. 0. 5.28937392e-03
      1.76761579e-03 6.65192725e-03 6.64949939e-02 5.28889289e-03
      1.58263221e-02 0. 0. 0. 1.08870743e-02 3.63826891e-03
      6.64949939e-02 3.17361616e-02 2.66515673e-03 7.97513407e-03 0. 0.
      0. 0. 0. 3.17361616e-02 7.56394444e-03 0. 0. 0. 0. 0. 0. 0.
      7.56394444e-03 0. 0. 0. 0. 0. 0. 0. 0. 0. 0. 0. 0. 0. 0. 0. 0. 0.
      0. 0. 0. 0. 0. 0. 0. 0. 0. 0. 0. 0. 0. 0. 0. 0. 0. 0. 0.
      1.32868677e-01 2.58404315e-02 7.73243904e-02 0. 0. 0. 0. 0.
      1.32868677e-01 4.71057557e-02 2.68346965e-01 3.25233907e-01 0.
      3.25233907e-01 0. 0. 0. 4.71057557e-02 0. 4.64421622e-02
      1.38972178e-01 0. 2.72912592e-01 0. 0. 0. 0. 0. 0. 0. 0. 0. 0. 0.
      0. 0. 3.25233907e-01 3.42900306e-02 1.02608599e-01 0. 0. 0. 0. 0.
      3.25233907e-01 2.65523344e-01 2.96446353e-01 3.25233907e-01 0.
      6.00398891e-02 0. 0. 0. 2.65523344e-01 0. 2.62693129e-02
      7.86075071e-02 0. 3.70299146e-02 0. 0. 0. 0. 0. 0. 0. 0. 0. 0. 0.
      0. 0. 1.90945249e-02 0. 0. 0. 0. 0. 0. 0. 1.90945249e-02
      1.31521411e-02 0. 0. 0. 0. 0. 0. 0. 1.31521411e-02 0. 0. 0. 0. 0.
      0. 0. 0. 0. 0. 0. 0. 0. 0. 0. 0. 0. 0. 0. 0. 0. 0. 0. 0. 0. 0. 0.
      0. 0. 0. 0. 0. 0. 0. 0. 0. 0. 0. 0. 0. 0. 0. 0. 0. 0. 0. 0. 0. 0.
      0. 0. 0. 0. 0.</_>
    <_>
      0. 0. 0. 0. 0. 0. 0. 0. 0. 0. 0. 0. 0. 0. 0. 0. 0. 0. 0. 0. 0. 0.
      0. 0. 0. 0. 0. 0. 0. 0. 0. 0. 0. 0. 0. 0. 0. 0. 0. 0. 0. 0. 0. 0.
      0. 0. 0. 0. 0. 0. 0. 0. 0. 0. 0. 0. 0. 0. 0. 0. 0. 0. 0. 0. 0. 0.
      0. 0. 0. 0. 0. 0. 0. 0. 0. 0. 0. 0. 0. 0. 0. 0. 0. 0. 0. 0. 0. 0.
      0. 0. 1.85018424e-02 2.39962377e-02 7.18058869e-02 0.
      1.43851023e-02 0. 0. 0. 1.85018424e-02 1.98304892e-01
      9.04890448e-02 2.70777583e-01 0. 1.02750761e-02 0. 5.10304831e-02
      1.70535333e-02 1.98304892e-01 0. 0. 0. 0. 0. 0. 0. 0. 0. 0. 0. 0.
      0. 0. 0. 0. 0. 0. 2.94365324e-02 1.21184051e-01 3.39061141e-01 0.
      3.39061141e-01 0. 0. 0. 2.94365324e-02 3.39061141e-01
      3.39061141e-01 3.39061141e-01 0. 3.39061141e-01 0. 7.14426488e-02
      2.38749404e-02 3.39061141e-01 0. 0. 0. 0. 0. 0. 0. 0. 0. 0. 0. 0.
      0. 0. 0. 0. 0. 0. 0. 0. 0. 0. 0. 0. 0. 0. 0. 0. 0. 0. 0. 0. 0. 0.
      0. 0. 0. 0. 0. 0. 0. 0. 0. 0. 0. 0. 0. 0. 0. 0. 0. 0. 0. 0. 0. 0.
      0. 0. 0. 0. 0. 0. 0. 0. 0. 0. 0. 0. 0. 0. 0. 0. 8.67622625e-03
      9.51198675e-03 2.84634922e-02 0. 3.30718141e-03 0. 0. 0.
      8.67622625e-03 2.10203618e-01 5.87829612e-02 1.75900966e-01 0.
      2.36227270e-03 0. 8.37013870e-02 2.79716086e-02 2.10203618e-01
      2.35388950e-01 1.23144835e-02 3.68496217e-02 0. 9.48406849e-03 0.
      1.08566090e-01 3.62809636e-02 2.35388950e-01 4.45785634e-02 0. 0.
      0. 2.39246450e-02 0. 2.13862024e-02 7.14690657e-03 4.45785634e-02
      1.43552339e-02 4.77591679e-02 1.42913476e-01 0. 1.24504156e-01 0.
      0. 0. 1.43552339e-02 2.85865396e-01 2.30266556e-01 2.85865396e-01
      0. 1.20126978e-01 0. 1.17181912e-01 3.91602367e-02 2.85865396e-01
      2.85865396e-01 2.00404786e-02 5.99687286e-02 0. 1.26807526e-01 0.
      2.85865396e-01 1.09484024e-01 2.85865396e-01 7.61075765e-02 0. 0.
      0. 2.39570171e-01 0. 1.41478807e-01 4.72797751e-02 7.61075765e-02
      0. 0. 0. 0. 0. 0. 0. 0. 0. 0. 0. 0. 0. 0. 0. 0. 0. 0. 0. 0. 0. 0.
      0. 0. 0. 0. 0. 0. 0. 0. 0. 0. 0. 0. 0. 0. 0. 0. 0. 0. 0. 0. 0. 0.
      0. 0. 0. 0. 0. 0. 0. 0. 0. 0. 0. 0. 0. 0. 0. 0. 0. 0. 0. 0. 0. 0.
      0. 0. 0. 0. 0. 0. 2.66457230e-01 0. 0. 0. 4.16104831e-02 0.
      1.04669899e-01 3.49789113e-02 2.66457230e-01 1.14022195e-01 0. 0.
      0. 1.09283045e-01 0. 6.60717562e-02 2.20800694e-02 1.14022195e-01
      0. 0. 0. 0. 0. 0. 0. 0. 0. 0. 0. 0. 0. 0. 0. 0. 0. 0.
      3.36031675e-01 0. 0. 0. 3.36031675e-01 0. 3.36031675e-01
      1.83208302e-01 3.36031675e-01 1.88604057e-01 0. 0. 0.
      3.36031675e-01 0. 3.36031675e-01 1.25391409e-01 1.88604057e-01 0.
      0. 0. 0. 0. 0. 0. 0. 0. 0. 0. 0. 0. 0. 0. 0. 0. 0. 0. 0. 0. 0. 0.
      0. 0. 0. 0. 0. 0. 0. 0. 0. 0. 0. 0. 0. 5.61509933e-03
      9.91477165e-03 2.96687782e-02 0. 8.11978802e-03 0. 0. 0.
      5.61509933e-03 5.87387085e-02 3.35564055e-02 1.00413509e-01 0.
      5.79985091e-03 0. 1.47887347e-02 4.94214799e-03 5.87387085e-02 0.
      0. 0. 0. 0. 0. 0. 0. 0. 0. 0. 0. 0. 0. 0. 0. 0. 0. 9.29045491e-03
      6.73121810e-02 2.01423436e-01 0. 3.35059702e-01 0. 3.12237022e-03
      1.04344403e-03 9.29045491e-03 1.29432246e-01 2.29714245e-01
      3.35059702e-01 0. 3.35059702e-01 0. 3.00713424e-02 1.00493403e-02
      1.29432246e-01 0. 0. 0. 0. 0. 0. 0. 0. 0. 0. 0. 0. 0. 0. 0. 0. 0.
      0. 4.72177938e-03 4.36723512e-03 1.30683836e-02 0. 3.35059702e-01
      0. 1.71950012e-01 5.74627370e-02 4.72177938e-03 1.24963120e-01
      1.52093703e-02 4.55120616e-02 0. 3.35059702e-01 0. 3.35059702e-01
      1.61884904e-01 1.24963120e-01 0. 0. 0. 0. 0. 0. 0. 0. 0. 0. 0. 0.
      0. 0. 0. 0. 0. 0. 6.61048852e-03 0. 0. 0. 4.70187590e-02 0.
      5.96278161e-02 1.99265759e-02 6.61048852e-03 1.11837864e-01 0. 0.
      0. 6.20949678e-02 0. 1.96758851e-01 6.57533780e-02 1.11837864e-01
      2.69771251e-03 3.86192556e-03 1.15563525e-02 0. 1.88427721e-03 0.
      0. 0. 2.69771251e-03 6.24798425e-02 2.07797717e-02 6.21809550e-02
      0. 1.34591234e-03 0. 2.44843736e-02 8.18226952e-03 6.24798425e-02
      7.34059364e-02 3.68310395e-03 1.10212518e-02 0. 4.55776602e-03 0.
      3.63727398e-02 1.21551566e-02 7.34059364e-02 1.38591295e-02 0. 0.
      0. 1.10937059e-02 0. 9.67895240e-03 3.23454151e-03 1.38591295e-02
      4.67841607e-03 2.73597781e-02 8.18707421e-02 0. 1.41267166e-01 0.
      1.41128304e-03 4.71627194e-04 4.67841607e-03 1.64148346e-01
      1.26063466e-01 2.20035180e-01 0. 1.62120521e-01 0. 3.85119803e-02
      1.28700603e-02 1.64148346e-01 2.20035180e-01 6.75177388e-03
      2.02038623e-02 0. 1.47225469e-01 0. 1.57699719e-01 5.27005196e-02
      2.20035180e-01 2.56331302e-02 0. 0. 0. 2.20035180e-01 0.
      7.99325034e-02 2.67120544e-02 2.56331302e-02 2.13420158e-03
      2.02106056e-03 6.04776107e-03 0. 1.87916622e-01 0. 6.90942034e-02
      2.30901018e-02 2.13420158e-03 1.85333833e-01 7.39270402e-03
      2.21217070e-02 0. 2.20035180e-01 0. 2.20035180e-01 7.77511820e-02
      1.85333833e-01 2.20035180e-01 4.74823862e-02 1.42085239e-01 0.
      1.83612078e-01 0. 4.95552877e-03 1.65605103e-03 2.20035180e-01
      1.76384021e-02 2.54080668e-02 7.60305524e-02 0. 2.20035180e-01 0.
      2.19434313e-03 7.33310881e-04 1.76384021e-02 2.98788119e-03 0. 0.
      0. 1.33565869e-02 0. 2.30017081e-02 7.68676959e-03 2.98788119e-03
      1.61769822e-01 0. 0. 0. 2.33126394e-02 0. 1.07711866e-01
      3.59954312e-02 1.61769822e-01 2.20035180e-01 2.73015145e-02
      8.16963241e-02 0. 1.17126657e-02 0. 2.63682893e-03 8.81181855e-04
      2.20035180e-01 1.81817375e-02 1.08943619e-02 3.26000080e-02 0.
      2.73992214e-02 0. 0. 0. 1.81817375e-02 7.79982731e-02 0. 0. 0.
      1.83639955e-02 0. 3.90978493e-02 1.30658383e-02 7.79982731e-02
      3.29200625e-02 0. 0. 0. 4.68146540e-02 0. 2.71330085e-02
      9.06739198e-03 3.29200625e-02 0. 0. 0. 0. 0. 0. 0. 0. 0. 0. 0. 0.
      0. 0. 0. 0. 0. 0. 1.96158528e-01 0. 0. 0. 3.41914564e-01 0.
      2.81414956e-01 9.40439925e-02 1.96158528e-01 5.78934476e-02 0. 0.
      0. 3.41914564e-01 0. 1.91359624e-01 6.39490858e-02 5.78934476e-02
      0. 0. 0. 0. 0. 0. 0. 0. 0. 0. 0. 0. 0. 0. 0. 0. 0. 0.
      1.87423512e-01 9.33237374e-02 2.79259890e-01 0. 3.41914564e-01 0.
      7.06329383e-03 2.36042892e-03 1.87423512e-01 3.99609022e-02
      5.84362373e-02 1.74863279e-01 0. 3.41914564e-01 0. 5.04521001e-03
      1.68602075e-03 3.99609022e-02 0. 0. 0. 0. 0. 0. 0. 0. 0. 0. 0. 0.
      0. 0. 0. 0. 0. 0. 1.67248234e-01 4.68760245e-02 1.40270591e-01 0.
      4.63118702e-02 0. 0. 0. 1.67248234e-01 4.38073948e-02
      2.48235762e-02 7.42814243e-02 0. 1.14103600e-01 0. 0. 0.
      4.38073948e-02 0. 0. 0. 0. 0. 0. 0. 0. 0. 0. 0. 0. 0. 0. 0. 0. 0.
      0. 0. 0. 0. 0. 0. 0. 0. 0. 0. 0. 0. 0. 0. 0. 0. 0. 0. 0.
      1.51653318e-02 0. 0. 0. 3.15797627e-01 0. 2.77157277e-01
      9.26211551e-02 1.51653318e-02 3.00390601e-01 0. 0. 0.
      3.15797627e-01 0. 3.15797627e-01 2.72783279e-01 3.00390601e-01 0.
      0. 0. 0. 0. 0. 0. 0. 0. 0. 0. 0. 0. 0. 0. 0. 0. 0. 2.12314688e-02
      0. 0. 0. 7.04380199e-02 0. 1.25688478e-01 4.20028865e-02
      2.12314688e-02 3.15797627e-01 0. 0. 0. 9.19912532e-02 0.
      3.15797627e-01 1.60791233e-01 3.15797627e-01 0. 0. 0. 0. 0. 0. 0.
      0. 0. 0. 0. 0. 0. 0. 0. 0. 0. 0. 0. 0. 0. 0. 0. 0. 0. 0. 0. 0. 0.
      0. 0. 0. 0. 0. 0. 0. 0. 0. 0. 0. 0. 0. 0. 0. 0. 0. 0. 0. 0. 0. 0.
      0. 0. 0. 0. 0. 0. 0. 0. 0. 0. 0. 0. 0. 0. 0. 0. 0. 0. 0. 0. 0.
      5.35448454e-03 0. 0. 0. 1.19746044e-01 0. 8.52093548e-02
      2.84754969e-02 5.35448454e-03 2.81790376e-01 0. 0. 0.
      1.97938010e-01 0. 2.81790376e-01 1.07503995e-01 2.81790376e-01
      2.81790376e-01 7.35637993e-02 2.20130503e-01 0. 1.03854045e-01 0.
      4.72537475e-03 1.57913729e-03 2.81790376e-01 3.69604230e-02
      3.51599418e-02 1.05211772e-01 0. 1.80585787e-01 0. 0. 0.
      3.69604230e-02 7.49627920e-03 0. 0. 0. 1.56263672e-02 0.
      3.85976508e-02 1.28986584e-02 7.49627920e-03 2.81790376e-01 0. 0.
      0. 2.66948994e-02 0. 2.18278334e-01 7.29448050e-02 2.81790376e-01
      2.81790376e-01 5.66943884e-02 1.69650704e-01 0. 1.65780429e-02 0.
      6.61552604e-03 2.21079262e-03 2.81790376e-01 4.23985794e-02
      1.95671562e-02 5.85522205e-02 0. 3.97657380e-02 0. 0. 0.
      4.23985794e-02 0. 0. 0. 0. 0. 0. 0. 0. 0. 0. 0. 0. 0. 0. 0. 0. 0.
      0. 0. 0. 0. 0. 0. 0. 0. 0. 0. 0. 0. 0. 0. 0. 0. 0. 0. 0. 0. 0. 0.
      0. 0. 0. 0. 0. 0. 0. 0. 0. 0. 0. 0. 0. 0. 0. 0. 0. 0. 0. 0. 0. 0.
      0. 0. 0. 0. 0. 0. 0. 0. 0. 0. 0. 3.06677133e-01 1.59652740e-01
      3.06677133e-01 0. 3.06677133e-01 0. 0. 0. 3.06677133e-01
      1.01561889e-01 9.44393203e-02 2.82597959e-01 0. 3.06677133e-01 0.
      0. 0. 1.01561889e-01 0. 0. 0. 0. 0. 0. 0. 0. 0. 0. 0. 0. 0. 0. 0.
      0. 0. 0. 3.06677133e-01 1.07451983e-01 3.06677133e-01 0.
      7.74039403e-02 0. 0. 0. 3.06677133e-01 1.19975671e-01
      5.04378974e-02 1.50928959e-01 0. 1.94885924e-01 0. 0. 0.
      1.19975671e-01 0. 0. 0. 0. 0. 0. 0. 0. 0. 0. 0. 0. 0. 0. 0. 0. 0.
      0. 0. 0. 0. 0. 0. 0. 0. 0. 0. 0. 0. 0. 0. 0. 0. 0. 0. 0. 0. 0. 0.
      0. 0. 0. 0. 0. 0. 0. 0. 0. 0. 0. 0. 0. 0. 0. 0. 0. 0. 0. 0. 0. 0.
      0. 0. 0. 0. 0. 0. 0. 0. 0. 0. 0. 0. 0. 0. 0. 0. 0. 0. 0. 0. 0. 0.
      0. 0. 0. 0. 0. 0. 0.</_>
    <_>
      0. 0. 0. 0. 0. 0. 0. 0. 0. 0. 0. 0. 0. 0. 0. 0. 0. 0. 0. 0. 0. 0.
      0. 0. 0. 0. 0. 0. 0. 0. 0. 0. 0. 0. 0. 0. 0. 0. 0. 0. 0. 0. 0. 0.
      0. 0. 0. 0. 0. 0. 0. 0. 0. 0. 0. 0. 0. 0. 0. 0. 0. 0. 0. 0. 0. 0.
      0. 0. 0. 0. 0. 0. 0. 0. 0. 0. 0. 0. 0. 0. 0. 0. 0. 0. 0. 0. 0. 0.
      0. 0. 5.28483577e-02 3.20072137e-02 9.57777798e-02 0. 0. 0. 0. 0.
      5.28483577e-02 2.50775933e-01 2.66585704e-02 7.97726139e-02 0. 0.
      0. 0. 0. 2.50775933e-01 0. 0. 0. 0. 0. 0. 0. 0. 0. 0. 0. 0. 0. 0.
      0. 0. 0. 0. 1.56259954e-01 2.39140645e-01 3.55398625e-01 0.
      3.55398625e-01 0. 0. 0. 1.56259954e-01 3.55398625e-01
      1.60872936e-01 3.55398625e-01 0. 2.90465862e-01 0. 0. 0.
      3.55398625e-01 0. 0. 0. 0. 0. 0. 0. 0. 0. 0. 0. 0. 0. 0. 0. 0. 0.
      0. 0. 0. 0. 0. 0. 0. 0. 0. 0. 0. 0. 0. 0. 0. 0. 0. 0. 0. 0. 0. 0.
      0. 0. 0. 0. 0. 0. 0. 0. 0. 0. 0. 0. 0. 0. 0. 0. 0. 0. 0. 0. 0. 0.
      0. 0. 0. 0. 0. 0. 0. 0. 0. 0. 0. 2.35215500e-02 8.66578612e-03
      2.59313360e-02 0. 0. 0. 0. 0. 2.35215500e-02 2.44072765e-01
      7.91338366e-03 2.36798655e-02 0. 0. 0. 0. 0. 2.44072765e-01
      2.38623694e-01 0. 0. 0. 1.17800338e-03 0. 3.94056104e-02
      1.31686972e-02 2.38623694e-01 1.93863232e-02 0. 0. 0.
      3.53401038e-03 0. 2.15177778e-02 7.19088176e-03 1.93863232e-02
      7.16239735e-02 5.79840206e-02 1.73510224e-01 0. 1.40619501e-01 0.
      0. 0. 7.16239735e-02 3.56675416e-01 4.50889468e-02 1.34923205e-01
      0. 7.50302002e-02 0. 0. 0. 3.56675416e-01 3.56675416e-01 0. 0. 0.
      7.23394826e-02 0. 2.64801174e-01 8.84920359e-02 3.56675416e-01
      6.72483295e-02 0. 0. 0. 1.46058187e-01 0. 2.03700393e-01
      6.80732206e-02 6.72483295e-02 0. 0. 0. 0. 0. 0. 0. 0. 0. 0. 0. 0.
      0. 0. 0. 0. 0. 0. 0. 0. 0. 0. 0. 0. 0. 0. 0. 0. 0. 0. 0. 0. 0. 0.
      0. 0. 0. 0. 0. 0. 0. 0. 0. 0. 0. 0. 0. 0. 0. 0. 0. 0. 0. 0. 0. 0.
      0. 0. 0. 0. 0. 0. 0. 0. 0. 0. 0. 0. 0. 0. 0. 0. 2.22444326e-01 0.
      0. 0. 6.13873778e-03 0. 9.14671570e-02 3.05667985e-02
      2.22444326e-01 4.70109805e-02 0. 0. 0. 1.84162129e-02 0.
      5.57310805e-02 1.86243970e-02 4.70109805e-02 0. 0. 0. 0. 0. 0. 0.
      0. 0. 0. 0. 0. 0. 0. 0. 0. 0. 0. 3.55789155e-01 0. 0. 0.
      2.91631490e-01 0. 3.55789155e-01 2.31740519e-01 3.55789155e-01
      1.65862128e-01 0. 0. 0. 3.55789155e-01 0. 3.55789155e-01
      2.30714574e-01 1.65862128e-01 0. 0. 0. 0. 0. 0. 0. 0. 0. 0. 0. 0.
      0. 0. 0. 0. 0. 0. 0. 0. 0. 0. 0. 0. 0. 0. 0. 0. 0. 0. 0. 0. 0. 0.
      0. 0. 1.22554321e-02 1.00086750e-02 2.99497712e-02 0. 0. 0. 0. 0.
      1.22554321e-02 5.97558990e-02 7.97919743e-03 2.38768049e-02 0. 0.
      0. 0. 0. 5.97558990e-02 0. 0. 0. 0. 0. 0. 0. 0. 0. 0. 0. 0. 0. 0.
      0. 0. 0. 0. 5.07877283e-02 9.66015160e-02 2.89068490e-01 0.
      3.46097082e-01 0. 0. 0. 5.07877283e-02 2.79475093e-01
      6.24581426e-02 1.86898381e-01 0. 3.30776304e-01 0. 0. 0.
      2.79475093e-01 0. 0. 0. 0. 0. 0. 0. 0. 0. 0. 0. 0. 0. 0. 0. 0. 0.
      0. 8.06381553e-02 3.39400722e-03 1.01561518e-02 0. 3.46097082e-01
      0. 1.35822654e-01 4.53895703e-02 8.06381553e-02 2.64209509e-01
      2.20358325e-03 6.59394497e-03 0. 3.46097082e-01 0. 1.09029472e-01
      3.64357717e-02 2.64209509e-01 0. 0. 0. 0. 0. 0. 0. 0. 0. 0. 0. 0.
      0. 0. 0. 0. 0. 0. 4.18095514e-02 0. 0. 0. 4.51825857e-02 0.
      5.41524328e-02 1.80967934e-02 4.18095514e-02 1.18978426e-01 0. 0.
      0. 8.62774812e-03 0. 4.15887199e-02 1.38982246e-02 1.18978426e-01
      7.20873475e-03 3.47540970e-03 1.03997514e-02 0. 0. 0. 0. 0.
      7.20873475e-03 7.68158063e-02 3.05977254e-03 9.15600546e-03 0. 0.
      0. 0. 0. 7.68158063e-02 7.54771382e-02 0. 0. 0. 6.04427536e-04 0.
      1.48499841e-02 4.96261660e-03 7.54771382e-02 6.53269934e-03 0. 0.
      0. 1.81328249e-03 0. 8.41859169e-03 2.81335274e-03 6.53269934e-03
      3.09689231e-02 3.00995801e-02 9.00693610e-02 0. 2.01695815e-01 0.
      0. 0. 3.09689231e-02 2.50221074e-01 2.27872171e-02 6.81879520e-02
      0. 1.14521272e-01 0. 0. 0. 2.50221074e-01 2.50221074e-01 0. 0. 0.
      1.13689654e-01 0. 1.53686911e-01 5.13595305e-02 2.50221074e-01
      2.86182724e-02 0. 0. 0. 2.09950507e-01 0. 1.29513085e-01
      4.32810672e-02 2.86182724e-02 3.73144336e-02 1.04587071e-03
      3.12963896e-03 0. 2.50221074e-01 0. 4.66885976e-02 1.56025235e-02
      3.73144336e-02 2.50221074e-01 8.51132034e-04 2.54690391e-03 0.
      1.63183078e-01 0. 4.40499485e-02 1.47207379e-02 2.50221074e-01
      2.50221074e-01 2.37698350e-02 7.11282343e-02 0. 1.76495910e-01 0.
      1.60202291e-02 5.35368221e-03 2.50221074e-01 2.94986647e-02
      3.17645110e-02 9.50512290e-02 0. 2.50221074e-01 0. 1.69708133e-02
      5.67135494e-03 2.94986647e-02 1.84016749e-02 0. 0. 0.
      9.00603645e-03 0. 1.83318499e-02 6.12618402e-03 1.84016749e-02
      1.44845918e-01 0. 0. 0. 2.18102010e-03 0. 1.61475129e-02
      5.39621711e-03 1.44845918e-01 1.50693968e-01 7.89167453e-03
      2.36148164e-02 0. 1.51022116e-03 0. 0. 0. 1.50693968e-01
      1.48655381e-02 9.81710851e-03 2.93764248e-02 0. 3.84507678e-03 0.
      0. 0. 1.48655381e-02 4.95783836e-02 0. 0. 0. 2.19565816e-03 0.
      2.43852772e-02 8.14915169e-03 4.95783836e-02 1.14396121e-02 0. 0.
      0. 6.58697495e-03 0. 1.56042287e-02 5.21467254e-03 1.14396121e-02
      0. 0. 0. 0. 0. 0. 0. 0. 0. 0. 0. 0. 0. 0. 0. 0. 0. 0.
      2.32229531e-01 0. 0. 0. 2.98642099e-01 0. 2.90539771e-01
      9.70934182e-02 2.32229531e-01 4.84108515e-02 0. 0. 0.
      3.25369209e-01 0. 3.22642624e-01 1.07821710e-01 4.84108515e-02 0.
      0. 0. 0. 0. 0. 0. 0. 0. 0. 0. 0. 0. 0. 0. 0. 0. 0. 2.32030019e-01
      5.71128428e-02 1.70902938e-01 0. 3.25369209e-01 0. 3.33690830e-02
      1.11513706e-02 2.32030019e-01 4.20323424e-02 8.99260864e-02
      2.69092232e-01 0. 3.25369209e-01 0. 4.68458720e-02 1.56550948e-02
      4.20323424e-02 0. 0. 0. 0. 0. 0. 0. 0. 0. 0. 0. 0. 0. 0. 0. 0. 0.
      0. 1.05664194e-01 1.86086558e-02 5.56840003e-02 0. 4.37568175e-03
      0. 0. 0. 1.05664194e-01 2.20323019e-02 2.62396932e-02
      7.85188749e-02 0. 1.49004878e-02 0. 0. 0. 2.20323019e-02 0. 0. 0.
      0. 0. 0. 0. 0. 0. 0. 0. 0. 0. 0. 0. 0. 0. 0. 0. 0. 0. 0. 0. 0. 0.
      0. 0. 0. 0. 0. 0. 0. 0. 0. 0. 0. 2.00753868e-01 0. 0. 0.
      3.34415734e-01 0. 3.07651281e-01 1.02811702e-01 2.00753868e-01
      3.34415734e-01 0. 0. 0. 3.34415734e-01 0. 2.41448849e-01
      8.06880221e-02 3.34415734e-01 0. 0. 0. 0. 0. 0. 0. 0. 0. 0. 0. 0.
      0. 0. 0. 0. 0. 0. 1.25868857e-01 0. 0. 0. 8.41465443e-02 0.
      1.40661970e-01 4.70067672e-02 1.25868857e-01 3.34415734e-01 0. 0.
      0. 1.45698087e-02 0. 1.12417899e-01 3.75680923e-02 3.34415734e-01
      0. 0. 0. 0. 0. 0. 0. 0. 0. 0. 0. 0. 0. 0. 0. 0. 0. 0. 0. 0. 0. 0.
      0. 0. 0. 0. 0. 0. 0. 0. 0. 0. 0. 0. 0. 0. 0. 0. 0. 0. 0. 0. 0. 0.
      0. 0. 0. 0. 0. 0. 0. 0. 0. 0. 0. 0. 0. 0. 0. 0. 0. 0. 0. 0. 0. 0.
      0. 0. 0. 0. 0. 0. 7.47293234e-02 0. 0. 0. 2.16495872e-01 0.
      8.70070383e-02 2.90762391e-02 7.47293234e-02 3.13226461e-01 0. 0.
      0. 1.03891172e-01 0. 7.95773491e-02 2.65933778e-02 3.13226461e-01
      3.13226461e-01 4.14653309e-02 1.24079719e-01 0. 1.12366758e-01 0.
      0. 0. 3.13226461e-01 5.94416037e-02 5.41225262e-02 1.61954701e-01
      0. 2.08993196e-01 0. 0. 0. 5.94416037e-02 4.69349399e-02 0. 0. 0.
      1.35841928e-02 0. 4.03803587e-02 1.34944078e-02 4.69349399e-02
      3.13226461e-01 0. 0. 0. 2.96562980e-03 0. 3.64856385e-02
      1.21928612e-02 3.13226461e-01 3.13226461e-01 1.69683788e-02
      5.07756807e-02 0. 1.91864080e-03 0. 0. 0. 3.13226461e-01
      4.01035361e-02 2.01680399e-02 6.03502467e-02 0. 4.88492800e-03 0.
      0. 0. 4.01035361e-02 0. 0. 0. 0. 0. 0. 0. 0. 0. 0. 0. 0. 0. 0. 0.
      0. 0. 0. 0. 0. 0. 0. 0. 0. 0. 0. 0. 0. 0. 0. 0. 0. 0. 0. 0. 0. 0.
      0. 0. 0. 0. 0. 0. 0. 0. 0. 0. 0. 0. 0. 0. 0. 0. 0. 0. 0. 0. 0. 0.
      0. 0. 0. 0. 0. 0. 0. 0. 0. 0. 0. 0. 0. 3.24313462e-01
      1.24957599e-01 3.24313462e-01 0. 3.24313462e-01 0. 0. 0.
      3.24313462e-01 1.08808197e-01 1.89650387e-01 3.24313462e-01 0.
      3.24313462e-01 0. 0. 0. 1.08808197e-01 0. 0. 0. 0. 0. 0. 0. 0. 0.
      0. 0. 0. 0. 0. 0. 0. 0. 0. 3.24313462e-01 4.95899431e-02
      1.48391470e-01 0. 7.01258238e-03 0. 0. 0. 3.24313462e-01
      7.56683052e-02 6.61175773e-02 1.97848260e-01 0. 2.38799099e-02 0.
      0. 0. 7.56683052e-02 0. 0. 0. 0. 0. 0. 0. 0. 0. 0. 0. 0. 0. 0. 0.
      0. 0. 0. 0. 0. 0. 0. 0. 0. 0. 0. 0. 0. 0. 0. 0. 0. 0. 0. 0. 0. 0.
      0. 0. 0. 0. 0. 0. 0. 0. 0. 0. 0. 0. 0. 0. 0. 0. 0. 0. 0. 0. 0. 0.
      0. 0. 0. 0. 0. 0. 0. 0. 0. 0. 0. 0. 0. 0. 0. 0. 0. 0. 0. 0. 0. 0.
      0. 0. 0. 0. 0. 0. 0. 0. 0.</_>
    <_>
      0. 0. 0. 0. 0. 0. 0. 0. 0. 0. 0. 0. 0. 0. 0. 0. 0. 0. 0. 0. 0. 0.
      0. 0. 0. 0. 0. 0. 0. 0. 0. 0. 0. 0. 0. 0. 0. 0. 0. 0. 0. 0. 0. 0.
      0. 0. 0. 0. 0. 0. 0. 0. 0. 0. 4.53777984e-03 0. 0. 0. 0. 0. 0. 0.
      4.53777984e-03 1.86934471e-02 0. 0. 0. 0. 0. 0. 0. 1.86934471e-02
      0. 0. 0. 0. 0. 0. 0. 0. 0. 0. 1.43906865e-02 4.30624187e-02 0.
      2.10079346e-02 0. 0. 0. 0. 2.00033873e-01 2.64248908e-01
      3.24265808e-01 0. 4.08884585e-02 0. 0. 0. 2.00033873e-01
      3.24265808e-01 7.96791017e-02 2.38430128e-01 0. 7.01374025e-04 0.
      0. 0. 3.24265808e-01 0. 0. 0. 0. 0. 0. 0. 0. 0. 0. 2.37184931e-02
      7.09747747e-02 0. 2.27263376e-01 0. 0. 0. 0. 1.01514377e-01
      2.60235220e-01 3.24265808e-01 0. 3.24265808e-01 0. 0. 0.
      1.01514377e-01 2.05349281e-01 4.74684983e-02 1.42043442e-01 0.
      2.65240129e-02 0. 0. 0. 2.05349281e-01 0. 0. 0. 0. 0. 0. 0. 0. 0.
      0. 0. 0. 0. 0. 0. 0. 0. 0. 0. 0. 0. 0. 0. 0. 0. 0. 0. 0. 0. 0. 0.
      0. 0. 0. 0. 0. 2.92724813e-03 0. 0. 0. 0. 0. 0. 0. 2.92724813e-03
      2.62777600e-02 0. 0. 0. 0. 0. 0. 0. 2.62777600e-02 2.54930761e-02
      0. 0. 0. 0. 0. 0. 0. 2.54930761e-02 1.61508715e-03 0. 0. 0. 0. 0.
      0. 0. 1.61508715e-03 9.42529067e-02 6.44212216e-02 1.92772835e-01
      0. 4.14359942e-03 0. 0. 0. 9.42529067e-02 3.12898517e-01
      3.29313055e-02 9.85429958e-02 0. 1.38750867e-04 0. 0. 0.
      3.12898517e-01 3.12898517e-01 0. 0. 0. 6.49197493e-04 0.
      1.92772835e-01 6.44214526e-02 3.12898517e-01 7.02182502e-02 0. 0.
      0. 7.01767951e-03 0. 2.31870264e-01 7.74871632e-02 7.02182502e-02
      4.46146280e-02 5.26708066e-02 1.57610878e-01 0. 7.80065730e-02 0.
      0. 0. 4.46146280e-02 2.69640714e-01 1.81255024e-02 5.42382449e-02
      0. 6.54511154e-03 0. 0. 0. 2.69640714e-01 2.76189953e-01 0. 0. 0.
      2.19753515e-02 0. 9.82194766e-02 3.28232534e-02 2.76189953e-01
      2.95909457e-02 0. 0. 0. 1.05391145e-01 0. 2.29656965e-01
      7.67474473e-02 2.95909457e-02 0. 0. 0. 0. 0. 0. 0. 0. 0. 0. 0. 0.
      0. 0. 0. 0. 0. 0. 0. 0. 0. 0. 0. 0. 0. 0. 0. 0. 0. 0. 0. 0. 0. 0.
      0. 0. 1.46695208e-02 0. 0. 0. 0. 0. 0. 0. 1.46695208e-02
      1.80845370e-03 0. 0. 0. 0. 0. 0. 0. 1.80845370e-03 0. 0. 0. 0. 0.
      0. 0. 0. 0. 0. 0. 0. 0. 0. 0. 0. 0. 0. 3.25907618e-01 0. 0. 0.
      2.13887519e-03 0. 3.25907618e-01 1.17855303e-01 3.25907618e-01
      1.14844881e-01 0. 0. 0. 4.79484834e-02 0. 3.25907618e-01
      2.38583773e-01 1.14844881e-01 0. 0. 0. 0. 1.14696147e-02 0.
      1.34841818e-02 4.50618798e-03 0. 0. 0. 0. 0. 0. 0. 0. 0. 0.
      1.78384751e-01 0. 0. 0. 6.38625398e-02 0. 2.30230942e-01
      7.69392028e-02 1.78384751e-01 4.24301475e-02 0. 0. 0.
      3.25907618e-01 0. 3.25907618e-01 3.14014494e-01 4.24301475e-02 0.
      0. 0. 0. 1.52396053e-01 0. 7.99566954e-02 2.67201923e-02 0. 0. 0.
      0. 0. 0. 0. 0. 0. 0. 0. 0. 0. 0. 0. 0. 0. 0. 0. 0. 6.06396468e-03
      1.81456953e-02 0. 1.35352146e-02 0. 0. 0. 0. 4.10399362e-02
      7.41086975e-02 2.21761405e-01 0. 2.81710792e-02 0. 0. 0.
      4.10399362e-02 9.56326127e-02 1.73663031e-02 5.19665405e-02 0.
      5.63537120e-04 0. 0. 0. 9.56326127e-02 0. 0. 0. 0. 0. 0. 0. 0. 0.
      0. 1.25197470e-02 3.74638401e-02 0. 2.96350986e-01 0.
      2.36581289e-03 7.90615100e-04 0. 5.25600426e-02 1.62607357e-01
      3.38472515e-01 0. 3.38472515e-01 0. 3.37863863e-02 1.12908455e-02
      5.25600426e-02 9.83353183e-02 2.69842297e-02 8.07468146e-02 0.
      3.17362919e-02 0. 7.05673418e-04 2.35824264e-04 9.83353183e-02 0.
      0. 0. 0. 0. 0. 0. 0. 0. 0. 1.31769187e-03 3.94302141e-03 0.
      3.38472515e-01 0. 2.85965502e-02 9.55647044e-03 0. 1.48106376e-02
      2.46968828e-02 7.39022121e-02 0. 3.38472515e-01 0. 3.38472515e-01
      1.43605947e-01 1.48106376e-02 3.47460173e-02 5.90944430e-03
      1.76833011e-02 0. 3.50760929e-02 0. 7.73294196e-02 2.58421991e-02
      3.47460173e-02 0. 0. 0. 0. 0. 0. 0. 0. 0. 0. 0. 0. 0.
      4.88908514e-02 0. 2.67150234e-02 8.92769080e-03 0. 5.96020296e-02
      0. 0. 0. 1.52466863e-01 0. 2.86531717e-01 9.57539603e-02
      5.96020296e-02 1.05967887e-01 6.97475253e-03 2.08711196e-02 0.
      3.38122109e-03 0. 7.61478469e-02 2.54473183e-02 1.05967887e-01
      3.03692147e-02 2.60662045e-02 7.79999718e-02 0. 4.80915094e-03 0.
      0. 0. 3.03692147e-02 2.09463552e-01 1.13605224e-02 3.39949727e-02
      0. 1.79397161e-04 0. 0. 0. 2.09463552e-01 2.11481258e-01 0. 0. 0.
      8.39376298e-04 0. 6.41322583e-02 2.14319210e-02 2.11481258e-01
      2.34756004e-02 0. 0. 0. 7.77461939e-03 0. 1.02224968e-01
      3.41618657e-02 2.34756004e-02 3.62720713e-02 5.25416546e-02
      1.57224208e-01 0. 1.74104184e-01 0. 8.40719882e-03 2.80954549e-03
      3.62720713e-02 2.03378960e-01 1.58466734e-02 4.74191271e-02 0.
      1.24450363e-02 0. 2.24645046e-04 7.50726176e-05 2.03378960e-01
      2.04420522e-01 3.51254130e-04 1.05108647e-03 0. 5.20283990e-02 0.
      8.87493938e-02 2.96585057e-02 2.04420522e-01 1.92741975e-02
      1.05376251e-03 3.15325893e-03 0. 2.16261864e-01 0. 2.16261864e-01
      7.43860677e-02 1.92741975e-02 1.17784571e-02 6.55404106e-03
      1.96121149e-02 0. 2.13653699e-01 0. 1.42227620e-01 4.75300886e-02
      1.17784571e-02 9.03786942e-02 1.38031300e-02 4.13042307e-02 0.
      1.37211476e-02 0. 4.85254526e-02 1.62163954e-02 9.03786942e-02
      1.43413812e-01 2.55638212e-02 7.64967054e-02 0. 6.11882955e-02 0.
      4.13383311e-03 1.38145452e-03 1.43413812e-01 1.33428788e-02
      5.25230318e-02 1.57168806e-01 0. 2.16261864e-01 0. 1.38501888e-02
      4.62849112e-03 1.33428788e-02 3.95191796e-02 0. 0. 0.
      2.97391657e-02 0. 1.02025576e-01 3.40951942e-02 3.95191796e-02
      2.16261864e-01 1.89110208e-02 5.65889888e-02 0. 1.28929701e-03 0.
      5.59541434e-02 1.86989307e-02 2.16261864e-01 2.16261864e-01
      2.24186778e-02 6.70851171e-02 0. 4.36502229e-03 0. 0. 0.
      2.16261864e-01 3.55596133e-02 4.30008508e-02 1.28674567e-01 0.
      2.97450628e-02 0. 0. 0. 3.55596133e-02 7.53825456e-02 0. 0. 0.
      1.53808261e-03 0. 7.11552203e-02 2.37788726e-02 7.53825456e-02
      2.06891615e-02 0. 0. 0. 2.80105639e-02 0. 1.99540064e-01
      6.66829497e-02 2.06891615e-02 0. 0. 0. 0. 6.09136559e-03 0.
      6.54967921e-03 2.18879338e-03 0. 0. 0. 0. 0. 0. 0. 0. 0. 0.
      7.12797418e-02 6.43642037e-04 1.92602258e-03 0. 8.97868648e-02 0.
      1.21656418e-01 4.06554528e-02 7.12797418e-02 1.44420918e-02
      1.93092623e-03 5.77806775e-03 0. 3.55864048e-01 0. 3.55864048e-01
      1.75586849e-01 1.44420918e-02 0. 0. 0. 0. 2.37974018e-01 0.
      5.94545752e-02 1.98687222e-02 0. 0. 0. 0. 0. 0. 0. 0. 0. 0.
      5.11187017e-02 3.19173671e-02 9.55089405e-02 0. 1.07613072e-01 0.
      7.57488189e-03 2.53139273e-03 5.11187017e-02 9.90099739e-03
      1.15322001e-01 3.45086813e-01 0. 3.55864048e-01 0. 2.99405865e-02
      1.00056231e-02 9.90099739e-03 0. 1.23588499e-02 3.69822495e-02 0.
      3.55864048e-01 0. 2.40531215e-03 8.03815201e-04 0. 0. 0. 0. 0. 0.
      0. 0. 0. 0. 9.78970975e-02 2.33460795e-02 6.98602274e-02 0.
      7.03918096e-03 0. 0. 0. 9.78970975e-02 3.60266343e-02
      9.90726203e-02 2.96462059e-01 0. 1.08420067e-01 0. 0. 0.
      3.60266343e-02 0. 7.89958891e-03 2.36384887e-02 0. 3.06872874e-02
      0. 0. 0. 0. 0. 0. 0. 0. 0. 0. 0. 0. 0. 0. 0. 0. 0. 0. 0. 0. 0. 0.
      0. 0. 0. 0. 2.19478339e-01 0. 4.32268679e-02 1.44456616e-02 0.
      3.15684676e-02 0. 0. 0. 3.13295692e-01 0. 3.13295692e-01
      1.57045171e-01 3.15684676e-02 7.25848228e-02 1.07009122e-02
      3.20212096e-02 0. 2.28220709e-02 0. 1.14206068e-01 3.81657556e-02
      7.25848228e-02 0. 0. 0. 0. 0. 0. 0. 0. 0. 0. 0. 0. 0.
      8.20329636e-02 0. 6.24593496e-02 2.08728220e-02 0. 2.85161555e-01
      0. 0. 0. 2.69608974e-01 0. 3.13295692e-01 2.93433070e-01
      2.85161555e-01 3.13295692e-01 1.49812801e-02 4.48297039e-02 0.
      3.20026372e-03 0. 2.19771892e-01 7.34439790e-02 3.13295692e-01 0.
      0. 0. 0. 0. 0. 0. 0. 0. 0. 0. 0. 0. 0. 0. 0. 0. 0. 3.51731703e-02
      0. 0. 0. 0. 0. 1.94734242e-02 6.50767703e-03 3.51731703e-02
      7.43975341e-02 0. 0. 0. 0. 0. 9.51057114e-03 3.17826564e-03
      7.43975341e-02 0. 0. 0. 0. 0. 0. 0. 0. 0. 0. 0. 0. 0. 0. 0. 0. 0.
      0. 0. 0. 0. 0. 0. 0. 0. 0. 0. 0. 0. 0. 0. 0. 0. 0. 0. 0.
      1.83843356e-02 0. 0. 0. 9.92966890e-02 0. 1.22572012e-01
      4.09614965e-02 1.83843356e-02 1.31881639e-01 2.17564553e-02
      6.51036203e-02 0. 6.83563389e-03 0. 6.17132485e-02 2.06235349e-02
      1.31881639e-01 1.92226142e-01 2.47229114e-02 7.39803687e-02 0.
      2.51668505e-02 0. 0. 0. 1.92226142e-01 1.98503919e-02
      4.86520976e-02 1.45585403e-01 0. 1.38102055e-01 0. 0. 0.
      1.98503919e-02 1.39275759e-01 0. 0. 0. 3.82345505e-02 0.
      2.36440718e-01 7.90143907e-02 1.39275759e-01 3.39984983e-01
      3.04590464e-02 9.11450833e-02 0. 8.90098803e-04 0. 1.12626791e-01
      3.76379490e-02 3.39984983e-01 3.39984983e-01 5.40594123e-02
      1.61765918e-01 0. 3.17666144e-03 0. 0. 0. 3.39984983e-01
      1.16056003e-01 1.01178817e-01 3.02764535e-01 0. 3.14863734e-02 0.
      0. 0. 1.16056003e-01 1.96504872e-02 0. 0. 0. 0. 0. 7.53218541e-03
      2.51712441e-03 1.96504872e-02 1.14649892e-01 0. 0. 0. 0. 0.
      3.91460303e-03 1.30819157e-03 1.14649892e-01 1.15744665e-01
      2.77245394e-03 8.29620752e-03 0. 0. 0. 0. 0. 1.15744665e-01
      1.45988427e-02 2.70288019e-03 8.08801781e-03 0. 0. 0. 0. 0.
      1.45988427e-02 0. 0. 0. 0. 0. 0. 0. 0. 0. 0. 0. 0. 0. 0. 0. 0. 0.
      0. 0. 0. 0. 0. 0. 0. 0. 0. 0. 0. 0. 0. 0. 0. 0. 0. 0. 0.
      1.08397767e-01 4.14324328e-02 1.23981610e-01 0. 6.42386228e-02 0.
      0. 0. 1.08397767e-01 2.40041222e-02 1.77361310e-01 3.30708325e-01
      0. 3.30708325e-01 0. 0. 0. 2.40041222e-02 0. 2.00215913e-02
      5.99120036e-02 0. 2.23819822e-01 0. 0. 0. 0. 0. 0. 0. 0. 0. 0. 0.
      0. 0. 3.30708325e-01 9.23043340e-02 2.76208907e-01 0.
      8.10293853e-03 0. 0. 0. 3.30708325e-01 1.91796690e-01
      3.30708325e-01 3.30708325e-01 0. 1.87906489e-01 0. 0. 0.
      1.91796690e-01 0. 1.59849040e-02 4.78327461e-02 0. 5.15260510e-02
      0. 0. 0. 0. 0. 0. 0. 0. 0. 0. 0. 0. 0. 6.63546249e-02
      4.62877983e-03 1.38510214e-02 0. 0. 0. 0. 0. 6.63546249e-02
      2.09300648e-02 4.76981141e-03 1.42730391e-02 0. 0. 0. 0. 0.
      2.09300648e-02 0. 0. 0. 0. 0. 0. 0. 0. 0. 0. 0. 0. 0. 0. 0. 0. 0.
      0. 0. 0. 0. 0. 0. 0. 0. 0. 0. 0. 0. 0. 0. 0. 0. 0. 0. 0. 0. 0. 0.
      0. 0. 0. 0. 0. 0. 0. 0. 0. 0. 0. 0. 0. 0. 0.</_>
    <_>
      0. 0. 0. 0. 0. 0. 0. 0. 0. 0. 0. 0. 0. 0. 0. 0. 0. 0. 0. 0. 0. 0.
      0. 0. 0. 0. 0. 0. 0. 0. 0. 0. 0. 0. 0. 0. 0. 0. 0. 0. 0. 0. 0. 0.
      0. 0. 0. 0. 0. 0. 0. 0. 0. 0. 0. 0. 0. 0. 0. 0. 0. 0. 0. 0. 0. 0.
      0. 0. 0. 0. 0. 0. 0. 0. 0. 0. 0. 0. 0. 0. 0. 0. 0. 0. 0. 0. 0. 0.
      0. 0. 1.62405483e-02 6.94319140e-03 2.07766779e-02 0. 0. 0. 0. 0.
      1.62405483e-02 1.53935626e-01 1.34278620e-02 4.01812866e-02 0. 0.
      0. 0. 0. 1.53935626e-01 0. 0. 0. 0. 0. 0. 0. 0. 0. 0. 0. 0. 0. 0.
      0. 0. 0. 0. 6.34924844e-02 1.19983442e-01 3.59036207e-01 0.
      3.83725166e-01 0. 0. 0. 6.34924844e-02 3.83725166e-01
      2.41621986e-01 3.83725166e-01 0. 3.83725166e-01 0. 0. 0.
      3.83725166e-01 0. 0. 0. 0. 0. 0. 0. 0. 0. 0. 0. 0. 0. 0. 0. 0. 0.
      0. 0. 0. 0. 0. 0. 0. 0. 0. 0. 0. 0. 0. 0. 0. 0. 0. 0. 0. 0. 0. 0.
      0. 0. 0. 0. 0. 0. 0. 0. 0. 0. 0. 0. 0. 0. 0. 0. 0. 0. 0. 0. 0. 0.
      0. 0. 0. 0. 0. 0. 0. 0. 0. 0. 0. 6.44807471e-03 2.03048531e-03
      6.07598759e-03 0. 0. 0. 0. 0. 6.44807471e-03 1.24939017e-01
      4.17933147e-03 1.25061534e-02 0. 0. 0. 0. 0. 1.24939017e-01
      1.45562857e-01 0. 0. 0. 0. 0. 9.40912031e-03 3.14437062e-03
      1.45562857e-01 1.58395357e-02 0. 0. 0. 0. 0. 9.17300116e-03
      3.06546385e-03 1.58395357e-02 2.67764702e-02 3.44390720e-02
      1.03054836e-01 0. 1.20577157e-01 0. 0. 0. 2.67764702e-02
      4.08477217e-01 7.94539452e-02 2.37756312e-01 0. 1.81675598e-01 0.
      0. 0. 4.08477217e-01 4.08477217e-01 0. 0. 0. 4.76799384e-02 0.
      2.31295466e-01 7.72949979e-02 4.08477217e-01 8.06860328e-02 0. 0.
      0. 1.13573261e-01 0. 1.95814520e-01 6.54378906e-02 8.06860328e-02
      0. 0. 0. 0. 0. 0. 0. 0. 0. 0. 0. 0. 0. 0. 0. 0. 0. 0. 0. 0. 0. 0.
      0. 0. 0. 0. 0. 0. 0. 0. 0. 0. 0. 0. 0. 0. 0. 0. 0. 0. 0. 0. 0. 0.
      0. 0. 0. 0. 0. 0. 0. 0. 0. 0. 0. 0. 0. 0. 0. 0. 0. 0. 0. 0. 0. 0.
      0. 0. 0. 0. 0. 0. 1.52631000e-01 0. 0. 0. 0. 0. 2.93824263e-02
      9.81911644e-03 1.52631000e-01 3.51264663e-02 0. 0. 0. 0. 0.
      3.02776601e-02 1.01182889e-02 3.51264663e-02 0. 0. 0. 0. 0. 0. 0.
      0. 0. 0. 0. 0. 0. 0. 0. 0. 0. 0. 3.86646509e-01 0. 0. 0.
      2.24495828e-01 0. 3.86646509e-01 2.23161638e-01 3.86646509e-01
      1.63899258e-01 0. 0. 0. 3.86646509e-01 0. 3.86646509e-01
      2.09033847e-01 1.63899258e-01 0. 0. 0. 0. 0. 0. 0. 0. 0. 0. 0. 0.
      0. 0. 0. 0. 0. 0. 0. 0. 0. 0. 0. 0. 0. 0. 0. 0. 0. 0. 0. 0. 0. 0.
      0. 0. 4.08859085e-03 2.38798955e-03 7.14577595e-03 0. 0. 0. 0. 0.
      4.08859085e-03 4.03793864e-02 4.61827777e-03 1.38196498e-02 0. 0.
      0. 0. 0. 4.03793864e-02 0. 0. 0. 0. 0. 0. 0. 0. 0. 0. 0. 0. 0. 0.
      0. 0. 0. 0. 1.87518336e-02 4.78497148e-02 1.43184572e-01 0.
      2.96884745e-01 0. 2.84178760e-02 9.49675776e-03 1.87518336e-02
      2.96884745e-01 1.03030697e-01 2.96884745e-01 0. 2.96884745e-01 0.
      6.71859458e-02 2.24523861e-02 2.96884745e-01 0. 0. 0. 0. 0. 0. 0.
      0. 0. 0. 0. 0. 0. 0. 0. 0. 0. 0. 7.03179557e-03 2.51792278e-03
      7.53457565e-03 0. 2.96884745e-01 0. 1.89522400e-01 6.33350611e-02
      7.03179557e-03 2.96884745e-01 1.08634494e-02 3.25074866e-02 0.
      2.96884745e-01 0. 2.96884745e-01 1.68750942e-01 2.96884745e-01 0.
      0. 0. 0. 0. 0. 0. 0. 0. 0. 0. 0. 0. 0. 0. 0. 0. 0. 9.13336058e-04
      0. 0. 0. 0. 0. 3.33953346e-03 1.11601339e-03 9.13336058e-04
      3.16733792e-02 0. 0. 0. 0. 0. 1.57091264e-02 5.24971448e-03
      3.16733792e-02 1.86846184e-03 7.99301895e-04 2.39181588e-03 0. 0.
      0. 0. 0. 1.86846184e-03 3.78995091e-02 1.64519646e-03
      4.92305541e-03 0. 0. 0. 0. 0. 3.78995091e-02 4.42759506e-02 0. 0.
      0. 0. 0. 3.70390643e-03 1.23778358e-03 4.42759506e-02
      4.67162021e-03 0. 0. 0. 0. 0. 3.61095788e-03 1.20672176e-03
      4.67162021e-03 9.34075378e-03 1.58162601e-02 4.73282710e-02 0.
      1.30307063e-01 0. 9.40040592e-03 3.14145186e-03 9.34075378e-03
      2.88457721e-01 4.06092890e-02 1.21518321e-01 0. 2.31862023e-01 0.
      2.82050651e-02 9.42565128e-03 2.88457721e-01 2.88457721e-01
      1.40512707e-02 4.20467332e-02 0. 4.41634431e-02 0. 1.37586594e-01
      4.59790751e-02 2.88457721e-01 3.14848237e-02 1.00360746e-02
      3.00317295e-02 0. 1.04048237e-01 0. 1.07047483e-01 3.57734375e-02
      3.14848237e-02 4.04966064e-03 9.58707999e-04 2.86881533e-03 0.
      1.04678273e-01 0. 6.72421902e-02 2.24711597e-02 4.04966064e-03
      2.88457721e-01 5.56839630e-03 1.66627113e-02 0. 2.07969353e-01 0.
      2.16500297e-01 7.23506436e-02 2.88457721e-01 2.88457721e-01
      5.71896993e-02 1.71133056e-01 0. 6.93333820e-02 0. 3.56852785e-02
      1.19253956e-02 2.88457721e-01 3.05882934e-02 3.25164981e-02
      9.73015726e-02 0. 1.10365599e-01 0. 2.20367983e-02 7.36431358e-03
      3.05882934e-02 5.25996671e-04 0. 0. 0. 0. 0. 1.49419811e-03
      4.99334827e-04 5.25996671e-04 3.63512859e-02 0. 0. 0. 0. 0.
      7.75980111e-03 2.59318948e-03 3.63512859e-02 4.39359136e-02
      1.65964128e-03 4.96625993e-03 0. 1.46368262e-03 0. 0. 0.
      4.39359136e-02 4.33300063e-03 1.50876309e-04 4.51477739e-04 0.
      2.04915530e-03 0. 0. 0. 4.33300063e-03 4.44816649e-02 0. 0. 0. 0.
      0. 1.11789713e-02 3.73582542e-03 4.44816649e-02 9.93007049e-03 0.
      0. 0. 0. 0. 1.15195764e-02 3.84965027e-03 9.93007049e-03 0. 0. 0.
      0. 0. 0. 0. 0. 0. 0. 0. 0. 0. 0. 0. 0. 0. 0. 2.79923260e-01
      3.61747891e-02 1.08248658e-01 0. 1.98865980e-01 0. 2.79923260e-01
      1.23084515e-01 2.79923260e-01 5.89634515e-02 2.86407340e-02
      8.57038721e-02 0. 2.79923260e-01 0. 2.79923260e-01 1.06718175e-01
      5.89634515e-02 0. 0. 0. 0. 0. 0. 0. 0. 0. 0. 0. 0. 0. 0. 0. 0. 0.
      0. 2.79923260e-01 1.29282087e-01 2.79923260e-01 0. 2.54170179e-01
      0. 8.64188969e-02 2.88796797e-02 2.79923260e-01 6.57731518e-02
      9.65827778e-02 2.79923260e-01 0. 2.79923260e-01 0. 5.71324341e-02
      1.90926623e-02 6.57731518e-02 0. 0. 0. 0. 0. 0. 0. 0. 0. 0. 0. 0.
      0. 0. 0. 0. 0. 0. 4.11665067e-02 2.23559141e-03 6.68971753e-03 0.
      5.35944151e-03 0. 0. 0. 4.11665067e-02 1.01971235e-02
      2.03235541e-04 6.08155911e-04 0. 7.50322035e-03 0. 0. 0.
      1.01971235e-02 0. 0. 0. 0. 0. 0. 0. 0. 0. 0. 0. 0. 0. 0. 0. 0. 0.
      0. 0. 0. 0. 0. 0. 0. 0. 0. 0. 0. 0. 0. 0. 0. 0. 0. 0. 0.
      1.93510540e-02 0. 0. 0. 2.95540750e-01 0. 3.80260617e-01
      1.30174920e-01 1.93510540e-02 3.80260617e-01 0. 0. 0.
      3.80260617e-01 0. 3.80260617e-01 3.68865609e-01 3.80260617e-01 0.
      0. 0. 0. 0. 0. 0. 0. 0. 0. 0. 0. 0. 0. 0. 0. 0. 0. 3.70429875e-03
      0. 0. 0. 0. 0. 9.70502477e-03 3.24324868e-03 3.70429875e-03
      1.21780410e-01 0. 0. 0. 0. 0. 4.56523187e-02 1.52562056e-02
      1.21780410e-01 0. 0. 0. 0. 0. 0. 0. 0. 0. 0. 0. 0. 0. 0. 0. 0. 0.
      0. 0. 0. 0. 0. 0. 0. 0. 0. 0. 0. 0. 0. 0. 0. 0. 0. 0. 0. 0. 0. 0.
      0. 0. 0. 0. 0. 0. 0. 0. 0. 0. 0. 0. 0. 0. 0. 0. 0. 0. 0. 0. 0. 0.
      0. 0. 0. 0. 0. 0. 0. 0. 0. 0. 0. 9.12345666e-03 0. 0. 0.
      6.54087663e-02 0. 1.16180934e-01 3.88256349e-02 9.12345666e-03
      3.84632438e-01 0. 0. 0. 1.26251593e-01 0. 3.84632438e-01
      1.31726846e-01 3.84632438e-01 3.84632438e-01 9.16208923e-02
      2.74163961e-01 0. 1.00388370e-01 0. 0. 0. 3.84632438e-01
      7.32747912e-02 4.41160388e-02 1.32011697e-01 0. 1.30192280e-01 0.
      0. 0. 7.32747912e-02 1.74646836e-03 0. 0. 0. 0. 0. 3.55485128e-03
      1.18796900e-03 1.74646836e-03 1.12968221e-01 0. 0. 0. 0. 0.
      1.84613671e-02 6.16946397e-03 1.12968221e-01 1.35185868e-01
      3.94845754e-03 1.18152443e-02 0. 3.48225189e-03 0. 0. 0.
      1.35185868e-01 1.30387517e-02 3.58950318e-04 1.07411202e-03 0.
      4.87515097e-03 0. 0. 0. 1.30387517e-02 0. 0. 0. 0. 0. 0. 0. 0. 0.
      0. 0. 0. 0. 0. 0. 0. 0. 0. 0. 0. 0. 0. 0. 0. 0. 0. 0. 0. 0. 0. 0.
      0. 0. 0. 0. 0. 0. 0. 0. 0. 0. 0. 0. 0. 0. 0. 0. 0. 0. 0. 0. 0. 0.
      0. 0. 0. 0. 0. 0. 0. 0. 0. 0. 0. 0. 0. 0. 0. 0. 0. 0. 0.
      3.69679451e-01 2.12515429e-01 3.69679451e-01 0. 3.69679451e-01 0.
      0. 0. 3.69679451e-01 1.83250368e-01 1.46067902e-01 3.69679451e-01
      0. 3.69679451e-01 0. 0. 0. 1.83250368e-01 0. 0. 0. 0. 0. 0. 0. 0.
      0. 0. 0. 0. 0. 0. 0. 0. 0. 0. 1.40335247e-01 5.91456657e-03
      1.76985729e-02 0. 1.41791459e-02 0. 0. 0. 1.40335247e-01
      3.41686383e-02 5.37687796e-04 1.60896056e-03 0. 1.98508110e-02 0.
      0. 0. 3.41686383e-02 0. 0. 0. 0. 0. 0. 0. 0. 0. 0. 0. 0. 0. 0. 0.
      0. 0. 0. 0. 0. 0. 0. 0. 0. 0. 0. 0. 0. 0. 0. 0. 0. 0. 0. 0. 0. 0.
      0. 0. 0. 0. 0. 0. 0. 0. 0. 0. 0. 0. 0. 0. 0. 0. 0. 0. 0. 0. 0. 0.
      0. 0. 0. 0. 0. 0. 0. 0. 0. 0. 0. 0. 0. 0. 0. 0. 0. 0. 0. 0. 0. 0.
      0. 0. 0. 0. 0. 0. 0. 0. 0.</_>
    <_>
      0. 0. 0. 0. 0. 0. 0. 0. 0. 0. 0. 0. 0. 0. 0. 0. 0. 0. 0. 0. 0. 0.
      0. 0. 0. 0. 0. 0. 0. 0. 0. 0. 0. 0. 0. 0. 0. 0. 0. 0. 0. 0. 0. 0.
      0. 0. 0. 0. 0. 0. 0. 0. 0. 0. 7.78209371e-03 0. 0. 0. 0. 0. 0. 0.
      7.78209371e-03 1.88302491e-02 0. 0. 0. 0. 0. 0. 0. 1.88302491e-02
      0. 0. 0. 0. 0. 0. 0. 0. 0. 0. 2.20275261e-02 6.59147575e-02 0.
      2.90630162e-02 0. 0. 0. 0. 2.72188455e-01 2.46994421e-01
      3.14381570e-01 0. 1.25295311e-01 0. 0. 0. 2.72188455e-01
      3.14381570e-01 5.76014742e-02 1.72365367e-01 0. 0. 0. 0. 0.
      3.14381570e-01 0. 0. 0. 0. 0. 0. 0. 0. 0. 0. 7.81823024e-02
      2.33951241e-01 0. 1.76514387e-01 0. 0. 0. 0. 4.64808047e-02
      2.81032741e-01 3.14381570e-01 0. 3.14381570e-01 0. 0. 0.
      4.64808047e-02 1.37480438e-01 5.02517149e-02 1.50371760e-01 0.
      5.19894203e-03 0. 0. 0. 1.37480438e-01 0. 0. 0. 0. 0. 0. 0. 0. 0.
      0. 0. 0. 0. 0. 0. 0. 0. 0. 0. 0. 0. 0. 0. 0. 0. 0. 0. 0. 0. 0. 0.
      0. 0. 0. 0. 0. 4.48438060e-03 0. 0. 0. 0. 0. 0. 0. 4.48438060e-03
      2.84369513e-02 2.66216858e-03 7.96622410e-03 0. 0. 0. 0. 0.
      2.84369513e-02 7.84569755e-02 5.31049538e-03 1.58910267e-02 0. 0.
      0. 7.98680447e-03 2.66905664e-03 7.84569755e-02 1.37708047e-02 0.
      0. 0. 0. 0. 7.78637873e-03 2.60207755e-03 1.37708047e-02
      1.27905756e-01 6.11016899e-02 1.82839394e-01 0. 1.65817887e-02 0.
      0. 0. 1.27905756e-01 3.21793020e-01 5.25520332e-02 1.57255620e-01
      0. 0. 0. 0. 0. 3.21793020e-01 3.21793020e-01 5.84155060e-02
      1.74801469e-01 0. 0. 0. 1.41441360e-01 4.72673140e-02
      3.21793020e-01 1.46879479e-01 0. 0. 0. 3.43140289e-02 0.
      2.74431705e-01 9.17104483e-02 1.46879479e-01 2.53200624e-02
      5.69959991e-02 1.70553356e-01 0. 4.96799313e-02 0. 0. 0.
      2.53200624e-02 2.21947387e-01 2.05942094e-02 6.16255067e-02 0.
      1.14988012e-03 0. 0. 0. 2.21947387e-01 2.18752414e-01 0. 0. 0.
      1.45610911e-03 0. 7.03866184e-02 2.35219691e-02 2.18752414e-01
      2.78499611e-02 0. 0. 0. 6.06123358e-02 0. 1.91028163e-01
      6.38383105e-02 2.78499611e-02 0. 0. 0. 0. 0. 0. 0. 0. 0. 0. 0. 0.
      0. 0. 0. 0. 0. 0. 0. 0. 0. 0. 0. 0. 0. 0. 0. 0. 0. 0. 0. 0. 0. 0.
      0. 0. 4.76187505e-02 1.48060662e-03 4.43053897e-03 0. 0. 0.
      1.11059714e-02 3.71143012e-03 4.76187505e-02 1.64951030e-02 0. 0.
      0. 0. 0. 1.14443535e-02 3.82451154e-03 1.64951030e-02 0. 0. 0. 0.
      0. 0. 0. 0. 0. 0. 0. 0. 0. 0. 0. 0. 0. 0. 2.90879220e-01
      1.62866898e-02 4.87359874e-02 0. 0. 0. 2.24496663e-01
      7.50229955e-02 2.90879220e-01 2.88453907e-01 0. 0. 0.
      2.01760471e-01 0. 2.90879220e-01 2.57725149e-01 2.88453907e-01
      7.21350405e-03 0. 0. 0. 6.31136298e-02 0. 9.69759598e-02
      3.24077494e-02 7.21350405e-03 0. 0. 0. 0. 0. 0. 0. 0. 0.
      9.79011357e-02 0. 0. 0. 4.78452258e-03 0. 1.25043958e-01
      4.17875014e-02 9.79011357e-02 4.59218472e-02 0. 0. 0.
      2.90879220e-01 0. 2.90879220e-01 2.35024899e-01 4.59218472e-02
      6.55772514e-04 0. 0. 0. 2.64888108e-01 0. 2.23860621e-01
      7.48104751e-02 6.55772514e-04 0. 0. 0. 0. 0. 0. 0. 0. 0. 0. 0. 0.
      0. 0. 0. 0. 0. 0. 0. 1.12532824e-02 3.36741097e-02 0.
      1.00470157e-02 0. 0. 0. 0. 4.87780049e-02 7.68363178e-02
      2.29923338e-01 0. 4.74063307e-02 0. 0. 0. 4.87780049e-02
      1.02463603e-01 1.68593321e-02 5.04494347e-02 0. 0. 0. 0. 0.
      1.02463603e-01 0. 0. 0. 0. 0. 0. 0. 0. 0. 0. 6.35832250e-02
      1.90265253e-01 0. 3.20168227e-01 0. 0. 0. 0. 1.29431700e-02
      1.86829835e-01 3.20168227e-01 0. 3.20168227e-01 0. 0. 0.
