<?xml version="1.0"?>
<opencv_storage>
<my_svm type_id="opencv-ml-svm">
  <svm_type>C_SVC</svm_type>
  <kernel><type>RBF</type>
    <gamma>8.9999999999999997e-02</gamma></kernel>
  <C>10.</C>
  <term_criteria><epsilon>1.1920928955078125e-07</epsilon>
    <iterations>2147483647</iterations></term_criteria>
  <var_all>1296</var_all>
  <var_count>1296</var_count>
  <class_count>10</class_count>
  <class_labels type_id="opencv-matrix">
    <rows>1</rows>
    <cols>10</cols>
    <dt>i</dt>
    <data>
      0 1 2 3 4 5 6 7 8 9</data></class_labels>
  <sv_total>28</sv_total>
  <support_vectors>
    <_>
      0. 0. 0. 0. 0. 0. 0. 0. 0. 0. 0. 0. 0. 0. 0. 0. 0. 0. 0. 0. 0. 0.
      0. 0. 0. 0. 0. 0. 0. 0. 0. 0. 0. 0. 0. 0. 0. 0. 0. 0. 0. 0. 0. 0.
      0. 0. 0. 0. 0. 0. 0. 0. 0. 0. 8.69078562e-03 0. 0. 0. 0. 0. 0. 0.
      8.69078562e-03 2.10290030e-02 0. 0. 0. 0. 0. 0. 0. 2.10290030e-02
      0. 0. 0. 0. 0. 0. 0. 0. 0. 0. 2.82812398e-03 8.46282672e-03 0.
      1.99864693e-02 0. 0. 0. 0. 1.61190331e-01 2.56441891e-01
      3.41841131e-01 0. 1.97129577e-01 0. 0. 0. 1.61190331e-01
      3.41841131e-01 1.07826605e-01 3.22657704e-01 0. 5.63533697e-03 0.
      0. 0. 3.41841131e-01 0. 0. 0. 0. 0. 0. 0. 0. 0. 0. 5.46948193e-03
      1.63667761e-02 0. 1.15483843e-01 0. 0. 0. 0. 2.08898392e-02
      2.00940520e-01 3.41841131e-01 0. 3.41841131e-01 0. 0. 0.
      2.08898392e-02 9.78222862e-02 7.83372968e-02 2.34414250e-01 0.
      5.77092320e-02 0. 0. 0. 9.78222862e-02 0. 0. 0. 0. 0. 0. 0. 0. 0.
      0. 0. 0. 0. 0. 0. 0. 0. 0. 0. 0. 0. 0. 0. 0. 0. 0. 0. 0. 0. 0. 0.
      0. 0. 0. 0. 0. 4.45642928e-03 0. 0. 0. 0. 0. 0. 0. 4.45642928e-03
      2.62639057e-02 0. 0. 0. 0. 0. 0. 0. 2.62639057e-02 2.80711465e-02
      0. 0. 0. 0. 0. 0. 0. 2.80711465e-02 5.19120600e-03 0. 0. 0. 0. 0.
      0. 0. 5.19120600e-03 9.11786258e-02 7.02087209e-02 2.10091054e-01
      0. 2.99886093e-02 0. 0. 0. 9.11786258e-02 3.49476904e-01
      5.47739342e-02 1.63904086e-01 0. 1.10912218e-03 0. 2.60074828e-02
      8.69124476e-03 3.49476904e-01 3.49476904e-01 1.80874746e-02
      5.41244075e-02 0. 1.05443606e-02 0. 2.00370550e-01 6.69603869e-02
      3.49476904e-01 1.21101491e-01 0. 0. 0. 5.88349290e-02 0.
      2.39148691e-01 7.99194649e-02 1.21101491e-01 1.33394618e-02
      5.22230864e-02 1.56271026e-01 0. 1.50645837e-01 0. 0. 0.
      1.33394618e-02 1.47192866e-01 4.09938879e-02 1.22668900e-01 0.
      1.38272233e-02 0. 1.85767803e-02 6.20803330e-03 1.47192866e-01
      1.56462625e-01 1.29196281e-02 3.86603028e-02 0. 3.73151340e-02 0.
      1.27517924e-01 4.26142626e-02 1.56462625e-01 3.01687568e-02 0. 0.
      0. 2.31667593e-01 0. 1.55627310e-01 5.20079769e-02 3.01687568e-02
      0. 0. 0. 0. 0. 0. 0. 0. 0. 0. 0. 0. 0. 0. 0. 0. 0. 0. 0. 0. 0. 0.
      0. 0. 0. 0. 0. 0. 0. 0. 0. 0. 0. 0. 0. 0. 1.89851299e-02 0. 0. 0.
      0. 0. 0. 0. 1.89851299e-02 8.23573116e-03 0. 0. 0. 0. 0. 0. 0.
      8.23573116e-03 0. 0. 0. 0. 0. 0. 0. 0. 0. 0. 0. 0. 0. 0. 0. 0. 0.
      0. 3.44065130e-01 1.00398185e-02 3.00428476e-02 0. 2.88138017e-02
      0. 2.85576433e-01 9.54347774e-02 3.44065130e-01 1.81445599e-01 0.
      0. 0. 2.60101199e-01 0. 3.44065130e-01 2.46320322e-01
      1.81445599e-01 0. 0. 0. 0. 2.13192068e-02 0. 8.89441278e-03
      2.97236396e-03 0. 0. 0. 0. 0. 0. 0. 0. 0. 0. 1.03154577e-01
      7.17130071e-03 2.14591827e-02 0. 1.05774321e-01 0. 1.67297944e-01
      5.59080690e-02 1.03154577e-01 4.62921821e-02 0. 0. 0.
      3.44065130e-01 0. 3.44065130e-01 1.80290177e-01 4.62921821e-02 0.
      0. 0. 0. 1.24004021e-01 0. 1.72014460e-02 5.74843632e-03 0. 0. 0.
      0. 0. 0. 0. 0. 0. 0. 0. 0. 0. 0. 0. 0. 0. 0. 0. 0. 1.51902495e-03
      4.54550236e-03 0. 1.12187304e-02 0. 0. 0. 0. 2.71767601e-02
      7.99629837e-02 2.39279538e-01 0. 9.53254923e-02 0. 0. 0.
      2.71767601e-02 1.03795148e-01 3.32702771e-02 9.95570943e-02 0.
      2.97631882e-03 0. 0. 0. 1.03795148e-01 0. 0. 0. 0. 0. 0. 0. 0. 0.
      0. 3.12659657e-03 9.35596973e-03 0. 1.65818080e-01 0. 0. 0. 0.
      7.14625232e-03 1.05734147e-01 3.16396266e-01 0. 4.12343979e-01 0.
      2.62415837e-02 8.76949914e-03 7.14625232e-03 3.04038115e-02
      3.83743756e-02 1.14830352e-01 0. 1.02429390e-01 0. 8.74719396e-03
      2.92316615e-03 3.04038115e-02 0. 0. 0. 0. 0. 0. 0. 0. 0. 0. 0. 0.
      0. 1.51912063e-01 0. 1.49212256e-02 4.98641143e-03 0.
      1.10734766e-02 0. 0. 0. 4.12343979e-01 0. 4.12343979e-01
      1.55823424e-01 1.10734766e-02 5.53181693e-02 0. 0. 0.
      1.14420623e-01 0. 1.78592294e-01 5.96825518e-02 5.53181693e-02 0.
      0. 0. 0. 0. 0. 0. 0. 0. 0. 0. 0. 0. 8.77119508e-03 0.
      2.89769261e-03 9.68357956e-04 0. 4.82658260e-02 0. 0. 0.
      1.34394035e-01 0. 1.98331520e-01 6.62789494e-02 4.82658260e-02
      1.24355204e-01 0. 0. 0. 6.47352589e-03 0. 1.03916995e-01
      3.47272754e-02 1.24355204e-01 2.27464382e-02 3.06240246e-02
      9.16386172e-02 0. 2.05734335e-02 0. 0. 0. 2.27464382e-02
      2.14063451e-01 2.55625173e-02 7.64925554e-02 0. 8.39364424e-04 0.
      1.26693761e-02 4.23388369e-03 2.14063451e-01 2.20349610e-01
      8.81119631e-03 2.63663586e-02 0. 8.50589853e-03 0. 8.81098285e-02
      2.94447728e-02 2.20349610e-01 3.49132046e-02 0. 0. 0.
      4.19693328e-02 0. 9.81466323e-02 3.27989459e-02 3.49132046e-02
      6.60916744e-03 3.90453525e-02 1.16838269e-01 0. 2.37535551e-01 0.
      1.03282239e-02 3.45151988e-03 6.60916744e-03 6.33792728e-02
      2.58844122e-02 7.74557441e-02 0. 3.67757119e-02 0. 1.24922972e-02
      4.17470932e-03 6.33792728e-02 7.29770958e-02 6.29371172e-03
      1.88331138e-02 0. 6.52753636e-02 0. 7.24612549e-02 2.42152810e-02
      7.29770958e-02 1.62528437e-02 0. 0. 0. 2.37535551e-01 0.
      1.13556504e-01 3.79486270e-02 1.62528437e-02 8.80703330e-03 0. 0.
      0. 2.37535551e-01 0. 1.78025961e-01 5.94932660e-02 8.80703330e-03
      1.32467672e-01 7.81683601e-04 2.33908650e-03 0. 4.68930304e-02 0.
      1.12783231e-01 3.76902670e-02 1.32467672e-01 1.61287144e-01
      2.61209682e-02 7.81638250e-02 0. 5.36923185e-02 0. 5.91134094e-03
      1.97546626e-03 1.61287144e-01 2.19347756e-02 5.98343462e-02
      1.79046869e-01 0. 2.37535551e-01 0. 2.59371038e-04 8.66772389e-05
      2.19347756e-02 3.10290977e-02 0. 0. 0. 3.18865478e-02 0.
      8.41733515e-02 2.81292815e-02 3.10290977e-02 2.37535551e-01
      8.59852880e-03 2.57299785e-02 0. 2.03371514e-03 0. 8.34321007e-02
      2.78815795e-02 2.37535551e-01 2.37535551e-01 4.61000055e-02
      1.37948379e-01 0. 6.52400684e-03 0. 6.50248155e-02 2.17301510e-02
      2.37535551e-01 4.41869311e-02 3.40454131e-02 1.01876609e-01 0.
      4.68123034e-02 0. 2.85308412e-03 9.53450624e-04 4.41869311e-02
      9.40592363e-02 3.34504293e-03 1.00096054e-02 0. 1.54713029e-02 0.
      7.88309202e-02 2.63439361e-02 9.40592363e-02 3.59925814e-02 0. 0.
      0. 1.25399336e-01 0. 2.18490779e-01 7.30159432e-02 3.59925814e-02
      0. 0. 0. 0. 1.17757255e-02 0. 4.68181446e-03 1.56458397e-03 0. 0.
      0. 0. 0. 0. 0. 0. 0. 0. 3.54442745e-02 2.38931645e-03
      7.14971870e-03 0. 1.34171247e-01 0. 7.53059015e-02 2.51659155e-02
      3.54442745e-02 1.69361811e-02 0. 0. 0. 4.44892704e-01 0.
      2.73711354e-01 9.14696530e-02 1.69361811e-02 0. 0. 0. 0.
      1.74505919e-01 0. 9.63653997e-03 3.22037051e-03 0. 0. 0. 0. 0. 0.
      0. 0. 0. 0. 6.61472976e-02 3.64983976e-02 1.09217063e-01 0.
      1.19686499e-01 0. 2.67265551e-03 8.93154589e-04 6.61472976e-02
      2.51139663e-02 1.41609684e-01 4.23749268e-01 0. 4.44892704e-01 0.
      1.37421128e-04 4.59237272e-05 2.51139663e-02 0. 5.13595995e-03
      1.53686935e-02 0. 1.57239139e-01 0. 0. 0. 0. 0. 0. 0. 0. 0. 0. 0.
      0. 0. 1.01403616e-01 3.59539874e-02 1.07587777e-01 0.
      1.48420576e-02 0. 2.93992367e-02 9.82470997e-03 1.01403616e-01
      6.00043945e-02 6.33115992e-02 1.89451933e-01 0. 1.33934304e-01 0.
      1.51163398e-03 5.05161530e-04 6.00043945e-02 0. 9.97400261e-04
      2.98459036e-03 0. 5.46140037e-03 0. 0. 0. 0. 0. 0. 0. 0. 0. 0. 0.
      0. 0. 0. 0. 0. 0. 0. 0. 0. 0. 0. 0. 0. 0. 0. 8.95127058e-02 0.
      1.72917340e-02 5.77859441e-03 0. 4.06589694e-02 0. 0. 0.
      3.17830414e-01 0. 3.17830414e-01 2.01438010e-01 4.06589694e-02
      1.43430680e-01 0. 0. 0. 6.93826377e-02 0. 2.51157403e-01
      8.39325711e-02 1.43430680e-01 0. 0. 0. 0. 0. 0. 0. 0. 0. 0. 0. 0.
      0. 1.74834207e-02 0. 3.70508060e-03 1.23817299e-03 0.
      2.24584267e-01 0. 0. 0. 2.66325116e-01 0. 3.17830414e-01
      1.91598967e-01 2.24584267e-01 3.17830414e-01 0. 0. 0.
      9.72992182e-03 0. 3.17830414e-01 1.13584623e-01 3.17830414e-01 0.
      0. 0. 0. 0. 0. 0. 0. 0. 0. 0. 0. 0. 0. 0. 0. 0. 0. 2.01989478e-03
      0. 0. 0. 0. 0. 0. 0. 2.01989478e-03 1.69519410e-02 0. 0. 0. 0. 0.
      0. 0. 1.69519410e-02 0. 0. 0. 0. 0. 0. 0. 0. 0. 0. 0. 0. 0. 0. 0.
      0. 0. 0. 0. 0. 0. 0. 0. 0. 0. 0. 0. 0. 0. 0. 0. 0. 0. 0. 0. 0.
      1.83906127e-02 0. 0. 0. 1.25459090e-01 0. 1.48171499e-01
      4.95163947e-02 1.83906127e-02 2.02855363e-01 2.58820574e-03
      7.74486829e-03 0. 1.80242397e-02 0. 1.10222109e-01 3.68343741e-02
      2.02855363e-01 2.42987007e-01 3.50010879e-02 1.04736455e-01 0.
      2.15842891e-02 0. 1.95728354e-02 6.54089870e-03 2.42987007e-01
      3.86981629e-02 5.86328134e-02 1.75451398e-01 0. 1.79884970e-01 0.
      8.58794374e-04 2.86994007e-04 3.86981629e-02 8.91261548e-02 0. 0.
      0. 3.87304910e-02 0. 1.62086532e-01 5.41664921e-02 8.91261548e-02
      2.95966834e-01 2.84702461e-02 8.51935074e-02 0. 1.86050916e-03 0.
      1.81159094e-01 6.05402291e-02 2.95966834e-01 2.95966834e-01
      1.24860510e-01 2.95966834e-01 0. 1.11263888e-02 0. 2.15301096e-01
      7.19498396e-02 2.95966834e-01 1.05078474e-01 5.80747612e-02
      1.73781335e-01 0. 7.44371489e-02 0. 9.44673363e-03 3.15693254e-03
      1.05078474e-01 1.47759065e-03 0. 0. 0. 0. 0. 0. 0. 1.47759065e-03
      2.29137428e-02 0. 0. 0. 0. 0. 0. 0. 2.29137428e-02 1.64750870e-02
      0. 0. 0. 0. 0. 0. 0. 1.64750870e-02 1.66175351e-03 0. 0. 0. 0. 0.
      0. 0. 1.66175351e-03 0. 0. 0. 0. 0. 0. 0. 0. 0. 0. 0. 0. 0. 0. 0.
      0. 0. 0. 0. 0. 0. 0. 0. 0. 0. 0. 0. 0. 0. 0. 0. 0. 0. 0. 0. 0.
      1.64743483e-01 6.59179240e-02 1.97251365e-01 0. 7.80496970e-02 0.
      1.41200973e-02 4.71868878e-03 1.64743483e-01 7.69032538e-02
      2.08007157e-01 3.05490315e-01 0. 3.05490315e-01 0. 7.26019265e-04
      2.42622918e-04 7.69032538e-02 0. 5.98883629e-03 1.79208145e-02 0.
      8.75485986e-02 0. 0. 0. 0. 0. 0. 0. 0. 0. 0. 0. 0. 0.
      3.05490315e-01 1.29339293e-01 3.05490315e-01 0. 4.04191352e-02 0.
      1.55320987e-01 5.19055463e-02 3.05490315e-01 2.34395027e-01
      1.45956710e-01 3.05490315e-01 0. 3.05490315e-01 0. 7.98620749e-03
      2.66885036e-03 2.34395027e-01 0. 1.28322118e-03 3.83987231e-03 0.
      8.31401534e-03 0. 0. 0. 0. 0. 0. 0. 0. 0. 0. 0. 0. 0.
      9.55470465e-03 0. 0. 0. 0. 0. 0. 0. 9.55470465e-03 1.81128713e-03
      0. 0. 0. 0. 0. 0. 0. 1.81128713e-03 0. 0. 0. 0. 0. 0. 0. 0. 0. 0.
      0. 0. 0. 0. 0. 0. 0. 0. 0. 0. 0. 0. 0. 0. 0. 0. 0. 0. 0. 0. 0. 0.
      0. 0. 0. 0. 0. 0. 0. 0. 0. 0. 0. 0. 0. 0. 0. 0. 0. 0. 0. 0. 0. 0.</_>
    <_>
      0. 0. 0. 0. 0. 0. 0. 0. 0. 0. 0. 0. 0. 0. 0. 0. 0. 0. 0. 0. 0. 0.
      0. 0. 0. 0. 0. 0. 0. 0. 0. 0. 0. 0. 0. 0. 0. 0. 0. 0. 0. 0. 0. 0.
      0. 0. 0. 0. 0. 0. 0. 0. 0. 0. 0. 0. 0. 0. 0. 0. 0. 0. 0. 0. 0. 0.
      0. 0. 0. 0. 0. 0. 0. 0. 0. 0. 0. 0. 0. 0. 0. 0. 0. 0. 0. 0. 0. 0.
      0. 0. 0. 0. 0. 0. 0. 0. 0. 0. 0. 1.04830954e-02 0. 0. 0. 0. 0. 0.
      0. 1.04830954e-02 0. 0. 0. 0. 0. 0. 0. 0. 0. 2.73777395e-01
      1.15963027e-01 3.47005576e-01 0. 9.06720832e-02 0. 0. 0.
      2.73777395e-01 3.92907619e-01 5.73559925e-02 1.71630993e-01 0.
      8.24292097e-03 0. 0. 0. 3.92907619e-01 3.92907619e-01
      7.33418539e-02 2.19466805e-01 0. 0. 0. 0. 0. 3.92907619e-01 0. 0.
      0. 0. 0. 0. 0. 0. 0. 0. 0. 0. 0. 0. 0. 0. 0. 0. 0. 0. 0. 0. 0. 0.
      0. 0. 0. 0. 0. 0. 0. 0. 0. 0. 0. 0. 0. 0. 0. 0. 0. 0. 0. 0. 0. 0.
      0. 0. 0. 0. 0. 0. 0. 0. 0. 0. 0. 0. 0. 0. 0. 0. 0. 0. 0. 0. 0. 0.
      0. 0. 0. 0. 0. 0. 0. 0. 0. 0. 0. 0. 0. 2.66037136e-02 0. 0. 0. 0.
      0. 0. 0. 2.66037136e-02 4.82805595e-02 0. 0. 0. 0. 0. 0. 0.
      4.82805595e-02 2.13133506e-02 0. 0. 0. 0. 0. 0. 0. 2.13133506e-02
      2.39353895e-01 3.85253062e-03 1.15282414e-02 0. 0. 0. 0. 0.
      2.39353895e-01 3.64113867e-01 8.90826210e-02 2.66569167e-01 0. 0.
      0. 0. 0. 3.64113867e-01 3.64113867e-01 4.24589403e-03
      1.27053345e-02 0. 0. 0. 0. 0. 3.64113867e-01 3.64113867e-01 0. 0.
      0. 0. 0. 0. 0. 3.64113867e-01 0. 0. 0. 0. 0. 0. 0. 0. 0. 0. 0. 0.
      0. 0. 0. 0. 0. 0. 0. 0. 0. 0. 0. 0. 0. 0. 0. 0. 0. 0. 0. 0. 0. 0.
      0. 0. 0. 0. 0. 0. 0. 0. 0. 0. 0. 0. 0. 0. 0. 0. 0. 0. 0. 0. 0. 0.
      0. 0. 0. 0. 0. 0. 0. 0. 0. 0. 0. 0. 0. 0. 0. 0. 2.18179170e-02 0.
      0. 0. 0. 0. 0. 0. 2.18179170e-02 5.57745658e-02 0. 0. 0. 0. 0. 0.
      0. 5.57745658e-02 2.41753422e-02 0. 0. 0. 0. 0. 0. 0.
      2.41753422e-02 0. 0. 0. 0. 0. 0. 0. 0. 0. 3.67915928e-01 0. 0. 0.
      0. 0. 0. 0. 3.67915928e-01 3.67915928e-01 6.55252812e-03
      1.96075886e-02 0. 6.41297698e-02 0. 5.37023842e-02 1.79464407e-02
      3.67915928e-01 3.67915928e-01 1.96575858e-02 5.88227734e-02 0.
      3.67915928e-01 0. 1.61107153e-01 5.38393185e-02 3.67915928e-01 0.
      0. 0. 0. 0. 0. 0. 0. 0. 0. 0. 0. 0. 0. 0. 0. 0. 0. 0. 0. 0. 0. 0.
      0. 0. 0. 0. 0. 0. 0. 0. 0. 0. 0. 0. 0. 2.74544652e-03 0. 0. 0. 0.
      0. 0. 0. 2.74544652e-03 0. 0. 0. 0. 0. 0. 0. 0. 0. 1.40875146e-01
      6.70649484e-02 2.00683862e-01 0. 2.13073343e-01 0. 0. 0.
      1.40875146e-01 2.99785286e-01 3.41531523e-02 1.02199219e-01 0.
      3.51918265e-02 0. 0. 0. 2.99785286e-01 2.63464063e-01
      3.59716788e-02 1.07640885e-01 0. 0. 0. 0. 0. 2.63464063e-01 0. 0.
      0. 0. 0. 0. 0. 0. 0. 2.13553593e-01 5.37610874e-02 1.60873398e-01
      0. 2.99785286e-01 0. 0. 0. 2.13553593e-01 2.99785286e-01
      3.57727148e-02 1.07045338e-01 0. 6.99274540e-02 0. 0. 0.
      2.99785286e-01 2.30928883e-01 2.99326070e-02 8.95694643e-02 0. 0.
      0. 0. 0. 2.30928883e-01 0. 0. 0. 0. 0. 0. 0. 0. 0. 3.61840241e-03
      0. 0. 0. 0. 0. 0. 0. 3.61840241e-03 1.20613410e-03 0. 0. 0. 0. 0.
      0. 0. 1.20613410e-03 0. 0. 0. 0. 0. 0. 0. 0. 0. 0. 0. 0. 0. 0. 0.
      0. 0. 0. 9.88582801e-03 0. 0. 0. 0. 0. 0. 0. 9.88582801e-03
      1.79408547e-02 0. 0. 0. 0. 0. 0. 0. 1.79408547e-02 7.91995041e-03
      0. 0. 0. 0. 0. 0. 0. 7.91995041e-03 1.72910675e-01 4.21899185e-03
      1.26248067e-02 0. 0. 0. 0. 0. 1.72910675e-01 2.81709224e-01
      5.77330999e-02 1.72759324e-01 0. 0. 0. 0. 0. 2.81709224e-01
      2.81709224e-01 2.20193318e-03 6.58902433e-03 0. 0. 0. 0. 0.
      2.81709224e-01 2.61851430e-01 0. 0. 0. 0. 0. 0. 0. 2.61851430e-01
      1.74073175e-01 6.84480416e-03 2.04821862e-02 0. 0. 0. 0. 0.
      1.74073175e-01 2.81709224e-01 3.88036445e-02 1.16114907e-01 0. 0.
      0. 0. 0. 2.81709224e-01 2.81709224e-01 2.00175826e-04
      5.99002466e-04 0. 0. 0. 0. 0. 2.81709224e-01 1.65753886e-01 0. 0.
      0. 0. 0. 0. 0. 1.65753886e-01 0. 0. 0. 0. 0. 0. 0. 0. 0. 0. 0. 0.
      0. 0. 0. 0. 0. 0. 0. 0. 0. 0. 0. 0. 0. 0. 0. 0. 0. 0. 0. 0. 0. 0.
      0. 0. 9.63396206e-03 0. 0. 0. 0. 0. 0. 0. 9.63396206e-03
      2.46279277e-02 0. 0. 0. 0. 0. 0. 0. 2.46279277e-02 1.06749125e-02
      0. 0. 0. 0. 0. 0. 0. 1.06749125e-02 0. 0. 0. 0. 0. 0. 0. 0. 0.
      3.05908710e-01 0. 0. 0. 0. 0. 0. 0. 3.05908710e-01 3.05908710e-01
      2.31880341e-02 6.93871751e-02 0. 5.32176122e-02 0. 3.30940150e-02
      1.10594667e-02 3.05908710e-01 2.48686403e-01 5.41613214e-02
      1.62070692e-01 0. 3.05908710e-01 0. 9.92820486e-02 3.31784040e-02
      2.48686403e-01 0. 0. 0. 0. 0. 0. 0. 0. 0. 2.01625824e-01 0. 0. 0.
      0. 0. 0. 0. 2.01625824e-01 3.05908710e-01 2.70701479e-02
      8.10038969e-02 0. 1.80235952e-02 0. 3.00854817e-03 1.00540661e-03
      3.05908710e-01 1.15930922e-01 5.96465580e-02 1.78484559e-01 0.
      1.25242010e-01 0. 9.02564451e-03 3.01621971e-03 1.15930922e-01 0.
      0. 0. 0. 0. 0. 0. 0. 0. 0. 0. 0. 0. 0. 0. 0. 0. 0. 0. 0. 0. 0. 0.
      0. 0. 0. 0. 0. 0. 0. 0. 0. 0. 0. 0. 0. 0. 0. 0. 0. 0. 0. 0. 0. 0.
      0. 0. 0. 0. 0. 0. 0. 0. 0. 3.69782746e-01 5.41367978e-02
      1.61997303e-01 0. 3.69782746e-01 0. 0. 0. 3.69782746e-01
      3.69782746e-01 4.79201786e-02 1.43394917e-01 0. 9.83231887e-02 0.
      0. 0. 3.69782746e-01 3.40427786e-01 4.35168296e-02 1.30218446e-01
      0. 0. 0. 0. 0. 3.40427786e-01 0. 0. 0. 0. 0. 0. 0. 0. 0.
      1.11542391e-02 0. 0. 0. 0. 0. 0. 0. 1.11542391e-02 3.71807930e-03
      0. 0. 0. 0. 0. 0. 0. 3.71807930e-03 0. 0. 0. 0. 0. 0. 0. 0. 0. 0.
      0. 0. 0. 0. 0. 0. 0. 0. 0. 0. 0. 0. 0. 0. 0. 0. 0. 0. 0. 0. 0. 0.
      0. 0. 0. 0. 0. 0. 0. 0. 0. 0. 0. 0. 0. 0. 0. 0. 0. 0. 0. 0. 0. 0.
      0. 0. 0. 0. 0. 0. 0. 0. 0. 0. 0. 0. 0. 0. 0. 0. 0. 0. 0. 0. 0. 0.
      0. 0. 0. 0. 0. 3.44244212e-01 1.59042384e-02 4.75913621e-02 0. 0.
      0. 0. 0. 3.44244212e-01 3.44244212e-01 8.25952888e-02
      2.47155637e-01 0. 0. 0. 0. 0. 3.44244212e-01 3.44244212e-01 0. 0.
      0. 0. 0. 0. 0. 3.44244212e-01 3.27956080e-01 0. 0. 0. 0. 0. 0. 0.
      3.27956080e-01 0. 0. 0. 0. 0. 0. 0. 0. 0. 0. 0. 0. 0. 0. 0. 0. 0.
      0. 0. 0. 0. 0. 0. 0. 0. 0. 0. 0. 0. 0. 0. 0. 0. 0. 0. 0. 0. 0. 0.
      0. 0. 0. 0. 0. 0. 0. 0. 0. 0. 0. 0. 0. 0. 0. 0. 0. 0. 0. 0. 0. 0.
      0. 0. 0. 0. 0. 0. 0. 0. 0. 0. 0. 0. 0. 0. 0. 0. 0. 0. 0. 0. 0. 0.
      0. 0. 0. 0. 0. 0. 0. 0. 0. 0. 0. 0. 0. 0. 0. 0. 0. 0. 0. 0. 0. 0.
      0. 0. 0. 4.17065114e-01 0. 0. 0. 0. 0. 0. 0. 4.17065114e-01
      4.17065114e-01 4.75551672e-02 1.42302647e-01 0. 0. 0. 0. 0.
      4.17065114e-01 3.06569964e-01 9.48630720e-02 2.83865392e-01 0. 0.
      0. 0. 0. 3.06569964e-01 0. 0. 0. 0. 0. 0. 0. 0. 0. 0. 0. 0. 0. 0.
      0. 0. 0. 0. 0. 0. 0. 0. 0. 0. 0. 0. 0. 0. 0. 0. 0. 0. 0. 0. 0. 0.
      0. 0. 0. 0. 0. 0. 0. 0. 0. 0. 0. 0. 0. 0. 0. 0. 0. 0. 0. 0. 0. 0.
      0. 0. 0. 0. 0. 0. 0. 0. 0. 0. 0. 0. 0. 0. 0. 0. 0. 0. 0. 0. 0. 0.
      0. 0. 0. 0. 0. 0. 0. 0. 0. 0. 0. 0. 0. 0. 0. 0. 0. 0. 0. 0. 0. 0.
      0. 0. 0. 0. 0. 0. 0. 0. 0. 0. 0. 0. 0. 0. 0.</_>
    <_>
      0. 0. 0. 0. 0. 0. 0. 0. 0. 0. 0. 0. 0. 0. 0. 0. 0. 0. 0. 0. 0. 0.
      0. 0. 0. 0. 0. 0. 0. 0. 0. 0. 0. 0. 0. 0. 0. 0. 0. 0. 0. 0. 0. 0.
      0. 0. 0. 0. 0. 0. 0. 0. 0. 0. 0. 0. 0. 0. 0. 0. 0. 0. 0. 0. 0. 0.
      0. 0. 0. 0. 0. 0. 0. 0. 0. 0. 0. 0. 0. 0. 0. 0. 0. 0. 0. 0. 0. 0.
      0. 0. 0. 0. 0. 0. 0. 0. 0. 0. 0. 0. 0. 0. 0. 0. 0. 0. 0. 0. 0. 0.
      0. 0. 0. 0. 0. 0. 0. 2.23365538e-02 9.19422880e-03 2.75126416e-02
      0. 8.11801180e-02 0. 0. 0. 2.23365538e-02 4.31598008e-01
      1.01136625e-01 3.02639365e-01 0. 2.43540347e-01 0. 5.61362989e-02
      1.87598132e-02 4.31598008e-01 4.31598008e-01 0. 0. 0. 0. 0.
      2.64064521e-01 8.82459432e-02 4.31598008e-01 0. 0. 0. 0. 0. 0. 0.
      0. 0. 0. 0. 0. 0. 0. 0. 0. 0. 0. 0. 0. 0. 0. 0. 0. 0. 0. 0. 0. 0.
      0. 0. 0. 0. 0. 0. 0. 0. 0. 0. 0. 0. 0. 0. 0. 0. 0. 0. 0. 0. 0. 0.
      0. 0. 0. 0. 0. 0. 0. 0. 0. 0. 0. 0. 0. 0. 0. 0. 0. 0. 0. 0. 0. 0.
      0. 0. 0. 0. 0. 0. 0. 0. 0. 0. 0. 0. 0. 0. 0. 0. 0. 0. 0. 0. 0. 0.
      0. 0. 0. 0. 0. 0. 0. 0. 0. 0. 0. 0. 0. 3.66091788e-01
      2.21020058e-02 6.61376342e-02 0. 3.81354876e-02 0. 7.04249591e-02
      2.35348437e-02 3.66091788e-01 3.66091788e-01 0. 0. 0. 0. 0.
      3.65737110e-01 1.22223236e-01 3.66091788e-01 3.66091788e-01 0. 0.
      0. 0. 0. 0. 0. 3.66091788e-01 1.25837997e-01 0. 0. 0. 0. 0. 0. 0.
      1.25837997e-01 0. 0. 0. 0. 0. 0. 0. 0. 0. 0. 0. 0. 0. 0. 0. 0. 0.
      0. 0. 0. 0. 0. 0. 0. 0. 0. 0. 0. 0. 0. 0. 0. 0. 0. 0. 0. 0. 0. 0.
      0. 0. 0. 0. 0. 0. 0. 0. 0. 0. 0. 0. 0. 0. 0. 0. 0. 0. 0. 0. 0. 0.
      0. 0. 0. 0. 0. 0. 0. 0. 0. 0. 0. 0. 0. 0. 0. 0. 0. 0. 0. 0. 0. 0.
      0. 0. 0. 0. 0. 0. 0. 0. 0. 0. 0. 0. 0. 0. 0. 0. 0. 0. 0. 0. 0. 0.
      0. 0. 0. 5.01221776e-01 0. 0. 0. 0. 0. 0. 0. 5.01221776e-01
      4.96259868e-01 0. 0. 0. 0. 0. 0. 0. 4.96259868e-01 0. 0. 0. 0. 0.
      0. 0. 0. 0. 0. 0. 0. 0. 0. 0. 0. 0. 0. 0. 0. 0. 0. 0. 0. 0. 0. 0.
      0. 0. 0. 0. 0. 0. 0. 0. 0. 0. 0. 0. 0. 0. 0. 0. 0. 0. 0. 0. 0. 0.
      0. 0. 0. 0. 0. 0. 0. 0. 0. 0. 0. 0. 0. 0. 9.61929746e-03
      4.10084799e-03 1.22713009e-02 0. 6.24330714e-02 0. 8.88780132e-03
      2.97014718e-03 9.61929746e-03 3.20254236e-01 4.51093726e-02
      1.34984463e-01 0. 1.87299207e-01 0. 1.22804053e-01 4.10389826e-02
      3.20254236e-01 3.20254236e-01 0. 0. 0. 0. 0. 1.17779128e-01
      3.93598191e-02 3.20254236e-01 0. 0. 0. 0. 0. 0. 0. 0. 0.
      9.82177909e-03 2.92917667e-03 8.76521505e-03 0. 6.25777394e-02 0.
      1.24429194e-02 4.15820535e-03 9.82177909e-03 3.20254236e-01
      3.22209783e-02 9.64174494e-02 0. 1.87733233e-01 0. 1.54756606e-01
      5.17169647e-02 3.20254236e-01 3.20254236e-01 0. 0. 0. 0. 0.
      8.41279328e-02 2.81141512e-02 3.20254236e-01 0. 0. 0. 0. 0. 0. 0.
      0. 0. 0. 0. 0. 0. 0. 0. 0. 0. 0. 0. 0. 0. 0. 0. 0. 0. 0. 0. 0. 0.
      0. 0. 0. 0. 0. 0. 0. 0. 0. 0. 0. 0. 0. 0. 0. 0. 0. 0. 0. 0. 0. 0.
      0. 0. 0. 0. 0. 0. 0. 0. 0. 0. 0. 0. 0. 0. 0. 0. 0. 0. 0. 0. 0.
      1.97116703e-01 6.73759216e-03 2.01614443e-02 0. 2.00451389e-02 0.
      3.60708386e-02 1.20542599e-02 1.97116703e-01 2.70988256e-01 0. 0.
      0. 0. 0. 1.14471547e-01 3.82544734e-02 2.70988256e-01
      2.70988256e-01 0. 0. 0. 0. 0. 8.75921249e-02 2.92717740e-02
      2.70988256e-01 1.02202319e-01 0. 0. 0. 1.72828231e-02 0.
      4.96437699e-02 1.65901184e-02 1.02202319e-01 2.04087168e-01
      4.81256470e-03 1.44010298e-02 0. 2.00915858e-02 0. 3.57779749e-02
      1.19563853e-02 2.04087168e-01 2.70988256e-01 0. 0. 0. 0. 0.
      8.85767341e-02 2.96008550e-02 2.70988256e-01 2.70988256e-01 0. 0.
      0. 0. 0. 2.24005222e-01 7.48586357e-02 2.70988256e-01
      2.49145910e-01 0. 0. 0. 5.18484674e-02 0. 7.39493221e-02
      2.47126203e-02 2.49145910e-01 0. 0. 0. 0. 0. 0. 0. 0. 0. 0. 0. 0.
      0. 0. 0. 0. 0. 0. 0. 0. 0. 0. 0. 0. 0. 0. 0. 0. 0. 0. 0. 0. 0. 0.
      0. 0. 0. 0. 0. 0. 0. 0. 0. 0. 0. 0. 0. 0. 0. 0. 0. 0. 0. 0. 0. 0.
      0. 0. 0. 0. 0. 0. 0. 0. 0. 0. 0. 0. 0. 0. 0. 0. 2.98584759e-01 0.
      0. 0. 0. 0. 1.14938729e-01 3.84105593e-02 2.98584759e-01
      2.75314569e-01 0. 0. 0. 1.31528169e-01 0. 1.39621973e-01
      4.66593280e-02 2.75314569e-01 6.40118122e-03 0. 0. 0.
      2.68553589e-02 0. 0. 0. 6.40118122e-03 0. 0. 0. 0. 0. 0. 0. 0. 0.
      3.15590739e-01 0. 0. 0. 0. 0. 2.38212854e-01 7.96066299e-02
      3.15590739e-01 3.15590739e-01 0. 0. 0. 3.15590739e-01 0.
      1.99445203e-01 6.66512474e-02 3.15590739e-01 1.87381227e-02 0. 0.
      0. 8.05660784e-02 0. 0. 0. 1.87381227e-02 0. 0. 0. 0. 0. 0. 0. 0.
      0. 0. 0. 0. 0. 0. 0. 0. 0. 0. 0. 0. 0. 0. 0. 0. 0. 0. 0. 0. 0. 0.
      0. 0. 0. 0. 0. 0. 0. 0. 0. 0. 0. 0. 0. 0. 0. 0. 0. 0. 0. 0. 0. 0.
      0. 0. 2.15417631e-02 0. 0. 0. 7.61467218e-02 0. 2.58067679e-02
      8.62416904e-03 2.15417631e-02 4.59937394e-01 0. 0. 0.
      2.28440151e-01 0. 2.83874780e-01 9.48659703e-02 4.59937394e-01
      4.59937394e-01 0. 0. 0. 0. 0. 0. 0. 4.59937394e-01 0. 0. 0. 0. 0.
      0. 0. 0. 0. 0. 0. 0. 0. 0. 0. 0. 0. 0. 0. 0. 0. 0. 0. 0. 0. 0. 0.
      0. 0. 0. 0. 0. 0. 0. 0. 0. 0. 0. 0. 0. 0. 0. 0. 0. 0. 0. 0. 0. 0.
      0. 0. 0. 0. 0. 0. 0. 0. 0. 0. 0. 0. 0. 0. 0. 0. 0. 0. 0. 0. 0. 0.
      0. 0. 0. 0. 0. 0. 0. 0. 0. 0. 0. 0. 0. 0. 0. 0. 0. 0. 0. 0. 0. 0.
      0. 0. 0. 0. 0. 0. 0. 0. 0. 0. 0. 0. 0. 0. 0. 2.41168901e-01 0. 0.
      0. 1.60132032e-02 0. 2.77713779e-02 9.28070676e-03 2.41168901e-01
      3.46086293e-01 0. 0. 0. 0. 0. 1.69488788e-02 5.66401798e-03
      3.46086293e-01 3.46086293e-01 0. 0. 0. 0. 0. 3.46086293e-01
      1.35829553e-01 3.46086293e-01 3.46086293e-01 0. 0. 0.
      9.82980281e-02 0. 1.04938723e-01 3.50687541e-02 3.46086293e-01 0.
      0. 0. 0. 0. 0. 0. 0. 0. 0. 0. 0. 0. 0. 0. 0. 0. 0. 0. 0. 0. 0. 0.
      0. 0. 0. 0. 0. 0. 0. 0. 0. 0. 0. 0. 0. 0. 0. 0. 0. 0. 0. 0. 0. 0.
      0. 0. 0. 0. 0. 0. 0. 0. 0. 0. 0. 0. 0. 0. 0. 0. 0. 0. 0. 0. 0. 0.
      0. 0. 0. 0. 0. 0. 0. 0. 0. 0. 0. 0. 0. 0. 0. 0. 0. 0. 0. 0. 0. 0.
      0. 0. 0. 0. 0. 0. 0. 0. 0. 0. 0. 0. 0. 0. 0. 0. 0. 0. 0.
      4.12822932e-01 0. 0. 0. 0. 0. 2.82808185e-01 9.45096016e-02
      4.12822932e-01 4.12822932e-01 0. 0. 0. 4.12822932e-01 0.
      1.93667144e-01 6.47203252e-02 4.12822932e-01 2.80891880e-02 0. 0.
      0. 1.07591175e-01 0. 0. 0. 2.80891880e-02 0. 0. 0. 0. 0. 0. 0. 0.
      0. 0. 0. 0. 0. 0. 0. 0. 0. 0. 0. 0. 0. 0. 0. 0. 0. 0. 0. 0. 0. 0.
      0. 0. 0. 0. 0. 0. 0. 0. 0. 0. 0. 0. 0. 0. 0. 0. 0. 0. 0. 0. 0. 0.
      0. 0. 0. 0. 0. 0. 0. 0. 0. 0. 0. 0. 0. 0. 0. 0. 0. 0. 0. 0. 0. 0.
      0. 0. 0. 0. 0. 0. 0. 0. 0. 0. 0. 0. 0. 0. 0. 0. 0. 0. 0. 0. 0. 0.
      0. 0. 0. 0. 0. 0. 0. 0. 0. 0. 0. 0. 0. 0. 0. 0. 0. 0. 0. 0. 0.</_>
    <_>
      0. 0. 0. 0. 0. 0. 0. 0. 0. 0. 0. 0. 0. 0. 0. 0. 0. 0. 0. 0. 0. 0.
      0. 0. 0. 0. 0. 0. 0. 0. 0. 0. 0. 0. 0. 0. 0. 0. 0. 0. 0. 0. 0. 0.
      0. 0. 0. 0. 0. 0. 0. 0. 0. 0. 0. 0. 0. 0. 0. 0. 0. 0. 0. 0. 0. 0.
      0. 0. 0. 0. 0. 0. 0. 0. 0. 0. 0. 0. 0. 0. 0. 0. 0. 0. 0. 0. 0. 0.
      0. 0. 0. 0. 0. 0. 0. 0. 0. 0. 0. 0. 0. 0. 0. 0. 0. 0. 0. 0. 0. 0.
      0. 0. 0. 0. 0. 0. 0. 1.59529243e-02 6.56658411e-03 1.96497235e-02
      0. 5.79794198e-02 0. 0. 0. 1.59529243e-02 4.03985023e-01
      2.17433900e-01 4.03985023e-01 0. 1.73938259e-01 0. 0. 0.
      4.03985023e-01 4.03985023e-01 7.09144995e-02 2.12203264e-01 0. 0.
      0. 2.07909018e-01 6.94797263e-02 4.03985023e-01 0. 0. 0. 0. 0. 0.
      0. 0. 0. 0. 0. 0. 0. 0. 0. 0. 0. 0. 0. 0. 0. 0. 0. 0. 0. 0. 0. 0.
      0. 0. 0. 0. 0. 0. 0. 0. 0. 0. 0. 0. 0. 0. 0. 0. 0. 0. 0. 0. 0. 0.
      0. 0. 0. 0. 0. 0. 0. 0. 0. 0. 0. 0. 0. 0. 0. 0. 0. 0. 0. 0. 0. 0.
      0. 0. 0. 0. 0. 0. 0. 0. 0. 0. 0. 0. 0. 0. 0. 0. 0. 0. 0. 0. 0. 0.
      0. 0. 0. 0. 0. 0. 0. 0. 0. 0. 0. 0. 0. 0. 2.95216918e-01
      5.84845617e-02 1.75008118e-01 0. 1.81960296e-02 0. 0. 0.
      2.95216918e-01 3.62911463e-01 2.49145795e-02 7.45539367e-02 0. 0.
      0. 3.60809505e-01 1.20576523e-01 3.62911463e-01 3.62911463e-01 0.
      0. 0. 0. 0. 2.68268019e-01 8.96506906e-02 3.62911463e-01
      1.19113401e-01 0. 0. 0. 0. 0. 3.77908275e-02 1.26290638e-02
      1.19113401e-01 0. 0. 0. 0. 0. 0. 0. 0. 0. 0. 0. 0. 0. 0. 0. 0. 0.
      0. 0. 0. 0. 0. 0. 0. 0. 0. 0. 0. 0. 0. 0. 0. 0. 0. 0. 0. 0. 0. 0.
      0. 0. 0. 0. 0. 0. 0. 0. 0. 0. 0. 0. 0. 0. 0. 0. 0. 0. 0. 0. 0. 0.
      0. 0. 0. 0. 0. 0. 0. 0. 0. 0. 0. 0. 0. 0. 0. 0. 0. 0. 0. 0. 0. 0.
      0. 0. 0. 0. 0. 0. 0. 0. 0. 0. 0. 0. 0. 0. 0. 0. 0. 0. 0. 0. 0. 0.
      0. 0. 0. 4.38960791e-01 0. 0. 0. 0. 0. 4.38537508e-01
      1.46551922e-01 4.38960791e-01 4.38960791e-01 0. 0. 0. 0. 0.
      9.39649493e-02 3.14015113e-02 4.38960791e-01 2.51064468e-02 0. 0.
      0. 0. 0. 0. 0. 2.51064468e-02 0. 0. 0. 0. 0. 0. 0. 0. 0. 0. 0. 0.
      0. 0. 0. 0. 0. 0. 0. 0. 0. 0. 0. 0. 0. 0. 0. 0. 0. 0. 0. 0. 0. 0.
      0. 0. 0. 0. 0. 0. 0. 0. 0. 0. 0. 0. 0. 0. 0. 0. 0. 0. 0. 0.
      8.89751036e-03 3.79313971e-03 1.13505200e-02 0. 5.77483885e-02 0.
      8.22090264e-03 2.74728145e-03 8.89751036e-03 3.07367980e-01
      1.01823308e-01 3.04694176e-01 0. 1.73245162e-01 0. 9.04300287e-02
      3.02201249e-02 3.07367980e-01 3.07367980e-01 2.93514468e-02
      8.78307223e-02 0. 0. 0. 8.60533491e-02 2.87575889e-02
      3.07367980e-01 0. 0. 0. 0. 0. 0. 0. 0. 0. 9.08479933e-03
      2.70938524e-03 8.10751412e-03 0. 5.78822009e-02 0. 1.15092620e-02
      3.84619343e-03 9.08479933e-03 3.07367980e-01 4.98361737e-02
      1.49128839e-01 0. 1.73646614e-01 0. 1.26601994e-01 4.23081666e-02
      3.07367980e-01 3.07367980e-01 9.78381559e-03 2.92769074e-02 0. 0.
      0. 2.86844466e-02 9.58586298e-03 3.07367980e-01 0. 0. 0. 0. 0. 0.
      0. 0. 0. 0. 0. 0. 0. 0. 0. 0. 0. 0. 0. 0. 0. 0. 0. 0. 0. 0. 0. 0.
      0. 0. 0. 0. 0. 0. 0. 0. 0. 0. 0. 0. 0. 0. 0. 0. 0. 0. 0. 0. 0. 0.
      0. 0. 0. 0. 0. 0. 0. 0. 0. 0. 0. 0. 0. 0. 0. 0. 0. 0. 0. 0. 0. 0.
      1.66718006e-01 2.45133918e-02 7.33534172e-02 0. 1.71310827e-02 0.
      1.24796135e-02 4.17046761e-03 1.66718006e-01 3.02716285e-01
      9.74742882e-03 2.91680265e-02 0. 0. 0. 1.41160935e-01
      4.71736267e-02 3.02716285e-01 3.02716285e-01 0. 0. 0. 0. 0.
      1.40625119e-01 4.69945669e-02 3.02716285e-01 9.08611938e-02 0. 0.
      0. 2.62255501e-02 0. 6.52187318e-02 2.17949860e-02 9.08611938e-02
      1.58651903e-01 1.03646964e-02 3.10151298e-02 0. 1.71707794e-02 0.
      1.74714513e-02 5.83865261e-03 1.58651903e-01 3.02716285e-01
      3.24914348e-03 9.72267706e-03 0. 0. 0. 4.70536463e-02
      1.57245416e-02 3.02716285e-01 3.02716285e-01 0. 0. 0. 0. 0.
      1.04983948e-01 3.50838564e-02 3.02716285e-01 1.33536100e-01 0. 0.
      0. 7.78437480e-02 0. 1.53636679e-01 5.13427183e-02 1.33536100e-01
      0. 0. 0. 0. 0. 0. 0. 0. 0. 0. 0. 0. 0. 0. 0. 0. 0. 0. 0. 0. 0. 0.
      0. 0. 0. 0. 0. 1.35275640e-03 0. 0. 0. 0. 0. 0. 0. 1.35275640e-03
      0. 0. 0. 0. 0. 0. 0. 0. 0. 0. 0. 0. 0. 0. 0. 0. 0. 0. 0. 0. 0. 0.
      0. 0. 0. 0. 0. 0. 0. 0. 0. 0. 0. 0. 0. 0. 2.74887890e-01 0. 0. 0.
      0. 0. 1.22177854e-01 4.08297814e-02 2.74887890e-01 2.81507432e-01
      0. 0. 0. 2.02175707e-01 0. 2.30642945e-01 7.70769194e-02
      2.81507432e-01 6.69890642e-03 0. 0. 0. 5.39253987e-02 0.
      9.04620718e-03 3.02309124e-03 6.69890642e-03 0. 0. 0. 0. 0. 0. 0.
      0. 0. 2.81507432e-01 0. 0. 0. 0. 0. 1.43735588e-01 4.80339713e-02
      2.81507432e-01 2.81507432e-01 0. 0. 0. 2.81507432e-01 0.
      2.81507432e-01 2.06849396e-01 2.81507432e-01 2.13733036e-02 0. 0.
      0. 1.59403265e-01 0. 1.26646850e-02 4.23232606e-03 2.13733036e-02
      0. 0. 0. 0. 0. 0. 0. 0. 0. 0. 0. 0. 0. 0. 0. 0. 0. 0.
      8.28461256e-03 0. 0. 0. 0. 0. 0. 0. 8.28461256e-03 7.53147062e-04
      0. 0. 0. 0. 0. 0. 0. 7.53147062e-04 0. 0. 0. 0. 0. 0. 0. 0. 0. 0.
      0. 0. 0. 0. 0. 0. 0. 0. 2.05413178e-02 0. 0. 0. 7.26103038e-02 0.
      2.46082470e-02 8.22364446e-03 2.05413178e-02 4.63592768e-01 0. 0.
      0. 2.17830911e-01 0. 2.70691037e-01 9.04601887e-02 4.63592768e-01
      4.63592768e-01 0. 0. 0. 0. 0. 0. 0. 4.63592768e-01 0. 0. 0. 0. 0.
      0. 0. 0. 0. 0. 0. 0. 0. 0. 0. 0. 0. 0. 0. 0. 0. 0. 0. 0. 0. 0. 0.
      0. 0. 0. 0. 0. 0. 0. 0. 0. 0. 0. 0. 0. 0. 0. 0. 0. 0. 0. 0. 0. 0.
      0. 0. 0. 0. 0. 0. 0. 0. 0. 0. 0. 0. 0. 0. 0. 0. 0. 0. 0. 0. 0. 0.
      0. 0. 0. 0. 0. 0. 0. 0. 0. 0. 0. 0. 0. 0. 0. 0. 0. 0. 0. 0. 0. 0.
      0. 0. 0. 0. 0. 0. 0. 0. 0. 0. 0. 0. 0. 0. 0. 2.66158491e-01 0. 0.
      0. 1.73966046e-02 0. 3.01705785e-02 1.00824796e-02 2.66158491e-01
      3.67135018e-01 0. 0. 0. 0. 0. 0. 0. 3.67135018e-01 3.67135018e-01
      0. 0. 0. 0. 0. 5.06626852e-02 1.69305801e-02 3.67135018e-01
      2.53124237e-01 0. 0. 0. 1.97504669e-01 0. 3.60031188e-01
      1.20316148e-01 2.53124237e-01 0. 0. 0. 0. 0. 0. 0. 0. 0. 0. 0. 0.
      0. 0. 0. 0. 0. 0. 0. 0. 0. 0. 0. 0. 0. 0. 0. 6.34992961e-03 0. 0.
      0. 0. 0. 0. 0. 6.34992961e-03 0. 0. 0. 0. 0. 0. 0. 0. 0. 0. 0. 0.
      0. 0. 0. 0. 0. 0. 0. 0. 0. 0. 0. 0. 0. 0. 0. 0. 0. 0. 0. 0. 0. 0.
      0. 0. 0. 0. 0. 0. 0. 0. 0. 0. 0. 0. 0. 0. 0. 0. 0. 0. 0. 0. 0. 0.
      0. 0. 0. 0. 0. 0. 0. 0. 0. 0. 0. 0. 0. 0. 0. 0. 3.25932264e-01 0.
      0. 0. 0. 0. 1.18267313e-01 3.95228602e-02 3.25932264e-01
      3.82907629e-01 0. 0. 0. 3.82907629e-01 0. 3.82907629e-01
      3.27565640e-01 3.82907629e-01 4.38275971e-02 0. 0. 0.
      2.62854904e-01 0. 1.39404936e-02 4.65867994e-03 4.38275971e-02 0.
      0. 0. 0. 0. 0. 0. 0. 0. 0. 0. 0. 0. 0. 0. 0. 0. 0. 2.47885212e-02
      0. 0. 0. 0. 0. 0. 0. 2.47885212e-02 2.25350307e-03 0. 0. 0. 0. 0.
      0. 0. 2.25350307e-03 0. 0. 0. 0. 0. 0. 0. 0. 0. 0. 0. 0. 0. 0. 0.
      0. 0. 0. 0. 0. 0. 0. 0. 0. 0. 0. 0. 0. 0. 0. 0. 0. 0. 0. 0. 0. 0.
      0. 0. 0. 0. 0. 0. 0. 0. 0. 0. 0. 0. 0. 0. 0. 0. 0. 0. 0. 0. 0. 0.
      0. 0. 0. 0. 0. 0. 0. 0. 0. 0. 0. 0. 0. 0. 0. 0. 0. 0. 0. 0. 0. 0.</_>
    <_>
      0. 0. 0. 0. 0. 0. 0. 0. 0. 0. 0. 0. 0. 0. 0. 0. 0. 0. 0. 0. 0. 0.
      0. 0. 0. 0. 0. 0. 0. 0. 0. 0. 0. 0. 0. 0. 0. 0. 0. 0. 0. 0. 0. 0.
      0. 0. 0. 0. 0. 0. 0. 0. 0. 0. 0. 0. 0. 0. 0. 0. 0. 0. 0. 0. 0. 0.
      0. 0. 0. 0. 0. 0. 0. 0. 0. 0. 0. 0. 0. 0. 0. 0. 0. 0. 0. 0. 0. 0.
      0. 0. 0. 0. 0. 0. 0. 0. 0. 0. 0. 0. 0. 0. 0. 0. 0. 0. 0. 0. 0. 0.
      0. 0. 0. 0. 0. 0. 0. 1.77788734e-01 3.48433256e-02 1.04264520e-01
      0. 2.71868825e-01 0. 0. 0. 1.77788734e-01 4.38250273e-01
      4.87806387e-02 1.45970270e-01 0. 2.33381152e-01 0. 0. 0.
      4.38250273e-01 4.38250273e-01 0. 0. 0. 0. 0. 0. 0. 4.38250273e-01
      0. 0. 0. 0. 0. 0. 0. 0. 0. 0. 0. 0. 0. 0. 0. 0. 0. 0. 0. 0. 0. 0.
      0. 0. 0. 0. 0. 0. 0. 0. 0. 0. 0. 0. 0. 0. 0. 0. 0. 0. 0. 0. 0. 0.
      0. 0. 0. 0. 0. 0. 0. 0. 0. 0. 0. 0. 0. 0. 0. 0. 0. 0. 0. 0. 0. 0.
      0. 0. 0. 0. 0. 0. 0. 0. 0. 0. 0. 0. 0. 0. 0. 0. 0. 0. 0. 0. 0. 0.
      0. 0. 0. 0. 0. 0. 0. 0. 0. 0. 0. 0. 0. 0. 0. 0. 0. 0. 0. 0.
      3.27945977e-01 3.90163995e-03 1.16751948e-02 0. 6.39956445e-03 0.
      0. 0. 3.27945977e-01 3.86860788e-01 0. 0. 0. 0. 0. 0. 0.
      3.86860788e-01 3.86860788e-01 0. 0. 0. 0. 0. 2.37869434e-02
      7.94919953e-03 3.86860788e-01 2.89528072e-01 0. 0. 0. 0. 0.
      1.11893490e-01 3.73929366e-02 2.89528072e-01 0. 0. 0. 0. 0. 0. 0.
      0. 0. 0. 0. 0. 0. 0. 0. 0. 0. 0. 0. 0. 0. 0. 0. 0. 0. 0. 0. 0. 0.
      0. 0. 0. 0. 0. 0. 0. 0. 0. 0. 0. 0. 0. 0. 0. 0. 0. 0. 0. 0. 0. 0.
      0. 0. 0. 0. 0. 0. 0. 0. 0. 0. 0. 0. 0. 0. 0. 0. 0. 0. 0. 0. 0. 0.
      0. 0. 0. 0. 0. 0. 0. 0. 0. 0. 0. 0. 0. 0. 0. 0. 0. 0. 0. 0. 0. 0.
      0. 0. 0. 0. 0. 0. 0. 0. 0. 0. 0. 0. 0. 3.97104353e-01 0. 0. 0. 0.
      0. 7.93913975e-02 2.65312772e-02 3.97104353e-01 3.97104353e-01 0.
      0. 0. 4.40824069e-02 0. 3.97104353e-01 1.64174020e-01
      3.97104353e-01 2.65135646e-01 0. 0. 0. 1.32247224e-01 0.
      1.10553697e-01 3.69452015e-02 2.65135646e-01 0. 0. 0. 0. 0. 0. 0.
      0. 0. 0. 0. 0. 0. 0. 0. 0. 0. 0. 0. 0. 0. 0. 0. 0. 0. 0. 0. 0. 0.
      0. 0. 0. 0. 0. 0. 0. 0. 0. 0. 0. 0. 0. 0. 0. 0. 0. 0. 0. 0. 0. 0.
      0. 0. 0. 7.25571364e-02 2.10849680e-02 6.30942136e-02 0.
      2.42943734e-01 0. 1.72459967e-02 5.76330908e-03 7.25571364e-02
      2.90190756e-01 4.54430021e-02 1.35982543e-01 0. 2.18417630e-01 0.
      2.41443869e-02 8.06863047e-03 2.90190756e-01 2.90190756e-01 0. 0.
      0. 0. 0. 4.49738652e-03 1.50294765e-03 2.90190756e-01 0. 0. 0. 0.
      0. 0. 0. 0. 0. 5.95972836e-02 1.90301035e-02 5.69451675e-02 0.
      2.45138362e-01 0. 5.17379902e-02 1.72899291e-02 5.95972836e-02
      2.90190756e-01 7.44143128e-02 2.22675249e-01 0. 2.20089227e-01 0.
      7.24331662e-02 2.42058914e-02 2.90190756e-01 2.87422359e-01 0. 0.
      0. 0. 0. 1.34921586e-02 4.50884271e-03 2.87422359e-01 0. 0. 0. 0.
      0. 0. 0. 0. 0. 0. 0. 0. 0. 0. 0. 0. 0. 0. 0. 0. 0. 0. 0. 0. 0. 0.
      0. 0. 0. 0. 0. 0. 0. 0. 0. 0. 0. 0. 0. 0. 0. 0. 0. 0. 0. 0. 0. 0.
      0. 0. 0. 0. 0. 0. 0. 0. 0. 0. 0. 0. 0. 0. 0. 0. 0. 0. 0. 0. 0. 0.
      0. 0. 1.99783832e-01 5.49102854e-03 1.64312124e-02 0.
      8.26871861e-03 0. 2.17848481e-03 7.28011364e-04 1.99783832e-01
      2.91067034e-01 0. 0. 0. 0. 0. 2.73727402e-02 9.14748944e-03
      2.91067034e-01 2.91067034e-01 0. 0. 0. 0. 0. 4.02080491e-02
      1.34368353e-02 2.91067034e-01 1.79426432e-01 1.00200938e-03
      2.99838278e-03 0. 0. 0. 6.00787625e-02 2.00773180e-02
      1.79426432e-01 1.43860042e-01 1.08866859e-02 3.25770006e-02 0.
      8.28787964e-03 0. 6.53545419e-03 2.18403409e-03 1.43860042e-01
      2.91067034e-01 0. 0. 0. 0. 0. 8.21182206e-02 2.74424683e-02
      2.91067034e-01 2.91067034e-01 0. 0. 0. 0. 0. 8.65657926e-02
      2.89287772e-02 2.91067034e-01 2.33494878e-01 3.00602824e-03
      8.99514928e-03 0. 0. 0. 2.00262554e-02 6.69243978e-03
      2.33494878e-01 0. 0. 0. 0. 0. 0. 0. 0. 0. 0. 0. 0. 0. 0. 0. 0. 0.
      0. 0. 0. 0. 0. 0. 0. 0. 0. 0. 0. 0. 0. 0. 0. 0. 0. 0. 0. 0. 0. 0.
      0. 0. 0. 0. 0. 0. 0. 0. 0. 0. 0. 0. 0. 0. 0. 0. 0. 0. 0. 0. 0. 0.
      0. 0. 0. 0. 0. 0. 0. 0. 0. 0. 0. 2.86323726e-01 0. 0. 0. 0. 0.
      3.65221128e-02 1.22050764e-02 2.86323726e-01 3.03948820e-01
      2.65632086e-02 7.94869363e-02 0. 4.38564643e-02 0. 2.16018572e-01
      7.21897855e-02 3.03948820e-01 1.32104367e-01 3.10103893e-02
      9.27945524e-02 0. 1.31569386e-01 0. 6.37874082e-02 2.13166866e-02
      1.32104367e-01 0. 0. 0. 0. 0. 0. 0. 0. 0. 3.03948820e-01 0. 0. 0.
      0. 0. 2.20399741e-02 7.36538181e-03 3.03948820e-01 3.03948820e-01
      6.20448627e-02 1.85661137e-01 0. 4.39580865e-02 0. 8.93632993e-02
      2.98637226e-02 3.03948820e-01 1.30831331e-01 6.83285072e-02
      2.04464182e-01 0. 1.31874263e-01 0. 4.55624275e-02 1.52262002e-02
      1.30831331e-01 0. 0. 0. 0. 0. 0. 0. 0. 0. 0. 0. 0. 0. 0. 0. 0. 0.
      0. 0. 0. 0. 0. 0. 0. 0. 0. 0. 0. 0. 0. 0. 0. 0. 0. 0. 0. 0. 0. 0.
      0. 0. 0. 0. 0. 0. 0. 0. 0. 0. 0. 0. 0. 0. 0. 1.67852312e-01
      3.42520103e-02 1.02494672e-01 0. 3.37539732e-01 0. 1.31249413e-01
      4.38612550e-02 1.67852312e-01 3.58968019e-01 1.69141710e-01
      3.58968019e-01 0. 2.89080113e-01 0. 1.83749124e-01 6.14057332e-02
      3.58968019e-01 3.58968019e-01 0. 0. 0. 0. 0. 3.42270359e-02
      1.14380736e-02 3.58968019e-01 0. 0. 0. 0. 0. 0. 0. 0. 0. 0. 0. 0.
      0. 0. 0. 0. 0. 0. 0. 0. 0. 0. 0. 0. 0. 0. 0. 0. 0. 0. 0. 0. 0. 0.
      0. 0. 0. 0. 0. 0. 0. 0. 0. 0. 0. 0. 0. 0. 0. 0. 0. 0. 0. 0. 0. 0.
      0. 0. 0. 0. 0. 0. 0. 0. 0. 0. 0. 0. 0. 0. 0. 0. 0. 0. 0. 0. 0. 0.
      0. 0. 0. 0. 0. 0. 0. 0. 0. 0. 0. 0. 0. 0. 0. 0. 0. 0. 0. 0. 0. 0.
      0. 0. 0. 0. 0. 0. 0. 0. 2.18929574e-01 2.13615969e-02
      6.39217943e-02 0. 7.30511220e-03 0. 1.37026319e-02 4.57917899e-03
      2.18929574e-01 3.71744514e-01 0. 0. 0. 0. 0. 1.72174096e-01
      5.75375631e-02 3.71744514e-01 3.71744514e-01 0. 0. 0. 0. 0.
      1.72573060e-01 5.76708876e-02 3.71744514e-01 3.71744514e-01
      6.30262308e-03 1.88597795e-02 0. 0. 0. 0. 0. 3.71744514e-01 0. 0.
      0. 0. 0. 0. 0. 0. 0. 0. 0. 0. 0. 0. 0. 0. 0. 0. 0. 0. 0. 0. 0. 0.
      0. 0. 0. 0. 0. 0. 0. 0. 0. 0. 0. 0. 0. 0. 0. 0. 0. 0. 0. 0. 0. 0.
      0. 0. 0. 0. 0. 0. 0. 0. 0. 0. 0. 0. 0. 0. 0. 0. 0. 0. 0. 0. 0. 0.
      0. 0. 0. 0. 0. 0. 0. 0. 0. 0. 0. 0. 0. 0. 0. 0. 0. 0. 0. 0. 0. 0.
      0. 0. 0. 0. 0. 0. 0. 0. 0. 0. 0. 0. 0. 0. 0. 0. 0. 0.
      4.14344043e-01 0. 0. 0. 0. 0. 2.00548545e-02 6.70198072e-03
      4.14344043e-01 4.14344043e-01 1.04199640e-01 3.11803848e-01 0.
      3.33904810e-02 0. 0. 0. 4.14344043e-01 1.78497866e-01
      1.12390295e-01 3.36313337e-01 0. 1.00171447e-01 0. 0. 0.
      1.78497866e-01 0. 0. 0. 0. 0. 0. 0. 0. 0. 0. 0. 0. 0. 0. 0. 0. 0.
      0. 0. 0. 0. 0. 0. 0. 0. 0. 0. 0. 0. 0. 0. 0. 0. 0. 0. 0. 0. 0. 0.
      0. 0. 0. 0. 0. 0. 0. 0. 0. 0. 0. 0. 0. 0. 0. 0. 0. 0. 0. 0. 0. 0.
      0. 0. 0. 0. 0. 0. 0. 0. 0. 0. 0. 0. 0. 0. 0. 0. 0. 0. 0. 0. 0. 0.
      0. 0. 0. 0. 0. 0. 0. 0. 0. 0. 0. 0. 0. 0. 0. 0. 0. 0. 0. 0. 0. 0.
      0. 0. 0. 0. 0. 0. 0. 0. 0. 0. 0. 0.</_>
    <_>
      0. 0. 0. 0. 0. 0. 0. 0. 0. 0. 0. 0. 0. 0. 0. 0. 0. 0. 0. 0. 0. 0.
      0. 0. 0. 0. 0. 0. 0. 0. 0. 0. 0. 0. 0. 0. 0. 0. 0. 0. 0. 0. 0. 0.
      0. 0. 0. 0. 0. 0. 0. 0. 0. 0. 0. 0. 0. 0. 0. 0. 0. 0. 0. 0. 0. 0.
      0. 0. 0. 0. 0. 0. 0. 0. 0. 0. 0. 0. 0. 0. 0. 0. 0. 0. 0. 0. 0. 0.
      0. 0. 0. 0. 0. 0. 0. 0. 0. 0. 0. 0. 0. 0. 0. 0. 0. 0. 0. 0. 0. 0.
      0. 0. 0. 0. 0. 0. 0. 0. 1.49686616e-02 4.47919481e-02 0.
      4.85699885e-02 0. 0. 0. 0. 4.24409360e-01 2.61814058e-01
      4.24409360e-01 0. 1.45709947e-01 0. 0. 0. 4.24409360e-01
      4.24409360e-01 8.83258972e-03 2.64304765e-02 0. 0. 0. 0. 0.
      4.24409360e-01 0. 0. 0. 0. 0. 0. 0. 0. 0. 0. 0. 0. 0. 0. 0. 0. 0.
      0. 0. 0. 0. 0. 0. 0. 0. 0. 0. 0. 0. 0. 0. 0. 0. 0. 0. 0. 0. 0. 0.
      0. 0. 0. 0. 0. 0. 0. 0. 0. 0. 0. 0. 0. 0. 0. 0. 0. 0. 0. 0. 0. 0.
      0. 0. 0. 0. 0. 0. 0. 0. 0. 0. 0. 0. 0. 0. 0. 0. 0. 0. 0. 0. 0. 0.
      0. 0. 0. 0. 0. 0. 0. 0. 0. 0. 0. 0. 0. 0. 0. 0. 0. 0. 0. 0. 0. 0.
      0. 0. 0. 2.61892051e-01 3.67879830e-02 1.10083684e-01 0.
      1.27922120e-02 0. 0. 0. 2.61892051e-01 4.20533568e-01
      1.51033921e-03 4.51951101e-03 0. 0. 0. 0. 0. 4.20533568e-01
      4.20533568e-01 0. 0. 0. 0. 0. 6.66891634e-02 2.22864021e-02
      4.20533568e-01 2.16026098e-01 0. 0. 0. 0. 0. 1.88005596e-01
      6.28283247e-02 2.16026098e-01 0. 0. 0. 0. 0. 0. 0. 0. 0. 0. 0. 0.
      0. 0. 0. 0. 0. 0. 0. 0. 0. 0. 0. 0. 0. 0. 0. 0. 0. 0. 0. 0. 0. 0.
      0. 0. 0. 0. 0. 0. 0. 0. 0. 0. 0. 0. 0. 0. 0. 0. 0. 0. 0. 0. 0. 0.
      0. 0. 0. 0. 0. 0. 0. 0. 0. 0. 0. 0. 0. 0. 0. 0. 0. 0. 0. 0. 0. 0.
      0. 0. 0. 0. 0. 0. 0. 0. 0. 0. 0. 0. 0. 0. 0. 0. 0. 0. 0. 0. 0. 0.
      0. 0. 0. 0. 0. 0. 0. 0. 4.11334842e-01 0. 0. 0. 0. 0.
      2.32455596e-01 7.76827857e-02 4.11334842e-01 4.11334842e-01 0. 0.
      0. 0. 0. 4.11334842e-01 2.95409828e-01 4.11334842e-01
      3.21826227e-02 0. 0. 0. 0. 0. 2.12163422e-02 7.09014665e-03
      3.21826227e-02 0. 0. 0. 0. 0. 0. 0. 0. 0. 0. 0. 0. 0. 0. 0. 0. 0.
      0. 0. 0. 0. 0. 0. 0. 0. 0. 0. 0. 0. 0. 0. 0. 0. 0. 0. 0. 0. 0. 0.
      0. 0. 0. 0. 0. 0. 0. 0. 0. 0. 0. 0. 0. 0. 0. 2.24535819e-03
      8.28917883e-03 2.48043854e-02 0. 5.65088503e-02 0. 8.04444496e-03
      2.68831244e-03 2.24535819e-03 3.07121545e-01 1.38155118e-01
      3.07121545e-01 0. 1.69526547e-01 0. 8.84889886e-02 2.95714661e-02
      3.07121545e-01 3.07121545e-01 4.27036500e-03 1.27785597e-02 0. 0.
      0. 0. 0. 3.07121545e-01 0. 0. 0. 0. 0. 0. 0. 0. 0. 6.73607457e-03
      4.17704834e-03 1.24993222e-02 0. 5.66397943e-02 0. 1.12622213e-02
      3.76363681e-03 6.73607457e-03 3.07121545e-01 6.16055988e-02
      1.84347451e-01 0. 1.69919372e-01 0. 1.23884551e-01 4.14000452e-02
      3.07121545e-01 3.07121545e-01 1.42345484e-03 4.25952021e-03 0. 0.
      0. 0. 0. 3.07121545e-01 0. 0. 0. 0. 0. 0. 0. 0. 0. 0. 0. 0. 0. 0.
      0. 0. 0. 0. 0. 0. 0. 0. 0. 0. 0. 0. 0. 0. 0. 0. 0. 0. 0. 0. 0. 0.
      0. 0. 0. 0. 0. 0. 0. 0. 0. 0. 0. 0. 0. 0. 0. 0. 0. 0. 0. 0. 0. 0.
      0. 0. 0. 0. 0. 0. 0. 0. 0. 0. 0. 0. 0. 0. 1.58992767e-01
      1.96485259e-02 5.87958880e-02 0. 1.52274380e-02 0. 1.10928491e-02
      3.70703544e-03 1.58992767e-01 3.10544372e-01 7.47109123e-04
      2.23563542e-03 0. 0. 0. 0. 0. 3.10544372e-01 3.10544372e-01 0. 0.
      0. 0. 0. 3.36393975e-02 1.12417238e-02 3.10544372e-01
      1.60234556e-01 0. 0. 0. 7.91857857e-03 0. 1.23432107e-01
      4.12489399e-02 1.60234556e-01 1.30797833e-01 8.49932153e-03
      2.54332125e-02 0. 1.52627202e-02 0. 1.55299827e-02 5.18984813e-03
      1.30797833e-01 3.10544372e-01 2.49036326e-04 7.45211728e-04 0. 0.
      0. 0. 0. 3.10544372e-01 3.10544372e-01 0. 0. 0. 0. 0.
      1.20876394e-02 4.03948640e-03 3.10544372e-01 1.67319387e-01 0. 0.
      0. 1.57959852e-02 0. 9.08307657e-02 3.03541068e-02 1.67319387e-01
      0. 0. 0. 0. 0. 0. 0. 0. 0. 0. 0. 0. 0. 0. 0. 0. 0. 0. 0. 0. 0. 0.
      0. 0. 0. 0. 0. 0. 0. 0. 0. 0. 0. 0. 0. 0. 0. 0. 0. 0. 0. 0. 0. 0.
      0. 0. 0. 0. 0. 0. 0. 0. 0. 0. 0. 0. 0. 0. 0. 0. 0. 0. 0. 0. 0. 0.
      0. 0. 0. 0. 0. 0. 2.93807536e-01 0. 0. 0. 0. 0. 8.53116512e-02
      2.85097267e-02 2.93807536e-01 2.93807536e-01 0. 0. 0.
      8.95216987e-02 0. 2.93807536e-01 1.67035922e-01 2.93807536e-01
      2.49881744e-02 0. 0. 0. 6.39440566e-02 0. 3.95384505e-02
      1.32130887e-02 2.49881744e-02 0. 0. 0. 0. 0. 0. 0. 0. 0.
      2.93807536e-01 0. 0. 0. 0. 0. 3.20742764e-02 1.07186884e-02
      2.93807536e-01 2.93807536e-01 0. 0. 0. 1.78577900e-01 0.
      2.93807536e-01 1.54195875e-01 2.93807536e-01 5.59792109e-02 0. 0.
      0. 1.27555624e-01 0. 5.53538315e-02 1.84983127e-02 5.59792109e-02
      0. 0. 0. 0. 0. 0. 0. 0. 0. 0. 0. 0. 0. 0. 0. 0. 0. 0. 0. 0. 0. 0.
      0. 0. 0. 0. 0. 0. 0. 0. 0. 0. 0. 0. 0. 0. 0. 0. 0. 0. 0. 0. 0. 0.
      0. 0. 0. 0. 0. 0. 0. 0. 0. 0. 2.05413178e-02 0. 0. 0.
      7.26103038e-02 0. 2.46082470e-02 8.22364446e-03 2.05413178e-02
      4.63592768e-01 0. 0. 0. 2.17830911e-01 0. 2.70691037e-01
      9.04601887e-02 4.63592768e-01 4.63592768e-01 0. 0. 0. 0. 0. 0. 0.
      4.63592768e-01 0. 0. 0. 0. 0. 0. 0. 0. 0. 0. 0. 0. 0. 0. 0. 0. 0.
      0. 0. 0. 0. 0. 0. 0. 0. 0. 0. 0. 0. 0. 0. 0. 0. 0. 0. 0. 0. 0. 0.
      0. 0. 0. 0. 0. 0. 0. 0. 0. 0. 0. 0. 0. 0. 0. 0. 0. 0. 0. 0. 0. 0.
      0. 0. 0. 0. 0. 0. 0. 0. 0. 0. 0. 0. 0. 0. 0. 0. 0. 0. 0. 0. 0. 0.
      0. 0. 0. 0. 0. 0. 0. 0. 0. 0. 0. 0. 0. 0. 0. 0. 0. 0. 0. 0. 0. 0.
      0. 0. 0. 2.68725753e-01 0. 0. 0. 1.75644066e-02 0. 3.04615982e-02
      1.01797320e-02 2.68725753e-01 3.86630833e-01 0. 0. 0. 0. 0. 0. 0.
      3.86630833e-01 3.86630833e-01 0. 0. 0. 0. 0. 0. 0. 3.86630833e-01
      3.47094893e-01 0. 0. 0. 3.78361978e-02 0. 9.51066986e-02
      3.17830108e-02 3.47094893e-01 0. 0. 0. 0. 0. 0. 0. 0. 0. 0. 0. 0.
      0. 0. 0. 0. 0. 0. 0. 0. 0. 0. 0. 0. 0. 0. 0. 0. 0. 0. 0. 0. 0. 0.
      0. 0. 0. 0. 0. 0. 0. 0. 0. 0. 0. 0. 0. 0. 0. 0. 0. 0. 0. 0. 0. 0.
      0. 0. 0. 0. 0. 0. 0. 0. 0. 0. 0. 0. 0. 0. 0. 0. 0. 0. 0. 0. 0. 0.
      0. 0. 0. 0. 0. 0. 0. 0. 0. 0. 0. 0. 0. 0. 0. 0. 0. 0. 0. 0. 0. 0.
      0. 0. 0. 0. 0. 0. 0. 0. 3.83608550e-01 0. 0. 0. 0. 0. 0. 0.
      3.83608550e-01 3.83608550e-01 0. 0. 0. 3.57041985e-01 0.
      3.83608550e-01 1.69948399e-01 3.83608550e-01 1.23607129e-01 0. 0.
      0. 2.55029917e-01 0. 8.70848745e-02 2.91022826e-02 1.23607129e-01
      0. 0. 0. 0. 0. 0. 0. 0. 0. 0. 0. 0. 0. 0. 0. 0. 0. 0. 0. 0. 0. 0.
      0. 0. 0. 0. 0. 0. 0. 0. 0. 0. 0. 0. 0. 0. 0. 0. 0. 0. 0. 0. 0. 0.
      0. 0. 0. 0. 0. 0. 0. 0. 0. 0. 0. 0. 0. 0. 0. 0. 0. 0. 0. 0. 0. 0.
      0. 0. 0. 0. 0. 0. 0. 0. 0. 0. 0. 0. 0. 0. 0. 0. 0. 0. 0. 0. 0. 0.
      0. 0. 0. 0. 0. 0. 0. 0. 0. 0. 0. 0. 0. 0. 0. 0. 0. 0. 0. 0. 0. 0.
      0. 0. 0. 0. 0. 0. 0.</_>
    <_>
      0. 0. 0. 0. 0. 0. 0. 0. 0. 0. 0. 0. 0. 0. 0. 0. 0. 0. 0. 0. 0. 0.
      0. 0. 0. 0. 0. 0. 0. 0. 0. 0. 0. 0. 0. 0. 0. 0. 0. 0. 0. 0. 0. 0.
      0. 0. 0. 0. 0. 0. 0. 0. 0. 0. 0. 0. 0. 0. 0. 0. 0. 0. 0. 0. 0. 0.
      0. 0. 0. 0. 0. 0. 0. 0. 0. 0. 0. 0. 0. 0. 0. 0. 0. 0. 0. 0. 0. 0.
      0. 0. 0. 0. 0. 0. 0. 0. 0. 0. 0. 0. 0. 0. 0. 0. 0. 0. 0. 0. 0. 0.
      0. 0. 0. 0. 0. 0. 0. 1.67068630e-01 7.32638389e-02 2.19233349e-01
      0. 0. 0. 0. 0. 1.67068630e-01 4.20336932e-01 9.38798860e-02
      2.80924439e-01 0. 0. 0. 0. 0. 4.20336932e-01 4.20336932e-01
      9.61791128e-02 2.87804604e-01 0. 0. 0. 0. 0. 4.20336932e-01 0. 0.
      0. 0. 0. 0. 0. 0. 0. 0. 0. 0. 0. 0. 0. 0. 0. 0. 0. 0. 0. 0. 0. 0.
      0. 0. 0. 0. 0. 0. 0. 0. 0. 0. 0. 0. 0. 0. 0. 0. 0. 0. 0. 0. 0. 0.
      0. 0. 0. 0. 0. 0. 0. 0. 0. 0. 0. 0. 0. 0. 0. 0. 0. 0. 0. 0. 0. 0.
      0. 0. 0. 0. 0. 0. 0. 0. 0. 0. 0. 0. 0. 0. 0. 0. 0. 0. 0. 0. 0. 0.
      0. 0. 0. 0. 0. 0. 0. 0. 0. 0. 0. 0. 0. 0. 0. 0. 0. 0.
      1.97658613e-01 1.50324851e-02 4.49829325e-02 0. 0. 0. 0. 0.
      1.97658613e-01 3.81411731e-01 6.56885952e-02 1.96565345e-01 0. 0.
      0. 0. 0. 3.81411731e-01 3.81411731e-01 0. 0. 0. 0. 0. 0. 0.
      3.81411731e-01 3.81411731e-01 0. 0. 0. 0. 0. 0. 0. 3.81411731e-01
      0. 0. 0. 0. 0. 0. 0. 0. 0. 0. 0. 0. 0. 0. 0. 0. 0. 0. 0. 0. 0. 0.
      0. 0. 0. 0. 0. 0. 0. 0. 0. 0. 0. 0. 0. 0. 0. 0. 0. 0. 0. 0. 0. 0.
      0. 0. 0. 0. 0. 0. 0. 0. 0. 0. 0. 0. 0. 0. 0. 0. 0. 0. 0. 0. 0. 0.
      0. 0. 0. 0. 0. 0. 0. 0. 0. 0. 0. 0. 0. 0. 0. 0. 0. 0. 0. 0. 0. 0.
      0. 0. 0. 0. 0. 0. 0. 0. 0. 0. 0. 0. 0. 0. 0. 0. 0. 0. 0. 0.
      4.04443085e-01 0. 0. 0. 0. 0. 0. 0. 4.04443085e-01 4.04443085e-01
      0. 0. 0. 1.37398273e-01 0. 9.60345641e-02 3.20931487e-02
      4.04443085e-01 3.04032743e-01 0. 0. 0. 3.27971071e-01 0.
      1.34448335e-01 4.49303873e-02 3.04032743e-01 0. 0. 0. 0. 0. 0. 0.
      0. 0. 0. 0. 0. 0. 0. 0. 0. 0. 0. 0. 0. 0. 0. 0. 0. 0. 0. 0. 0. 0.
      0. 0. 0. 0. 0. 0. 0. 0. 0. 0. 0. 0. 0. 0. 0. 0. 0. 0. 0. 0. 0. 0.
      0. 0. 0. 5.89066185e-02 4.44922745e-02 1.33137852e-01 0.
      1.02795877e-01 0. 7.39401719e-03 2.47095083e-03 5.89066185e-02
      2.91717738e-01 5.39108403e-02 1.61321715e-01 0. 4.25765812e-02 0.
      5.28144045e-03 1.76496489e-03 2.91717738e-01 2.57035464e-01
      2.95635015e-02 8.84652585e-02 0. 0. 0. 0. 0. 2.57035464e-01 0. 0.
      0. 0. 0. 0. 0. 0. 0. 1.49968341e-01 4.42186110e-02 1.32318914e-01
      0. 2.91717738e-01 0. 8.13342780e-02 2.71804873e-02 1.49968341e-01
      2.91717738e-01 1.16583712e-01 2.91717738e-01 0. 1.26419231e-01 0.
      5.80959022e-02 1.94146316e-02 2.91717738e-01 2.91717738e-01
      1.32238083e-02 3.95706370e-02 0. 0. 0. 0. 0. 2.91717738e-01 0. 0.
      0. 0. 0. 0. 0. 0. 0. 7.45080085e-03 0. 0. 0. 0. 0. 0. 0.
      7.45080085e-03 1.47113698e-02 0. 0. 0. 0. 0. 0. 0. 1.47113698e-02
      0. 0. 0. 0. 0. 0. 0. 0. 0. 0. 0. 0. 0. 0. 0. 0. 0. 0. 0. 0. 0. 0.
      0. 0. 0. 0. 0. 0. 0. 0. 0. 0. 0. 0. 0. 0. 0. 0. 0. 0. 0. 0. 0. 0.
      0. 1.35988474e-01 9.56001878e-03 2.86072064e-02 0. 0. 0. 0. 0.
      1.35988474e-01 2.83704013e-01 3.38221453e-02 1.01208746e-01 0. 0.
      0. 0. 0. 2.83704013e-01 2.83704013e-01 1.52196828e-02
      4.55429181e-02 0. 0. 0. 0. 0. 2.83704013e-01 2.56719172e-01
      6.67791697e-04 1.99827994e-03 0. 0. 0. 0. 0. 2.56719172e-01
      1.88208908e-01 2.01186556e-02 6.02025017e-02 0. 0. 0. 0. 0.
      1.88208908e-01 2.83704013e-01 1.40207214e-02 4.19553109e-02 0. 0.
      0. 0. 0. 2.83704013e-01 2.83704013e-01 4.56590466e-02
      1.36628747e-01 0. 0. 0. 0. 0. 2.83704013e-01 1.90039098e-01
      2.00337521e-03 5.99483913e-03 0. 0. 0. 0. 0. 1.90039098e-01
      1.70978357e-03 0. 0. 0. 0. 0. 0. 0. 1.70978357e-03 0. 0. 0. 0. 0.
      0. 0. 0. 0. 0. 0. 0. 0. 0. 0. 0. 0. 0. 0. 0. 0. 0. 0. 0. 0. 0. 0.
      0. 0. 0. 0. 0. 0. 0. 0. 0. 0. 0. 0. 0. 0. 0. 0. 0. 0. 0. 0. 0. 0.
      0. 0. 0. 0. 0. 0. 0. 0. 0. 0. 0. 0. 0. 0. 3.20104450e-01
      7.85891712e-03 2.35167854e-02 0. 0. 0. 0. 0. 3.20104450e-01
      3.21043104e-01 1.09214140e-02 3.26809064e-02 0. 1.12734184e-01 0.
      5.35877645e-02 1.79081373e-02 3.21043104e-01 1.87143192e-01
      1.47242546e-02 4.40604128e-02 0. 2.72612572e-01 0. 7.50228390e-02
      2.50713807e-02 1.87143192e-01 0. 0. 0. 0. 0. 0. 0. 0. 0.
      2.35154763e-01 2.35767532e-02 7.05503598e-02 0. 0. 0. 0. 0.
      2.35154763e-01 3.21043104e-01 1.59365106e-02 4.76879328e-02 0.
      8.11754465e-02 0. 1.78625882e-02 5.96937863e-03 3.21043104e-01
      1.41235068e-01 2.06139479e-02 6.16845563e-02 0. 1.96676344e-01 0.
      2.50076149e-02 8.35712720e-03 1.41235068e-01 0. 0. 0. 0. 0. 0. 0.
      0. 0. 0. 0. 0. 0. 0. 0. 0. 0. 0. 0. 0. 0. 0. 0. 0. 0. 0. 0. 0. 0.
      0. 0. 0. 0. 0. 0. 0. 0. 0. 0. 0. 0. 0. 0. 0. 0. 0. 0. 0. 0. 0. 0.
      0. 0. 0. 2.93482095e-01 2.42615566e-02 7.25997537e-02 0.
      3.46423864e-01 0. 1.50493309e-01 5.02922237e-02 2.93482095e-01
      3.46423864e-01 1.58932596e-01 3.46423864e-01 0. 1.76176533e-01 0.
      1.07495211e-01 3.59230153e-02 3.46423864e-01 3.46423864e-01
      6.42907154e-03 1.92381591e-02 0. 0. 0. 0. 0. 3.46423864e-01 0. 0.
      0. 0. 0. 0. 0. 0. 0. 1.92402955e-02 0. 0. 0. 0. 0. 0. 0.
      1.92402955e-02 3.79893519e-02 0. 0. 0. 0. 0. 0. 0. 3.79893519e-02
      0. 0. 0. 0. 0. 0. 0. 0. 0. 0. 0. 0. 0. 0. 0. 0. 0. 0. 0. 0. 0. 0.
      0. 0. 0. 0. 0. 0. 0. 0. 0. 0. 0. 0. 0. 0. 0. 0. 0. 0. 0. 0. 0. 0.
      0. 0. 0. 0. 0. 0. 0. 0. 0. 0. 0. 0. 0. 0. 0. 0. 0. 0. 0. 0. 0. 0.
      0. 0. 0. 0. 0. 0. 0. 0. 0. 0. 0. 0. 0. 0. 0. 3.34154308e-01
      4.52162810e-02 1.35303825e-01 0. 0. 0. 0. 0. 3.34154308e-01
      3.67959619e-01 6.46527857e-03 1.93465054e-02 0. 0. 0. 0. 0.
      3.67959619e-01 3.67959619e-01 8.80328193e-02 2.63426781e-01 0. 0.
      0. 0. 0. 3.67959619e-01 2.58153409e-01 3.86260310e-03
      1.15583371e-02 0. 0. 0. 0. 0. 2.58153409e-01 6.42079720e-03 0. 0.
      0. 0. 0. 0. 0. 6.42079720e-03 0. 0. 0. 0. 0. 0. 0. 0. 0. 0. 0. 0.
      0. 0. 0. 0. 0. 0. 0. 0. 0. 0. 0. 0. 0. 0. 0. 0. 0. 0. 0. 0. 0. 0.
      0. 0. 0. 0. 0. 0. 0. 0. 0. 0. 0. 0. 0. 0. 0. 0. 0. 0. 0. 0. 0. 0.
      0. 0. 0. 0. 0. 0. 0. 0. 0. 0. 0. 0. 0. 0. 0. 0. 0. 0. 0. 0. 0. 0.
      0. 0. 0. 0. 0. 0. 0. 0. 0. 0. 0. 0. 0. 0. 0. 0. 0. 0. 0. 0. 0.
      4.19256985e-01 6.75771236e-02 2.02215731e-01 0. 0. 0. 0. 0.
      4.19256985e-01 4.19256985e-01 3.37148160e-02 1.00887194e-01 0.
      5.05148880e-02 0. 0. 0. 4.19256985e-01 3.10301572e-01
      4.23362330e-02 1.26685664e-01 0. 1.51544675e-01 0. 0. 0.
      3.10301572e-01 0. 0. 0. 0. 0. 0. 0. 0. 0. 0. 0. 0. 0. 0. 0. 0. 0.
      0. 0. 0. 0. 0. 0. 0. 0. 0. 0. 0. 0. 0. 0. 0. 0. 0. 0. 0. 0. 0. 0.
      0. 0. 0. 0. 0. 0. 0. 0. 0. 0. 0. 0. 0. 0. 0. 0. 0. 0. 0. 0. 0. 0.
      0. 0. 0. 0. 0. 0. 0. 0. 0. 0. 0. 0. 0. 0. 0. 0. 0. 0. 0. 0. 0. 0.
      0. 0. 0. 0. 0. 0. 0. 0. 0. 0. 0. 0. 0. 0. 0. 0. 0. 0. 0. 0. 0. 0.
      0. 0. 0. 0. 0. 0. 0. 0. 0. 0. 0. 0.</_>
    <_>
      0. 0. 0. 0. 0. 0. 0. 0. 0. 0. 0. 0. 0. 0. 0. 0. 0. 0. 0. 0. 0. 0.
      0. 0. 0. 0. 0. 0. 0. 0. 0. 0. 0. 0. 0. 0. 0. 0. 0. 0. 0. 0. 0. 0.
      0. 0. 0. 0. 0. 0. 0. 0. 0. 0. 7.97005650e-03 0. 0. 0. 0. 0. 0. 0.
      7.97005650e-03 2.65668542e-03 0. 0. 0. 0. 0. 0. 0. 2.65668542e-03
      0. 0. 0. 0. 0. 0. 0. 0. 0. 0. 1.09815393e-02 3.28609534e-02 0.
      4.50860038e-02 0. 0. 0. 0. 1.69459790e-01 2.63166219e-01
      3.71872872e-01 0. 3.71872872e-01 0. 2.07365453e-01 6.92980736e-02
      1.69459790e-01 5.64865917e-02 3.95543948e-02 1.18361533e-01 0.
      1.61288798e-01 0. 1.48118228e-01 4.94986363e-02 5.64865917e-02 0.
      0. 0. 0. 0. 0. 0. 0. 0. 0. 2.83437856e-02 8.48154202e-02 0.
      2.33000949e-01 0. 0. 0. 0. 7.43536185e-03 2.74793416e-01
      3.71872872e-01 0. 3.71872872e-01 0. 4.02702428e-02 1.34576419e-02
      7.43536185e-03 2.47845380e-03 4.58240211e-02 1.37122452e-01 0.
      1.77075282e-01 0. 2.87644677e-02 9.61260404e-03 2.47845380e-03 0.
      0. 0. 0. 0. 0. 0. 0. 0. 0. 0. 0. 0. 0. 0. 0. 0. 0. 0. 0. 0. 0. 0.
      0. 0. 0. 0. 0. 0. 0. 0. 0. 0. 0. 0. 0. 3.93739389e-03 0. 0. 0. 0.
      0. 0. 0. 3.93739389e-03 1.31246471e-03 0. 0. 0. 0. 0. 0. 0.
      1.31246471e-03 0. 0. 0. 0. 0. 0. 0. 0. 0. 3.80029506e-03 0. 0. 0.
      0. 0. 0. 0. 3.80029506e-03 8.37170705e-02 9.63925794e-02
      2.67734766e-01 0. 2.29492471e-01 0. 1.42971247e-01 4.77786101e-02
      8.37170705e-02 2.79056896e-02 2.23731846e-02 6.69488907e-02 0.
      1.37073562e-01 0. 1.02122337e-01 3.41275781e-02 2.79056896e-02
      2.08137799e-02 7.39868209e-02 2.21396759e-01 0. 7.57434741e-02 0.
      0. 0. 2.08137799e-02 2.09480882e-01 1.20578155e-01 2.67734766e-01
      0. 1.00664988e-01 0. 7.43644908e-02 2.48513743e-02 2.09480882e-01
      3.67324147e-03 9.73297507e-02 2.67734766e-01 0. 2.67734766e-01 0.
      2.77649295e-02 9.27857496e-03 3.67324147e-03 1.22441386e-03
      3.21373791e-02 9.61669907e-02 0. 1.26666486e-01 0. 1.98320914e-02
      6.62755361e-03 1.22441386e-03 6.81797648e-03 2.43497625e-01
      2.67734766e-01 0. 2.28639320e-01 0. 0. 0. 6.81797648e-03
      7.38380551e-02 1.42601624e-01 2.67734766e-01 0. 2.67734766e-01 0.
      1.21930819e-02 4.07472393e-03 7.38380551e-02 0. 0. 0. 0. 0. 0. 0.
      0. 0. 0. 0. 0. 0. 0. 0. 0. 0. 0. 0. 0. 0. 0. 0. 0. 0. 0. 0. 0. 0.
      0. 0. 0. 0. 0. 0. 0. 0. 0. 0. 0. 0. 0. 0. 0. 0. 8.12772010e-03 0.
      0. 0. 0. 0. 0. 0. 8.12772010e-03 7.38884090e-04 0. 0. 0. 0. 0. 0.
      0. 7.38884090e-04 0. 0. 0. 0. 0. 0. 0. 0. 0. 2.46901680e-02
      5.36261275e-02 1.60469830e-01 0. 4.73159403e-02 0. 0. 0.
      2.46901680e-02 2.94586509e-01 1.25152290e-01 2.94586509e-01 0.
      2.94586509e-01 0. 2.48425812e-01 8.30197558e-02 2.94586509e-01
      7.61794969e-02 0. 0. 0. 2.94586509e-01 0. 1.18370891e-01
      3.95575725e-02 7.61794969e-02 0. 0. 0. 0. 0. 0. 0. 0. 0.
      9.79314372e-03 1.10851996e-01 2.94586509e-01 0. 9.51187089e-02 0.
      0. 0. 9.79314372e-03 1.25553817e-01 1.21649325e-01 2.94586509e-01
      0. 2.94586509e-01 0. 4.52147014e-02 1.51099982e-02 1.25553817e-01
      1.05747879e-02 1.09707024e-02 3.28283980e-02 0. 2.94586509e-01 0.
      2.69256588e-02 8.99810623e-03 1.05747879e-02 0. 0. 0. 0. 0. 0. 0.
      0. 0. 0. 0. 0. 0. 0. 0. 0. 0. 0. 0. 4.00299300e-03 1.19784819e-02
      0. 1.40521163e-02 0. 0. 0. 0. 1.72986798e-02 5.88560924e-02
      1.76119730e-01 0. 1.44138440e-01 0. 2.89873388e-02 9.68708564e-03
      1.72986798e-02 5.76622644e-03 9.87664331e-03 2.95545924e-02 0.
      3.75354886e-02 0. 2.07052492e-02 6.91934815e-03 5.76622644e-03 0.
      0. 0. 0. 0. 0. 0. 0. 0. 0. 1.38132358e-02 4.13344651e-02 0.
      2.65783727e-01 0. 0. 0. 0. 8.89453921e-04 1.38104901e-01
      3.59569073e-01 0. 3.59569073e-01 0. 1.36119025e-02 4.54887049e-03
      8.89453921e-04 2.96484650e-04 2.16688607e-02 6.48412630e-02 0.
      9.13510323e-02 0. 5.10929106e-03 1.70743978e-03 2.96484650e-04 0.
      0. 0. 0. 0. 0. 0. 0. 0. 0. 0. 0. 0. 3.30648392e-01 0.
      3.24489623e-02 1.08438740e-02 0. 3.75479064e-03 2.24817172e-02
      6.72736317e-02 0. 3.59569073e-01 0. 3.59569073e-01 1.32165968e-01
      3.75479064e-03 7.87178986e-03 4.73835431e-02 1.41789570e-01 0.
      7.39080086e-02 0. 7.12249205e-02 2.38021780e-02 7.87178986e-03 0.
      0. 0. 0. 0. 0. 0. 0. 0. 0. 0. 0. 0. 2.98172049e-02 0.
      2.08639689e-02 6.97237160e-03 0. 4.56749015e-02 4.95547708e-03
      1.48286493e-02 0. 1.72023416e-01 0. 2.69406170e-01 9.00308862e-02
      4.56749015e-02 4.69115973e-02 4.68157604e-02 1.40090317e-01 0.
      1.06591359e-02 0. 6.90974817e-02 2.30912101e-02 4.69115973e-02
      6.87656039e-03 1.73125044e-02 5.18055297e-02 0. 4.59343195e-02 0.
      1.60816833e-02 5.37422998e-03 6.87656039e-03 2.29218649e-03
      4.71568573e-03 1.41110802e-02 0. 2.42986288e-02 0. 1.14869177e-02
      3.83873587e-03 2.29218649e-03 2.39789719e-03 1.76383648e-02
      5.27807139e-02 0. 1.57353655e-02 0. 0. 0. 2.39789719e-03
      2.40548737e-02 1.94655061e-02 5.82482032e-02 0. 2.39259452e-02 0.
      8.01147241e-03 2.67730001e-03 2.40548737e-02 3.53575189e-04
      3.85329947e-02 1.15305088e-01 0. 2.29358777e-01 0. 5.55381645e-03
      1.85599283e-03 3.53575189e-04 1.17858399e-04 3.31193432e-02
      9.91055965e-02 0. 5.08918464e-02 0. 2.65292637e-03 8.86563619e-04
      1.17858399e-04 2.12987140e-03 2.00341642e-01 2.90374845e-01 0.
      1.76734343e-01 0. 0. 0. 2.12987140e-03 2.35479157e-02
      7.76154771e-02 2.32254460e-01 0. 2.73130655e-01 0. 1.45812694e-03
      4.87281621e-04 2.35479157e-02 2.75154458e-03 8.52724351e-03
      2.55167000e-02 0. 2.17838138e-01 0. 1.17687054e-01 3.93290296e-02
      2.75154458e-03 1.02617461e-02 1.64950117e-01 2.90374845e-01 0.
      1.35744110e-01 0. 3.41510996e-02 1.14127276e-02 1.02617461e-02
      7.37989205e-04 2.67891377e-01 2.90374845e-01 0. 1.50194183e-01 0.
      0. 0. 7.37989205e-04 0. 2.40203477e-02 7.18777776e-02 0.
      2.90374845e-01 0. 0. 0. 0. 2.45231632e-02 6.10603672e-03
      1.82715561e-02 0. 3.64531055e-02 0. 8.84066969e-02 2.95440033e-02
      2.45231632e-02 5.37032895e-02 9.56744254e-02 2.86293745e-01 0.
      3.24136242e-02 0. 3.75905298e-02 1.25621175e-02 5.37032895e-02
      5.23282401e-03 3.26633491e-02 9.77408513e-02 0. 3.81526016e-02 0.
      0. 0. 5.23282401e-03 1.05825532e-02 5.93586219e-03 1.77623443e-02
      0. 1.47834659e-01 0. 0. 0. 1.05825532e-02 4.16844059e-03
      1.52105466e-02 4.55157459e-02 0. 1.40928812e-02 0. 0. 0.
      4.16844059e-03 6.42731264e-02 2.47188229e-02 7.39681348e-02 0.
      1.04389541e-01 0. 3.84083502e-02 1.28354281e-02 6.42731264e-02
      1.09073604e-02 0. 0. 0. 9.06243548e-02 0. 1.94830243e-02
      6.51090173e-03 1.09073604e-02 0. 0. 0. 0. 0. 0. 0. 0. 0.
      4.47583571e-03 1.00727536e-01 3.01414639e-01 0. 9.67565328e-02 0.
      0. 0. 4.47583571e-03 5.25978319e-02 9.86334980e-02 2.95148075e-01
      0. 3.68601084e-01 0. 7.74273090e-03 2.58749141e-03 5.25978319e-02
      1.74463727e-03 1.74412467e-02 5.21906614e-02 0. 3.68601084e-01 0.
      4.80765756e-03 1.60663889e-03 1.74463727e-03 0. 0. 0. 0. 0. 0. 0.
      0. 0. 0. 7.41391927e-02 2.21852019e-01 0. 6.96922615e-02 0. 0. 0.
      0. 0. 2.85532065e-02 8.54417682e-02 0. 3.68601084e-01 0. 0. 0. 0.
      0. 8.78892094e-03 2.62997001e-02 0. 3.31253111e-01 0. 0. 0. 0. 0.
      0. 0. 0. 0. 0. 0. 0. 0. 5.81927656e-04 3.93947493e-03
      1.17883757e-02 0. 1.74614824e-02 0. 0. 0. 5.81927656e-04
      3.08695864e-02 1.61137469e-02 4.82183993e-02 0. 3.68601084e-01 0.
      0. 0. 3.08695864e-02 3.72432522e-03 2.32510385e-03 6.95757009e-03
      0. 1.24270968e-01 0. 0. 0. 3.72432522e-03 0. 0. 0. 0. 0. 0. 0. 0.
      0. 0. 0. 0. 0. 0. 0. 0. 0. 0. 0. 0. 0. 0. 1.86431542e-01 0.
      4.82292511e-02 1.61173679e-02 0. 1.33347008e-02 4.68048593e-03
      1.40057970e-02 0. 3.05169821e-01 0. 3.05169821e-01 1.72106922e-01
      1.33347008e-02 2.59021372e-02 6.70673400e-02 2.00690940e-01 0.
      5.44177927e-02 0. 1.09621927e-01 3.66338156e-02 2.59021372e-02 0.
      0. 0. 0. 0. 0. 0. 0. 0. 0. 0. 0. 0. 5.54127172e-02 0.
      3.88138331e-02 1.29709020e-02 0. 2.56805509e-01 1.93557274e-02
      5.79195544e-02 0. 3.05169821e-01 0. 3.05169821e-01 2.59728819e-01
      2.56805509e-01 2.37317592e-01 1.55898541e-01 3.05169821e-01 0.
      1.93798561e-02 0. 2.13934943e-01 7.14933723e-02 2.37317592e-01 0.
      0. 0. 0. 0. 0. 0. 0. 0. 0. 0. 0. 0. 0. 0. 0. 0. 0. 3.30324471e-02
      1.04355032e-03 3.12268874e-03 0. 0. 0. 1.96623169e-02
      6.57080114e-03 3.30324471e-02 3.41875926e-02 4.90884902e-03
      1.46890916e-02 0. 0. 0. 9.60282329e-03 3.20909498e-03
      3.41875926e-02 0. 0. 0. 0. 0. 0. 0. 0. 0. 0. 0. 0. 0. 0. 0. 0. 0.
      0. 0. 0. 0. 0. 0. 0. 0. 0. 0. 0. 0. 0. 0. 0. 0. 0. 0. 0.
      9.24530067e-03 5.81911346e-03 1.74130052e-02 0. 1.35884479e-01 0.
      1.56671658e-01 5.23570217e-02 9.24530067e-03 3.38675119e-02
      1.83030441e-01 2.94521362e-01 0. 1.26212791e-01 0. 5.75477146e-02
      1.92314852e-02 3.38675119e-02 2.75857886e-03 1.65475875e-01
      2.94521362e-01 0. 1.03274524e-01 0. 0. 0. 2.75857886e-03 0.
      6.52068947e-03 1.95123330e-02 0. 2.94521362e-01 0. 0. 0. 0.
      1.35496616e-01 2.35058554e-02 7.03382865e-02 0. 9.12938043e-02 0.
      2.67007411e-01 8.92292559e-02 1.35496616e-01 2.47180372e-01
      2.82045007e-01 2.94521362e-01 0. 5.83411157e-02 0. 1.11988977e-01
      3.74247991e-02 2.47180372e-01 2.27097999e-02 6.27562702e-02
      1.87790036e-01 0. 9.13248733e-02 0. 0. 0. 2.27097999e-02
      8.16789195e-02 2.90645044e-02 8.69719610e-02 0. 2.94521362e-01 0.
      0. 0. 8.16789195e-02 2.03127805e-02 1.21578574e-03 3.63808055e-03
      0. 0. 0. 9.02377442e-03 3.01558734e-03 2.03127805e-02
      2.75077391e-02 6.31392561e-03 1.88936014e-02 0. 0. 0.
      4.68980614e-03 1.56725105e-03 2.75077391e-02 7.76781584e-04 0. 0.
      0. 2.26815394e-03 0. 0. 0. 7.76781584e-04 2.16308106e-02
      9.34175390e-04 2.79539800e-03 0. 1.22016221e-02 0. 0. 0.
      2.16308106e-02 0. 0. 0. 0. 0. 0. 0. 0. 0. 0. 0. 0. 0. 0. 0. 0. 0.
      0. 0. 0. 0. 0. 0. 0. 0. 0. 0. 0. 0. 0. 0. 0. 0. 0. 0. 0. 0.
      4.09101732e-02 1.22418396e-01 0. 4.04435247e-02 0. 0. 0. 0. 0.
      7.20404601e-03 2.15572193e-02 0. 4.45605367e-01 0. 0. 0. 0. 0. 0.
      0. 0. 3.32203269e-01 0. 0. 0. 0. 0. 0. 0. 0. 0. 0. 0. 0. 0.
      5.91292651e-03 8.67781322e-03 2.59672776e-02 0. 7.65729323e-02 0.
      0. 0. 5.91292651e-03 2.81328261e-01 9.84579697e-02 2.94623226e-01
      0. 4.45605367e-01 0. 0. 0. 2.81328261e-01 3.49030159e-02
      1.69282053e-02 5.06554544e-02 0. 4.35767710e-01 0. 0. 0.
      3.49030159e-02 0. 0. 0. 0. 0. 0. 0. 0. 0. 1.97097543e-03 0. 0. 0.
      4.47120797e-03 0. 0. 0. 1.97097543e-03 7.39615038e-02
      4.61678579e-03 1.38151310e-02 0. 3.37886102e-02 0. 0. 0.
      7.39615038e-02 9.83301271e-03 1.53892871e-03 4.60504321e-03 0.
      7.54881185e-03 0. 0. 0. 9.83301271e-03 0. 0. 0. 0. 0. 0. 0. 0. 0.
      0. 0. 0. 0. 0. 0. 0. 0. 0. 0. 0. 0. 0. 0. 0. 0. 0. 0. 0. 0. 0. 0.
      0. 0. 0. 0. 0. 0. 0. 0. 0. 0. 0. 0. 0. 0.</_>
    <_>
      0. 0. 0. 0. 0. 0. 0. 0. 0. 0. 0. 0. 0. 0. 0. 0. 0. 0. 0. 0. 0. 0.
      0. 0. 0. 0. 0. 0. 0. 0. 0. 0. 0. 0. 0. 0. 0. 0. 0. 0. 0. 0. 0. 0.
      0. 3.14518483e-03 0. 0. 0. 0. 0. 0. 0. 3.14518483e-03
      2.33508889e-02 0. 0. 0. 0. 0. 0. 0. 2.33508889e-02 7.10860942e-04
      0. 0. 0. 0. 0. 0. 0. 7.10860942e-04 0. 0. 0. 0. 0. 0. 0. 0. 0.
      4.24165502e-02 7.31754154e-02 2.18968734e-01 0. 2.38220260e-01 0.
      0. 0. 4.24165502e-02 3.09664041e-01 1.67582661e-01 3.09664041e-01
      0. 3.09664041e-01 0. 2.96404064e-01 9.90532860e-02 3.09664041e-01
      7.81947840e-03 9.59171448e-03 2.87019573e-02 0. 9.33069438e-02 0.
      5.75614832e-02 1.92360878e-02 7.81947840e-03 0. 0. 0. 0. 0. 0. 0.
      0. 0. 7.10860942e-04 6.07576035e-02 1.81809872e-01 0.
      3.09664041e-01 0. 0. 0. 7.10860942e-04 7.81947840e-03
      1.73693746e-01 3.09664041e-01 0. 3.09664041e-01 0. 2.69457977e-02
      9.00483504e-03 7.81947840e-03 0. 9.80679411e-03 2.93455571e-02 0.
      5.37592061e-02 0. 5.23285707e-03 1.74873334e-03 0. 0. 0. 0. 0. 0.
      0. 0. 0. 0. 0. 0. 0. 0. 0. 0. 0. 0. 0. 0. 0. 0. 0. 0. 0. 0. 0. 0.
      0. 0. 0. 0. 0. 0. 0. 0. 0. 8.62148497e-03 0. 0. 0. 0. 0. 0. 0.
      8.62148497e-03 3.50289774e-04 0. 0. 0. 0. 0. 0. 0. 3.50289774e-04
      0. 2.45826365e-03 7.35606207e-03 0. 0. 0. 0. 0. 0. 5.25747500e-02
      2.62897480e-02 7.86689520e-02 0. 0. 0. 0. 0. 5.25747500e-02
      1.25206679e-01 5.12898751e-02 1.53478518e-01 0. 2.52938360e-01 0.
      1.70677975e-01 5.70377298e-02 1.25206679e-01 3.85319185e-03
      6.12394931e-03 1.83251202e-02 0. 7.43967891e-02 0. 3.65709774e-02
      1.22214109e-02 3.85319185e-03 0. 1.35314479e-01 2.97916144e-01 0.
      1.55938283e-01 0. 0. 0. 0. 1.11302420e-01 2.68644542e-01
      2.97916144e-01 0. 1.12529084e-01 0. 1.04738474e-02 3.50017613e-03
      1.11302420e-01 2.76093022e-03 5.96445091e-02 1.78478494e-01 0.
      2.39369825e-01 0. 1.55161638e-02 5.18524321e-03 2.76093022e-03 0.
      1.33932428e-02 4.00776193e-02 0. 5.65036349e-02 0. 3.32463090e-03
      1.11103605e-03 0. 0. 2.40083635e-01 2.97916144e-01 0.
      2.97916144e-01 0. 0. 0. 0. 3.58563252e-02 1.38465092e-01
      2.97916144e-01 0. 2.16530025e-01 0. 4.92688604e-02 1.64647866e-02
      3.58563252e-02 0. 0. 0. 0. 0. 0. 0. 0. 0. 0. 0. 0. 0. 0. 0. 0. 0.
      0. 0. 0. 0. 0. 0. 0. 0. 0. 0. 0. 0. 0. 0. 0. 0. 0. 0. 0. 0.
      2.04413873e-03 6.11684285e-03 0. 0. 0. 0. 0. 0. 1.24392621e-01
      3.74932252e-02 1.12194046e-01 0. 2.24618576e-02 0. 0. 0.
      1.24392621e-01 1.08289711e-01 1.49811367e-02 4.48292755e-02 0.
      1.43160120e-01 0. 0. 0. 1.08289711e-01 0. 0. 0. 0. 0. 0. 0. 0. 0.
      0. 6.30856007e-02 1.88776180e-01 0. 5.34006916e-02 0. 0. 0. 0.
      2.45457664e-01 2.13612571e-01 3.31553787e-01 0. 2.58320093e-01 0.
      1.95860118e-02 6.54530199e-03 2.45457664e-01 1.69548348e-01
      2.26375833e-02 6.77402765e-02 0. 3.31553787e-01 0. 6.52867090e-03
      2.18176725e-03 1.69548348e-01 0. 0. 0. 0. 0. 0. 0. 0. 0. 0.
      6.32619932e-02 1.89303800e-01 0. 8.45171660e-02 0. 0. 0. 0.
      4.80441675e-02 8.06777403e-02 2.41417870e-01 0. 3.31553787e-01 0.
      9.21323597e-02 3.07890195e-02 4.80441675e-02 4.36765375e-03 0. 0.
      0. 3.31553787e-01 0. 3.07107903e-02 1.02630062e-02 4.36765375e-03
      0. 0. 0. 0. 0. 0. 0. 0. 0. 0. 0. 0. 0. 0. 0. 0. 0. 0.
      5.15112840e-03 2.15303227e-02 6.44269362e-02 0. 7.37374052e-02 0.
      0. 0. 5.15112840e-03 4.26603556e-02 4.96604294e-02 1.48602709e-01
      0. 1.75392658e-01 0. 4.68213744e-02 1.56469215e-02 4.26603556e-02
      8.85060639e-04 3.38344532e-03 1.01245195e-02 0. 2.41913926e-02 0.
      9.09268204e-03 3.03862244e-03 8.85060639e-04 0. 0. 0. 0. 0. 0. 0.
      0. 0. 1.12291018e-04 2.86279656e-02 8.56657401e-02 0.
      3.80122393e-01 0. 0. 0. 1.12291018e-04 1.23520265e-03
      1.02423668e-01 3.06489736e-01 0. 3.80122393e-01 0. 4.25648829e-03
      1.42244715e-03 1.23520265e-03 0. 4.31935582e-03 1.29251154e-02 0.
      2.29509417e-02 0. 8.26607225e-04 2.76238337e-04 0. 0. 0. 0. 0. 0.
      0. 0. 0. 0. 0. 2.16248984e-04 6.47096895e-04 0. 3.80122393e-01 0.
      1.61792245e-02 5.40681835e-03 0. 7.43559445e-04 3.94590059e-03
      1.18076103e-02 0. 3.80122393e-01 0. 8.85563865e-02 2.95940582e-02
      7.43559445e-04 5.31113998e-04 3.27219293e-02 9.79165137e-02 0.
      3.80332954e-02 0. 2.08584173e-03 6.97053445e-04 5.31113998e-04 0.
      0. 0. 0. 0. 0. 0. 0. 0. 0. 0. 0. 0. 2.07845122e-01 0.
      8.59206393e-02 2.87131704e-02 0. 3.44195925e-02 8.71448033e-03
      2.60770414e-02 0. 2.42403656e-01 0. 2.57510275e-01 8.60555544e-02
      3.44195925e-02 2.69947443e-02 4.69967686e-02 1.40632123e-01 0.
      2.56386008e-02 0. 1.46314930e-02 4.88960091e-03 2.69947443e-02
      1.10174976e-02 1.14602353e-02 3.42932977e-02 0. 4.99007292e-02 0.
      1.91250704e-02 6.39127893e-03 1.10174976e-02 3.09372233e-04
      1.48767629e-03 4.45167720e-03 0. 1.32586639e-02 0. 4.09790734e-03
      1.36945222e-03 3.09372233e-04 0. 2.78906561e-02 8.34594741e-02 0.
      3.84949706e-02 0. 0. 0. 0. 1.08024944e-02 3.41622941e-02
      1.02226555e-01 0. 2.29018852e-02 0. 4.82754828e-03 1.61328190e-03
      1.08024944e-02 3.09372233e-04 2.51397099e-02 7.52273202e-02 0.
      1.47821456e-01 0. 1.73864258e-03 5.81025262e-04 3.09372233e-04 0.
      2.59284470e-02 7.75877833e-02 0. 4.89412174e-02 0. 3.72536946e-04
      1.24495637e-04 0. 0. 2.10954726e-01 2.89736599e-01 0.
      2.67871499e-01 0. 0. 0. 0. 1.31583493e-02 8.72034803e-02
      2.60945261e-01 0. 1.79961309e-01 0. 2.50708498e-02 8.37823749e-03
      1.31583493e-02 5.06236393e-04 2.80684559e-03 8.39914661e-03 0.
      1.73978716e-01 0. 2.23165210e-02 7.45780906e-03 5.06236393e-04
      3.61597457e-04 1.49724677e-01 2.89736599e-01 0. 1.86856821e-01 0.
      8.34964390e-04 2.79031199e-04 3.61597457e-04 0. 2.70822257e-01
      2.89736599e-01 0. 2.89736599e-01 0. 0. 0. 0. 0. 3.34316045e-02
      1.00039721e-01 0. 1.86651126e-01 0. 0. 0. 0. 2.19351929e-02
      1.07852612e-02 3.22736092e-02 0. 3.63993905e-02 0. 6.29920959e-02
      2.10508965e-02 2.19351929e-02 2.72518378e-02 1.20097175e-01
      2.89736599e-01 0. 8.92054662e-02 0. 6.27888832e-03 2.09829980e-03
      2.72518378e-02 3.99771758e-04 6.33060783e-02 1.89435244e-01 0.
      6.99547753e-02 0. 0. 0. 3.99771758e-04 0. 1.91688727e-04
      5.73603553e-04 0. 6.60293698e-02 0. 1.25219079e-03 4.18460171e-04
      0. 0. 1.83735266e-02 5.49805872e-02 0. 2.02172901e-02 0. 0. 0. 0.
      3.25777084e-02 3.85281704e-02 1.15290903e-01 0. 6.77388161e-02 0.
      1.54920816e-02 5.17718168e-03 3.25777084e-02 1.34925591e-02
      1.68873463e-03 5.05333766e-03 0. 2.48243153e-01 0. 5.16402675e-03
      1.72572699e-03 1.34925591e-02 0. 0. 0. 0. 0. 0. 0. 0. 0. 0.
      8.02506730e-02 2.40140229e-01 0. 9.58124474e-02 0. 0. 0. 0.
      3.02565657e-02 8.36992934e-02 2.50459373e-01 0. 3.49993080e-01 0.
      8.04548338e-02 2.68865954e-02 3.02565657e-02 2.75059836e-03 0. 0.
      0. 3.49993080e-01 0. 2.68182792e-02 8.96219816e-03 2.75059836e-03
      0. 0. 0. 0. 0. 0. 0. 0. 0. 0. 6.47036582e-02 1.93617374e-01 0.
      7.79858753e-02 0. 0. 0. 0. 0. 1.98211167e-02 5.93121126e-02 0.
      3.49993080e-01 0. 0. 0. 0. 0. 0. 0. 0. 3.49993080e-01 0. 0. 0. 0.
      0. 0. 0. 0. 0. 0. 0. 0. 0. 0. 6.98351301e-03 2.08972525e-02 0.
      8.06331541e-03 0. 0. 0. 0. 1.91598735e-03 8.62856745e-04
      2.58198660e-03 0. 3.02052051e-01 0. 5.60813630e-03 1.87414070e-03
      1.91598735e-03 2.68238154e-03 2.40961369e-03 7.21045583e-03 0.
      3.49993080e-01 0. 4.00581118e-03 1.33867166e-03 2.68238154e-03 0.
      0. 0. 0. 0. 0. 0. 0. 0. 0. 0. 0. 0. 0. 0. 0. 0. 0. 0. 0. 0. 0.
      2.84933895e-01 0. 2.84951590e-02 9.52258799e-03 0. 2.01783888e-03
      3.24219046e-03 9.70187038e-03 0. 2.84933895e-01 0. 1.26319572e-01
      4.22138795e-02 2.01783888e-03 1.44131400e-03 3.31528299e-02
      9.92058888e-02 0. 2.83521879e-02 0. 4.86112200e-03 1.62450573e-03
      1.44131400e-03 0. 0. 0. 0. 0. 0. 0. 0. 0. 2.40955618e-03 0. 0. 0.
      2.84933895e-01 0. 2.74721742e-01 9.18072090e-02 2.40955618e-03
      1.92577198e-01 3.87382843e-02 1.15919501e-01 0. 2.84933895e-01 0.
      2.84933895e-01 2.80371130e-01 1.92577198e-01 1.36967003e-01
      1.35433167e-01 2.84933895e-01 0. 4.71307337e-02 0. 5.50456829e-02
      1.83953326e-02 1.36967003e-01 0. 0. 0. 0. 0. 0. 0. 0. 0.
      3.37337772e-03 0. 0. 0. 6.20732456e-03 0. 4.99519482e-02
      1.66930631e-02 3.37337772e-03 1.36903390e-01 2.35938933e-02
      7.06016570e-02 0. 4.43380279e-03 0. 2.84933895e-01 9.55375731e-02
      1.36903390e-01 7.60580897e-02 4.24824581e-02 1.27123237e-01 0.
      1.17241172e-03 0. 2.48324405e-02 8.29856656e-03 7.60580897e-02 0.
      0. 0. 0. 0. 0. 0. 0. 0. 0. 0. 0. 0. 0. 0. 0. 0. 0. 0. 0. 0. 0. 0.
      0. 0. 0. 0. 0. 0. 0. 0. 0. 0. 0. 0. 0. 1.64895842e-03
      5.24647068e-03 1.56994425e-02 0. 9.20270234e-02 0. 3.87165733e-02
      1.29384305e-02 1.64895842e-03 1.17782748e-03 1.33728281e-01
      3.03948611e-01 0. 1.31868213e-01 0. 2.38434854e-03 7.96809443e-04
      1.17782748e-03 0. 1.45608366e-01 3.03948611e-01 0. 1.72937676e-01
      0. 0. 0. 0. 0. 6.26577623e-03 1.87495183e-02 0. 1.00638501e-01 0.
      0. 0. 0. 1.33130431e-01 4.95620146e-02 1.48308188e-01 0.
      6.05181232e-02 0. 2.50957996e-01 8.38658735e-02 1.33130431e-01
      1.83922470e-01 3.03948611e-01 3.03948611e-01 0. 2.12594256e-01 0.
      2.90410612e-02 9.70503036e-03 1.83922470e-01 3.53966793e-03
      1.23394310e-01 3.03948611e-01 0. 1.37615085e-01 0. 0. 0.
      3.53966793e-03 3.78786912e-03 1.17931137e-04 3.52893578e-04 0.
      1.90028772e-01 0. 1.10871745e-02 3.70513881e-03 3.78786912e-03
      8.26457739e-02 2.48787589e-02 7.44464546e-02 0. 0. 0.
      9.97350737e-02 3.33297141e-02 8.26457739e-02 1.04818031e-01
      7.46918321e-02 2.23505601e-01 0. 7.07933586e-03 0. 1.34330643e-02
      4.48909402e-03 1.04818031e-01 2.52833380e-03 5.37675060e-03
      1.60892271e-02 0. 5.05666761e-03 0. 0. 0. 2.52833380e-03
      5.30301500e-03 0. 0. 0. 2.81977747e-02 0. 7.91940838e-03
      2.64652725e-03 5.30301500e-03 0. 0. 0. 0. 0. 0. 0. 0. 0. 0. 0. 0.
      0. 0. 0. 0. 0. 0. 0. 0. 0. 0. 0. 0. 0. 0. 0. 0. 0. 0. 0. 0. 0. 0.
      0. 0. 0. 3.51826213e-02 1.05279438e-01 0. 4.55701798e-02 0. 0. 0.
      0. 0. 3.57896206e-03 1.07095791e-02 0. 4.49976534e-01 0. 0. 0. 0.
      0. 0. 0. 0. 4.49976534e-01 0. 0. 0. 0. 0. 0. 0. 0. 0. 0. 0. 0. 0.
      0. 1.25016142e-02 3.74094546e-02 0. 1.18488725e-02 0. 0. 0. 0.
      7.15451688e-02 9.56194475e-03 2.86128782e-02 0. 4.49976534e-01 0.
      6.64206669e-02 2.21966207e-02 7.15451688e-02 1.00163206e-01
      2.85385661e-02 8.53979364e-02 0. 4.49976534e-01 0. 4.74433266e-02
      1.58547275e-02 1.00163206e-01 0. 0. 0. 0. 0. 0. 0. 0. 0. 0. 0. 0.
      0. 0. 0. 0. 0. 0. 8.46028104e-02 6.79489551e-03 2.03328393e-02 0.
      1.55846611e-01 0. 4.74433266e-02 1.58547275e-02 8.46028104e-02
      1.18443914e-01 2.03846861e-02 6.09985180e-02 0. 2.18185276e-01 0.
      3.38880830e-02 1.13248033e-02 1.18443914e-01 0. 0. 0. 0. 0. 0. 0.
      0. 0. 0. 0. 0. 0. 0. 0. 0. 0. 0. 0. 0. 0. 0. 0. 0. 0. 0. 0. 0. 0.
      0. 0. 0. 0. 0. 0. 0. 0. 0. 0. 0. 0. 0. 0. 0. 0.</_>
    <_>
      0. 0. 0. 0. 0. 0. 0. 0. 0. 0. 0. 0. 0. 0. 0. 0. 0. 0. 0. 0. 0. 0.
      0. 0. 0. 0. 0. 0. 0. 0. 0. 0. 0. 0. 0. 0. 0. 0. 0. 0. 0. 0. 0. 0.
      0. 0. 0. 0. 0. 0. 0. 0. 0. 0. 0. 0. 0. 0. 0. 0. 0. 0. 0. 0. 0. 0.
      0. 0. 0. 0. 0. 0. 0. 0. 0. 0. 0. 0. 0. 0. 0. 0. 0. 0. 0.
      5.29066194e-03 0. 0. 0. 0. 1.12224743e-01 1.49344966e-01
      3.21695119e-01 0. 3.15820903e-01 0. 1.23831362e-01 4.13823724e-02
      1.12224743e-01 1.09408513e-01 7.30162114e-02 2.18492106e-01 0.
      2.30536878e-01 0. 2.64087975e-01 8.82537887e-02 1.09408513e-01 0.
      0. 0. 0. 0. 0. 0. 0. 0. 0. 3.44508723e-03 1.03090154e-02 0.
      4.58547324e-02 0. 0. 0. 0. 1.02022393e-02 2.63793498e-01
      3.21695119e-01 0. 3.21695119e-01 0. 5.00690714e-02 1.67322475e-02
      1.02022393e-02 9.94621869e-03 1.33403838e-01 3.21695119e-01 0.
      3.21695119e-01 0. 1.14405185e-01 3.82323042e-02 9.94621869e-03 0.
      0. 0. 0. 0. 0. 0. 0. 0. 0. 0. 0. 0. 0. 0. 0. 0. 0. 0. 0. 0. 0. 0.
      0. 0. 0. 0. 0. 0. 0. 0. 0. 0. 0. 0. 0. 0. 0. 0. 0. 0. 0. 0. 0. 0.
      0. 0. 0. 0. 0. 0. 0. 0. 0. 0. 0. 0. 0. 0. 0. 0. 0. 0. 0. 0. 0. 0.
      0. 0. 0. 0. 0. 7.87854493e-02 7.18762651e-02 2.15081081e-01 0.
      1.55054733e-01 0. 1.24573149e-01 4.16302681e-02 7.87854493e-02
      8.11859146e-02 5.26783839e-02 1.57633498e-01 0. 2.48995230e-01 0.
      2.60990322e-01 9.43203643e-02 8.11859146e-02 3.86454817e-03
      3.27879861e-02 9.81141627e-02 0. 7.31197558e-03 0. 0. 0.
      3.86454817e-03 1.16023943e-01 7.42004961e-02 2.22036153e-01 0.
      6.18120097e-02 0. 2.90401317e-02 9.70472582e-03 1.16023943e-01
      7.16230553e-03 1.24387130e-01 2.60990322e-01 0. 2.60990322e-01 0.
      5.19749112e-02 1.73691493e-02 7.16230553e-03 7.38052977e-03
      1.09135300e-01 2.60990322e-01 0. 2.60990322e-01 0. 1.25432059e-01
      4.19173017e-02 7.38052977e-03 5.32452017e-03 1.75578609e-01
      2.60990322e-01 0. 1.27628565e-01 0. 0. 0. 5.32452017e-03
      9.13785547e-02 1.60991639e-01 2.60990322e-01 0. 2.60990322e-01 0.
      2.07429547e-02 6.93194894e-03 9.13785547e-02 0. 0. 0. 0. 0. 0. 0.
      0. 0. 0. 0. 0. 0. 0. 0. 0. 0. 0. 0. 0. 0. 0. 0. 0. 0. 0. 0. 0. 0.
      0. 0. 0. 0. 0. 0. 0. 0. 0. 0. 0. 0. 0. 0. 0. 0. 0. 0. 0. 0. 0. 0.
      0. 0. 0. 0. 0. 0. 0. 0. 0. 0. 0. 0. 0. 0. 0. 0. 0. 0. 0. 0. 0.
      7.60080572e-03 3.66541259e-02 1.09683111e-01 0. 3.79084167e-03 0.
      0. 0. 7.60080572e-03 3.07068139e-01 1.04634449e-01 3.13106149e-01
      0. 2.77043104e-01 0. 1.11247025e-01 3.71768996e-02 3.07068139e-01
      3.88483740e-02 0. 0. 0. 1.56872556e-01 0. 3.70823443e-02
      1.23923011e-02 3.88483740e-02 0. 0. 0. 0. 0. 0. 0. 0. 0.
      1.04722818e-02 1.26829639e-01 3.20984900e-01 0. 8.03239197e-02 0.
      0. 0. 1.04722818e-02 2.12475479e-01 1.80642650e-01 3.20984900e-01
      0. 3.20984900e-01 0. 7.94621930e-02 2.65549384e-02 2.12475479e-01
      1.50216417e-02 0. 0. 0. 3.20984900e-01 0. 2.64873970e-02
      8.85164551e-03 1.50216417e-02 0. 0. 0. 0. 0. 0. 0. 0. 0. 0. 0. 0.
      0. 0. 0. 0. 0. 0. 0. 0. 0. 0. 2.67186342e-03 0. 0. 0. 0.
      1.37783773e-02 4.31541279e-02 1.29133582e-01 0. 8.96576270e-02 0.
      2.27824636e-02 7.61351828e-03 1.37783773e-02 1.34326126e-02
      2.06564981e-02 6.18120171e-02 0. 6.23859800e-02 0. 4.99437712e-02
      1.66903734e-02 1.34326126e-02 0. 0. 0. 0. 0. 0. 0. 0. 0. 0.
      4.99591650e-03 1.49496859e-02 0. 6.98535293e-02 0. 3.78620368e-03
      1.26528286e-03 0. 1.25257950e-03 1.64674386e-01 3.69517088e-01 0.
      3.69517088e-01 0. 5.13448790e-02 1.71585660e-02 1.25257950e-03
      1.22114632e-03 7.58158937e-02 2.26869330e-01 0. 2.40476310e-01 0.
      2.29552500e-02 7.67126167e-03 1.22114632e-03 0. 0. 0. 0. 0. 0. 0.
      0. 0. 0. 2.51752115e-03 7.53338356e-03 0. 8.67418125e-02 0.
      1.86968595e-02 6.24816213e-03 0. 4.19730321e-03 3.49137709e-02
      1.04475245e-01 0. 3.69517088e-01 0. 3.69517088e-01 1.54059291e-01
      4.19730321e-03 3.11717466e-02 3.27556841e-02 9.80173871e-02 0.
      2.34794289e-01 0. 1.64466411e-01 5.49619123e-02 3.11717466e-02 0.
      0. 0. 0. 0. 0. 0. 0. 0. 0. 0. 0. 0. 6.23711431e-03 0. 0. 0. 0.
      1.74549725e-02 0. 0. 0. 1.05594903e-01 0. 2.43141100e-01
      8.12535211e-02 1.74549725e-02 8.27260166e-02 2.67966539e-02
      8.01856220e-02 0. 4.85341856e-03 0. 1.35512620e-01 4.52859923e-02
      8.27260166e-02 6.62463764e-03 1.38277533e-02 4.13778871e-02 0.
      2.84959469e-02 0. 1.58921443e-02 5.31088933e-03 6.62463764e-03
      6.82647945e-03 1.10541955e-02 3.30782793e-02 0. 4.84110713e-02 0.
      3.69415395e-02 1.23452470e-02 6.82647945e-03 5.21876209e-04
      8.29665270e-03 2.48267502e-02 0. 3.25518497e-03 0. 0. 0.
      5.21876209e-04 1.53794438e-02 1.56249767e-02 4.67558913e-02 0.
      1.56072862e-02 0. 4.75602923e-03 1.58938533e-03 1.53794438e-02
      6.02239568e-04 5.05193286e-02 1.51172757e-01 0. 2.31113896e-01 0.
      1.34126348e-02 4.48227348e-03 6.02239568e-04 6.20588951e-04
      4.92857881e-02 1.47481412e-01 0. 1.39522493e-01 0. 1.74484290e-02
      5.83097339e-03 6.20588951e-04 2.28994968e-03 1.54112071e-01
      2.79079527e-01 0. 1.13534823e-01 0. 0. 0. 2.28994968e-03
      2.97624134e-02 7.97462538e-02 2.38630742e-01 0. 2.79079527e-01 0.
      3.39716347e-03 1.13527523e-03 2.97624134e-02 3.95403570e-03
      7.42761651e-03 2.22262274e-02 0. 2.79079527e-01 0. 1.27720118e-01
      4.26818728e-02 3.95403570e-03 3.53247635e-02 1.16681576e-01
      2.79079527e-01 0. 1.23102948e-01 0. 8.41382295e-02 2.81175822e-02
      3.53247635e-02 8.57175502e-04 2.79079527e-01 2.79079527e-01 0.
      1.56949341e-01 0. 0. 0. 8.57175502e-04 1.12561358e-03
      3.45441401e-02 1.03368886e-01 0. 2.79079527e-01 0. 8.77857441e-04
      2.93364545e-04 1.12561358e-03 1.40172169e-02 0. 0. 0.
      1.90079343e-02 0. 8.57299790e-02 2.86494736e-02 1.40172169e-02
      8.72443765e-02 7.06256479e-02 2.11338326e-01 0. 1.21551508e-03 0.
      6.67023733e-02 2.22907886e-02 8.72443765e-02 1.94567465e-03
      5.30281514e-02 1.58679917e-01 0. 4.67127236e-03 0. 0. 0.
      1.94567465e-03 5.85746672e-03 2.18351558e-03 6.53388584e-03 0.
      1.17441863e-01 0. 9.65644140e-03 3.22701340e-03 5.85746672e-03
      1.19770959e-03 1.00673791e-02 3.01254373e-02 0. 1.96924503e-03 0.
      0. 0. 1.19770959e-03 4.70148176e-02 2.40903497e-02 7.20875040e-02
      0. 7.79252648e-02 0. 2.12597214e-02 7.10464409e-03 4.70148176e-02
      5.61424345e-03 0. 0. 0. 4.23583016e-02 0. 7.08657363e-03
      2.36821454e-03 5.61424345e-03 0. 0. 0. 0. 0. 0. 0. 0. 0.
      5.25545236e-03 9.81993303e-02 2.93849468e-01 0. 7.96588883e-02 0.
      0. 0. 5.25545236e-03 7.34459683e-02 9.25081521e-02 2.76819140e-01
      0. 3.80781859e-01 0. 1.51855145e-02 5.07474551e-03 7.34459683e-02
      2.26741633e-03 0. 0. 0. 3.04224342e-01 0. 5.06183878e-03
      1.69158203e-03 2.26741633e-03 0. 0. 0. 0. 0. 0. 0. 0. 0.
      2.34844440e-04 9.67996195e-02 2.89660573e-01 0. 8.97862166e-02 0.
      0. 0. 2.34844440e-04 2.58328766e-03 3.00833732e-02 9.00206119e-02
      0. 3.80781859e-01 0. 2.81172083e-03 9.39627818e-04 2.58328766e-03
      0. 2.74691090e-04 8.21977330e-04 0. 3.54102761e-01 0.
      2.55611114e-04 8.54207537e-05 0. 0. 0. 0. 0. 0. 0. 0. 0. 0. 0.
      7.13798031e-03 2.13594791e-02 0. 1.07206050e-02 0. 0. 0. 0.
      2.16253232e-02 9.13227070e-03 2.73271333e-02 0. 3.80781859e-01 0.
      3.09289582e-02 1.03359167e-02 2.16253232e-02 4.41544782e-03
      3.02160461e-03 9.04175919e-03 0. 1.04645923e-01 0. 2.81172525e-03
      9.39629215e-04 4.41544782e-03 0. 0. 0. 0. 0. 0. 0. 0. 0. 0. 0. 0.
      0. 0. 0. 0. 0. 0. 0. 0. 0. 0. 4.80924658e-02 0. 1.12816291e-02
      3.77012277e-03 0. 1.12733869e-02 0. 0. 0. 3.19550067e-01 0.
      3.19550067e-01 2.04862431e-01 1.12733869e-02 7.84945115e-02
      4.91758697e-02 1.47152811e-01 0. 1.25436783e-01 0. 2.82010764e-01
      9.42432135e-02 7.84945115e-02 0. 0. 0. 0. 0. 0. 0. 0. 0. 0. 0. 0.
      0. 9.84930899e-03 0. 0. 0. 0. 9.47239324e-02 0. 0. 0.
      1.52803987e-01 0. 3.19550067e-01 2.40730390e-01 9.47239324e-02
      3.19550067e-01 8.91425163e-02 2.66747564e-01 0. 5.48596773e-03 0.
      3.19550067e-01 1.40212029e-01 3.19550067e-01 0. 0. 0. 0. 0. 0. 0.
      0. 0. 0. 0. 0. 0. 0. 0. 0. 0. 0. 5.57511020e-03 0. 0. 0. 0. 0. 0.
      0. 5.57511020e-03 1.89808980e-02 0. 0. 0. 0. 0. 0. 0.
      1.89808980e-02 0. 0. 0. 0. 0. 0. 0. 0. 0. 0. 0. 0. 0. 0. 0. 0. 0.
      0. 0. 0. 0. 0. 0. 0. 0. 0. 0. 0. 0. 0. 0. 0. 0. 0. 0. 0.
      9.67556797e-03 0. 0. 0. 1.71689540e-01 0. 1.79347560e-01
      5.99348843e-02 9.67556797e-03 8.19060728e-02 1.54301733e-01
      2.83198148e-01 0. 6.11637756e-02 0. 1.32989705e-01 4.44429107e-02
      8.19060728e-02 1.84511964e-03 2.22292155e-01 2.83198148e-01 0.
      8.31453800e-02 0. 0. 0. 1.84511964e-03 0. 1.04194107e-02
      3.11787296e-02 0. 2.83198148e-01 0. 4.17945813e-03 1.39670155e-03
      0. 6.75260127e-02 0. 0. 0. 2.47952752e-02 0. 2.42946357e-01
      8.11884329e-02 6.75260127e-02 2.83198148e-01 1.97014436e-01
      2.83198148e-01 0. 1.24953291e-03 0. 1.85776815e-01 6.20834045e-02
      2.83198148e-01 8.48936290e-03 1.10488273e-01 2.83198148e-01 0.
      1.33231785e-02 0. 0. 0. 8.48936290e-03 3.89197469e-02
      9.79469065e-03 2.93093380e-02 0. 2.83198148e-01 0. 4.59740087e-02
      1.53637081e-02 3.89197469e-02 3.62211536e-03 0. 0. 0. 0. 0. 0. 0.
      3.62211536e-03 1.77178103e-02 0. 0. 0. 0. 0. 0. 0. 1.77178103e-02
      5.36927022e-04 0. 0. 0. 0. 0. 0. 0. 5.36927022e-04 3.53816035e-03
      0. 0. 0. 0. 0. 0. 0. 3.53816035e-03 0. 0. 0. 0. 0. 0. 0. 0. 0. 0.
      0. 0. 0. 0. 0. 0. 0. 0. 0. 0. 0. 0. 0. 0. 0. 0. 0. 0. 0. 0. 0. 0.
      0. 0. 0. 0. 0. 7.42816404e-02 2.22278252e-01 0. 7.47703910e-02 0.
      0. 0. 0. 0. 1.32721597e-02 3.97152118e-02 0. 4.66846913e-01 0.
      1.84681192e-02 6.17172150e-03 0. 0. 1.80424284e-03 5.39896218e-03
      0. 4.22565967e-01 0. 1.67892070e-03 5.61065855e-04 0. 0. 0. 0. 0.
      0. 0. 0. 0. 0. 0. 1.46669671e-02 4.38889936e-02 0. 4.21838686e-02
      0. 0. 0. 0. 1.98233560e-01 5.96236736e-02 1.78416103e-01 0.
      4.66846913e-01 0. 2.03149214e-01 6.78889006e-02 1.98233560e-01
      4.04752344e-02 1.98466610e-02 5.93885519e-02 0. 3.82316381e-01 0.
      1.84681192e-02 6.17172150e-03 4.04752344e-02 0. 0. 0. 0. 0. 0. 0.
      0. 0. 0. 0. 0. 0. 0. 0. 0. 0. 0. 1.80212408e-02 0. 0. 0. 0. 0. 0.
      0. 1.80212408e-02 3.67956888e-03 0. 0. 0. 0. 0. 0. 0.
      3.67956888e-03 0. 0. 0. 0. 0. 0. 0. 0. 0. 0. 0. 0. 0. 0. 0. 0. 0.
      0. 0. 0. 0. 0. 0. 0. 0. 0. 0. 0. 0. 0. 0. 0. 0. 0. 0. 0. 0. 0. 0.
      0. 0. 0. 0. 0. 0.</_>
    <_>
      0. 0. 0. 0. 0. 0. 0. 0. 0. 0. 0. 0. 0. 0. 0. 0. 0. 0. 0. 0. 0. 0.
      0. 0. 0. 0. 0. 0. 0. 0. 0. 0. 0. 0. 0. 0. 0. 0. 0. 0. 0. 0. 0. 0.
      0. 0. 5.66815434e-04 1.69612805e-03 0. 0. 0. 0. 0. 0.
      3.38894688e-02 6.23497600e-03 1.86574273e-02 0. 0. 0.
      1.29216714e-02 4.31820704e-03 3.38894688e-02 3.08085745e-03 0. 0.
      0. 0. 0. 4.30722395e-03 1.43940223e-03 3.08085745e-03 0. 0. 0. 0.
      0. 0. 0. 0. 0. 0. 4.92433719e-02 1.47354960e-01 0. 1.52017921e-01
      0. 0. 0. 0. 1.67351425e-01 2.69370854e-01 3.50022435e-01 0.
      3.50022435e-01 0. 2.74741292e-01 9.18139517e-02 1.67351425e-01
      1.52137503e-02 1.32203400e-02 3.95601466e-02 0. 1.80385932e-01 0.
      9.15804282e-02 3.06046493e-02 1.52137503e-02 0. 0. 0. 0. 0. 0. 0.
      0. 0. 0. 5.58281951e-02 1.67059243e-01 0. 3.48716319e-01 0. 0. 0.
      0. 0. 1.89233392e-01 3.50022435e-01 0. 3.50022435e-01 0.
      1.20547833e-02 4.02850704e-03 0. 0. 1.69120189e-02 5.06070256e-02
      0. 9.09055844e-02 0. 4.01826063e-03 1.34283560e-03 0. 0. 0. 0. 0.
      0. 0. 0. 0. 0. 0. 0. 0. 0. 0. 0. 0. 0. 0. 0. 0. 0. 0. 0. 0. 0. 0.
      0. 0. 0. 0. 0. 0. 0. 0. 0. 0. 1.40720364e-02 1.85507862e-03
      5.55110257e-03 0. 0. 0. 7.48817250e-03 2.50242208e-03
      1.40720364e-02 1.27927575e-03 0. 0. 0. 0. 0. 2.49605742e-03
      8.34140752e-04 1.27927575e-03 1.45011733e-03 2.78045831e-04
      8.32019141e-04 0. 0. 0. 0. 0. 1.45011733e-03 2.17138138e-02
      5.47378836e-03 1.63796637e-02 0. 0. 0. 7.18065724e-03
      2.39965552e-03 2.17138138e-02 6.94898963e-02 8.31285045e-02
      2.48751923e-01 0. 2.76327312e-01 0. 1.59213930e-01 5.32066301e-02
      6.94898963e-02 6.31726207e-03 7.48401415e-03 2.23949365e-02 0.
      1.35413244e-01 0. 5.30713052e-02 1.77355446e-02 6.31726207e-03
      2.18672566e-02 9.65731889e-02 2.76327312e-01 0. 1.20114401e-01 0.
      0. 0. 2.18672566e-02 1.77793548e-01 1.63253024e-01 2.76327312e-01
      0. 1.80438653e-01 0. 7.89873078e-02 2.63962373e-02 1.77793548e-01
      0. 6.11241870e-02 1.82906345e-01 0. 2.76327312e-01 0.
      6.98580546e-03 2.33453931e-03 0. 0. 2.50663720e-02 7.50080571e-02
      0. 5.96097857e-02 0. 2.32860167e-03 7.78179790e-04 0.
      4.01828997e-03 2.56908357e-01 2.76327312e-01 0. 2.16122240e-01 0.
      0. 0. 4.01828997e-03 4.53624874e-02 1.19204856e-01 2.76327312e-01
      0. 2.76327312e-01 0. 0. 0. 4.53624874e-02 0. 0. 0. 0. 0. 0. 0. 0.
      0. 0. 0. 0. 0. 0. 0. 0. 0. 0. 0. 0. 0. 0. 0. 0. 0. 0. 0. 0. 0. 0.
      0. 0. 0. 0. 0. 0. 1.35139085e-03 3.61626066e-04 1.08212302e-03 0.
      0. 0. 0. 0. 1.35139085e-03 4.35700715e-02 8.36193189e-03
      2.50220913e-02 0. 0. 0. 2.08347440e-02 6.96262298e-03
      4.35700715e-02 1.18798064e-02 3.98549979e-04 1.19261362e-03 0. 0.
      0. 1.04989577e-02 3.50857666e-03 1.18798064e-02 0. 0. 0. 0. 0. 0.
      0. 0. 0. 2.25595869e-02 5.55950925e-02 1.66361704e-01 0.
      7.17533752e-02 0. 0. 0. 2.25595869e-02 2.83829421e-01
      1.75203800e-01 2.83829421e-01 0. 2.83829421e-01 0. 2.83829421e-01
      9.97615233e-02 2.83829421e-01 1.03594840e-01 1.95953567e-02
      5.86366057e-02 0. 2.83829421e-01 0. 2.12565958e-01 7.10359886e-02
      1.03594840e-01 0. 0. 0. 0. 0. 0. 0. 0. 0. 5.22618275e-03
      8.89585614e-02 2.66197592e-01 0. 9.62061211e-02 0. 0. 0.
      5.22618275e-03 6.15934618e-02 9.59742963e-02 2.83829421e-01 0.
      2.83829421e-01 0. 6.30371599e-03 2.10659672e-03 6.15934618e-02
      2.93248100e-03 2.94180661e-02 8.80297348e-02 0. 2.83829421e-01 0.
      8.82520061e-03 2.94923456e-03 2.93248100e-03 0. 0. 0. 0. 0. 0. 0.
      0. 0. 0. 0. 0. 0. 0. 0. 0. 0. 0. 0. 1.35131227e-02 4.04364169e-02
      0. 4.71272990e-02 0. 0. 0. 0. 1.53901642e-02 6.14593998e-02
      1.83909774e-01 0. 1.97413385e-01 0. 3.46061513e-02 1.15647977e-02
      1.53901642e-02 1.39910448e-03 4.67055291e-03 1.39760198e-02 0.
      3.93691286e-02 0. 1.15353828e-02 3.85493203e-03 1.39910448e-03 0.
      0. 0. 0. 0. 0. 0. 0. 0. 0. 4.62979712e-02 1.38541147e-01 0.
      3.18185002e-01 0. 7.77555536e-03 2.59845634e-03 0. 0.
      1.28856942e-01 3.18185002e-01 0. 3.18185002e-01 0. 3.62264141e-02
      1.21062594e-02 0. 0. 9.37331282e-03 2.80484390e-02 0.
      4.73279282e-02 0. 5.93119941e-04 1.98210779e-04 0. 0. 0. 0. 0. 0.
      0. 0. 0. 0. 0. 1.64992902e-02 4.93721366e-02 0. 3.18185002e-01 0.
      1.41416624e-01 4.72589768e-02 0. 1.37174325e-02 4.79770377e-02
      1.43565223e-01 0. 3.18185002e-01 0. 3.18185002e-01 1.14978231e-01
      1.37174325e-02 1.00589693e-02 6.38132617e-02 1.90953538e-01 0.
      3.56288888e-02 0. 1.08957775e-02 3.64118651e-03 1.00589693e-02 0.
      0. 0. 0. 0. 0. 0. 0. 0. 0. 0. 0. 0. 7.95149207e-02 0.
      6.43586293e-02 2.15075202e-02 0. 7.37459660e-02 8.64757691e-03
      2.58768294e-02 0. 1.44042447e-01 0. 2.82573968e-01 9.44313258e-02
      7.37459660e-02 5.95567003e-02 4.39988226e-02 1.31661043e-01 0.
      1.31792827e-02 0. 1.53744025e-02 5.13786683e-03 5.95567003e-02
      4.92309639e-03 1.52730746e-02 4.57027741e-02 0. 6.12841137e-02 0.
      1.54494578e-02 5.16295014e-03 4.92309639e-03 4.47554165e-04
      2.00220547e-03 5.99133922e-03 0. 2.21752599e-02 0. 5.14981849e-03
      1.72098330e-03 4.47554165e-04 2.41844659e-03 2.43975595e-02
      7.30067790e-02 0. 2.84228064e-02 0. 0. 0. 2.41844659e-03
      2.06990987e-02 2.62682531e-02 7.86045939e-02 0. 3.56093086e-02 0.
      6.43575238e-03 2.15072092e-03 2.06990987e-02 0. 2.85402182e-02
      8.54029432e-02 0. 1.73054785e-01 0. 7.87680317e-03 2.63229595e-03
      0. 0. 3.79127674e-02 1.13449425e-01 0. 5.09524643e-02 0.
      2.64790579e-04 8.84885812e-05 0. 1.40171882e-03 2.34423056e-01
      3.00697148e-01 0. 1.69992819e-01 0. 0. 0. 1.40171882e-03
      1.55509701e-02 7.06748888e-02 2.11485609e-01 0. 3.00697148e-01 0.
      0. 0. 1.55509701e-02 8.32534395e-03 1.51535962e-02 4.53452505e-02
      0. 1.55642107e-01 0. 6.69755712e-02 2.23821159e-02 8.32534395e-03
      7.32037798e-03 2.05683082e-01 3.00697148e-01 0. 9.30102840e-02 0.
      4.18655807e-03 1.39907771e-03 7.32037798e-03 0. 2.53332496e-01
      3.00697148e-01 0. 2.07655504e-01 0. 0. 0. 0. 2.87798408e-04
      1.91593934e-02 5.73319942e-02 0. 3.00697148e-01 0. 0. 0.
      2.87798408e-04 4.30598035e-02 9.84535180e-03 2.94610225e-02 0.
      2.30150279e-02 0. 6.74543530e-02 2.25420818e-02 4.30598035e-02
      5.71911559e-02 9.46916640e-02 2.83352852e-01 0. 4.28432524e-02 0.
      5.89966727e-03 1.97156984e-03 5.71911559e-02 9.83099570e-04
      3.39018218e-02 1.01446778e-01 0. 2.81941127e-02 0. 0. 0.
      9.83099570e-04 1.19836386e-02 0. 0. 0. 1.37643322e-01 0. 0. 0.
      1.19836386e-02 4.06921189e-03 1.87301319e-02 5.60476817e-02 0.
      2.05218233e-02 0. 0. 0. 4.06921189e-03 5.18811680e-02
      3.87061350e-02 1.15823396e-01 0. 1.14784606e-01 0. 4.05329540e-02
      1.35454386e-02 5.18811680e-02 1.36846369e-02 8.66845436e-03
      2.59392262e-02 0. 1.24751076e-01 0. 3.12085338e-02 1.04293711e-02
      1.36846369e-02 0. 0. 0. 0. 0. 0. 0. 0. 0. 2.78235227e-03
      1.00382298e-01 3.00381541e-01 0. 9.84162837e-02 0. 0. 0.
      2.78235227e-03 3.13183479e-02 7.60006607e-02 2.27422222e-01 0.
      3.69639337e-01 0. 1.09398598e-03 3.65591812e-04 3.13183479e-02
      5.08920872e-04 1.67201050e-02 5.00327349e-02 0. 3.69639337e-01 0.
      1.53157988e-03 5.11828461e-04 5.08920872e-04 0. 0. 0. 0. 0. 0. 0.
      0. 0. 0. 6.13450557e-02 1.83567181e-01 0. 7.70819932e-02 0. 0. 0.
      0. 1.11267599e-03 1.25266872e-02 3.74844782e-02 0. 3.69639337e-01
      0. 0. 0. 1.11267599e-03 3.70891968e-04 0. 0. 0. 3.69639337e-01 0.
      0. 0. 3.70891968e-04 0. 0. 0. 0. 0. 0. 0. 0. 0. 0. 3.05176130e-03
      9.13199782e-03 0. 1.32156843e-02 0. 0. 0. 0. 4.56167571e-02 0. 0.
      0. 3.69639337e-01 0. 0. 0. 4.56167571e-02 1.74130816e-02 0. 0. 0.
      1.84045613e-01 0. 0. 0. 1.74130816e-02 0. 0. 0. 0. 0. 0. 0. 0. 0.
      0. 0. 0. 0. 0. 0. 0. 0. 0. 0. 4.41419688e-04 1.32089097e-03 0.
      2.87485510e-01 0. 1.22236893e-01 4.08494286e-02 0. 3.30418386e-02
      1.57738328e-02 4.72012721e-02 0. 2.87485510e-01 0. 2.87485510e-01
      1.14840962e-01 3.30418386e-02 2.49740761e-02 6.87120855e-02
      2.05612630e-01 0. 2.73139682e-02 0. 1.92930419e-02 6.44741207e-03
      2.49740761e-02 0. 0. 0. 0. 0. 0. 0. 0. 0. 0. 0. 0. 0.
      1.10713676e-01 0. 1.73426524e-01 5.79560995e-02 0. 2.87485510e-01
      2.14047655e-02 6.40511140e-02 0. 1.74942538e-01 0. 2.87485510e-01
      2.87485510e-01 2.87485510e-01 2.68426925e-01 1.15605712e-01
      2.87485510e-01 0. 2.66923793e-02 0. 3.64760011e-02 1.21896602e-02
      2.68426925e-01 0. 0. 0. 0. 0. 0. 0. 0. 0. 0. 0. 0. 0. 0. 0.
      1.23047153e-03 4.11201996e-04 0. 6.14319183e-02 8.39011511e-04
      2.51063262e-03 0. 0. 0. 2.61623543e-02 8.74299929e-03
      6.14319183e-02 3.92593779e-02 3.94670013e-03 1.18099879e-02 0. 0.
      0. 1.14792166e-03 3.83615261e-04 3.92593779e-02 0. 0. 0. 0. 0. 0.
      0. 0. 0. 0. 0. 0. 0. 0. 0. 0. 0. 0. 0. 0. 0. 0. 0. 0. 0. 0. 0. 0.
      0. 0. 0. 0. 0. 0. 0. 0. 2.24814750e-02 1.51410233e-02
      4.53077033e-02 0. 1.08518660e-01 0. 8.44751298e-02 2.82301623e-02
      2.24814750e-02 2.14896519e-02 2.01557443e-01 2.87668079e-01 0.
      8.16040337e-02 0. 8.44049733e-03 2.82067340e-03 2.14896519e-02 0.
      1.47589579e-01 2.87668079e-01 0. 1.20126069e-01 0. 0. 0. 0.
      1.21769391e-03 2.20410852e-03 6.59550773e-03 0. 2.85193712e-01 0.
      0. 0. 1.21769391e-03 2.18990788e-01 2.81373113e-02 8.41974020e-02
      0. 2.79937219e-02 0. 2.31056184e-01 7.72149637e-02 2.18990788e-01
      2.87668079e-01 2.61442304e-01 2.87668079e-01 0. 1.09175660e-01 0.
      1.52105745e-02 5.08311670e-03 2.87668079e-01 5.80512267e-03
      6.24551997e-02 1.86889082e-01 0. 8.20782483e-02 0. 0. 0.
      5.80512267e-03 8.15646052e-02 0. 0. 0. 2.87668079e-01 0. 0. 0.
      8.15646052e-02 3.68529074e-02 1.23738276e-03 3.70270689e-03 0. 0.
      0. 8.00466910e-03 2.67501990e-03 3.68529074e-02 3.88549194e-02
      6.42608572e-03 1.92292240e-02 0. 0. 0. 4.11579647e-04
      1.37542680e-04 3.88549194e-02 5.27738710e-04 0. 0. 0.
      2.07285513e-03 0. 0. 0. 5.27738710e-04 2.34294459e-02 0. 0. 0.
      3.14326361e-02 0. 0. 0. 2.34294459e-02 0. 0. 0. 0. 0. 0. 0. 0. 0.
      0. 0. 0. 0. 0. 0. 0. 0. 0. 0. 0. 0. 0. 0. 0. 0. 0. 0. 0. 0. 0. 0.
      0. 0. 0. 0. 0. 0. 2.75516976e-02 8.24448690e-02 0. 5.22828549e-02
      0. 0. 0. 0. 5.28714946e-03 1.11001276e-03 3.32156918e-03 0.
      4.19232696e-01 0. 0. 0. 5.28714946e-03 1.76238315e-03 0. 0. 0.
      4.19232696e-01 0. 0. 0. 1.76238315e-03 0. 0. 0. 0. 0. 0. 0. 0. 0.
      0. 3.88414972e-03 1.16228126e-02 0. 5.18235229e-02 0. 0. 0. 0.
      3.35883349e-01 0. 0. 0. 4.19232696e-01 0. 0. 0. 3.35883349e-01
      1.20987110e-01 0. 0. 0. 4.19232696e-01 0. 0. 0. 1.20987110e-01 0.
      0. 0. 0. 0. 0. 0. 0. 0. 0. 0. 0. 0. 4.62086592e-03 0. 0. 0. 0.
      8.42361748e-02 0. 0. 0. 9.51499641e-02 0. 0. 0. 8.42361748e-02
      2.14875266e-02 0. 0. 0. 2.20740847e-02 0. 0. 0. 2.14875266e-02 0.
      0. 0. 0. 0. 0. 0. 0. 0. 0. 0. 0. 0. 0. 0. 0. 0. 0. 0. 0. 0. 0. 0.
      0. 0. 0. 0. 0. 0. 0. 0. 0. 0. 0. 0. 0. 0. 0. 0. 0. 0. 0. 0. 0. 0.</_>
    <_>
      0. 0. 0. 0. 0. 0. 0. 0. 0. 0. 0. 0. 0. 0. 0. 0. 0. 0. 0. 0. 0. 0.
      0. 0. 0. 0. 0. 0. 0. 0. 0. 0. 0. 0. 0. 0. 0. 0. 0. 0. 0. 0. 0. 0.
      0. 0. 0. 0. 0. 0. 0. 0. 0. 0. 0. 0. 0. 0. 0. 0. 0. 0. 0. 0. 0. 0.
      0. 0. 0. 0. 0. 0. 0. 0. 0. 0. 0. 0. 0. 0. 0. 0. 3.70187510e-04
      1.10774231e-03 0. 3.86134465e-03 0. 0. 0. 0. 1.58515722e-01
      1.17000997e-01 3.50111336e-01 0. 3.84574741e-01 0. 1.01540685e-01
      3.39331999e-02 1.58515722e-01 7.74170458e-02 3.56112570e-02
      1.06562294e-01 0. 3.17891955e-01 0. 7.25290850e-02 2.42380090e-02
      7.74170458e-02 0. 0. 0. 0. 0. 0. 0. 0. 0. 0. 7.28774955e-03
      2.18077283e-02 0. 7.72050172e-02 0. 0. 0. 0. 1.44105051e-02
      2.19434738e-01 3.84574741e-01 0. 3.84574741e-01 0. 3.38468961e-02
      1.13110673e-02 1.44105051e-02 7.03790598e-03 4.24938761e-02
      1.27157539e-01 0. 3.84574741e-01 0. 2.41763610e-02 8.07933602e-03
      7.03790598e-03 0. 0. 0. 0. 0. 0. 0. 0. 0. 0. 0. 0. 0. 0. 0. 0. 0.
      0. 0. 0. 0. 0. 0. 0. 0. 0. 0. 0. 0. 0. 0. 0. 0. 0. 0. 0. 0. 0. 0.
      0. 0. 0. 0. 0. 0. 0. 0. 0. 0. 0. 0. 0. 0. 0. 0. 0. 0. 0. 0. 0. 0.
      0. 0. 0. 0. 0. 0. 0. 0. 0. 0. 0. 8.19117352e-02 4.96596433e-02
      1.48600444e-01 0. 2.77151704e-01 0. 6.30723163e-02 2.10777149e-02
      8.19117352e-02 4.25708964e-02 1.80627909e-02 5.40506393e-02 0.
      2.19766691e-01 0. 4.50516529e-02 1.50555102e-02 4.25708964e-02
      3.91605161e-02 3.13200466e-02 9.37215239e-02 0. 1.14487179e-01 0.
      0. 0. 3.91605161e-02 2.29792014e-01 5.70751205e-02 1.70790523e-01
      0. 2.71898896e-01 0. 3.99353951e-02 1.33457417e-02 2.29792014e-01
      7.44651305e-03 7.73396268e-02 2.31429368e-01 0. 2.77151704e-01 0.
      2.10241042e-02 7.02590402e-03 7.44651305e-03 3.87007743e-03
      2.42108200e-02 7.24477991e-02 0. 2.66991407e-01 0. 1.50172170e-02
      5.01850341e-03 3.87007743e-03 2.47176774e-02 1.96019962e-01
      2.77151704e-01 0. 2.42715970e-01 0. 0. 0. 2.47176774e-02
      1.02868259e-01 1.27326697e-01 2.77151704e-01 0. 2.77151704e-01 0.
      1.33117978e-02 4.44858056e-03 1.02868259e-01 0. 0. 0. 0. 0. 0. 0.
      0. 0. 0. 0. 0. 0. 0. 0. 0. 0. 0. 0. 0. 0. 0. 0. 0. 0. 0. 0. 0. 0.
      0. 0. 0. 0. 0. 0. 0. 0. 0. 0. 0. 0. 0. 0. 0. 0. 0. 0. 0. 0. 0. 0.
      0. 0. 0. 0. 0. 0. 0. 0. 0. 0. 0. 0. 0. 0. 0. 0. 0. 0. 0. 0. 0.
      4.96681295e-02 2.39449590e-02 7.16524497e-02 0. 9.60290655e-02 0.
      0. 0. 4.96681295e-02 3.31529111e-01 7.86014423e-02 2.35205442e-01
      0. 3.31529111e-01 0. 1.30038366e-01 4.34566475e-02 3.31529111e-01
      3.61066386e-02 4.50457027e-03 1.34793920e-02 0. 2.24986762e-01 0.
      4.33461182e-02 1.44855492e-02 3.61066386e-02 0. 0. 0. 0. 0. 0. 0.
      0. 0. 3.09561323e-02 1.07619844e-01 3.22039217e-01 0.
      1.70823321e-01 0. 0. 0. 3.09561323e-02 1.46957219e-01
      9.99808982e-02 2.99180567e-01 0. 3.31529111e-01 0. 4.33461182e-02
      1.44855492e-02 1.46957219e-01 3.28241894e-03 1.50152342e-03
      4.49313037e-03 0. 3.31529111e-01 0. 1.44487070e-02 4.82851639e-03
      3.28241894e-03 0. 0. 0. 0. 0. 0. 0. 0. 0. 0. 0. 0. 0. 0. 0. 0. 0.
      0. 0. 2.43641727e-04 7.29068939e-04 0. 1.82097068e-03 0. 0. 0. 0.
      1.97050441e-02 3.55437584e-02 1.06360406e-01 0. 2.00916141e-01 0.
      1.76161099e-02 5.88700967e-03 1.97050441e-02 9.62369051e-03
      1.01773925e-02 3.04545723e-02 0. 8.07256624e-02 0. 1.25829400e-02
      4.20500850e-03 9.62369051e-03 0. 0. 0. 0. 0. 0. 0. 0. 0. 0.
      5.63376304e-03 1.68583691e-02 0. 1.17775626e-01 0. 0. 0. 0.
      1.79136719e-03 1.14819944e-01 3.43584865e-01 0. 4.12878722e-01 0.
      5.87203633e-03 1.96233648e-03 1.79136719e-03 8.74880701e-04
      1.64132454e-02 4.91145477e-02 0. 3.08615565e-01 0. 4.19431319e-03
      1.40166946e-03 8.74880701e-04 0. 0. 0. 0. 0. 0. 0. 0. 0. 0.
      2.68518837e-04 8.03510833e-04 0. 1.56030729e-01 0. 1.54002290e-02
      5.14648575e-03 0. 1.62080266e-02 3.00807459e-03 9.00130626e-03 0.
      4.12878722e-01 0. 2.97926456e-01 9.95618626e-02 1.62080266e-02
      5.02721295e-02 2.69659124e-02 8.06922615e-02 0. 2.94368714e-01 0.
      7.20011443e-02 2.40615699e-02 5.02721295e-02 0. 0. 0. 0. 0. 0. 0.
