<?xml version="1.0"?>
<opencv_storage>
<my_svm type_id="opencv-ml-svm">
  <svm_type>C_SVC</svm_type>
  <kernel><type>RBF</type>
    <gamma>8.9999999999999997e-02</gamma></kernel>
  <C>10.</C>
  <term_criteria><epsilon>1.1920928955078125e-07</epsilon>
    <iterations>2147483647</iterations></term_criteria>
  <var_all>324</var_all>
  <var_count>324</var_count>
  <class_count>6</class_count>
  <class_labels type_id="opencv-matrix">
    <rows>1</rows>
    <cols>6</cols>
    <dt>i</dt>
    <data>
      0 1 2 4 7 9</data></class_labels>
  <sv_total>8</sv_total>
  <support_vectors>
    <_>
      0. 0. 0. 0. 0. 0. 0. 0. 0. 0. 0. 0. 0. 0. 0. 0. 0. 0. 0. 0. 0. 0.
      0. 0. 0. 0. 0. 0. 0. 0. 0. 0. 0. 0. 0. 0. 0. 0. 0. 0. 0. 0. 0. 0.
      0. 0. 0. 0. 0. 0. 0. 0. 0. 0. 0. 0. 0. 0. 0. 0. 0. 0. 0. 0. 0. 0.
      0. 0. 0. 0. 0. 0. 0. 0. 0. 0. 0. 0. 0. 0. 0. 0. 0. 0. 0. 0. 0. 0.
      0. 0. 0. 0. 0. 0. 0. 0. 0. 0. 0. 0. 0. 0. 0. 0. 0. 0. 0. 0. 0. 0.
      0. 0. 0. 0. 0. 0. 0. 0. 0. 0. 0. 0. 0. 0. 0. 0. 0. 0. 0. 0. 0. 0.
      0. 0. 0. 0. 0. 0. 0. 0. 0. 0. 0. 0. 0. 0. 0. 0. 0. 0. 0. 0. 0. 0.
      0. 0. 0. 0. 0. 0. 0. 0. 0. 0. 0. 0. 0. 0. 0. 0. 0. 0. 0. 0. 0. 0.
      0. 0. 0. 0. 0. 0. 0. 0. 0. 0. 0. 0. 0. 0. 0. 0. 0. 0. 0. 0. 0. 0.
      0. 0. 0. 0. 0. 0. 0. 0. 0. 0. 0. 0. 0. 0. 0. 0. 0. 0. 0. 0. 0. 0.
      0. 0. 0. 0. 0. 0. 0. 0. 0. 0. 0. 0. 0. 0. 0. 0. 0. 0. 0. 0. 0. 0.
      0. 0. 0. 0. 0. 0. 0. 0. 0. 0. 0. 0. 0. 0. 0. 0. 0. 0. 0. 0. 0. 0.
      0. 0. 0. 0. 0. 0. 0. 0. 0. 0. 0. 0. 0. 0. 0. 0. 0. 0. 0. 0. 0. 0.
      0. 0. 0. 0. 0. 0. 0. 0. 0. 0. 0. 0. 0. 0. 0. 0. 0. 0. 0. 0. 0. 0.
      0. 0. 0. 0. 0. 0. 0. 0. 0. 0. 0. 0. 0. 0. 0. 0.</_>
    <_>
      5.67783834e-03 2.64402200e-03 2.21656635e-01 3.25341910e-01
      2.68845886e-01 2.01377302e-01 2.02806041e-01 5.41453436e-02
      4.45990078e-02 2.58072955e-03 4.40670323e-04 4.32931967e-02
      7.78903365e-02 2.26960227e-01 1.53062895e-01 1.27180830e-01
      2.16581337e-02 1.81491971e-02 5.68127609e-04 0. 3.25341910e-01
      3.25341910e-01 3.25341910e-01 1.15734138e-01 1.03663065e-01
      2.64839455e-03 5.68127609e-04 6.48276368e-03 0. 1.53609052e-01
      3.15333277e-01 3.25341910e-01 8.77468139e-02 6.80823177e-02
      1.05935766e-03 6.48276368e-03 4.91592335e-03 0. 0. 3.72752175e-02
      3.99290115e-01 1.38376758e-01 0. 0. 4.91592335e-03 0. 0. 0. 0. 0.
      0. 0. 0. 0. 3.82022560e-01 0. 0. 1.94828421e-01 3.99290115e-01
      8.86230394e-02 0. 0. 3.82022560e-01 3.99290115e-01 0. 0. 0. 0. 0.
      0. 0. 3.99290115e-01 0. 0. 0. 0. 0. 0. 0. 0. 0. 0. 0. 0. 0. 0. 0.
      0. 0. 0. 4.98753130e-01 0. 0. 0. 0. 0. 0. 0. 4.98753130e-01
      4.98753130e-01 0. 0. 0. 0. 0. 0. 0. 4.98753130e-01 3.43924132e-03
      4.03656438e-03 2.54598260e-01 3.01511467e-01 3.01511467e-01
      1.47954896e-02 1.52422377e-04 0. 2.87283026e-03 1.25384733e-01
      4.33630981e-02 1.24016501e-01 2.26843983e-01 1.72081247e-01
      7.37725152e-03 6.09689487e-05 0. 7.39929378e-02 1.16396308e-01
      2.86476705e-02 1.11376271e-01 2.77644098e-01 3.01511467e-01
      1.35462135e-01 8.39991048e-02 5.12194447e-02 1.26158699e-01
      3.01511467e-01 1.79472938e-01 2.43975908e-01 3.01511467e-01
      2.16463104e-01 3.28600667e-02 2.98441332e-02 2.03758143e-02
      2.62684107e-01 3.05716634e-01 3.48679349e-02 2.07324717e-02
      1.38028841e-02 1.70936771e-02 6.91847017e-05 0. 0. 2.52690971e-01
      3.58527839e-01 0. 0. 0. 0. 0. 0. 0. 3.58527839e-01 3.58527839e-01
      1.33333161e-01 1.27333373e-01 1.71236843e-01 4.90673743e-02 0. 0.
      0. 3.58527839e-01 3.58527839e-01 0. 0. 0. 0. 0. 0. 0.
      3.58527839e-01 3.29348147e-01 0. 0. 0. 0. 0. 0. 0. 3.29348147e-01
      3.30156505e-01 0. 0. 0. 0. 6.33510808e-03 1.45705231e-02
      1.94861013e-02 3.57489049e-01 3.57489049e-01 0. 0. 0. 0. 0. 0. 0.
      3.57489049e-01 3.57489049e-01 0. 0. 0. 1.34445563e-01
      6.45486936e-02 7.45403916e-02 5.53340688e-02 3.57489049e-01
      2.24567607e-01 3.99519093e-02 4.06826138e-02 5.25994413e-02
      3.20234984e-01 1.32055745e-01 9.78610143e-02 9.10802409e-02
      2.51947641e-01 3.20234984e-01 1.43633097e-01 1.72317132e-01
      2.39062473e-01 1.00885183e-01 2.59022843e-02 3.02484725e-02
      3.44896205e-02 2.83669293e-01 3.20234984e-01 8.17085523e-03
      2.72900122e-03 1.76828948e-03 1.29698783e-01 5.21543883e-02
      3.90744098e-02 5.73101975e-02 3.20234984e-01 3.20234984e-01
      2.08058972e-02 1.63739994e-02 1.06097339e-02 7.83029944e-03
      1.44185720e-03 2.22521136e-03 7.22167036e-03 3.20234984e-01
      3.04694533e-01 7.45796636e-02 9.07144547e-02 1.33805603e-01
      4.60524000e-02 0. 0. 0. 2.63273656e-01 3.65183562e-01 0. 0. 0. 0.
      0. 0. 0. 3.65183562e-01 3.65183562e-01 6.80222269e-03
      9.25687235e-03 5.99810388e-03 7.83891883e-03 0. 0. 0.
      3.65183562e-01 3.65183562e-01 0. 0. 0. 0. 0. 0. 0. 3.65183562e-01
      3.03387195e-01 0. 0. 0. 0. 0. 0. 0. 3.03387195e-01 2.89037466e-01
      7.41677312e-03 0. 1.93471201e-02 3.29452485e-01 3.81126739e-02
      3.71919721e-02 1.93659868e-02 3.22658688e-01 3.31846982e-01 0. 0.
      0. 0. 0. 0. 0. 3.31846982e-01 3.31846982e-01 7.24314526e-02
      5.06872386e-02 8.42441395e-02 2.39508063e-01 0. 0. 0.
      3.31846982e-01</_>
    <_>
      6.57447577e-02 1.32964954e-01 3.37772101e-01 3.19124967e-01
      3.37772101e-01 1.35391816e-01 1.58520117e-02 9.89815146e-02
      5.75089380e-02 1.33010214e-02 1.93105433e-02 1.07092530e-01
      8.53826031e-02 3.37772101e-01 8.73764157e-02 6.34080451e-03
      4.67572883e-02 2.14232411e-02 1.42437527e-02 1.52765602e-01
      3.37772101e-01 3.37772101e-01 3.37772101e-01 9.01848916e-03 0. 0.
      1.16008641e-02 1.63993018e-03 3.05247307e-02 1.63313985e-01
      1.42078742e-01 2.35279173e-01 4.40262724e-03 0. 0. 1.63993018e-03
      0. 1.23107596e-03 1.46289903e-03 0. 4.30337638e-02 0. 0. 0. 0.
      2.67365389e-02 1.13795474e-01 3.80910456e-01 3.14689398e-01
      2.17025995e-01 2.73937848e-03 0. 0. 1.74998201e-03 2.37733801e-03
      5.44613935e-02 2.55025864e-01 2.46482957e-02 4.82866988e-02
      2.58330168e-04 0. 0. 2.37733801e-03 3.65675353e-02 3.92711312e-01
      3.92711312e-01 3.92711312e-01 3.92711312e-01 1.01689333e-02 0. 0.
      6.32557133e-03 2.63296310e-02 1.00442417e-01 3.17408413e-01
      2.67809778e-01 1.82407483e-01 5.84614370e-03 5.99508593e-03
      5.13173454e-03 3.73100042e-02 7.76243061e-02 6.14230111e-02
      2.45599359e-01 1.52113661e-01 3.17408413e-01 2.53675841e-02
      2.03736741e-02 2.97877900e-02 1.26694560e-01 2.19423063e-02
      2.08070904e-01 3.17408413e-01 3.17408413e-01 3.17408413e-01
      1.09817591e-02 1.49877155e-02 8.10387451e-03 3.63775082e-02
      2.03384254e-02 9.87403020e-02 2.83990860e-01 1.40512556e-01
      3.17408413e-01 1.64095704e-02 3.74692902e-02 2.02596877e-02
      7.53045082e-02 1.02779865e-02 9.99154001e-02 2.49257371e-01
      3.30222756e-01 4.39254910e-01 0. 0. 0. 8.87298863e-03
      2.96245818e-03 3.50060575e-02 1.20279521e-01 9.15437937e-02
      1.42489105e-01 0. 0. 0. 2.96245818e-03 2.44224584e-03
      5.68432920e-03 2.05751564e-02 2.83923447e-02 4.39254910e-01
      1.60421148e-01 1.81572676e-01 5.77772409e-02 8.66028480e-03
      6.03345782e-03 1.21236168e-01 4.39254910e-01 1.93381771e-01
      2.71964908e-01 2.78711747e-02 2.33246069e-02 1.29819158e-02
      8.38952325e-03 3.16720339e-03 8.21641386e-02 3.25526118e-01
      6.76609576e-02 5.77239618e-02 4.50365391e-04 0. 0. 3.16720339e-03
      1.64450314e-02 2.28127375e-01 3.57996166e-01 2.73547679e-01
      1.76389635e-01 4.46801959e-03 0. 0. 5.12111606e-03 5.00081526e-03
      1.61420017e-01 3.57996166e-01 2.10026234e-01 1.98682636e-01
      2.03846511e-03 0. 2.07803003e-03 5.92241343e-03 9.65126883e-03
      2.58944482e-01 3.57996166e-01 3.07870030e-01 2.47598678e-01
      3.30216135e-03 0. 8.31212034e-04 5.81725501e-03 1.42100006e-02
      1.72116935e-01 3.86065513e-01 2.09336147e-01 3.56153816e-01
      3.77412909e-03 3.18234321e-03 1.22156111e-03 5.31850290e-03
      6.13082480e-03 7.38407671e-02 1.75235823e-01 5.24031743e-02
      3.86065513e-01 2.50994740e-03 7.95585848e-03 3.05390265e-03
      6.80882996e-03 5.97965857e-03 9.94032547e-02 3.53063345e-01
      1.56119913e-01 3.86065513e-01 7.36618065e-04 0. 0. 2.39490787e-03
      1.58858206e-03 1.24588478e-02 3.25003937e-02 1.32501880e-02
      3.86065513e-01 0. 0. 0. 6.96041097e-04 6.35720640e-02
      1.86162051e-02 6.20396882e-02 2.00509746e-02 2.88569808e-01
      2.46030420e-01 2.67581850e-01 7.49597475e-02 8.60746503e-02
      1.01284742e-01 1.34113416e-01 2.88569808e-01 1.26898170e-01
      1.21526897e-01 4.69641536e-02 3.88496891e-02 1.84089337e-02
      6.84112608e-02 1.83930144e-01 2.60030348e-02 7.23886415e-02
      1.64751820e-02 1.87051222e-01 2.69412309e-01 2.88569808e-01
      1.77693576e-01 2.50942677e-01 2.85889119e-01 1.61366969e-01
      2.88569808e-01 1.40419006e-01 1.07661195e-01 4.32188734e-02
      6.78054988e-02 4.52775769e-02 2.29446426e-01 3.63606662e-02
      2.26514846e-01 3.83460283e-01 2.72055537e-01 2.07288980e-01
      1.66100357e-03 0. 6.36404939e-03 1.44437635e-02 4.52148914e-03
      2.05043256e-01 3.83460283e-01 1.84468463e-01 1.55102700e-01
      1.24575256e-03 0. 2.54561962e-03 6.10042596e-03 8.04499686e-02
      1.80249333e-01 3.83460283e-01 2.63453364e-01 2.12868914e-01 0. 0.
      2.54561962e-03 3.07610743e-02 3.79428896e-03 6.61037713e-02
      3.21943939e-01 9.62092876e-02 1.14206903e-01 0. 0. 1.01824780e-03
      3.98264080e-03 7.77025241e-04 5.07890694e-02 2.22347960e-01
      4.89001162e-02 4.75657225e-01 2.00168020e-03 0. 0. 7.77025241e-04
      1.49532498e-04 0. 2.95540929e-04 1.39726594e-03 4.75657225e-01
      9.88321286e-03 9.86814732e-04 8.82108070e-05 1.49532498e-04
      7.13181042e-04 5.62482839e-03 2.05681156e-02 3.18358419e-03
      3.54349047e-01 3.61630879e-02 4.01100181e-02 1.12694856e-02
      7.13181042e-04 4.08131965e-02 1.52625469e-02 5.62275201e-03
      2.95031872e-02 4.75657225e-01 1.47267804e-01 3.03448021e-01
      1.27147704e-01 1.32649075e-02</_>
    <_>
      0. 6.91326754e-03 2.92177871e-02 1.10287557e-03 3.32562439e-03 0.
      0. 0. 0. 1.24658786e-01 1.72693044e-01 4.56024855e-01
      5.85580878e-02 8.90840404e-03 0. 0. 0. 1.79211702e-02
      3.52660120e-02 1.21940181e-01 4.56024855e-01 5.70939258e-02
      1.81330666e-02 0. 4.00259672e-03 2.05630306e-04 9.00410023e-03
      2.27962643e-01 4.56024855e-01 4.56024855e-01 1.93418205e-01
      3.72559950e-02 0. 2.40155682e-02 1.23378146e-03 4.85954396e-02
      1.11384131e-01 1.96380168e-01 3.48202765e-01 5.88093698e-02
      8.44267663e-03 0. 0. 2.99769163e-04 2.70267185e-02 9.87875983e-02
      2.11030141e-01 3.48202765e-01 9.24661085e-02 7.94201717e-02
      2.86769103e-02 1.03941657e-01 2.20529214e-02 1.05719082e-01
      1.61502078e-01 2.99813926e-01 3.48202765e-01 1.04533732e-01
      5.74647784e-02 0. 4.95687639e-03 1.00407866e-03 4.14365456e-02
      7.72223100e-02 1.86992884e-01 3.48202765e-01 1.74785942e-01
      3.48202765e-01 5.71835600e-02 1.60317823e-01 1.36269918e-02
      1.00217894e-01 5.46749793e-02 7.63636529e-02 3.03450584e-01
      1.52672529e-01 3.30311030e-01 6.35432154e-02 1.79930106e-01
      7.15262219e-02 7.28865862e-02 5.64358896e-03 2.63982210e-02
      1.51092514e-01 1.50741786e-01 4.16902989e-01 4.78938222e-02
      1.13979392e-01 5.07264696e-02 1.40435239e-02 1.72360390e-02
      5.07622324e-02 2.54301906e-01 1.66433960e-01 4.16902989e-01
      7.25519210e-02 1.36336058e-01 1.58513635e-02 4.63433452e-02
      3.58500722e-04 1.25146937e-02 7.07525164e-02 5.62964082e-02
      4.16902989e-01 9.22720972e-03 1.89181927e-04 2.28329329e-03
      3.58500722e-04 9.96364951e-02 1.81287929e-01 3.38804811e-01
      6.56059086e-02 7.46606616e-03 0. 2.44493992e-03 1.25606908e-04
      1.87338591e-02 1.35542676e-01 2.58671731e-01 3.38804811e-01
      7.90882632e-02 1.30555211e-02 0. 1.46696325e-02 7.53641187e-04
      3.52066606e-02 1.51664391e-01 2.12482005e-01 3.38804811e-01
      7.98850283e-02 1.95245519e-01 2.75150058e-03 4.07489948e-04
      2.87001431e-02 1.19358011e-01 3.38804811e-01 1.63915843e-01
      3.38804811e-01 5.63230515e-02 9.28252563e-02 1.10060000e-03
      2.44493899e-03 2.85378061e-02 3.38804811e-01 1.23849861e-01
      1.97586983e-01 3.05291504e-01 5.51372431e-02 8.75189975e-02
      1.74786767e-03 7.14794314e-03 5.61843568e-04 4.08637486e-02
      1.65938810e-02 7.29440898e-02 3.05291504e-01 1.03358962e-01
      3.05291504e-01 8.85000825e-02 9.66211706e-02 8.42617825e-03
      1.68010667e-02 3.05291504e-01 6.69020787e-02 2.44358376e-01
      1.70963872e-02 4.82718758e-02 3.23762442e-03 1.19132374e-03
      2.51293136e-03 3.05291504e-01 2.91437209e-01 3.78672928e-02
      3.03068042e-01 1.14787936e-01 3.05291504e-01 1.42459035e-01
      1.31221756e-01 1.24466801e-02 2.03066334e-01 7.74450251e-04
      2.02933867e-02 9.14526880e-02 6.82608411e-02 3.93140703e-01
      1.08555198e-01 8.22374374e-02 1.48772225e-02 4.78946092e-03
      7.55338988e-05 2.60683964e-03 2.48746146e-05 4.34756652e-03
      3.93140703e-01 4.22635078e-02 1.18863368e-02 8.06749333e-03
      7.55338988e-05 6.71933740e-02 2.75409389e-02 1.71721190e-01
      9.89241526e-02 3.93140703e-01 2.49806330e-01 2.64306575e-01
      6.37835860e-02 6.04063980e-02 1.49294749e-01 7.95886219e-02
      4.05524857e-02 4.45659980e-02 3.93140703e-01 1.62071228e-01
      2.63684213e-01 6.84582368e-02 1.62252590e-01 2.92460561e-01
      5.15724681e-02 1.88531965e-01 2.69471183e-02 2.35192150e-01
      1.86513625e-02 2.38799886e-03 5.92966191e-02 3.34468842e-01
      3.34468842e-01 2.83617787e-02 1.32311240e-01 1.24636581e-02
      7.86280707e-02 1.75549218e-03 0. 3.43640037e-02 3.34468842e-01
      3.34468842e-01 0. 0. 0. 4.27077338e-02 1.97482929e-02
      3.29753757e-03 4.30630520e-02 3.34468842e-01 3.34468842e-01 0. 0.
      0. 9.64717765e-04 2.92582001e-04 0. 3.35870567e-03 3.34468842e-01
      3.06212157e-01 6.74087927e-03 3.52757946e-02 3.86651908e-03
      5.49970055e-03 2.90291430e-03 7.11665663e-04 8.55677761e-03
      3.06212157e-01 3.06212157e-01 3.35683860e-02 1.97832912e-01
      7.28814304e-02 7.70804584e-02 6.11376315e-02 3.31562534e-02
      4.47231010e-02 3.06212157e-01 3.06212157e-01 5.98803395e-04 0. 0.
      1.71201713e-02 1.73126310e-02 4.26999247e-03 1.67483483e-02
      3.06212157e-01 3.06212157e-01 9.78849269e-03 1.11572286e-02
      2.74386425e-02 2.76657850e-01 2.02932462e-01 2.00137839e-01
      1.65527865e-01 3.06212157e-01 1.77093744e-01 4.29949127e-02
      1.48869738e-01 8.38402286e-02 1.17022902e-01 1.10862322e-01
      1.49479166e-01 5.77688590e-02 1.62355661e-01 2.54720449e-01
      1.49427935e-01 1.72999129e-01 7.39033297e-02 2.25897938e-01
      9.41090584e-02 2.03150719e-01 5.29099964e-02 2.54720449e-01
      2.18257502e-01 6.18043691e-02 8.38131011e-02 1.33524090e-01
      2.54720449e-01 1.33364499e-01 1.86238214e-01 1.22385696e-01
      1.79395989e-01 2.54720449e-01 1.64394632e-01 2.54720449e-01
      1.79991022e-01 2.54720449e-01 4.40019667e-02 4.00156602e-02
      4.76761796e-02 2.54720449e-01</_>
    <_>
      0. 6.71845116e-03 2.83944272e-02 1.07179652e-03 3.23190819e-03 0.
      0. 0. 0. 4.41611819e-02 2.09445193e-01 4.58901703e-01
      8.67522135e-02 9.41860024e-03 0. 0. 0. 1.14571648e-02
      9.59266499e-02 1.45440906e-01 4.58901703e-01 3.11733019e-02
      1.76220741e-02 0. 3.88980308e-03 2.40297243e-03 3.65120918e-02
      1.65603161e-01 4.58901703e-01 4.58901703e-01 1.82304665e-01
      3.72210965e-02 0. 2.33388059e-02 4.13652882e-03 5.50353602e-02
      8.60073939e-02 2.61497736e-01 3.34200352e-01 7.41219074e-02
      1.00229075e-02 0. 0. 2.99485546e-04 3.87385599e-02 1.21462613e-01
      2.54872650e-01 3.34200352e-01 9.39825252e-02 1.14202015e-01
      2.86497753e-02 1.03181072e-01 1.88768860e-02 1.23677902e-01
      8.64249021e-02 2.93404073e-01 3.34200352e-01 1.04184948e-01
      4.33958545e-02 1.64227572e-03 4.95218579e-03 1.20190356e-03
      4.33354042e-02 6.55771643e-02 1.73211351e-01 3.34200352e-01
      1.30733579e-01 3.34200352e-01 1.09780021e-01 2.02149898e-01
      4.34961319e-02 1.10583477e-01 7.04212114e-02 1.08115017e-01
      2.79250115e-01 1.79519370e-01 3.96105766e-01 4.91536446e-02
      1.85140550e-01 7.23192766e-02 9.60321501e-02 6.81726588e-03
      4.30048965e-02 7.44425580e-02 1.38641417e-01 3.96105766e-01
      1.35086775e-02 7.94520602e-02 4.63626236e-02 1.26341293e-02
      2.25346312e-02 3.79810967e-02 1.94773749e-01 1.62805095e-01
      3.96105766e-01 1.70352861e-01 2.21952811e-01 5.25738448e-02
      6.14585131e-02 8.99541337e-05 7.11145392e-03 1.24070933e-02
      5.55453822e-02 3.96105766e-01 2.15071328e-02 1.20487134e-03
      2.91396421e-03 8.99541337e-05 1.03304103e-01 1.61375239e-01
      3.46564502e-01 4.15381491e-02 1.31233465e-02 0. 2.50421278e-03
      4.57621040e-03 3.75841260e-02 1.60612941e-01 2.66755730e-01
      3.46564502e-01 5.96390776e-02 1.56289935e-02 0. 1.50252702e-02
      6.70198863e-03 5.57496622e-02 1.02501586e-01 1.60997361e-01
      3.46564502e-01 8.15259963e-02 1.87712818e-01 3.20120086e-03
      6.94308779e-04 3.27315889e-02 1.25472695e-01 3.46564502e-01
      1.54061690e-01 3.46564502e-01 4.57718372e-02 9.79963094e-02
      1.12728204e-03 2.50421162e-03 3.36772054e-02 3.46564502e-01
      1.13755576e-01 1.99510962e-01 3.08823735e-01 5.56319170e-02
      5.38952127e-02 2.43313867e-03 7.33698811e-03 1.50016532e-03
      4.22218144e-02 1.19877104e-02 8.84253010e-02 3.08823735e-01
      1.33324444e-01 3.08823735e-01 1.08644739e-01 9.52176228e-02
      4.68452573e-02 1.73166245e-02 3.08823735e-01 6.80792183e-02
      2.48875648e-01 2.11146306e-02 5.45827448e-02 4.05523053e-04
      1.22283120e-03 3.27198859e-03 3.08823735e-01 2.99646199e-01
      4.61931750e-02 2.88763732e-01 1.55696332e-01 3.08823735e-01
      3.87245491e-02 1.31504200e-02 1.01613617e-02 2.08938152e-01
      1.00770767e-03 3.06529216e-02 1.70746848e-01 1.19973361e-01
      3.83439839e-01 1.19611531e-01 8.03231448e-02 3.85414176e-02
      5.52940369e-03 0. 1.03639741e-03 2.48977402e-03 1.37171997e-02
      3.83439839e-01 1.39405634e-02 1.10000093e-03 3.29952716e-04 0.
      1.11303762e-01 3.03800534e-02 1.87936634e-01 1.36457697e-01
      3.83439839e-01 8.72506052e-02 6.37600198e-02 4.42628898e-02
      1.21400855e-01 2.88563162e-01 3.51327565e-03 1.45021742e-02
      1.17629347e-02 3.83439839e-01 5.32095060e-02 9.44816694e-02
      5.35606630e-02 3.83439839e-01 2.97696143e-01 4.49779630e-02
      1.96008816e-01 4.75787744e-02 1.77474812e-01 8.82991683e-03
      1.54703241e-02 5.70113398e-02 3.38352293e-01 3.38352293e-01
      2.68988814e-02 1.34986073e-01 1.20861763e-02 7.99979568e-02
      1.77563087e-03 0. 3.47582214e-02 3.38352293e-01 3.38352293e-01 0.
      4.49830812e-04 6.09962363e-03 1.02859596e-02 5.49081201e-03
      1.98291745e-02 3.96042801e-02 3.38352293e-01 3.38352293e-01 0. 0.
      0. 9.75784846e-04 2.95938429e-04 0. 3.39723588e-03 3.38352293e-01
      3.01841527e-01 6.54232735e-03 3.31561007e-02 4.55867732e-03
      1.38477990e-02 2.20800401e-03 6.96294126e-04 8.37195665e-03
      3.01841527e-01 3.01841527e-01 2.18399186e-02 9.87384394e-02
      6.45724013e-02 2.62900442e-01 3.99173014e-02 7.73716951e-03
      4.28861789e-02 3.01841527e-01 3.01841527e-01 5.85869595e-04 0. 0.
      1.67503860e-02 1.69386882e-02 4.17776359e-03 1.63865946e-02
      3.01841527e-01 3.01841527e-01 9.57706757e-03 1.09162387e-02
      2.68459860e-02 2.71068245e-01 1.98549241e-01 1.96408227e-01
      1.62545606e-01 3.01841527e-01 2.18182966e-01 2.63822284e-02
      7.26195499e-02 6.80995956e-02 2.71964669e-01 6.63095862e-02
      5.00754267e-02 5.52150309e-02 2.28191197e-01 2.71964669e-01
      9.07204673e-02 1.39531597e-01 3.72637510e-02 1.84715346e-01
      4.53225449e-02 1.01401396e-01 5.21274656e-02 2.71964669e-01
      2.24437222e-01 6.14301749e-02 8.33056420e-02 1.32715642e-01
      2.71964669e-01 1.30927593e-01 1.86353669e-01 1.23571269e-01
      1.90190911e-01 2.71964669e-01 1.72829866e-01 2.25142255e-01
      1.32724568e-01 2.71964669e-01 4.89876792e-03 2.57952046e-02
      1.25214895e-02 2.71964669e-01</_>
    <_>
      1.41585516e-02 1.93001106e-02 6.11019274e-03 0. 6.10403240e-01
      1.47173688e-01 7.81606734e-02 3.75775099e-02 3.44609097e-02 0. 0.
      0. 0. 2.87059665e-01 9.11048613e-03 2.98543833e-03 1.33595290e-03
      0. 0. 0. 0. 0. 6.10403240e-01 6.29749615e-03 0. 0. 0.
      2.13396573e-03 1.87904178e-03 0. 0. 3.67691308e-01 0. 0. 0.
      6.59746700e-04 0. 0. 0. 0. 0. 0. 0. 0. 0. 4.39227484e-02
      5.88795580e-02 5.92870601e-02 3.37381251e-02 1.75882094e-02 0. 0.
      0. 2.82709301e-02 1.24424614e-01 1.21401623e-01 1.65883914e-01 0.
      1.46019785e-02 0. 0. 0. 2.50812527e-02 4.73275959e-01
      4.73275959e-01 4.73275959e-01 4.73275959e-01 8.08402523e-02 0. 0.
      0. 1.51788637e-01 4.13591377e-02 7.17500225e-02 1.74367547e-01
      3.94771360e-02 1.56629048e-02 0. 0. 0. 1.58633161e-02
      2.37903088e-01 2.69785076e-01 3.32849264e-01 1.40790239e-01
      7.91726559e-02 3.48390304e-02 2.99995989e-02 3.37756462e-02
      4.91556115e-02 2.07816139e-01 3.26131612e-01 3.32849264e-01
      2.15381816e-01 3.65288891e-02 0. 0. 0. 5.24234138e-02
      2.88367838e-01 3.32849264e-01 3.32849264e-01 2.23543331e-01
      1.12393983e-01 4.98351865e-02 3.99994552e-02 1.40348841e-02
      5.47449961e-02 0. 0. 0. 0. 4.79674578e-01 0. 0. 0. 0.
      2.29148287e-02 1.62395705e-02 6.82476684e-02 2.03337371e-02
      2.27224976e-01 0. 0. 0. 4.23739944e-03 3.71014252e-02
      2.78329123e-02 6.27813786e-02 3.12483218e-02 4.79674578e-01
      1.03620663e-02 4.95517673e-03 4.49237507e-03 2.35080696e-03
      2.31895417e-01 2.51527160e-01 4.79674578e-01 2.03694448e-01
      2.84934074e-01 1.72701082e-03 1.98207074e-03 1.79694989e-03
      2.19013244e-02 7.36740083e-02 1.16014324e-01 2.33906776e-01
      3.13599072e-02 1.01744058e-02 0. 0. 0. 8.92681628e-03
      2.37814963e-01 3.25005621e-01 3.25005621e-01 1.57984227e-01
      2.75142770e-02 0. 0. 0. 3.43687125e-02 2.08621264e-01
      3.25005621e-01 3.25005621e-01 1.64056510e-01 3.06321997e-02 0. 0.
      0. 1.78934895e-02 2.94312477e-01 3.25005621e-01 3.25005621e-01
      2.07617342e-01 4.90196981e-02 0. 0. 0. 3.06219496e-02
      2.91439086e-01 3.09847862e-01 3.09847862e-01 2.48375565e-01
      3.68307158e-02 0. 0. 0. 5.03808334e-02 2.12613732e-01
      3.09847862e-01 3.09847862e-01 1.57709494e-01 4.57783155e-02
      7.61250313e-03 5.49402088e-03 1.31946348e-03 4.66030613e-02
      2.56280214e-01 3.09847862e-01 3.09847862e-01 2.00203821e-01
      4.29084562e-02 0. 0. 0. 2.99763139e-02 1.04439400e-01
      1.86283827e-01 1.92435384e-01 6.56384751e-02 1.41225373e-02 0. 0.
      0. 1.62598491e-02 9.63012278e-02 8.02556649e-02 1.43220752e-01
      4.38597761e-02 2.98090786e-01 3.57846804e-02 4.54321951e-02
      1.22552486e-02 6.93261251e-02 2.53447473e-01 2.98090786e-01
      2.98090786e-01 1.90891638e-01 1.39189422e-01 7.21238414e-03
      1.07261799e-02 4.90209926e-03 5.50540388e-02 1.96339116e-01
      1.08130045e-01 2.39975527e-01 7.30767250e-02 2.98090786e-01
      5.64170480e-02 5.60320280e-02 4.13197763e-02 2.06309751e-01
      2.41950944e-01 2.89778978e-01 2.98090786e-01 2.54134327e-01
      6.35360107e-02 6.86825020e-03 1.11474236e-02 3.67657398e-03
      8.90324786e-02 3.20191652e-01 3.22216004e-01 3.22216004e-01
      2.27052197e-01 5.26079647e-02 8.53686244e-04 0. 0. 4.22367491e-02
      1.97282955e-01 3.22216004e-01 3.22216004e-01 1.61485672e-01
      4.90063913e-02 0. 0. 0. 2.78656539e-02 2.37531573e-01
      3.22216004e-01 3.22216004e-01 1.93139747e-01 3.54955569e-02
      1.13824802e-03 0. 0. 2.95980796e-02 6.41499162e-02 1.36575431e-01
      1.64521053e-01 2.97525227e-02 1.63152181e-02 0. 0. 0.
      1.37624117e-02 4.67809647e-01 4.67809647e-01 4.67809647e-01
      4.67809647e-01 2.02741683e-01 0. 0. 0. 1.01408318e-01
      8.20007622e-02 7.02586994e-02 1.46333024e-01 6.44632205e-02
      3.25470902e-02 0. 0. 0. 9.93816461e-03 2.18664464e-02
      4.73329015e-02 1.57087564e-01 3.93673815e-02 2.73098405e-02 0. 0.
      0. 2.18664464e-02 0. 0. 0. 0. 0. 0. 0. 0. 0.</_>
    <_>
      1.16323218e-01 2.26198599e-01 2.88302988e-01 2.32262671e-01
      1.33051932e-01 7.63827516e-03 9.33806598e-02 7.14877993e-02
      1.40233487e-01 8.48888308e-02 9.08177719e-02 1.18024386e-01
      3.76701839e-02 7.11415038e-02 1.29803225e-01 2.88302988e-01
      2.40404770e-01 2.53595412e-01 1.30580626e-02 1.02228746e-01
      2.88302988e-01 2.77408659e-01 2.88302988e-01 7.45801954e-03
      7.67338723e-02 3.22775170e-02 2.85882223e-02 1.42766787e-02
      3.78001481e-02 1.02589056e-01 3.96514833e-02 2.88302988e-01
      1.70929477e-01 2.88302988e-01 1.17815964e-01 3.85137126e-02
      1.57966092e-02 0. 0. 0. 1.77014634e-01 2.55567193e-01
      3.59549463e-01 1.83589265e-01 1.02389231e-01 2.02079958e-04 0. 0.
      0. 1.31955504e-01 1.25430703e-01 2.50657618e-01 3.05778719e-02
      3.43363150e-03 3.33648152e-03 0. 0. 0. 3.59549463e-01
      3.51828068e-01 3.59549463e-01 8.65663290e-02 8.19320232e-03
      2.26092918e-04 0. 0. 0. 3.59549463e-01 2.01830074e-01
      2.62785256e-01 1.22372126e-02 2.26092918e-04 5.78067964e-03
      1.03915129e-02 1.43687353e-02 1.57387815e-02 2.48819888e-01
      2.92313122e-03 1.13359001e-02 0. 5.78067964e-03 9.05167609e-02
      6.23490550e-02 8.62123668e-02 9.44326445e-02 5.00954092e-01
      1.68708757e-01 1.88319296e-01 4.30707149e-02 2.23958015e-01 0.
      1.73191878e-03 2.39478890e-03 6.29551057e-03 5.00954092e-01
      1.47119369e-02 2.19830573e-02 0. 0. 0. 1.03915101e-02
      1.43687287e-02 3.77730541e-02 5.00954092e-01 1.28628463e-01
      1.21045001e-01 3.00571136e-02 2.22402085e-02 2.96028156e-04
      2.34871116e-02 1.62808850e-01 1.06449559e-01 4.52342182e-01
      1.29170495e-03 1.10896649e-02 1.50232180e-03 2.96028156e-04
      3.73069604e-04 4.84053930e-03 2.54503731e-02 8.96440540e-03
      4.52342182e-01 7.09581822e-02 1.06064238e-01 1.80702005e-02
      3.73069604e-04 4.63791046e-04 2.41194083e-03 1.79518722e-02
      2.03232910e-03 4.52342182e-01 1.53775811e-01 2.32672706e-01
      3.44640799e-02 4.63791046e-04 6.04621542e-04 2.82261241e-02
      1.69069216e-01 1.04108043e-01 4.52342182e-01 1.41829867e-02
      3.69806029e-02 7.39341276e-03 6.04621542e-04 1.53817382e-04 0. 0.
      0. 4.84608650e-01 7.70381317e-02 8.40630233e-02 9.74923093e-03
      1.53817382e-04 2.56362273e-05 0. 0. 0. 4.84608650e-01
      4.22064699e-02 4.17652614e-02 1.02308521e-03 2.56362273e-05
      2.61485402e-04 1.52040888e-02 1.32120490e-01 1.14209272e-01
      4.84608650e-01 0. 0. 0. 2.61485402e-04 4.35808943e-05
      2.06160615e-03 6.65772855e-02 6.31382763e-02 4.84608650e-01 0. 0.
      0. 4.35808943e-05 0. 0. 0. 0. 4.68190610e-01 4.73167421e-03
      3.60833132e-03 0. 0. 0. 0. 0. 0. 4.93000031e-01 8.47259350e-03
      7.29506882e-03 1.39046577e-03 0. 2.14426336e-03 1.49254231e-02
      6.95777237e-02 3.84954512e-02 4.81990039e-01 0. 0. 0.
      1.77639979e-03 4.81043430e-03 3.45801599e-02 1.69380501e-01
      1.44325331e-01 4.93000031e-01 0. 0. 0. 2.60325312e-03
      3.47279534e-02 3.63359489e-02 8.15254971e-02 7.86037277e-03
      2.74483323e-01 2.74483323e-01 2.74483323e-01 1.08769640e-01
      1.61900166e-02 4.64446098e-02 1.14962019e-01 2.74483323e-01
      1.41882941e-01 2.74483323e-01 5.23411110e-02 1.07796200e-01
      4.60876338e-02 1.74115095e-02 1.66376933e-01 5.39411046e-02
      8.22722167e-02 8.60285107e-03 1.45348325e-01 2.65523046e-01
      2.74483323e-01 2.12200388e-01 1.34865686e-01 2.74483323e-01
      1.30751774e-01 2.74483323e-01 6.50600493e-02 8.99716020e-02
      5.41940592e-02 1.39322028e-01 9.27955508e-02 2.61242598e-01
      3.74974720e-02 5.31801209e-02 3.11594754e-01 2.20851824e-01
      3.11594754e-01 5.14885783e-02 1.57363489e-02 3.81117724e-02
      5.92156239e-02 1.87816262e-01 2.58450825e-02 1.83829933e-01
      1.28943443e-01 3.11594754e-01 3.86164300e-02 1.66686270e-02
      4.07458283e-02 2.08891317e-01 2.88342744e-01 4.24383618e-02
      2.37569347e-01 9.16143507e-02 1.61805376e-01 6.86514229e-02
      2.96081435e-02 7.09554181e-02 3.11594754e-01 3.11594754e-01
      5.54792508e-02 1.10744961e-01 5.53305410e-02 8.22469741e-02
      5.14885671e-02 2.86945906e-02 6.94325641e-02 3.11594754e-01
      1.31864399e-01 9.30034071e-02 2.37493366e-01 6.34803772e-02
      1.46463141e-01 0. 1.30718073e-03 3.26690008e-03 1.03100628e-01
      3.26565914e-02 1.23829767e-01 3.07967305e-01 2.62850344e-01
      3.07967305e-01 0. 0. 0. 1.25256097e-02 3.07967305e-01
      2.15538561e-01 3.07967305e-01 4.82831933e-02 2.07677092e-02 0.
      1.74290722e-03 4.35586646e-03 3.07967305e-01 1.90411523e-01
      2.77496576e-01 3.07967305e-01 2.03392163e-01 1.17624223e-01 0. 0.
      0. 7.70833716e-02</_>
    <_>
      3.19788188e-01 1.56800196e-01 3.19788188e-01 1.19991913e-01
      4.97283153e-02 0. 0. 0. 2.89550304e-01 3.19788188e-01
      4.30366993e-02 1.18339494e-01 2.55380813e-02 9.59570613e-03
      2.62167864e-02 1.70516700e-01 8.40139315e-02 3.19788188e-01
      8.66199210e-02 7.71255791e-02 3.19788188e-01 1.92604914e-01
      3.19788188e-01 0. 0. 0. 5.93180098e-02 1.71442464e-01
      2.94845197e-02 1.33174136e-01 3.09513435e-02 7.10908696e-02
      4.21342626e-02 2.26052910e-01 7.13603646e-02 1.96101114e-01
      2.51863658e-01 0. 0. 0. 1.29605666e-01 1.08907990e-01
      3.00103039e-01 9.73038375e-02 3.00103039e-01 5.83240613e-02
      2.46100780e-03 4.28761262e-03 1.04706772e-02 3.00103039e-01
      2.43039057e-01 2.92327195e-01 6.74465969e-02 9.17389393e-02
      3.56032215e-02 0. 0. 0. 3.00103039e-01 1.24455482e-01
      3.00103039e-01 8.57169405e-02 6.33939803e-02 3.82914813e-03 0. 0.
      0. 3.00103039e-01 2.70853519e-01 3.00103039e-01 4.90243770e-02
      8.93740822e-03 1.05453461e-01 1.27148042e-02 2.09405776e-02
      3.66709791e-02 3.02869409e-01 1.97734535e-01 9.52465385e-02
      1.11058377e-01 1.62780508e-01 1.46234483e-01 9.53610335e-03
      1.51553685e-02 1.95905827e-02 3.02869409e-01 2.82412380e-01
      2.36280888e-01 1.76442072e-01 2.56984293e-01 4.20279168e-02 0. 0.
      0. 3.02869409e-01 1.94225222e-01 1.37141764e-01 5.91927357e-02
      7.44865611e-02 5.01070172e-02 0. 0. 3.74229928e-03 3.02869409e-01
      3.02869409e-01 3.02869409e-01 1.12523131e-01 9.56235528e-02
      1.49282208e-03 1.97000224e-02 2.10508302e-01 1.29472524e-01
      5.80538869e-01 0. 0. 0. 1.49282208e-03 3.59563739e-03
      4.57024295e-03 3.88293527e-02 1.07193468e-02 2.98596859e-01
      2.18503140e-02 7.82833770e-02 1.36182904e-02 3.59563739e-03
      1.65696780e-03 0. 1.60888521e-04 1.62098103e-03 5.80538869e-01
      9.13494527e-02 7.15813637e-02 7.32915243e-03 1.65696780e-03
      2.32953788e-03 7.16883689e-03 1.95307601e-02 1.93757229e-02
      3.82834882e-01 8.99684429e-03 8.23308807e-03 1.22152537e-03
      2.32953788e-03 4.40450094e-04 0. 0. 0. 4.62344974e-01
      4.32945192e-02 1.03161454e-01 1.54673019e-02 4.40450094e-04
      2.13222724e-04 0. 0. 0. 4.62344974e-01 1.97400928e-01
      2.35794485e-01 1.67065635e-02 2.13222724e-04 2.97314167e-04
      9.30444989e-03 3.45671736e-02 3.62289436e-02 4.62344974e-01
      7.41355354e-04 5.74752409e-03 2.45715084e-04 2.97314167e-04
      9.71171248e-04 1.19674588e-02 1.09537415e-01 1.20215856e-01
      4.62344974e-01 3.99457179e-02 4.36404012e-02 2.25156778e-03
      9.71171248e-04 1.03585096e-03 0. 0. 0. 4.37393248e-01
      1.66575849e-01 1.51211604e-01 9.28441808e-03 1.03585096e-03
      9.52831761e-04 0. 0. 3.46302427e-03 4.37393248e-01 2.30741560e-01
      2.15125978e-01 2.56353468e-02 9.52831761e-04 2.73541780e-03
      9.11753066e-03 1.02372631e-01 9.52527151e-02 4.37393248e-01
      3.96907926e-02 2.94161215e-02 1.62690913e-03 2.73541780e-03
      1.17782562e-03 1.89976189e-02 2.03635499e-01 1.23509854e-01
      4.37393248e-01 1.72667727e-02 2.89706700e-03 0. 1.17782562e-03
      1.75365675e-02 3.10535752e-03 2.76660151e-03 3.05918651e-03
      2.83530086e-01 1.76871732e-01 2.83530086e-01 1.10734306e-01
      8.48637372e-02 9.69917476e-02 8.51112083e-02 1.43964529e-01
      2.72537190e-02 8.00213367e-02 3.08577362e-02 7.42305294e-02
      5.33618666e-02 7.42872879e-02 2.00300500e-01 1.11223711e-02
      6.38514152e-03 2.29438953e-03 1.54642463e-01 2.76898414e-01
      2.83530086e-01 2.83530086e-01 2.83530086e-01 2.83530086e-01
      2.13971719e-01 2.83530086e-01 1.69629958e-02 1.46075198e-02
      6.06142506e-02 1.50273070e-01 1.73783109e-01 2.83530086e-01
      7.63354301e-02 1.01717331e-01 2.51245916e-01 1.07678197e-01
      2.93015838e-01 7.64351944e-03 7.67272571e-03 4.36821347e-03
      1.16202179e-02 8.10576901e-02 4.45267037e-02 2.93015838e-01
      2.30728328e-01 2.93015838e-01 3.77373770e-02 2.79289167e-02
      4.74286936e-02 1.15864344e-01 2.93015838e-01 1.92705080e-01
      2.93015838e-01 6.18092343e-02 1.16074070e-01 1.15252528e-02
      1.32189272e-02 1.75731778e-02 2.47172058e-01 2.93015838e-01
      4.33987416e-02 1.73132956e-01 9.22591090e-02 2.41502538e-01
      5.03164977e-02 3.72385494e-02 8.05104449e-02 2.93015838e-01
      1.51234016e-01 3.53886150e-02 2.29838893e-01 1.31189391e-01
      2.87944525e-01 1.64051671e-02 1.21412380e-02 3.15497778e-02
      1.62262291e-01 8.27767402e-02 7.56497309e-02 2.87944525e-01
      2.19459802e-01 2.87944525e-01 0. 0. 0. 5.43437414e-02
      2.87944525e-01 4.72530946e-02 1.80244014e-01 5.30045256e-02
      7.92452991e-02 2.18735505e-02 1.61883160e-02 4.95749265e-02
      2.87944525e-01 2.87944525e-01 2.34881848e-01 2.87944525e-01
      2.63411343e-01 1.61122784e-01 0. 0. 0. 1.83363557e-01</_></support_vectors>
  <decision_functions>
    <_>
      <sv_count>2</sv_count>
      <rho>-2.6905330574589215e-08</rho>
      <alpha>
        1.8055861708322756e+00 -1.8055861708322756e+00</alpha>
      <index>
        0 1</index></_>
    <_>
      <sv_count>2</sv_count>
      <rho>0.</rho>
      <alpha>
        1.8057437777606524e+00 -1.8057437777606524e+00</alpha>
      <index>
        0 2</index></_>
    <_>
      <sv_count>3</sv_count>
      <rho>1.8497824003255472e-02</rho>
      <alpha>
        1.8388375058947597e+00 -9.1954328522578477e-01
        -9.1929422066897493e-01</alpha>
      <index>
        0 3 4</index></_>
    <_>
      <sv_count>2</sv_count>
      <rho>-2.6912357120600916e-08</rho>
      <alpha>
        1.8060577132268745e+00 -1.8060577132268745e+00</alpha>
      <index>
        0 5</index></_>
    <_>
      <sv_count>3</sv_count>
      <rho>7.3165201732154461e-02</rho>
      <alpha>
        1.9378492245690784e+00 -9.6945244618711868e-01
        -9.6839677838195970e-01</alpha>
      <index>
        0 6 7</index></_>
    <_>
      <sv_count>2</sv_count>
      <rho>0.</rho>
      <alpha>
        1.5534485150067843e+00 -1.5534485150067843e+00</alpha>
      <index>
        1 2</index></_>
    <_>
      <sv_count>3</sv_count>
      <rho>1.7695813640190489e-02</rho>
      <alpha>
        1.8843198897323516e+00 -6.9929504084273020e-01
        -1.1850248488896213e+00</alpha>
      <index>
        1 3 4</index></_>
    <_>
      <sv_count>2</sv_count>
      <rho>0.</rho>
      <alpha>
        1.7083913244123807e+00 -1.7083913244123807e+00</alpha>
      <index>
        1 5</index></_>
    <_>
      <sv_count>3</sv_count>
      <rho>6.5024235560524793e-02</rho>
      <alpha>
        1.7346358087386597e+00 -9.4067596679277221e-01
        -7.9395984194588731e-01</alpha>
      <index>
        1 6 7</index></_>
    <_>
      <sv_count>3</sv_count>
      <rho>2.0700137113522612e-02</rho>
      <alpha>
        2.0662952220553992e+00 -1.0995255272680517e+00
        -9.6676969478734787e-01</alpha>
      <index>
        2 3 4</index></_>
    <_>
      <sv_count>2</sv_count>
      <rho>0.</rho>
      <alpha>
        2.5245786241050592e+00 -2.5245786241050592e+00</alpha>
      <index>
        2 5</index></_>
    <_>
      <sv_count>3</sv_count>
      <rho>8.6703543108516315e-02</rho>
      <alpha>
        2.3508176140637782e+00 -1.3542045896555610e+00
        -9.9661302440821786e-01</alpha>
      <index>
        2 6 7</index></_>
    <_>
      <sv_count>3</sv_count>
      <rho>-1.6433257854890557e-02</rho>
      <alpha>
        9.6723343037745801e-01 7.0686501344156016e-01
        -1.6740984438190183e+00</alpha>
      <index>
        3 4 5</index></_>
    <_>
      <sv_count>4</sv_count>
      <rho>5.7867012214834639e-02</rho>
      <alpha>
        1.1518056979876190e+00 9.5562445764518711e-01
        -9.5595365434608404e-01 -1.1514765012867230e+00</alpha>
      <index>
        3 4 6 7</index></_>
    <_>
      <sv_count>3</sv_count>
      <rho>6.3815990372092887e-02</rho>
      <alpha>
        1.6971852611538456e+00 -9.0293531484021183e-01
        -7.9424994631363355e-01</alpha>
      <index>
        5 6 7</index></_></decision_functions></my_svm>
</opencv_storage>
