<?xml version="1.0"?>
<opencv_storage>
<my_svm type_id="opencv-ml-svm">
  <svm_type>C_SVC</svm_type>
  <kernel><type>RBF</type>
    <gamma>8.9999999999999997e-02</gamma></kernel>
  <C>10.</C>
  <term_criteria><epsilon>1.1920928955078125e-07</epsilon>
    <iterations>2147483647</iterations></term_criteria>
  <var_all>1296</var_all>
  <var_count>1296</var_count>
  <class_count>3</class_count>
  <class_labels type_id="opencv-matrix">
    <rows>1</rows>
    <cols>3</cols>
    <dt>i</dt>
    <data>
      2 4 9</data></class_labels>
  <sv_total>3</sv_total>
  <support_vectors>
    <_>
      0. 0. 0. 0. 0. 0. 0. 0. 0. 0. 0. 0. 0. 0. 0. 0. 0. 0. 0. 0. 0. 0.
      0. 0. 0. 0. 0. 0. 0. 0. 0. 0. 0. 0. 0. 0. 0. 0. 0. 0. 0. 0. 0. 0.
      0. 0. 0. 0. 0. 0. 0. 0. 0. 0. 0. 0. 0. 0. 0. 0. 0. 0. 0. 0. 0. 0.
      0. 0. 0. 0. 0. 0. 0. 0. 0. 0. 0. 0. 0. 0. 0. 0. 4.51901957e-04
      1.35226303e-03 0. 1.41244372e-02 0. 0. 0. 0. 1.43655255e-01
      1.62564293e-01 3.97735924e-01 0. 3.48513186e-01 0. 8.50807130e-02
      2.84325555e-02 1.43655255e-01 7.01593757e-02 4.06779982e-02
      1.21723883e-01 0. 1.36694327e-01 0. 6.07719645e-02 2.03089751e-02
      7.01593757e-02 0. 0. 0. 0. 0. 0. 0. 0. 0. 0. 8.89643189e-03
      2.66215224e-02 0. 1.07422128e-01 0. 0. 0. 0. 4.78850827e-02
      3.14494520e-01 3.97735924e-01 0. 3.97735924e-01 0. 6.07719645e-02
      2.03089751e-02 4.78850827e-02 2.33864579e-02 7.02142566e-02
      2.10107222e-01 0. 3.20527285e-01 0. 4.34085615e-02 1.45064155e-02
      2.33864579e-02 0. 0. 0. 0. 0. 0. 0. 0. 0. 0. 0. 0. 0. 0. 0. 0. 0.
      0. 0. 0. 0. 0. 0. 0. 0. 0. 0. 0. 0. 0. 0. 0. 0. 0. 0. 0. 0. 0. 0.
      0. 0. 0. 0. 0. 0. 0. 0. 0. 0. 0. 0. 0. 0. 0. 0. 0. 0. 0. 0. 0. 0.
      0. 0. 0. 0. 0. 0. 0. 0. 0. 0. 0. 5.61218299e-02 4.87846732e-02
      1.45982221e-01 0. 1.12171978e-01 0. 3.99545617e-02 1.33521492e-02
      5.61218299e-02 2.91674510e-02 1.53949009e-02 4.60673161e-02 0.
      8.23737010e-02 0. 2.85389759e-02 9.53724887e-03 2.91674510e-02
      7.30328485e-02 1.01677805e-01 2.82888263e-01 0. 1.22462362e-01 0.
      1.42314355e-03 4.75589593e-04 7.30328485e-02 2.55462289e-01
      6.56284839e-02 1.96385473e-01 0. 2.10371435e-01 0. 6.29200563e-02
      2.10268293e-02 2.55462289e-01 1.87072735e-02 8.81668478e-02
      2.63828337e-01 0. 2.82888263e-01 0. 2.85389852e-02 9.53725260e-03
      1.87072735e-02 9.72248241e-03 4.48255651e-02 1.34134933e-01 0.
      1.60602421e-01 0. 2.03849897e-02 6.81232288e-03 9.72248241e-03
      3.92908566e-02 2.73978561e-01 2.82888263e-01 0. 2.82888263e-01 0.
      2.01682728e-02 6.73988322e-03 3.92908566e-02 8.09124336e-02
      7.67488927e-02 2.29661673e-01 0. 2.82888263e-01 0. 8.00550282e-02
      2.67530009e-02 8.09124336e-02 0. 0. 0. 0. 0. 0. 0. 0. 0. 0. 0. 0.
      0. 0. 0. 0. 0. 0. 0. 0. 0. 0. 0. 0. 0. 0. 0. 0. 0. 0. 0. 0. 0. 0.
      0. 0. 0. 0. 0. 0. 0. 0. 0. 0. 0. 0. 0. 0. 0. 0. 0. 0. 0. 0. 0. 0.
      0. 0. 0. 0. 0. 0. 0. 0. 0. 0. 0. 0. 0. 0. 0. 0. 9.79562402e-02
      7.26513714e-02 2.17400640e-01 0. 7.31796846e-02 0. 2.13696016e-03
      7.14134600e-04 9.79562402e-02 3.52702260e-01 5.53959049e-02
      1.65765688e-01 0. 3.52702260e-01 0. 1.77944809e-01 5.94661832e-02
      3.52702260e-01 9.90835112e-03 0. 0. 0. 1.32587448e-01 0.
      1.55940009e-02 5.21125505e-03 9.90835112e-03 0. 0. 0. 0. 0. 0. 0.
      0. 0. 4.60373387e-02 1.30779147e-01 3.52702260e-01 0.
      2.34389946e-01 0. 3.02842204e-02 1.01204561e-02 4.60373387e-02
      1.16450623e-01 5.96723221e-02 1.78562194e-01 0. 3.52702260e-01 0.
      1.48030639e-01 4.94692922e-02 1.16450623e-01 9.00758314e-04 0. 0.
      0. 2.22118288e-01 0. 5.19800046e-03 1.73708505e-03 9.00758314e-04
      0. 0. 0. 0. 0. 0. 0. 0. 0. 0. 0. 0. 0. 0. 0. 0. 0. 0. 0.
      2.33058585e-04 6.97400188e-04 0. 4.23368067e-03 0. 0. 0. 0.
      1.95291080e-02 3.79091129e-02 1.13438450e-01 0. 1.10245310e-01 0.
      1.61419865e-02 5.39438287e-03 1.95291080e-02 9.53776576e-03
      1.00070275e-02 2.99447794e-02 0. 3.50452736e-02 0. 1.15299942e-02
      3.85313155e-03 9.53776576e-03 0. 0. 0. 0. 0. 0. 0. 0. 0. 0.
      5.38904779e-03 1.61260851e-02 0. 1.16148308e-01 0. 0. 0. 0.
      6.50970219e-03 1.41680121e-01 4.17636842e-01 0. 4.17636842e-01 0.
      1.15299914e-02 3.85313062e-03 6.50970219e-03 3.17925541e-03
      3.25546116e-02 9.74155292e-02 0. 1.83559671e-01 0. 8.23571067e-03
      2.75223702e-03 3.17925541e-03 0. 0. 0. 0. 0. 0. 0. 0. 0. 0.
      2.56855099e-04 7.68608472e-04 0. 1.71685070e-01 0. 1.05847670e-02
      3.53724346e-03 0. 1.98375694e-02 1.51681220e-02 4.53887098e-02 0.
      4.17636842e-01 0. 3.06548744e-01 1.02443323e-01 1.98375694e-02
      2.97474824e-02 7.62736574e-02 2.28239685e-01 0. 1.79770306e-01 0.
      6.28052577e-02 2.09884606e-02 2.97474824e-02 0. 0. 0. 0. 0. 0. 0.
      0. 0. 0. 0. 0. 0. 1.26548763e-02 0. 5.16946428e-03 1.72754424e-03
      0. 4.36685532e-02 5.08772349e-03 1.52243786e-02 0. 1.41345114e-01
      0. 2.54264295e-01 8.49706903e-02 4.36685532e-02 7.26965293e-02
      4.35309261e-02 1.30260825e-01 0. 2.98253000e-02 0. 6.07030243e-02
      2.02859025e-02 7.26965293e-02 7.14469468e-03 1.07753435e-02
      3.22439000e-02 0. 3.10018379e-02 0. 7.09876977e-03 2.37229047e-03
      7.14469468e-03 3.71321710e-03 3.69207840e-03 1.10480776e-02 0.
      1.87967364e-02 0. 5.07055037e-03 1.69449311e-03 3.71321710e-03
      8.98859184e-03 2.12521628e-02 6.35945797e-02 0. 2.81675216e-02 0.
      6.87322405e-04 2.29691082e-04 8.98859184e-03 2.83431541e-02
      1.06242029e-02 3.17916647e-02 0. 4.56305668e-02 0. 9.52859595e-03
      3.18429573e-03 2.83431541e-02 2.38156482e-03 3.57596092e-02
      1.07006155e-01 0. 2.63706356e-01 0. 5.07055037e-03 1.69449311e-03
      2.38156482e-03 1.23773911e-03 4.72732596e-02 1.41459510e-01 0.
      9.40253735e-02 0. 3.62182222e-03 1.21035252e-03 1.23773911e-03
      1.33251064e-02 2.12096840e-01 2.81895876e-01 0. 2.31521636e-01 0.
      1.42981727e-02 4.77819797e-03 1.33251064e-02 2.16124821e-02
      4.18470204e-02 1.25221997e-01 0. 2.81895876e-01 0. 4.53833826e-02
      1.51663357e-02 2.16124821e-02 1.16853500e-02 7.10126059e-03
      2.12496445e-02 0. 2.81895876e-01 0. 7.81520978e-02 2.61170957e-02
      1.16853500e-02 2.13129427e-02 1.84497982e-01 2.81895876e-01 0.
      1.74558908e-01 0. 2.16328669e-02 7.22934119e-03 2.13129427e-02
      9.67061569e-05 2.07106248e-01 2.81895876e-01 0. 2.57251590e-01 0.
      1.49165811e-02 4.98485938e-03 9.67061569e-05 0. 2.45539937e-02
      7.34748170e-02 0. 2.81895876e-01 0. 4.55137976e-02 1.52099114e-02
      0. 2.56053209e-02 4.80617629e-03 1.43818846e-02 0. 3.03491633e-02
      0. 6.89480603e-02 2.30412409e-02 2.56053209e-02 5.88896200e-02
      6.83475956e-02 2.04521507e-01 0. 3.79908532e-02 0. 2.17559617e-02
      7.27046654e-03 5.88896200e-02 1.45510689e-03 1.85344126e-02
      5.54618426e-02 0. 4.75410745e-02 0. 8.84384941e-03 2.95545929e-03
      1.45510689e-03 7.70413317e-03 5.11693303e-03 1.53117804e-02 0.
      1.10364884e-01 0. 3.49360928e-02 1.16750291e-02 7.70413317e-03
      1.74073186e-02 2.00069360e-02 5.98683842e-02 0. 2.45831404e-02 0.
      1.53071492e-03 5.11538063e-04 1.74073186e-02 7.33813643e-02
      1.24613820e-02 3.72892059e-02 0. 1.85994282e-01 0. 3.69804353e-02
      1.23582389e-02 7.33813643e-02 1.34052371e-03 0. 0. 0.
      3.89922410e-02 0. 2.94439122e-03 9.83966398e-04 1.34052371e-03 0.
      0. 0. 0. 0. 0. 0. 0. 0. 2.19201781e-02 1.23389713e-01
      3.69228423e-01 0. 2.15234593e-01 0. 3.18430252e-02 1.06413811e-02
      2.19201781e-02 3.93707789e-02 5.26579134e-02 1.57572344e-01 0.
      4.03439343e-01 0. 1.06325179e-01 3.55320200e-02 3.93707789e-02
      1.21865756e-04 0. 0. 0. 1.80133745e-01 0. 9.81463818e-04
      3.27988761e-04 1.21865756e-04 0. 0. 0. 0. 0. 0. 0. 0. 0. 0.
      7.60798827e-02 2.27659419e-01 0. 2.12874994e-01 0. 3.33044119e-02
      1.11297509e-02 0. 0. 4.43564393e-02 1.32731289e-01 0.
      4.03439343e-01 0. 1.02288015e-01 3.41828614e-02 0. 0.
      1.09329492e-04 3.27154266e-04 0. 1.95146605e-01 0. 0. 0. 0. 0. 0.
      0. 0. 0. 0. 0. 0. 0. 1.21633010e-03 2.91814818e-03 8.73219687e-03
      0. 5.42446636e-02 0. 2.06214841e-02 6.89133815e-03 1.21633010e-03
      2.81253774e-02 1.78327113e-02 5.33621199e-02 0. 3.81592304e-01 0.
      8.79868194e-02 2.94036511e-02 2.81253774e-02 1.34052383e-03
      1.20262569e-03 3.59870074e-03 0. 6.03562258e-02 0. 0. 0.
      1.34052383e-03 0. 0. 0. 0. 0. 0. 0. 0. 0. 0. 0. 0. 0. 0. 0. 0. 0.
      0. 0. 0. 0. 0. 1.03796348e-01 0. 1.54774217e-02 5.17228292e-03 0.
      4.56543528e-02 7.47791678e-03 2.23767646e-02 0. 3.12848300e-01 0.
      3.12848300e-01 1.66306272e-01 4.56543528e-02 7.27696940e-02
      9.68510583e-02 2.89815009e-01 0. 1.37946397e-01 0. 1.00239135e-01
      3.34982201e-02 7.27696940e-02 0. 0. 0. 0. 0. 0. 0. 0. 0. 0. 0. 0.
      0. 1.90334786e-02 0. 8.04387592e-03 2.68812175e-03 0.
      1.80615246e-01 1.69022977e-02 5.05779833e-02 0. 2.41749704e-01 0.
      3.12848300e-01 2.40588427e-01 1.80615246e-01 2.98820496e-01
      1.25478342e-01 3.12848300e-01 0. 5.15154861e-02 0. 2.02375442e-01
      6.76303506e-02 2.98820496e-01 0. 0. 0. 0. 0. 0. 0. 0. 0. 0. 0. 0.
      0. 0. 0. 0. 0. 0. 8.92999861e-03 0. 0. 0. 0. 0. 0. 0.
      8.92999861e-03 1.15980161e-02 0. 0. 0. 0. 0. 0. 0. 1.15980161e-02
      0. 0. 0. 0. 0. 0. 0. 0. 0. 0. 0. 0. 0. 0. 0. 0. 0. 0. 0. 0. 0. 0.
      0. 0. 0. 0. 0. 0. 0. 0. 0. 0. 0. 0. 0. 0. 3.08443755e-02
      8.29236023e-03 2.48138905e-02 0. 2.16371059e-01 0. 1.44859359e-01
      4.84094992e-02 3.08443755e-02 6.33603707e-02 2.21256927e-01
      2.74228215e-01 0. 1.73902184e-01 0. 4.00157496e-02 1.33725861e-02
      6.33603707e-02 5.28398028e-04 1.31233111e-01 2.74228215e-01 0.
      2.33935505e-01 0. 1.41593870e-02 4.73181857e-03 5.28398028e-04 0.
      1.49369100e-02 4.46969122e-02 0. 2.74228215e-01 0. 4.66528907e-02
      1.55905774e-02 0. 1.20262623e-01 1.80684663e-02 5.40675819e-02 0.
      5.84545732e-02 0. 2.38224909e-01 7.96106011e-02 1.20262623e-01
      2.74228215e-01 2.05291331e-01 2.74228215e-01 0. 8.67930576e-02 0.
      8.36682841e-02 2.79604830e-02 2.74228215e-01 8.79654475e-03
      3.82651687e-02 1.14503555e-01 0. 1.23562753e-01 0. 4.22638543e-02
      1.41238365e-02 8.79654475e-03 5.87482639e-02 1.96408592e-02
      5.87727427e-02 0. 2.74228215e-01 0. 1.72713518e-01 5.77178337e-02
      5.87482639e-02 5.73901972e-03 0. 0. 0. 0. 0. 0. 0. 5.73901972e-03
      8.66911095e-03 0. 0. 0. 0. 0. 0. 0. 8.66911095e-03 2.71288183e-04
      0. 0. 0. 0. 0. 0. 0. 2.71288183e-04 5.34075405e-03 0. 0. 0. 0. 0.
      0. 0. 5.34075405e-03 0. 0. 0. 0. 0. 0. 0. 0. 0. 0. 0. 0. 0. 0. 0.
      0. 0. 0. 0. 0. 0. 0. 0. 0. 0. 0. 0. 0. 0. 0. 0. 0. 0. 0. 0. 0. 0.
      3.78489383e-02 1.13258146e-01 0. 2.34286368e-01 0. 3.55018154e-02
      1.18640829e-02 0. 0. 3.96550819e-02 1.18663035e-01 0.
      4.26554501e-01 0. 1.20903797e-01 4.04039212e-02 0. 0.
      6.62872975e-04 1.98356109e-03 0. 2.16210335e-01 0. 0. 0. 0. 0. 0.
      0. 0. 0. 0. 0. 0. 0. 1.02922088e-02 4.34769224e-03 1.30099338e-02
      0. 1.55967593e-01 0. 1.10057332e-01 3.67792286e-02 1.02922088e-02
      2.37988234e-01 8.75654295e-02 2.62028247e-01 0. 4.26554501e-01 0.
      4.26554501e-01 1.63266063e-01 2.37988234e-01 1.13430964e-02
      7.29159918e-03 2.18191631e-02 0. 2.10972920e-01 0. 0. 0.
      1.13430964e-02 0. 0. 0. 0. 0. 0. 0. 0. 0. 9.35655786e-04 0. 0. 0.
      0. 0. 0. 0. 9.35655786e-04 2.16353051e-02 0. 0. 0. 0. 0. 0. 0.
      2.16353051e-02 1.03119120e-03 0. 0. 0. 0. 0. 0. 0. 1.03119120e-03
      0. 0. 0. 0. 0. 0. 0. 0. 0. 0. 0. 0. 0. 0. 0. 0. 0. 0. 0. 0. 0. 0.
      0. 0. 0. 0. 0. 0. 0. 0. 0. 0. 0. 0. 0. 0. 0. 0. 0. 0. 0. 0. 0. 0.
      0.</_>
    <_>
      0. 0. 0. 0. 0. 0. 0. 0. 0. 0. 0. 0. 0. 0. 0. 0. 0. 0. 0. 0. 0. 0.
      0. 0. 0. 0. 0. 0. 0. 0. 0. 0. 0. 0. 0. 0. 0. 0. 0. 0. 0. 0. 0. 0.
      0. 0. 0. 0. 0. 0. 0. 0. 0. 0. 0. 0. 0. 0. 0. 0. 0. 0. 0. 0. 0. 0.
      0. 0. 0. 0. 0. 0. 0. 0. 0. 0. 0. 0. 0. 0. 0. 0. 0. 0. 0. 0. 0. 0.
      0. 0. 0. 8.53414007e-04 2.55374005e-03 0. 0. 0. 0. 0. 0.
      6.26236424e-02 8.13716054e-02 2.43494883e-01 0. 0. 0. 0. 0.
      6.26236424e-02 0. 0. 0. 0. 0. 0. 0. 0. 0. 0. 0. 0. 0. 0. 0. 0. 0.
      0. 6.69732541e-02 1.51010871e-01 4.51882064e-01 0. 0. 0. 0. 0.
      6.69732541e-02 2.10560411e-01 5.45958936e-01 5.45958936e-01 0. 0.
      0. 0. 0. 2.10560411e-01 0. 0. 0. 0. 0. 0. 0. 0. 0. 0. 0. 0. 0. 0.
      0. 0. 0. 0. 0. 0. 0. 0. 0. 0. 0. 0. 0. 0. 0. 0. 0. 0. 0. 0. 0. 0.
      0. 0. 0. 0. 0. 0. 0. 0. 0. 0. 0. 0. 0. 0. 0. 0. 0. 0.
      1.39807845e-02 0. 0. 0. 0. 0. 0. 0. 1.39807845e-02 4.36036102e-03
      0. 0. 0. 0. 0. 0. 0. 4.36036102e-03 0. 1.57673916e-04
      4.71820502e-04 0. 0. 0. 0. 0. 0. 2.64847074e-02 7.53332675e-02
      2.25425839e-01 0. 0. 0. 0. 0. 2.64847074e-02 2.53206462e-01
      2.35052034e-01 3.08858722e-01 0. 2.48676658e-01 0. 8.99574459e-02
      3.00622582e-02 2.53206462e-01 6.55391365e-02 4.10325220e-03
      1.22784954e-02 0. 2.42520794e-01 0. 5.10805696e-02 1.70702729e-02
      6.55391365e-02 3.26168165e-03 1.68763120e-02 5.05003557e-02 0. 0.
      0. 0. 0. 3.26168165e-03 8.05385932e-02 2.41291896e-01
      3.08858722e-01 0. 0. 0. 0. 0. 8.05385932e-02 9.97040570e-02
      1.93279266e-01 3.08858722e-01 0. 3.08858722e-01 0. 6.96601123e-02
      2.32791957e-02 9.97040570e-02 3.96639155e-03 3.73022543e-04
      1.11622573e-03 0. 3.08858722e-01 0. 1.02329664e-02 3.41968192e-03
      3.96639155e-03 0. 0. 0. 0. 0. 0. 0. 0. 0. 0. 0. 0. 0. 0. 0. 0. 0.
      0. 0. 0. 0. 0. 0. 0. 0. 0. 0. 0. 0. 0. 0. 0. 0. 0. 0. 0.
      1.93363875e-02 0. 0. 0. 0. 0. 0. 0. 1.93363875e-02 7.31164729e-03
      0. 0. 0. 0. 0. 0. 0. 7.31164729e-03 0. 0. 0. 0. 0. 0. 0. 0. 0. 0.
      0. 0. 0. 0. 0. 0. 0. 0. 3.16773713e-01 1.56370670e-01
      3.52192104e-01 0. 3.52192104e-01 0. 1.59591228e-01 5.33327088e-02
      3.16773713e-01 1.04916811e-01 4.21980722e-03 1.26272729e-02 0.
      3.52192104e-01 0. 1.00444779e-01 3.35669629e-02 1.04916811e-01 0.
      0. 0. 0. 0. 0. 0. 0. 0. 0. 0. 0. 0. 0. 0. 0. 0. 0. 5.68369105e-02
      8.68562162e-02 2.59906352e-01 0. 3.52192104e-01 0. 7.77368397e-02
      2.59782989e-02 5.68369105e-02 4.66217287e-03 3.83618404e-04
      1.14793261e-03 0. 3.52192104e-01 0. 1.48793822e-02 4.97243600e-03
      4.66217287e-03 0. 0. 0. 0. 0. 0. 0. 0. 0. 0. 0. 0. 0. 0. 0. 0. 0.
      0. 0. 0. 0. 0. 0. 0. 0. 0. 0. 0. 0. 0. 0. 0. 0. 0. 0. 0. 0.
      1.37351162e-04 4.11007029e-04 0. 0. 0. 0. 0. 0. 5.63611183e-03
      9.49761830e-03 2.84204986e-02 0. 0. 0. 0. 0. 5.63611183e-03 0. 0.
      0. 0. 0. 0. 0. 0. 0. 0. 1.54109148e-03 4.61153360e-03 0.
      3.29655618e-03 0. 0. 0. 0. 4.49413173e-02 1.23530611e-01
      2.98732728e-01 0. 1.87802482e-02 0. 0. 0. 4.49413173e-02
      5.90583868e-02 2.24934027e-01 2.98732728e-01 0. 8.66747275e-03 0.
      0. 0. 5.90583868e-02 0. 0. 0. 0. 0. 0. 0. 0. 0. 1.68952241e-03
      7.61014735e-03 2.27724630e-02 0. 1.31290004e-01 0. 5.84214320e-03
      1.95234164e-03 1.68952241e-03 2.26156279e-01 2.14917913e-01
      2.98732728e-01 0. 2.98732728e-01 0. 6.42636418e-02 2.14757808e-02
      2.26156279e-01 2.98732728e-01 1.25766590e-01 2.98732728e-01 0.
      9.53422934e-02 0. 0. 0. 2.98732728e-01 0. 0. 0. 0. 0. 0. 0. 0. 0.
      2.36533093e-03 0. 0. 0. 2.74196621e-02 0. 4.17296030e-03
      1.39453006e-03 2.36533093e-03 1.51484549e-01 0. 0. 0.
      1.11538135e-01 0. 4.59026136e-02 1.53398477e-02 1.51484549e-01
      1.35522172e-01 0. 0. 0. 0. 0. 0. 0. 1.35522172e-01 0.
      1.08359309e-04 3.24252382e-04 0. 0. 0. 0. 0. 0. 1.03344442e-02
      2.53899004e-02 7.59762451e-02 0. 0. 0. 0. 0. 1.03344442e-02
      3.95397134e-02 5.03285155e-02 1.50602013e-01 0. 6.91586211e-02 0.
      1.93405338e-02 6.46327436e-03 3.95397134e-02 7.14584673e-03
      5.32610575e-04 1.59377395e-03 0. 5.98986037e-02 0. 7.32707884e-03
      2.44858628e-03 7.14584673e-03 1.09796729e-02 3.67885344e-02
      1.10085264e-01 0. 3.72485607e-03 0. 0. 0. 1.09796729e-02
      6.97278008e-02 2.11148232e-01 2.66629100e-01 0. 3.05870385e-03 0.
      0. 0. 6.97278008e-02 5.38399965e-02 1.04169630e-01 2.66629100e-01
      0. 2.66629100e-01 0. 3.34844142e-02 1.11899059e-02 5.38399965e-02
      4.44087014e-03 6.30753813e-04 1.88745616e-03 0. 2.66629100e-01 0.
      5.44947572e-03 1.82112155e-03 4.44087014e-03 6.52087033e-02
      4.31355648e-02 1.29077911e-01 0. 8.05917904e-02 0. 6.86134957e-03
      2.29294272e-03 6.52087033e-02 2.66629100e-01 7.67863467e-02
      2.29773358e-01 0. 3.43313180e-02 0. 0. 0. 2.66629100e-01
      2.47191906e-01 5.61279096e-02 1.67956039e-01 0. 2.66629100e-01 0.
      1.94749348e-02 6.50819531e-03 2.47191906e-01 1.02013730e-01
      1.28917983e-02 3.85770686e-02 0. 1.70764267e-01 0. 3.40417102e-02
      1.13761714e-02 1.02013730e-01 3.51482593e-02 0. 0. 0.
      9.75147821e-03 0. 4.90096537e-03 1.63781643e-03 3.51482593e-02
      1.18010163e-01 0. 0. 0. 2.05662777e-03 0. 0. 0. 1.18010163e-01
      9.78941470e-02 5.95643837e-03 1.78238675e-02 0. 1.11899763e-01 0.
      3.86816114e-02 1.29267154e-02 9.78941470e-02 3.34002674e-02
      1.01302415e-02 3.03134285e-02 0. 4.38450426e-02 0. 8.51348881e-03
      2.84505938e-03 3.34002674e-02 3.95432189e-02 2.82472149e-02
      8.45263898e-02 0. 1.41907111e-01 0. 2.73385402e-02 9.13607515e-03
      3.95432189e-02 1.05868271e-02 5.23638446e-04 1.56692602e-03 0.
      1.38302326e-01 0. 1.31492345e-02 4.39425325e-03 1.05868271e-02 0.
      0. 0. 0. 0. 0. 0. 0. 0. 0. 0. 0. 0. 0. 0. 0. 0. 0. 2.11996511e-02
      4.29594703e-02 1.28550798e-01 0. 3.18898141e-01 0. 3.61278690e-02
      1.20733045e-02 2.11996511e-02 2.12696064e-02 6.20128470e-04
      1.85566104e-03 0. 3.18898141e-01 0. 9.32934415e-03 3.11770802e-03
      2.12696064e-02 2.24361080e-03 0. 0. 0. 0. 0. 0. 0. 2.24361080e-03
      0. 0. 0. 0. 0. 0. 0. 0. 0. 1.69816732e-01 4.91795130e-02
      1.47163808e-01 0. 3.18898141e-01 0. 4.66887541e-02 1.56025961e-02
      1.69816732e-01 3.18898141e-01 7.75314569e-02 2.32002795e-01 0.
      3.18898141e-01 0. 1.72270238e-01 5.75698316e-02 3.18898141e-01
      3.18473727e-02 1.75486840e-02 5.25121503e-02 0. 1.06342219e-01 0.
      3.72321233e-02 1.24423523e-02 3.18473727e-02 0. 0. 0. 0. 0. 0. 0.
      0. 0. 7.88351148e-02 1.30545879e-02 3.90641540e-02 0.
      1.50935948e-01 0. 4.44402918e-02 1.48511659e-02 7.88351148e-02
      1.36745721e-01 5.16264290e-02 1.54485375e-01 0. 1.16796941e-01 0.
      1.96763761e-02 6.57550804e-03 1.36745721e-01 2.88514653e-03
      9.01593175e-03 2.69790012e-02 0. 2.06515901e-02 0. 3.38473520e-03
      1.13112188e-03 2.88514653e-03 0. 0. 0. 0. 0. 0. 0. 0. 0. 0. 0. 0.
      0. 0. 0. 0. 0. 0. 4.87538055e-03 5.03330259e-03 1.50615610e-02 0.
      1.59724548e-01 0. 1.20795844e-02 4.03678510e-03 4.87538055e-03
      2.96575248e-01 1.05641261e-01 2.96575248e-01 0. 2.96575248e-01 0.
      1.32875592e-01 4.44046892e-02 2.96575248e-01 2.96575248e-01
      3.36514302e-02 1.00697584e-01 0. 7.25221783e-02 0. 0. 0.
      2.96575248e-01 0. 0. 0. 0. 0. 0. 0. 0. 0. 6.82553323e-03 0. 0. 0.
      4.61357646e-02 0. 8.62827618e-03 2.88341823e-03 6.82553323e-03
      2.96575248e-01 0. 0. 0. 1.78482056e-01 0. 9.49111432e-02
      3.17176357e-02 2.96575248e-01 2.96575248e-01 0. 0. 0. 0. 0. 0. 0.
      2.96575248e-01 0. 0. 0. 0. 0. 0. 0. 0. 0. 0. 0. 0. 0. 0. 0. 0. 0.
      0. 0. 0. 0. 0. 0. 0. 0. 0. 0. 0. 0. 0. 0. 0. 0. 0. 0. 0. 0. 0. 0.
      0. 0. 0. 0. 0. 0. 0. 0. 0. 0. 0. 0. 0. 0. 0. 0. 0. 0. 0. 0. 0. 0.
      0. 0. 0. 0. 0. 0. 0. 0. 0. 0. 0. 1.11665808e-01 1.90413985e-02
      5.69790639e-02 0. 8.96561965e-02 0. 1.52172549e-02 5.08533977e-03
      1.11665808e-01 2.66470879e-01 1.92307867e-02 5.75456470e-02 0.
      3.04126404e-02 0. 0. 0. 2.66470879e-01 2.66470879e-01
      4.42531258e-02 1.32422134e-01 0. 2.66470879e-01 0. 3.42202112e-02
      1.14358049e-02 2.66470879e-01 1.40223429e-01 2.53804717e-02
      7.59477839e-02 0. 1.31662041e-01 0. 3.48901898e-02 1.16597135e-02
      1.40223429e-01 9.39387903e-02 0. 0. 0. 1.64348911e-02 0.
      1.08694695e-02 3.63238575e-03 9.39387903e-02 2.66470879e-01 0. 0.
      0. 8.88407137e-03 0. 0. 0. 2.66470879e-01 2.66470879e-01
      2.95261741e-02 8.83532315e-02 0. 2.66470879e-01 0. 2.33198449e-01
      7.79308230e-02 2.66470879e-01 1.12807401e-01 3.48576605e-02
      1.04307011e-01 0. 1.82315111e-01 0. 4.64274213e-02 1.55152297e-02
      1.12807401e-01 0. 0. 0. 0. 0. 0. 0. 0. 0. 0. 0. 0. 0. 0. 0. 0. 0.
      0. 7.91894365e-03 0. 0. 0. 0. 0. 0. 0. 7.91894365e-03
      3.86751071e-03 0. 0. 0. 0. 0. 0. 0. 3.86751071e-03 0. 0. 0. 0. 0.
      0. 0. 0. 0. 0. 0. 0. 0. 0. 0. 0. 0. 0. 0. 0. 0. 0. 0. 0. 0. 0. 0.
      0. 0. 0. 0. 0. 0. 0. 0. 0. 1.92864224e-01 3.61583903e-02
      1.08199559e-01 0. 2.62337774e-01 0. 4.32928838e-02 1.44677432e-02
      1.92864224e-01 2.62337774e-01 1.15021974e-01 2.62337774e-01 0.
      2.62337774e-01 0. 1.32558167e-01 4.42987196e-02 2.62337774e-01
      2.31536943e-02 2.42346693e-02 7.25190938e-02 0. 1.03560850e-01 0.
      3.10282167e-02 1.03691118e-02 2.31536943e-02 0. 0. 0. 0. 0. 0. 0.
      0. 0. 2.12128446e-01 4.51152921e-02 1.35001644e-01 0.
      2.62337774e-01 0. 1.96083069e-01 6.55275211e-02 2.12128446e-01
      2.62337774e-01 9.91993994e-02 2.62337774e-01 0. 2.62337774e-01 0.
      5.04767336e-02 1.68684442e-02 2.62337774e-01 5.82487648e-03
      1.32178375e-02 3.95526551e-02 0. 2.21898686e-02 0. 2.82074627e-03
      9.42646293e-04 5.82487648e-03 0. 0. 0. 0. 0. 0. 0. 0. 0.
      9.23284609e-03 0. 0. 0. 0. 0. 0. 0. 9.23284609e-03 4.79846401e-03
      0. 0. 0. 0. 0. 0. 0. 4.79846401e-03 0. 0. 0. 0. 0. 0. 0. 0. 0. 0.
      0. 0. 0. 0. 0. 0. 0. 0. 0. 0. 0. 0. 0. 0. 0. 0. 0. 0. 0. 0. 0. 0.
      0. 0. 0. 0. 0. 0. 0. 0. 0. 0. 0. 0. 0. 0. 0. 0. 0. 0. 0. 0. 0. 0.</_>
    <_>
      0. 0. 0. 0. 0. 0. 0. 0. 0. 0. 0. 0. 0. 0. 0. 0. 0. 0. 0. 0. 0. 0.
      0. 0. 0. 0. 0. 0. 0. 0. 0. 0. 0. 0. 0. 0. 0. 0. 0. 0. 0. 0. 0. 0.
      0. 0. 0. 0. 0. 0. 0. 0. 0. 0. 4.15647496e-03 0. 0. 0. 0. 0. 0. 0.
      4.15647496e-03 8.03846121e-03 0. 0. 0. 0. 0. 0. 0. 8.03846121e-03
      0. 0. 0. 0. 0. 0. 0. 0. 0. 0. 2.94467993e-03 8.81160609e-03 0.
      1.17760394e-02 0. 0. 0. 0. 1.72262549e-01 1.97572380e-01
      3.07608038e-01 0. 2.70289093e-01 0. 5.16014397e-02 1.72443297e-02
      1.72262549e-01 2.42475480e-01 8.87798443e-02 2.65662879e-01 0.
      5.06753288e-02 0. 3.07608038e-01 1.31889388e-01 2.42475480e-01 0.
      0. 0. 0. 0. 0. 0. 0. 0. 0. 5.69489738e-03 1.70413032e-02 0.
      1.13790348e-01 0. 0. 0. 0. 3.40884663e-02 2.09418893e-01
      3.07608038e-01 0. 3.07608038e-01 0. 2.40904372e-02 8.05060472e-03
      3.40884663e-02 5.37935942e-02 6.02322444e-02 1.80237293e-01 0.
      2.12047830e-01 0. 2.69389063e-01 9.00251642e-02 5.37935942e-02 0.
      0. 0. 0. 0. 0. 0. 0. 0. 0. 0. 0. 0. 0. 0. 0. 0. 0. 0. 0. 0. 0. 0.
      0. 0. 0. 0. 0. 0. 0. 0. 0. 0. 0. 0. 0. 3.57480184e-03 0. 0. 0. 0.
      0. 0. 0. 3.57480184e-03 7.35798525e-03 0. 0. 0. 0. 0. 0. 0.
      7.35798525e-03 0. 0. 0. 0. 0. 0. 0. 0. 0. 0. 0. 0. 0. 0. 0. 0. 0.
      0. 1.07324749e-01 8.22736397e-02 2.46193901e-01 0. 8.13793167e-02
      0. 5.97462021e-02 1.99661702e-02 1.07324749e-01 2.57245064e-01
      5.30904531e-02 1.58866748e-01 0. 6.11976907e-02 0. 2.85229921e-01
      2.40843117e-01 2.57245064e-01 8.45601689e-03 1.05664204e-03
      3.16187623e-03 0. 7.42619559e-02 0. 1.48344666e-01 4.95743081e-02
      8.45601689e-03 4.27777506e-02 1.16230743e-02 3.47806700e-02 0.
      1.36372462e-01 0. 4.33481522e-02 1.44862281e-02 4.27777506e-02
      2.34023370e-02 7.30755329e-02 2.18669385e-01 0. 2.23224059e-01 0.
      2.89616175e-02 9.67846811e-03 2.34023370e-02 5.45429178e-02
      3.20918895e-02 9.60308686e-02 0. 2.85229921e-01 0. 2.85229921e-01
      1.96932465e-01 5.45429178e-02 1.29549974e-03 7.54744513e-04
      2.25848355e-03 0. 2.85229921e-01 0. 2.01835930e-01 6.74501806e-02
      1.29549974e-03 1.42592499e-02 8.30219872e-03 2.48433445e-02 0.
      2.85229921e-01 0. 6.61134794e-02 2.20940057e-02 1.42592499e-02 0.
      0. 0. 0. 0. 0. 0. 0. 0. 0. 0. 0. 0. 0. 0. 0. 0. 0. 0. 0. 0. 0. 0.
      0. 0. 0. 0. 0. 0. 0. 0. 0. 0. 0. 0. 0. 0. 0. 0. 0. 0. 0. 0. 0. 0.
      0. 0. 0. 0. 0. 0. 0. 0. 0. 0. 0. 0. 0. 0. 0. 0. 0. 0. 0. 0. 0. 0.
      0. 0. 0. 0. 0. 8.67345091e-03 4.21767915e-03 1.26209036e-02 0.
      8.58029723e-02 0. 5.82628278e-03 1.94704649e-03 8.67345091e-03
      2.00557485e-01 4.63944487e-02 1.38829887e-01 0. 4.16675419e-01 0.
      2.76481211e-01 9.23954025e-02 2.00557485e-01 9.55905486e-03 0. 0.
      0. 8.23607296e-02 0. 5.50682843e-02 1.84029024e-02 9.55905486e-03
      0. 0. 0. 0. 0. 0. 0. 0. 0. 2.89115030e-03 3.01262899e-03
      9.01493430e-03 0. 2.79332578e-01 0. 3.31326760e-02 1.10723833e-02
      2.89115030e-03 6.68524876e-02 3.31389010e-02 9.91642252e-02 0.
      4.16675419e-01 0. 4.11072493e-01 1.37373522e-01 6.68524876e-02
      3.18635162e-03 0. 0. 0. 3.84286463e-01 0. 8.95348042e-02
      2.99210344e-02 3.18635162e-03 0. 0. 0. 0. 0. 0. 0. 0. 0. 0. 0. 0.
      0. 0. 0. 0. 0. 0. 0. 1.37158332e-03 4.10430087e-03 0.
      7.46632274e-03 0. 0. 0. 0. 2.94631533e-02 5.99597394e-02
      1.79422289e-01 0. 9.13204625e-02 0. 1.14668626e-02 3.83202941e-03
      2.94631533e-02 4.22948711e-02 2.12392733e-02 6.35558963e-02 0.
      1.92741677e-02 0. 9.93807763e-02 3.32113579e-02 4.22948711e-02 0.
      0. 0. 0. 0. 0. 0. 0. 0. 0. 2.82311882e-03 8.44784826e-03 0.
      1.47820741e-01 0. 0. 0. 0. 8.13102350e-03 1.08732566e-01
      3.25368613e-01 0. 3.89020413e-01 0. 1.53701473e-02 5.13643865e-03
      8.13102350e-03 1.35684377e-02 3.13608646e-02 9.38433483e-02 0.
      2.90516019e-01 0. 1.24949917e-01 4.17560861e-02 1.35684377e-02 0.
      0. 0. 0. 0. 0. 0. 0. 0. 0. 0. 0. 0. 1.57682717e-01 0.
      9.68060456e-03 3.23508843e-03 0. 6.29320834e-03 5.31001342e-03
      1.58895645e-02 0. 3.89020413e-01 0. 3.42424512e-01 1.14432432e-01
      6.29320834e-03 1.39419744e-02 3.94027904e-02 1.17908180e-01 0.
      3.05354267e-01 0. 1.03036672e-01 3.44331264e-02 1.39419744e-02 0.
      0. 0. 0. 0. 0. 0. 0. 0. 0. 0. 0. 0. 1.15738837e-02 0.
      4.72788326e-03 1.57997559e-03 0. 3.06463931e-02 2.19693244e-03
      6.57405937e-03 0. 1.10018864e-01 0. 2.36995742e-01 7.91998431e-02
      3.06463931e-02 8.55791196e-02 1.53849348e-02 4.60375920e-02 0.
      1.72595475e-02 0. 7.04373270e-02 2.35389452e-02 8.55791196e-02
      1.59529857e-02 1.92783959e-02 5.76882474e-02 0. 2.28110906e-02 0.
      1.15053477e-02 3.84489028e-03 1.59529857e-02 3.81998643e-02
      1.05918767e-02 3.16948779e-02 0. 2.54473165e-02 0. 1.67105541e-01
      5.58438376e-02 3.81998643e-02 1.20843179e-03 2.66972347e-04
      7.98883091e-04 0. 2.99665835e-02 0. 4.34646867e-02 1.45251704e-02
      1.20843179e-03 7.74446549e-03 2.93669919e-03 8.78772419e-03 0.
      4.89267036e-02 0. 1.32792881e-02 4.43771668e-03 7.74446549e-03
      5.07015549e-03 3.27897817e-02 9.81192738e-02 0. 2.46466741e-01 0.
      1.20294858e-02 4.02004458e-03 5.07015549e-03 1.14793731e-02
      1.34910848e-02 4.03703265e-02 0. 2.76643753e-01 0. 2.41455749e-01
      8.06903616e-02 1.14793731e-02 2.05223900e-04 5.67311479e-04
      1.69761234e-03 0. 2.76643753e-01 0. 9.22468603e-02 3.08273528e-02
      2.05223900e-04 2.58148857e-03 6.24043308e-03 1.86737552e-02 0.
      2.76643753e-01 0. 3.91141623e-02 1.30712818e-02 2.58148857e-03
      4.67412034e-03 4.30255150e-03 1.28748687e-02 0. 2.63092101e-01 0.
      1.04543597e-01 3.49366926e-02 4.67412034e-03 2.59787329e-02
      7.11544231e-02 2.12920994e-01 0. 2.76643753e-01 0. 5.82291894e-02
      1.94592215e-02 2.59787329e-02 9.85215530e-02 3.55588533e-02
      1.06405385e-01 0. 2.76643753e-01 0. 1.96235497e-02 6.55786274e-03
      9.85215530e-02 2.57934891e-02 3.66680436e-02 1.09724581e-01 0.
      2.76643753e-01 0. 7.03612389e-03 2.35134899e-03 2.57934891e-02
      2.13919468e-02 2.24315003e-03 6.71235984e-03 0. 2.28651166e-02 0.
      7.25653395e-02 2.42500771e-02 2.13919468e-02 1.39189094e-01
      2.25470308e-02 6.74692765e-02 0. 2.97116321e-02 0. 4.07285094e-02
      1.36107737e-02 1.39189094e-01 2.07645983e-01 1.91203542e-02
      5.72152548e-02 0. 2.18770001e-02 0. 1.35599356e-02 4.53150412e-03
      2.07645983e-01 3.77608910e-02 3.10256016e-02 9.28401500e-02 0.
      1.88968088e-02 0. 0. 0. 3.77608910e-02 1.30301120e-03
      8.84289911e-04 2.64613261e-03 0. 2.56112833e-02 0. 2.57975096e-03
      8.62109649e-04 1.30301120e-03 3.01297214e-02 9.72718466e-03
      2.91074477e-02 0. 1.75423756e-01 0. 7.29796514e-02 2.43885815e-02
      3.01297214e-02 1.43605564e-03 0. 0. 0. 2.58682463e-02 0.
      1.65497195e-02 5.53064002e-03 1.43605564e-03 0. 0. 0. 0. 0. 0. 0.
      0. 0. 4.34337067e-04 1.87910022e-03 5.62298531e-03 0.
      2.14687362e-01 0. 1.97534785e-02 6.60127727e-03 4.34337067e-04
      1.00432392e-02 2.06700936e-02 6.18527979e-02 0. 3.96794379e-01 0.
      1.77015409e-01 5.91555387e-02 1.00432392e-02 4.78685193e-04 0. 0.
      0. 3.35288405e-01 0. 3.01446095e-02 1.00738257e-02 4.78685193e-04
      0. 0. 0. 0. 0. 0. 0. 0. 0. 6.59337938e-02 2.46174019e-02
      7.36645684e-02 0. 1.98569283e-01 0. 6.48782449e-03 2.16812082e-03
      6.59337938e-02 4.04044203e-02 1.29308879e-01 3.86940509e-01 0.
      3.96794379e-01 0. 2.33056489e-02 7.78833916e-03 4.04044203e-02 0.
      1.71499010e-02 5.13188466e-02 0. 3.02588463e-01 0. 0. 0. 0. 0. 0.
      0. 0. 0. 0. 0. 0. 0. 1.15725905e-01 2.42703259e-02 7.26258829e-02
      0. 5.26042562e-03 0. 3.12080630e-03 1.04292145e-03 1.15725905e-01
      5.51056825e-02 8.72014388e-02 2.60939062e-01 0. 8.27148706e-02 0.
      0. 0. 5.51056825e-02 0. 5.04338788e-03 1.50916819e-02 0.
      1.45120472e-02 0. 0. 0. 0. 0. 0. 0. 0. 0. 0. 0. 0. 0. 0. 0. 0. 0.
      0. 0. 0. 0. 0. 0. 0. 0. 0. 1.12519532e-01 0. 1.67781655e-02
      5.60696842e-03 0. 2.05311365e-02 6.84183463e-03 2.04733796e-02 0.
      3.35522860e-01 0. 3.35522860e-01 1.98408604e-01 2.05311365e-02
      4.97368239e-02 6.12655021e-02 1.83329746e-01 0. 1.94812357e-01 0.
      1.71884641e-01 5.74409552e-02 4.97368239e-02 0. 0. 0. 0. 0. 0. 0.
      0. 0. 0. 0. 0. 0. 2.06330772e-02 0. 8.71989317e-03 2.91403523e-03
      0. 1.83896258e-01 4.41290438e-03 1.32050933e-02 0. 2.22793132e-01
      0. 3.35522860e-01 2.64808983e-01 1.83896258e-01 3.35522860e-01
      2.79224999e-02 8.35547671e-02 0. 2.76753567e-02 0. 2.49115333e-01
      8.32500309e-02 3.35522860e-01 0. 0. 0. 0. 0. 0. 0. 0. 0. 0. 0. 0.
      0. 0. 0. 0. 0. 0. 1.00994883e-02 0. 0. 0. 0. 0. 0. 0.
      1.00994883e-02 2.44376287e-02 0. 0. 0. 0. 0. 0. 0. 2.44376287e-02
      0. 0. 0. 0. 0. 0. 0. 0. 0. 0. 0. 0. 0. 0. 0. 0. 0. 0. 0. 0. 0. 0.
      0. 0. 0. 0. 0. 0. 0. 0. 0. 0. 0. 0. 0. 0. 1.15025071e-02
      5.32049639e-03 1.59209557e-02 0. 1.37510940e-01 0. 1.33568659e-01
      4.46363688e-02 1.15025071e-02 6.53159171e-02 7.72386789e-02
      2.31127441e-01 0. 2.83386201e-01 0. 7.91583285e-02 2.64533795e-02
      6.53159171e-02 1.91803560e-01 4.12919000e-02 1.23560838e-01 0.
      2.26859927e-01 0. 2.96669696e-02 9.91420541e-03 1.91803560e-01
      4.48181704e-02 5.10337017e-02 1.52711928e-01 0. 1.56196222e-01 0.
      0. 0. 4.48181704e-02 9.39195901e-02 3.34934448e-03 1.00225173e-02
      0. 3.37328315e-02 0. 1.88647211e-01 6.30426109e-02 9.39195901e-02
      3.19228530e-01 2.88420357e-02 8.63063335e-02 0. 3.70923802e-02 0.
      9.30158570e-02 3.10843047e-02 3.19228530e-01 3.19228530e-01
      4.74152192e-02 1.41883999e-01 0. 2.65120640e-02 0. 2.11906917e-02
      7.08157569e-03 3.19228530e-01 1.21998310e-01 7.93099776e-02
      2.37324879e-01 0. 2.14722175e-02 0. 0. 0. 1.21998310e-01
      4.72759642e-03 0. 0. 0. 0. 0. 0. 0. 4.72759642e-03 2.78620198e-02
      0. 0. 0. 0. 0. 0. 0. 2.78620198e-02 2.82696877e-02 0. 0. 0. 0. 0.
      0. 0. 2.82696877e-02 3.39372363e-03 0. 0. 0. 0. 0. 0. 0.
      3.39372363e-03 0. 0. 0. 0. 0. 0. 0. 0. 0. 0. 0. 0. 0. 0. 0. 0. 0.
      0. 0. 0. 0. 0. 0. 0. 0. 0. 0. 0. 0. 0. 0. 0. 0. 0. 0. 0.
      1.57788679e-01 4.61981818e-02 1.38242364e-01 0. 1.19745910e-01 0.
      8.80990643e-03 2.94412370e-03 1.57788679e-01 8.85114968e-02
      2.15646327e-01 3.31375927e-01 0. 3.31375927e-01 0. 0. 0.
      8.85114968e-02 0. 2.31821835e-02 6.93696588e-02 0. 1.79771349e-01
      0. 0. 0. 0. 0. 0. 0. 0. 0. 0. 0. 0. 0. 3.31375927e-01
      8.82493779e-02 2.64074951e-01 0. 6.13883045e-03 0. 6.29279064e-03
      2.10294570e-03 3.31375927e-01 2.21648380e-01 2.60955453e-01
      3.31375927e-01 0. 1.27614245e-01 0. 0. 0. 2.21648380e-01 0.
      9.12104547e-03 2.72935387e-02 0. 2.44407319e-02 0. 0. 0. 0. 0. 0.
      0. 0. 0. 0. 0. 0. 0. 1.76744927e-02 0. 0. 0. 0. 0. 0. 0.
      1.76744927e-02 4.46681120e-03 0. 0. 0. 0. 0. 0. 0. 4.46681120e-03
      0. 0. 0. 0. 0. 0. 0. 0. 0. 0. 0. 0. 0. 0. 0. 0. 0. 0. 0. 0. 0. 0.
      0. 0. 0. 0. 0. 0. 0. 0. 0. 0. 0. 0. 0. 0. 0. 0. 0. 0. 0. 0. 0. 0.
      0. 0. 0. 0. 0. 0. 0. 0. 0. 0.</_></support_vectors>
  <decision_functions>
    <_>
      <sv_count>2</sv_count>
      <rho>0.</rho>
      <alpha>
        2.1985194092156313e+00 -2.1985194092156313e+00</alpha>
      <index>
        0 1</index></_>
    <_>
      <sv_count>2</sv_count>
      <rho>0.</rho>
      <alpha>
        3.1134728108635548e+00 -3.1134728108635548e+00</alpha>
      <index>
        0 2</index></_>
    <_>
      <sv_count>2</sv_count>
      <rho>0.</rho>
      <alpha>
        2.0760327780529644e+00 -2.0760327780529644e+00</alpha>
      <index>
        1 2</index></_></decision_functions></my_svm>
</opencv_storage>
